3
6.81295 0.11 0.35 0.96 0.77021 -0.514732 0.87883 0.868592 0.057995 -0.0260794 -0.814899 0.120955 -0.618801 0.451707 0.522806 0.844896 0.62888 -0.528921 0.443457 0.389656 -0.667135 -0.94699 -0.049891 0.820112 -0.13 0.2 -0.73 -0.64 -0.98 0.13 0.489929 0.534542 0.926287 0.855053 0.537855 -0.140472 -0.811697 0.000597232 0.0528963 0.316 -0.227017 0.30609 0.443772 -0.150651 -0.231565 0.213044 -0.505757 -0.649513 -0.493858 0.322661 -0.49016 0.622046 0.562496 -0.354407 -0.0750348 0.300044 -0.390452 -0.58 0.473867 -0.286977 1.109 0.533323 1.44991 1.50778 3.53549 4.33427 4.16002 4.42914 3.70743 2.4496 2.14196 0.0127849 -0.404987 -0.170928 -0.498365 -1.34008 1.36984 2.07803 1.18967 -0.552465 0.787373 0.719952 -0.416534 0.549521 0.338625 -0.1 0.185043 0.856725 -0.687525 -0.622425 -0.0543839 2.17758 4.01755 5.99165 7.70193 6.75101 6.2821 5.1882 2.4909 0.466196 -2.22784 -2.60522 -3.73271 -2.73444 -0.949097 -1.37303 -0.562742 -0.1967 -1.58364 -1.25957 -0.0517645 -0.620055 -0.165752 -0.07 0.534633 0.0669842 -1.20465 -1.33628 -0.938053 1.44388 3.29152 7.41422 7.60401 6.43334 6.9612 5.53983 0.993731 -0.0677617 -2.9861 -3.6995 -3.96837 -3.13281 -4.65638 -4.19135 -0.696578 0.253601 1.54404 0.741133 1.24561 -0.751587 -0.0815829 0.54 -0.481094 -1.60517 -3.15178 -3.02603 -1.58214 -1.08937 0.826936 4.22178 7.1055 6.01931 4.92789 2.39317 -1.70025 -3.06292 -3.99307 -3.41336 -4.35858 -5.46857 -7.87407 -6.55175 -2.08815 4.25211 5.59336 3.97827 3.26695 0.0246389 0.467627 0.11 -0.577955 -0.854421 -3.60425 -3.93299 -3.0909 -1.79311 1.22719 4.58306 7.84978 8.08542 4.24729 1.37658 -2.60702 -2.39547 -3.4471 -2.54442 -5.59729 -5.44788 -4.09875 -2.49964 -0.35279 3.39267 4.73412 3.96599 2.50408 0.133766 0.46 -0.69 -0.463326 -1.12574 -2.71361 -0.357375 -1.06788 0.135755 3.75971 6.84204 7.45384 4.93494 -0.176702 -1.26425 -0.714333 -0.916127 -1.84371 -3.13047 -4.98393 -3.9397 -1.23652 -0.0225757 0.38519 5.72132 5.01882 7.02763 5.32458 0.1216 -0.07 0.99 -0.303152 -0.285506 -0.538038 -1.11958 -0.00680327 3.31588 2.86271 4.87653 5.54295 1.38588 -2.29238 -2.48344 -0.806739 -2.88048 -4.59453 -2.96113 -3.99576 -3.8902 -3.13508 -4.1875 -0.92215 3.1615 5.0814 7.99527 5.11709 0.294347 -0.707815 -0.2 0.542379 -1.83741 -0.401769 0.0396812 2.05389 3.65777 9.40576 9.39658 2.20389 -1.29363 -2.40961 -4.06726 -3.18412 -3.21408 -3.99111 -6.07074 -4.55181 -6.01492 -7.3183 -8.13442 -2.81757 4.73377 8.50887 7.46984 4.80199 1.06685 -0.328463 -0.35 -0.720417 -2.03586 -1.01334 1.11293 2.34642 6.14646 9.80298 4.81719 -2.48908 -2.36647 -4.19992 -5.51598 -3.91747 -2.37364 -1.70518 -0.101473 -1.52443 -5.76423 -7.36648 -4.86554 -2.63288 4.02525 7.52664 7.82007 3.53144 0.275629 0.77 -0.19 0.911836 -1.9149 -1.51513 1.39525 4.15231 8.73983 9.45947 3.64067 -0.190993 -1.11558 -3.33464 -4.76283 -5.01245 -3.03587 -2.27026 -0.369355 -1.1673 -2.17489 -1.67701 -3.69435 -0.201212 4.12474 9.82833 8.15662 0.986733 -0.665305 -0.79 -0.82 -0.589448 -1.81505 -2.51434 0.853457 5.03042 7.47886 7.34217 4.22742 1.85844 1.26434 -2.97899 -3.10842 -4.59301 -3.94875 -1.02497 -0.897164 -2.17038 -1.51414 -2.04486 -4.40543 0.306569 3.00156 6.10543 8.27593 2.6103 -0.682304 -0.42 -0.42 -0.316275 -2.71307 -2.95877 1.40857 5.0285 7.08902 6.65424 0.637159 -0.605702 1.07701 0.382944 -2.12531 -0.0897181 -0.854874 0.656181 -2.85423 -6.44763 -4.31494 -3.38448 -2.48687 2.38201 5.06412 4.84462 8.85412 4.3183 -0.331929 0.43 0.53 -1.07767 -2.2491 -3.62491 -1.13658 0.409348 6.15844 5.7152 4.14333 0.703948 1.51139 0.850801 1.26861 3.43433 4.23017 3.51998 0.407434 -3.75069 -4.33156 -4.35274 -1.23583 0.280306 3.79505 5.43787 8.53979 4.20069 1.00188 -1 -0.954388 -0.921418 -2.92168 -1.74303 -1.9673 0.970852 3.74823 5.48596 4.71597 4.04157 4.22776 0.947344 5.6346 4.61146 4.78446 1.89619 1.54834 -1.12554 -4.80302 -1.44106 0.909984 2.48324 4.27337 4.5605 6.57839 2.56631 0.0561921 -0.16 0.0971072 -1.03192 -1.70493 -2.13036 -1.30933 0.0969264 4.6507 5.36407 3.70381 3.96008 6.20178 3.3864 2.98301 2.15232 4.06598 2.69801 1.74635 -2.57903 -7.2639 -3.88712 1.38675 3.22747 0.664066 2.72454 5.81756 0.700439 -0.494621 0.929817 0.603082 0.266223 -3.31698 -3.33791 -1.58294 -0.713599 0.0459328 -0.4083 -1.29797 -0.343302 0.561086 -0.160764 1.50512 1.60977 3.14102 1.65832 0.126975 -3.29003 -5.80409 -1.93939 -0.217817 -0.824758 -1.6196 0.150773 0.223274 -0.801291 -0.713021 0.75 0.817355 0.0789459 -4.526 -3.08837 -4.45988 -5.33751 -1.91069 -6.41034 -3.60089 -1.98255 -3.17078 -2.83561 0.207888 -2.03951 -3.18028 -3.4802 -3.955 -3.97695 -3.634 0.842603 0.0972986 -1.59495 -1.24696 -0.703381 -1.49637 -0.442104 -0.377137 0.45 -0.83 -1.03006 -3.07583 -3.66583 -5.64457 -5.54023 -2.16535 -3.97879 -1.21941 -2.59114 -4.3377 -1.85359 -2.34127 -3.43059 -6.21762 -3.94967 -2.6325 -0.684805 -0.288053 3.57285 1.56074 1.97326 -1.07503 -1.27716 -2.08322 -1.66313 0.989196 0.9 -0.1 0.35121 -0.571548 -0.358199 -1.05851 -2.47981 0.737169 -4.47187 -1.16472 -0.53826 -0.568484 1.00059 0.876661 -0.214305 -2.69002 -2.98089 1.27702 2.8308 1.71745 5.77163 5.20376 3.60779 -1.73271 -2.26667 -4.24253 -2.15849 0.615918 -0.24 0.0495381 0.380879 0.762535 -0.985387 0.70665 -0.623702 -3.25526 -5.77758 -2.14207 1.56964 -1.3911 0.602278 1.31864 -0.0562503 -0.876894 2.31057 7.6504 7.01248 9.5372 10.543 7.13549 3.40372 0.394232 -2.08653 -4.91447 -2.72609 0.123326 0.75 -0.652373 -0.245857 1.17235 -2.04282 -0.636309 -1.71954 -2.83105 -2.26177 0.141965 2.04657 0.828457 1.35474 3.5751 2.67877 3.70675 6.53231 10.4006 12.2581 13.0157 13.141 8.8445 2.85485 -0.523019 -1.39742 -2.10744 -1.51662 0.804173 -0.2 -0.665187 0.064741 -0.827556 -0.431296 -0.859164 0.35796 0.518807 2.22284 1.46917 1.41598 1.81043 3.66452 4.323 1.89881 4.51345 6.4862 9.48484 12.9654 14.2404 13.1144 8.26074 2.09038 -0.423234 -0.853278 -1.20192 -0.485843 -0.650659 0.42 0.77184 -0.862041 -0.443381 -1.66072 -0.460198 1.8213 1.18114 3.0737 2.34244 3.32293 2.22082 3.12999 2.62803 3.12677 5.15516 5.95777 10.044 13.0187 13.3895 11.0671 5.3588 1.07856 0.450005 -0.120519 0.060194 -1.07295 -0.910335 0.5 -0.777449 0.27854 0.54482 -0.931169 1.28998 1.67434 -0.867623 -1.27581 0.506127 0.941961 1.49553 1.05445 1.41039 1.00623 3.4264 3.64992 2.84659 4.86525 4.0634 4.04284 1.01077 1.69144 0.849491 -0.917922 -0.487284 0.495149 -0.939901 -0.78 0.169548 -0.496939 0.110989 0.546924 -0.830918 0.304486 -0.802677 0.22743 -0.163975 -0.292169 -0.376009 0.856185 -0.442079 0.317896 1.10982 0.909146 1.11833 0.328032 0.779687 0.105339 0.616308 -0.0482221 0.26335 0.435099 -0.490569 -0.1073 0.741271 0.11 -0.76 0.35 -0.47 -0.349921 0.0101125 -0.0501806 -0.169978 0.718879 -0.571004 -0.773322 0.222599 0.65 -0.0799548 0.601243 -0.368797 0.880557 0.780136 -0.379866 0.85 0.19 -0.51 -0.547529 -0.26 0.12 -0.15 0.26 0.35 -0.98 
-3.41172 -0.58 0.52 -0.38 0.589994 0.77402 0.951316 -0.743195 0.929866 -0.188944 0.325162 0.837394 -0.547216 -0.370162 0.541334 0.247512 -0.818722 -0.5098 -0.370842 0.277425 -0.910108 0.644757 0.289154 0.129592 0.38 0.48 -0.77 -0.57 -0.17 -0.6 0.179881 -0.668894 0.465656 -0.47503 0.59611 0.144163 1.19895 -0.187679 -1.33411 0.0541725 -0.212826 1.14934 0.195696 0.363137 0.8038 -0.585515 0.263035 0.998339 -0.475193 0.672275 0.0632739 1.08929 0.609606 0.475322 -0.894713 -0.664613 -0.63 -0.35 0.201442 0.12111 -0.755673 0.0116972 -0.28724 0.615041 -0.485135 0.277285 -0.27803 2.9975 1.37951 0.796717 0.141885 2.08443 2.63009 3.40704 5.69524 4.45112 3.04776 3.77431 2.26344 1.12966 -0.379411 -1.09286 -0.342473 0.0226224 0.42 -0.87 0.885345 0.928042 0.922898 -1.95643 -0.528746 -0.0848873 -1.3244 -0.779588 0.655651 2.36092 1.81472 1.33772 3.74084 4.61191 6.0354 8.16339 8.63582 8.98513 7.32831 3.38177 0.377481 -0.389608 -1.12969 -0.395814 1.45421 1.00733 0.690584 0.55 0.657582 -0.413838 -1.30453 -1.99064 -2.73183 -1.60257 -2.19024 -3.14097 -3.59011 -2.20435 -1.22022 1.31668 4.80492 6.53145 5.72691 6.99333 5.86637 3.29761 2.11766 -0.0370494 -2.96164 -2.25471 -2.03252 -0.186197 -0.618179 -0.382104 -0.359635 -0.18 0.032614 -0.257359 0.469413 -0.833792 -0.384433 -2.9569 -4.61629 -7.37684 -6.98634 -3.97124 -0.823163 -0.0823657 3.30268 4.94726 3.30643 3.37024 2.3243 -0.0677554 -3.6756 -2.39136 -1.4301 -1.70639 -1.5998 1.02021 1.87544 0.294753 0.740025 0.31 -0.0394905 0.143492 0.543901 -0.592844 -0.477525 -3.29764 -2.5827 -4.07298 -4.21877 -3.55634 -2.60037 -1.26015 2.26526 3.91964 2.47193 1.26053 0.642691 -1.67859 -4.47271 -2.54729 -2.1353 -4.03055 -1.12901 3.08785 4.45937 1.1974 -0.58 0.3 0.144713 1.81574 2.03197 0.0486029 0.216952 -0.595951 -1.73265 -2.67537 -1.36279 -3.25257 -4.40047 -2.56254 0.607908 2.5383 4.47569 5.00663 4.03137 -1.75849 -3.05596 -5.53557 -2.6008 -3.93268 -0.718945 4.63683 2.7138 0.0886017 0.65 0.05 -0.107426 2.52282 1.56204 -0.867391 -3.89648 -2.26792 0.494651 1.38465 0.7756 -3.30245 -4.47504 -4.65684 -1.67484 1.23515 1.76698 2.23365 1.32581 0.493264 -0.354711 -4.35564 -2.50848 0.192034 2.30021 4.62659 2.82362 0.224013 -0.680823 0.09 -1.03832 -0.021204 -0.277725 -2.48862 -1.87993 1.60446 0.565804 2.95606 -0.376239 -4.04558 -3.3547 -5.4333 -1.72229 -1.2857 -2.29909 -1.37459 0.697785 -0.849767 -2.24091 -3.09574 -2.41071 1.72504 1.78144 3.89369 3.06023 -0.0566282 0.325805 -0.78 -0.0666659 0.409272 -1.35898 -1.27761 1.4636 3.69855 4.55255 1.20744 -3.4815 -6.16482 -4.51071 -4.4762 -3.42619 -4.13055 -2.96471 -1.4802 0.962465 -0.25734 -0.746641 0.617427 0.597046 0.889377 -0.711394 3.35173 4.20943 0.989758 -1 -0.69 -0.828103 0.625388 -2.00061 -0.541686 1.70842 2.80923 1.36986 -0.389593 -3.26536 -4.35092 -5.12626 -3.4974 -4.53098 -4.12971 -2.36455 -0.453753 0.948667 0.679587 -2.40633 -1.15193 1.53989 -0.330925 -0.957692 5.22543 2.82355 -0.466344 0.14 0.47 -0.120453 -0.797237 -2.46556 -2.15583 1.23035 1.99819 0.45461 -0.063544 0.834956 -2.21477 -4.57173 -2.03133 -5.87741 -5.61741 -2.04214 -2.88352 0.643874 1.26427 -2.09084 -0.581518 1.05757 -0.994466 -1.08402 5.16494 3.89584 0.717661 0.54 0.45 0.562773 -0.344515 -0.134419 0.575547 3.5241 3.71292 1.61622 -0.193779 -1.12402 -0.960637 -3.51767 -5.26428 -4.64156 -1.27712 0.495631 -1.39318 0.518086 3.35012 1.68943 -0.645351 -0.851195 -1.69997 0.790289 3.97413 4.56835 0.486765 -0.96 -0.809931 -0.793229 1.58001 1.05406 0.867669 2.84219 3.11992 -0.789334 -2.21469 -0.673296 0.686756 -1.51361 -2.95614 -2.53415 0.512254 0.0137589 0.309069 3.18717 5.16925 1.287 -2.16791 -1.31053 -0.380553 -1.83752 3.42786 4.64334 0.0421176 0.860356 -0.249562 0.483948 3.12613 3.9878 2.74118 2.9244 1.71588 1.31598 1.90069 4.19209 3.99957 1.94474 0.207187 -0.800458 0.83818 -0.703471 0.208437 4.08724 4.48014 0.0304784 -3.65572 0.238659 -1.38777 -1.37344 3.97956 4.07517 -0.453403 -0.599934 -0.389819 1.26695 3.56496 3.12376 0.50385 -0.837436 0.13044 1.65697 3.58804 5.74508 4.56298 4.43683 4.82576 1.28683 -0.183471 -2.22057 1.07733 4.67242 3.46685 -0.299726 -2.36819 -1.09181 -3.2086 -4.81462 0.657866 2.12539 -0.534118 -0.170009 -0.188588 0.741195 1.64348 0.380031 -1.25064 -1.27909 -0.530845 1.98271 3.59494 4.86486 4.59621 4.76823 3.0571 0.993525 -1.82583 -3.06203 3.22376 5.3582 3.71714 0.121246 -1.57742 -2.42586 -5.05697 -2.86943 0.491941 1.33476 0.833091 -0.82 0.190043 0.291075 3.4497 2.01027 1.10354 -0.390456 0.195254 1.81147 0.509436 4.27515 2.84413 4.36483 2.07445 1.49909 -0.331838 0.293376 5.14292 7.16538 5.33062 -0.285769 -2.63 -2.37825 -3.12077 -2.66737 0.768138 0.855932 0.0357361 0.71 -0.32 -0.257417 3.3682 4.73798 2.50704 2.83888 2.0544 0.696423 -1.20668 -0.934955 -1.05991 2.0802 3.22873 2.39084 1.43329 3.18362 6.28175 6.68075 4.33896 -0.729478 -1.25421 -1.33867 -3.77198 -1.07302 1.91924 -0.165232 0.591687 0 -0.14 1.33924 5.22242 7.76783 5.62589 3.88299 3.63086 1.74144 -1.62094 -1.84747 -0.785022 3.26887 3.93803 1.41514 1.55003 4.16896 6.59158 4.25889 1.06915 0.305248 -0.880804 -1.95131 -2.13519 -0.784167 1.68498 0.105724 -0.428551 0.58 -0.799995 0.933785 5.19314 8.75988 5.76099 -0.100156 -0.0777827 -2.78709 -3.69617 -2.37924 0.34779 4.08895 2.33638 1.76256 2.68404 7.0449 6.89091 3.83121 0.906071 -0.339694 -0.948588 -3.08345 -1.70233 -1.43954 0.821454 -0.00553245 0.183382 -0.09 -0.539975 0.439683 3.65714 7.19558 3.65923 -1.29376 -3.39288 -4.72722 -1.20946 -2.6901 -2.74281 -0.514158 1.1939 2.21996 5.50206 6.8117 6.80206 5.19764 1.52636 -0.830448 -0.966378 -2.92459 -1.36041 -0.740066 -0.901159 0.407279 -0.127384 0.23 0.58 0.50164 3.13162 3.30805 2.36754 -0.263821 -3.98338 -5.18922 -5.28042 -6.18544 -6.0606 -1.26941 3.56734 6.51589 8.21931 8.62613 7.26176 3.39493 0.637176 0.59457 -2.55633 -1.34126 -3.33412 -3.33155 -2.775 -1.37661 -0.438832 0.6 -0.46 -0.359656 1.89974 4.24665 2.82188 1.36709 -0.414338 -3.03747 -4.47837 -5.34042 -1.73029 3.49722 6.35105 8.23949 7.83622 9.64336 8.00884 3.11793 1.51168 0.52824 -2.4492 -0.799294 -3.44426 -4.55227 -1.75044 -0.663164 0.284003 0.19 -0.01 -0.801447 1.51362 0.642212 0.86923 1.08558 2.35175 0.984666 0.380622 0.146087 -0.431376 1.64258 3.0819 4.32609 4.60473 4.50759 3.88814 3.59188 2.47551 0.248697 -1.91474 -1.40796 -1.1917 -2.5231 -2.24071 -0.0510552 0.683078 0.79 0.96 -0.206181 -0.834667 -0.46297 0.864744 -0.607255 -0.497028 0.786533 0.697282 -0.784459 0.121949 -0.343468 1.00938 1.1496 -0.238974 0.976537 0.0876301 -0.208227 0.95825 -0.0244254 -0.268364 -0.62503 0.0907098 -0.0639622 0.825479 -0.203255 0.00154315 0.84 0.48 -0.35 0.37 0.579922 0.174969 -0.58304 -0.199385 -0.748015 0.57722 0.814822 0.450066 -0.18 0.0202008 -0.517524 0.532476 0.992476 0.640602 0.15 0.62 -0.91 0.61 -0.6 0.9 0.24 0.73 -0.31 -0.09 0.29 
-2.7548 0.26 0 0.83 -0.82997 0.372322 0.842294 0.351987 -0.760595 1.04336 0.219622 0.403598 -0.143754 -0.863164 0.417393 -0.323508 -0.187579 -0.914125 0.0704863 0.625241 0.600333 0.358535 0.79376 -0.119347 0.39 0.92 -0.51 0.98 -0.19 -0.5 -0.98134 0.0959913 -0.939971 -0.427252 0.70779 0.977153 -0.0173642 -0.133104 -0.731709 -0.101422 0.531194 -0.451163 0.715988 0.920434 -0.110688 -0.123293 -0.55174 -0.423279 -0.291577 0.0052537 -0.376459 0.97458 1.00812 -0.267204 -0.761081 -0.211871 0.46 0.8 -1.01483 -1.0545 -1.18417 0.117764 0.0671694 0.456827 -0.206377 -0.401432 -2.04464 1.11364 3.03771 4.87806 4.22964 5.71648 6.11668 4.84173 2.40261 -0.224808 -1.1961 0.4966 -1.01948 1.97417 0.272971 -0.342668 -0.687577 -0.94926 0.549979 0.54 -0.665111 -0.0794563 -1.89069 -1.64244 -2.13399 -1.92919 -2.66502 -2.94082 0.084115 1.53978 3.85091 6.82631 7.74031 10.8957 9.45545 7.96865 4.21696 1.32273 1.18356 1.85268 1.19087 1.16125 0.445076 1.09343 0.989619 0.728404 0.209979 -0.91 -0.399546 1.32119 -0.380928 -2.15002 -3.41792 -3.26158 -4.51035 -3.08084 -0.57054 3.0944 4.4552 5.21246 7.4528 9.19865 10.6533 6.62037 2.86242 1.16399 -2.31654 0.595432 -0.0500179 0.286375 0.239046 2.60359 1.84019 0.615458 0.989997 -0.19 0.173874 1.98444 0.532164 -1.24503 -2.43304 -0.688779 -2.16021 -2.42249 0.485055 2.34537 3.91042 4.02574 7.34593 9.30177 7.91117 4.61029 3.54285 0.407991 -2.24372 0.777119 -0.142133 0.383559 2.94416 4.58462 3.71121 -0.612238 -0.01 0.1 -0.620748 -0.10472 0.705458 1.39109 -0.825962 0.235835 -0.159455 -0.904237 -1.16053 0.861105 2.29501 5.76273 6.99634 8.81628 7.18437 6.94792 5.62101 1.88644 -1.67305 3.56332 1.88319 0.86818 -0.131113 2.41996 3.00338 0.31203 -0.39 0.75 0.822386 0.661882 1.62544 -0.700181 -1.50649 -1.57019 -1.5245 -3.80699 -3.31937 2.34676 6.46558 5.5879 7.57793 6.72894 8.29236 6.65898 5.85189 4.81003 0.669132 2.79938 1.85998 -0.276823 -2.13536 -2.65341 -1.92646 0.126059 -0.15 -0.62 -0.875432 0.2374 -0.0124991 0.713392 -0.643233 -0.594411 -1.34552 -1.89346 1.26518 6.76639 10.7689 8.11858 2.75483 -0.968859 -1.29689 -0.931945 -0.103755 -2.34394 -1.31368 -0.899277 -1.11465 -3.4068 -8.23764 -5.31915 -4.18625 -0.334509 0.84 -0.45 0.823388 0.255414 2.64545 2.01945 2.44697 3.03738 1.0329 1.60211 5.30591 12.4305 10.9997 3.78807 -3.60348 -6.04199 -8.57528 -7.44902 -6.63284 -9.17233 -9.29055 -8.19308 -7.01729 -7.467 -8.86031 -6.50621 -4.3242 0.153852 -0.89 -0.53 -0.584007 2.6609 1.83708 4.84332 4.33146 5.00381 2.86823 3.45743 5.89323 7.5361 4.20263 -3.94482 -8.99073 -7.75637 -9.16965 -7.43879 -6.49964 -7.86955 -11.283 -10.6481 -8.06004 -8.24482 -5.61785 -5.79711 -3.1657 0.533921 0.06 -0.23 0.120676 3.07737 3.83118 4.09603 5.82238 3.66422 3.48927 2.76944 1.27572 -2.17876 -5.80707 -8.84411 -9.8887 -7.64438 -8.09205 -7.84121 -5.17029 -5.46395 -6.79252 -5.48256 -2.88875 -5.41614 -4.99703 -2.82683 -2.39383 0.194647 -0.93 0.35 0.297867 2.79377 3.88997 2.628 3.17365 2.92095 2.78682 1.03705 0.0507289 -4.44267 -6.14008 -5.82148 -4.54764 -4.3217 -4.05332 -3.56573 -0.255035 1.43362 -0.467177 -1.3857 0.989135 -2.16317 -1.2618 -1.77823 -1.32516 -0.346836 -0.68 -0.36 0.573576 2.21301 3.89934 1.95258 1.90665 1.82282 3.47554 0.382936 -0.397992 -1.85676 -2.6348 -3.04021 -5.23847 -2.38903 -1.64063 0.552438 2.10551 3.17164 4.18188 3.16903 3.77512 -1.64748 -2.75577 -0.609034 -1.27085 0.251726 -0.93 0.27 -0.947732 0.798059 0.940845 -0.83924 -2.40114 -1.05482 0.925958 0.997107 0.9374 1.42002 1.69172 -2.09488 -1.43088 1.40545 0.78467 1.73628 0.15114 2.5827 5.07676 5.4942 4.48354 -0.363734 -0.603265 0.308581 -1.2881 -1.03536 0.52 0.35 -0.311563 -0.125934 0.875738 -2.6554 -2.26657 -2.93668 -2.96116 0.0883477 1.10921 2.83723 0.290735 -1.5299 -1.47519 2.00381 3.11072 2.05988 0.309688 0.0601652 2.28244 1.05971 1.74603 -0.946923 -0.231627 -0.0486696 -1.15099 0.462529 -0.55 -0.27 0.863741 2.96475 2.13354 -3.14695 -2.76979 -3.14962 -1.77764 0.410304 1.07353 1.50609 -1.34736 -1.67752 -2.10662 2.97376 2.07621 0.737053 -1.79937 -1.5849 -4.01897 -2.55915 -0.0345738 0.75337 2.39229 1.6238 0.357185 0.884341 -0.1 -0.58 0.629799 1.22911 2.76184 -1.32033 0.128968 -0.385665 0.258415 1.45873 3.51066 3.77826 2.04996 -1.80188 -4.5275 -1.20836 -1.26114 -3.89929 -2.73768 -2.62968 -2.00393 -1.73903 -0.900682 2.68485 3.3021 4.6975 0.666909 -0.661712 -0.27 0.76 -0.456601 1.39513 1.93937 -0.263001 -1.06726 -0.707366 0.0511898 -0.263055 1.50066 3.67217 -0.021259 -3.03893 -1.75093 -1.97304 -1.65601 -2.14021 -2.62461 -0.498246 -0.649351 0.168918 -0.424252 0.63541 2.85461 4.95339 2.06861 -0.0224134 0.16 -0.43 -0.478261 1.51361 2.31986 3.81072 0.590018 -0.374198 1.55808 1.91367 2.06172 4.04553 0.316696 -3.73392 -2.31877 -1.06594 -1.06938 -0.662538 -0.619296 -2.60959 -2.94429 0.0530663 0.360466 0.939468 1.14212 5.62084 3.60606 0.0686139 0.48 -0.8 -0.984561 -1.22231 1.0028 4.52127 4.57512 0.386754 0.692588 2.00284 3.86296 2.47519 0.529981 -2.16281 -1.52245 -0.603246 -1.47362 -1.20024 -1.2909 -3.16134 -1.52806 -0.432443 0.671756 2.97213 4.3181 6.47646 3.43996 -0.362386 -0.56 0.88 -0.506646 -3.47176 -3.03547 -0.375544 0.157672 -1.55403 -1.42803 -0.815558 0.687714 0.412916 0.00477932 -3.93403 -6.14249 -4.13519 -2.3501 -1.65713 -2.2219 -1.29959 0.430487 2.53826 3.15885 2.90639 3.8081 4.62422 3.44587 0.891036 0.85 -0.09 -0.184521 -3.24849 -5.19426 -4.32198 -3.41491 -4.3122 -3.56572 -2.37589 -0.301151 1.99756 2.1703 -0.300996 -3.15213 -1.29048 -3.65274 -3.54 -3.65079 -1.91991 0.581358 0.790786 2.59904 3.67229 3.63211 3.04018 1.97387 -0.718485 -0.78 -0.870012 0.0710639 -3.82906 -5.96207 -6.24668 -3.63671 -5.95595 -5.3907 -2.44873 -0.291013 1.21003 3.89043 2.036 1.15385 -0.435877 -0.799477 -1.44053 -3.716 -2.69517 -2.7568 -1.57085 1.35182 1.14693 2.81101 3.25071 1.64377 -0.923619 -0.96 0.189978 0.487377 -1.34366 -0.534987 -2.27089 -0.990994 -2.69404 -3.35291 -1.14226 0.881593 1.73049 3.10098 2.7978 2.63351 1.42497 0.0435526 0.0538611 -1.33513 -0.217473 -1.84692 -1.8437 -0.896856 1.76168 1.65533 1.61446 0.714659 -0.755914 0.03 0.169987 -0.437164 -0.644025 -1.47109 -0.561591 -0.525869 -1.92468 -2.20112 -1.02304 -0.248745 2.18044 3.3113 1.84033 0.83204 1.79226 1.33887 1.55524 0.564869 0.541312 -0.051152 -0.77601 0.100183 1.45301 1.21859 -0.271673 -0.0290311 0.341219 0.4 -0.17 -0.279395 0.670756 -0.813585 0.601815 -0.952741 -0.597862 -0.79841 -0.126663 -0.838453 0.447276 -0.336394 0.0332996 0.504894 0.597676 0.228827 0.345021 0.582502 0.201361 -0.621058 0.496307 0.161383 0.172738 0.916847 0.700053 -0.857558 -0.82521 0.67 0.47 -0.84 0.23 -0.607131 0.365256 0.801889 -0.959998 0.528216 0.747478 -0.670041 0.279999 -0.45 -0.03 0.57 0.84 0.72 -0.81 -0.12 0.04 -0.56 -0.28 -0.305861 0.43 -0.27 -0.2 0.21 -0.1 -0.27 
-19.4939 -0.93 0.4 0.26 0.9 0.779954 -0.736767 0.404814 -0.127879 0.242093 -0.518418 0.919685 0.991296 -0.411028 -0.883938 0.7404 0.778685 0.904176 1.00584 0.446322 -0.589989 -0.589976 0.690004 0.16 -0.17 -0.15 0.44 -0.36 0.54 -0.04 0.78 -0.328634 0.0912747 0.480415 0.881388 -1.00691 -1.06795 0.623073 0.734185 -0.54741 1.2495 0.265037 -0.0440574 -0.295305 0.639291 -0.782428 0.24295 -0.760883 -0.551561 0.880289 0.693552 0.67351 0.068787 -0.210668 -0.0871132 0.552355 -0.64 0 0.849724 1.02559 -0.410698 1.86147 0.671077 1.14782 -1.11736 -0.924586 -1.69408 -1.04873 -1.72954 -0.429355 0.944257 0.381636 -0.563073 -1.38876 -2.19076 -2.88699 -1.28153 0.944564 -0.289425 1.4785 0.518364 -0.762946 1.06583 -0.668429 -0.04 -0.66 0.634821 0.421614 1.64384 2.34433 0.555472 0.816734 -0.560383 0.297808 -2.06316 -3.13842 -5.1945 -3.50937 -1.86669 -0.941759 -0.297711 -0.786753 -0.0187559 -1.46708 -0.503308 0.339175 3.18734 0.758699 0.755466 0.468947 0.237907 -0.776064 -0.860007 0.68 -0.00694932 -0.653859 1.2519 0.94309 0.761611 1.36227 -0.932023 -0.060625 -1.56532 -2.83246 -3.00814 -2.22354 -0.732277 -0.299502 2.42552 0.136309 1.95899 1.63031 -1.42622 -0.535579 -0.288478 -1.32819 0.966799 0.774026 1.21322 0.156354 0.179996 0.9 -0.628581 -0.938832 0.969066 0.329319 -1.09164 -2.52025 -0.787292 0.57 1.00259 -0.512002 -3.00763 -4.139 -1.18067 2.23526 3.0036 1.26731 1.84773 1.00629 -0.196309 -1.23587 -0.367677 -0.751596 -0.709402 1.09802 1.60139 0.36227 -0.0400169 -0.5 -0.487656 -1.6837 -1.5706 -0.262422 -1.06827 -1.29146 -1.59665 -1.12452 0.683609 0.0416627 0.468043 -0.43334 0.61641 1.29762 1.40943 0.728037 -1.30898 -1.36495 -2.50619 -1.32329 -0.445911 -1.60836 -1.74778 0.0954652 0.106487 1.01197 0.19 0.98 -0.838277 -1.90321 -0.109586 -1.19502 -0.625071 -0.941938 -0.697217 -2.30274 -1.23005 2.12784 0.777383 -1.13671 0.147921 1.62307 0.852538 -1.65056 -3.82428 0.258859 -1.59262 -1.89476 -2.69099 -2.21074 0.669449 -0.775308 -0.682503 -1.0616 -0.72 0.75 -1.11919 -1.93255 -1.98411 -1.74204 -0.159425 1.36607 -0.38789 -1.76136 -3.77454 1.85632 1.70616 1.51268 3.87067 3.62027 2.49588 -0.27845 -1.54596 1.27134 -0.332067 1.12557 -1.71145 -2.43398 1.21839 -0.962389 -2.45456 -0.177438 -0.588157 0.11 -0.387162 -2.86187 -1.27105 -1.07331 0.021546 3.48155 -1.46029 -4.37873 -3.54753 1.40197 -0.541349 3.67503 4.81024 0.987106 0.796469 -0.00456652 -2.87378 -1.32466 -1.7931 0.50082 -1.14756 -1.68247 -0.875433 -4.57845 -4.11837 -0.208177 -0.996851 -0.8 0.478902 -0.966171 -2.89604 -1.33687 0.26287 2.02531 -0.755376 -2.47901 0.406414 5.1009 1.26125 2.25867 2.42972 0.61439 0.183604 -1.46331 -0.310252 -2.68884 1.79686 1.96216 2.15839 1.95978 -0.608222 -4.01818 -4.52363 0.347696 -0.64 -0.56 -0.572857 -0.809697 -2.62234 -3.04285 -0.558465 0.813982 -2.19586 2.20871 1.39233 4.72893 2.98378 2.34383 2.628 0.761642 0.699246 0.640652 -0.736869 -0.418907 0.549285 2.69124 2.81734 0.347286 -3.34113 -6.52314 -5.88087 -0.621103 -0.72 0.2 -0.332702 -1.86229 -2.46605 -1.51243 1.96136 -0.706262 -1.97427 -0.398115 -2.59249 3.95688 2.83264 0.12338 2.2926 2.0012 0.942992 2.20415 0.752641 0.132392 1.70731 5.67674 4.72635 2.93216 -1.81732 -6.83115 -5.32072 -1.40822 -0.520391 -0.78 -1.21163 -3.71819 -4.43967 -1.03262 0.185262 -1.80356 -2.03136 -1.34069 -3.065 1.82714 1.6786 5.45484 2.60359 -1.11748 -1.24031 -1.634 -1.29277 -2.40977 1.26137 1.91792 2.59652 5.36132 3.68987 -2.37463 -3.89497 -0.955564 0.44 -0.468918 -1.25411 -2.85843 -1.55056 0.579242 -1.82007 -1.99132 0.156634 3.02527 1.61376 1.03896 1.75827 2.69284 -0.0445875 0.815405 -0.662468 -0.398665 -0.460145 -0.251373 4.16084 1.99588 5.15792 5.17153 7.03452 3.99226 -1.40905 0.145738 0.554134 -0.643456 -0.561735 -3.97521 -1.87403 1.62314 -0.61307 0.287455 2.88482 3.36395 1.52678 1.35019 2.05401 -0.110518 -2.21536 1.58885 -1.13332 -2.27898 -2.47646 -1.1757 4.01217 4.52261 7.27278 8.04826 12.5686 9.70194 3.46912 0.860012 -0.388494 -0.04609 -0.240956 -4.52474 -4.42751 -2.57105 -4.32607 0.359568 3.46404 0.60151 -1.74166 1.88996 0.49443 -2.69336 -2.18771 1.45152 -5.24486 -7.42541 -4.28435 -2.32467 1.27794 2.50918 6.7238 11.5293 15.013 12.4853 4.47589 0.165344 0.160419 -0.103868 -1.69508 -7.29671 -5.96227 -2.50105 -3.53476 -1.89128 -2.02728 -3.93033 -1.95476 1.161 0.0142947 -1.31964 -1.50584 0.329637 -4.27181 -6.22129 -3.18374 -0.26306 5.04338 7.56434 9.52266 12.8314 16.4376 14.4923 6.8365 1.48302 -0.61619 -0.509612 -1.57159 -7.33134 -7.29962 -5.39126 -4.60292 -5.06046 -3.06697 -2.37844 -2.41661 -0.966831 1.88439 1.0213 -0.522544 -1.18603 -2.70081 1.1449 2.61442 6.66012 13.5042 12.6847 12.967 16.4316 17.3694 14.5269 6.6211 1.00391 0.56 0.41 -0.271374 -5.36601 -6.35556 -3.22172 -4.94518 -1.80246 0.498423 -0.0985215 1.28666 3.46166 2.54553 -0.325623 -3.21463 -0.794373 1.66522 7.05121 10.4759 12.5521 14.7509 13.4912 14.6683 15.7454 15.0662 12.2812 5.21585 0.506674 0.29 0.43 -0.632883 -3.7096 -2.05886 -1.63099 1.25874 1.15591 0.463813 1.19697 2.71783 5.1737 1.74994 -0.36694 0.737074 0.34806 4.33038 7.64659 9.97455 14.2016 15.5158 13.5979 12.3939 13.4105 11.1869 9.38674 3.211 -0.44718 -0.67 0.0899967 -0.900659 -2.54476 -1.34794 -0.97549 0.34872 -0.744862 -3.18719 0.493748 2.99044 3.69828 3.21294 1.65162 -0.118356 1.20794 2.76508 6.62379 10.3255 13.4625 12.3114 11.4548 11.5784 12.309 10.2891 6.55306 3.36234 -0.610626 0.19 -0.170017 -0.0588689 0.0546261 -2.42071 -3.65719 -1.71256 -1.72565 -1.34436 1.65105 2.99457 4.00142 2.58687 1.51785 0.651079 -0.131758 0.681128 7.90063 9.69977 10.9005 9.45605 8.93353 8.96441 9.24431 8.06179 5.87176 3.63196 -0.0209692 -0.8 0.38 1.07884 1.63071 -0.149993 -1.38165 -4.7493 -2.77908 -3.39999 -4.18547 -1.73771 0.117964 1.14385 1.03643 -0.116915 0.919339 1.43075 5.95414 6.04858 7.44672 7.03767 5.6912 5.93311 6.21764 5.64381 4.4589 1.69896 -0.111862 -0.22 0.35 -0.276729 2.74403 1.61787 -2.03987 -4.43143 -4.83235 -6.22225 -8.10515 -4.28685 -1.82322 -0.237573 -1.36277 -0.390142 -0.7327 0.516705 2.83799 1.88728 1.1412 1.4166 1.46093 1.26269 3.0775 1.38624 3.15859 2.84673 -0.270757 0.39 0.34 -0.355424 1.95721 0.827247 -0.734018 -2.34796 -2.22225 -4.46187 -5.31724 -3.2539 -1.05833 -1.23428 -1.2001 0.397363 -0.914674 -1.98449 1.36991 -1.18127 -1.00171 -1.23085 -0.640617 0.165177 1.42539 1.37264 0.348973 0.586595 -0.592305 -0.53 -0.97 0.606962 -0.0907929 -0.463752 -0.953117 -0.107321 -0.578294 -0.346071 -0.455919 -0.856487 0.138658 0.323427 0.401901 -0.22838 -0.408165 1.44799 0.181546 -0.683618 -0.803778 0.698151 0.171867 0.622922 -0.720089 0.532883 -0.798777 0.782416 0.400387 -0.61 0.64 0.61 -0.59 -0.11783 0.256191 0.659138 -0.849729 0.376617 -0.483336 -0.408653 0.619478 -0.45 -0.11 -0.0499819 -0.499983 0.64 -0.35 -0.159987 0.72 0.67 0.39 0.13 -0.66 0.62 -0.09 -0.31 0.46 -0.4 
24.2772 0.43 -0.71 -0.71 -0.520138 0.375714 0.696656 -0.0522628 0.651445 0.554219 0.30749 0.840593 0.740105 0.800423 -0.579785 -0.868825 -0.778125 0.725318 0.477978 0.798597 -0.0899997 0.562281 0.441402 0.185725 0.290001 0.0300004 0.1 -0.77 -0.04 -0.96 -0.320007 -0.39407 -0.563729 -0.795541 -0.93267 -0.667061 0.271177 -0.0504268 -0.40885 -0.374333 -0.584715 0.123755 -0.450219 0.175625 0.353183 -0.239078 -0.453905 -0.510435 -0.422651 0.551963 -0.109178 -0.314038 0.0822635 -0.881932 0.458961 0.159496 -0.64 0.26 0.726792 -0.787008 -0.548638 0.452361 -0.161888 0.441914 1.15045 0.366638 -0.481913 -0.967469 -1.97058 -0.909452 -2.14812 -1.08102 -0.795183 0.390884 -0.122735 -0.454454 0.570421 0.783225 0.81674 -1.76612 -2.6287 -1.8657 -1.23285 -0.129269 0.770001 -1 -0.972765 -0.370723 0.0642585 0.137297 0.658766 1.30531 2.30922 1.54987 0.0778327 -0.889202 -0.642256 -0.86141 -2.59445 -3.2755 -2.26687 -4.21383 -3.15872 -2.96657 -0.823202 -1.44782 -1.28487 -3.78963 -2.62207 -1.535 -0.193748 0.276946 -0.529999 -0.86 -0.947171 -0.912262 -1.13128 1.44482 2.12162 1.79527 0.875572 1.10987 -0.484445 -1.72654 -2.45522 -0.947285 -1.14496 -3.6166 -4.67772 -6.08903 -3.38059 -4.97247 -2.59363 -2.644 -4.86143 -4.73875 -3.11282 1.04253 -0.0476632 0.144761 -0.0999999 0.53 0.261621 -1.07832 0.254857 1.90376 1.04351 -0.625802 0.239988 0.816865 -1.64289 -1.4758 -1.55165 -1.71163 1.36961 -2.44228 -5.13559 -6.38061 -5.00502 -5.08035 -4.66867 -2.00769 -3.89794 -2.34743 0.084273 0.723139 -1.39909 -0.38374 0.498999 -0.54 -0.0982991 -0.613082 1.35712 0.175604 -0.134208 0.130982 0.657467 1.37645 0.880399 -0.900311 -1.23364 -0.212391 1.36436 -1.89579 -3.86018 -4.41298 -5.3479 -6.29995 -5.64482 -2.97716 0.0456698 -0.30625 -0.872178 -2.32684 -2.71689 -0.814493 -0.36 0.82 0.136449 -0.359853 1.19568 0.374628 -1.83994 -1.60933 -0.415748 0.811958 -0.320657 -4.21227 -2.30967 -0.339878 -2.01853 -3.55044 -6.4723 -7.64225 -5.65374 -6.88488 -5.65961 -0.211282 1.79245 1.489 0.13249 -2.14453 -3.48067 0.224396 -0.05 0.03 -0.359089 0.69824 -0.527795 -2.03478 -4.76223 -5.75733 -3.47441 -3.20115 -2.3707 -5.79368 -6.53341 -4.27522 -7.57073 -9.72656 -7.82251 -4.35076 -2.02125 -3.02248 -2.43498 1.90371 2.06177 1.38671 -0.791292 -1.49049 -1.58343 -0.232524 0.359973 0.92 0.899086 0.317476 0.81047 0.487208 -2.54878 -4.77025 -6.01201 -6.28609 -5.7511 -8.5282 -4.7318 -4.42127 -4.40263 -5.1159 -4.66445 -0.529283 0.109905 -0.0454394 0.458308 1.47623 2.32865 -0.584617 -1.29724 -1.41189 -0.0113015 0.528195 0.439877 0.71 0.929065 1.44723 3.04827 3.89376 3.37984 0.925615 -1.72821 -3.61159 -3.80193 -5.12565 -3.17545 -2.30835 0.32911 -0.164634 -1.67642 1.27483 2.49186 2.43184 1.60797 -0.455837 -0.66859 0.383162 -0.974317 -1.25347 -1.84281 -1.09459 -0.4 -0.82 1.11296 2.013 2.70864 3.91629 5.51629 5.4524 4.1453 4.29529 1.42321 -1.18362 -4.162 -2.92856 -0.245995 2.09028 1.09326 2.21813 5.54599 5.1803 1.90044 -0.634715 -0.894398 -2.49033 -2.18239 0.280743 -1.36181 -0.567142 0.9 0.37 0.00437483 1.46771 1.18656 3.23479 3.5405 5.44112 7.16923 5.71741 2.23265 -0.514419 -3.5518 -4.96562 -3.88292 -2.94112 -0.786029 2.25517 4.28857 1.82937 0.488957 -2.58157 -1.30202 1.47987 0.432738 0.678903 0.487482 0.358299 6.85665e-09 0.32 0.606616 2.37705 0.768169 0.420711 0.187179 0.950195 2.95473 2.57498 -1.86161 -2.40392 -1.48651 -1.49617 -2.36876 -4.91405 -2.09779 2.32022 1.94938 0.754378 -0.429489 -4.57901 -2.06486 0.777031 0.626193 1.51791 2.38025 -0.722557 0.47 -0.35 -0.270657 2.24707 -0.0081118 0.0715888 -2.10316 0.0332936 1.55117 2.68508 2.23199 0.813971 0.38582 -0.502036 0.439481 -2.26383 -1.10213 0.5348 2.58952 -0.242196 -2.21129 -3.73641 -4.2486 -0.357677 1.33021 2.39478 0.800002 0.675676 -0.55 -0.16 0.216559 0.773876 -1.16229 0.315195 1.81118 2.32092 2.08114 3.42116 2.21464 2.38327 0.01268 2.90192 -0.149701 -0.12403 -1.30457 1.34534 2.78505 0.319796 -0.919567 -2.7654 -1.61446 0.859209 1.35435 1.42674 -0.78157 0.589734 -0.03 0.86 1.29038 0.035249 -0.983631 -0.715966 2.4721 3.13827 1.56142 3.64878 3.51792 1.92507 1.90716 2.6072 2.33886 1.3024 0.632583 -0.27363 1.93526 -0.0367297 -1.21718 -0.110693 0.418394 2.23131 3.2121 1.49994 -1.11948 -0.794422 -0.810001 -0.51 0.834336 -1.34138 -4.68404 -1.83716 0.0790022 2.85602 1.96556 6.16096 6.14275 2.41259 1.77859 2.5371 1.96064 -1.14521 -1.38591 -2.51192 -2.37055 -3.77803 -3.22768 -1.09693 2.00134 3.08936 4.03915 1.08572 0.614289 -0.554694 0.48 0.619973 -0.0346769 -0.633407 -4.4822 -3.64542 -0.776591 -1.27212 -1.32402 3.63437 1.2191 0.532801 1.2786 4.0666 2.46042 0.443568 -1.30194 -3.27072 -2.46941 -4.38604 -3.86387 -0.942107 1.71744 2.73823 3.40206 1.99543 1.47711 -0.863142 0.47 0.33 0.463164 -2.92258 -2.03686 -2.37618 -1.40503 -3.55478 -4.62877 -1.6488 -1.0629 1.54029 3.73523 2.43413 2.15198 0.23201 0.989818 -3.35491 -3.64135 -5.00307 -2.36851 1.28101 1.26995 -0.417022 0.911013 -0.418434 0.0899363 0.553702 0.66 -0.26 0.331158 -2.92577 -3.10212 -4.05092 -3.59433 -5.44964 -3.27114 -2.52837 -1.13368 2.36825 2.81764 2.02553 2.98788 0.827665 -0.99421 -4.10583 -3.74197 -3.01693 -1.80934 1.09149 -0.44654 -0.266668 -1.11684 -1.78204 0.162485 0.607929 0.06 0.399805 -1.16979 -2.70754 -1.6897 -4.24056 -2.22527 -1.73283 -1.31985 0.184582 0.0827747 1.67942 1.02465 3.07267 2.1453 2.44767 -0.787393 -4.85987 -4.73023 -4.25856 -2.17597 -0.589825 -0.193248 -0.442982 -0.964288 -0.310914 -1.03579 -0.123822 0.84 -0.881001 -0.345085 1.47973 3.92777 0.445528 -1.61692 0.239833 0.894669 -0.345616 -0.901361 -0.121294 -0.340432 1.55812 2.01023 -0.789725 -3.654 -6.86281 -5.33418 -4.75643 -2.54872 -0.0275762 0.60425 -1.30999 -1.69338 -2.55026 -0.271163 0.976479 0.42 0.440001 0.0337213 3.3612 5.57216 1.34367 -0.945681 0.00716289 3.20474 0.0475058 0.224805 0.358769 0.285484 0.0346355 -0.707792 -2.91313 -5.5448 -5.89609 -5.87085 -4.18627 -2.53504 -0.179785 -1.23554 -1.95083 -1.45928 -2.54266 -0.0307914 0.514883 0.44 -0.729999 0.744567 1.05232 3.4569 2.93266 0.73735 2.54684 4.21881 2.22651 1.28717 1.54258 -0.618631 0.652409 -1.62905 -3.50829 -4.684 -4.80902 -5.43318 -4.42262 -1.65464 -1.05081 -0.810979 -0.841648 -2.28769 -0.203182 -0.282821 -0.849869 0.82 0.180001 0.657826 -0.0422216 1.57291 1.45191 0.928139 2.606 2.44312 0.449635 1.76851 1.25304 -0.15398 -0.43351 -1.98559 -2.56455 -2.54954 -4.15922 -2.60319 -2.54512 -1.21882 -1.41569 -1.13285 -0.263769 -0.983971 -0.470445 0.105557 0.358507 0.78 0.01 -0.240982 -0.304195 1.05304 0.924987 -0.106969 0.957502 0.0011547 -0.00928547 0.77549 -0.151655 0.645955 0.460315 0.259825 0.227609 0.612697 -0.511511 0.174193 -1.34342 -1.31582 -0.326711 0.914302 0.67909 -0.980692 0.0419575 0.730963 -0.985157 -0.64 -0.5 -0.73 0.02 -0.227104 -0.13233 -0.44846 0.541564 -0.00943492 0.612313 -0.496855 0.0807336 -0.79 -0.41 0.23 0.76 0.28 0.28 -0.39 -0.8 -0.32 -0.56 0.216545 -0.57 -0.27 0.18 -0.47 -0.81 0.15 
10.6514 -0.8 0.92 -0.48 -0.18 0.821344 -0.127057 -0.181306 -0.64046 0.322456 -0.37931 0.576646 -0.730108 0.840858 -0.970364 -0.964193 0.272313 -0.539524 0.966288 0.0146424 0.169942 -0.40844 0.305555 -0.0683061 -0.04 0.15 -0.56 -0.75 -0.86 0.06 -0.991429 0.713835 -0.669815 -0.0319046 0.561904 -0.423747 -1.12392 -1.11286 -1.2731 -0.0411132 -0.124471 0.63376 -0.695334 0.20168 -0.88884 -1.11924 -1.19713 -0.750603 -0.220919 -0.977166 -0.121485 -0.729227 0.868208 0.416803 -0.134291 0.198477 -0.979999 0.96 -0.077151 -0.286558 -0.466379 -1.78764 -1.13173 -0.599266 -2.02485 -1.48039 0.616345 0.11947 -0.498145 -1.86118 -1.86129 -4.31045 -3.48663 -4.1629 -6.34172 -6.32753 -3.53738 -3.17942 -0.806733 -1.42221 0.368963 -0.231884 1.65911 0.470814 -0.849866 0.47 0.0227578 0.0735234 0.0628768 1.26444 -0.339555 0.658803 0.143591 1.07709 3.0629 3.4623 0.596543 -0.966119 -3.14986 -2.4892 -3.40464 -2.63547 -3.71018 -4.16737 -1.70829 1.40606 0.45002 1.99842 1.74058 2.50541 1.78101 0.580923 -0.749865 -0.46 0.692162 -0.747576 0.770233 1.13484 3.91543 5.03934 4.20127 4.45405 4.50019 3.35805 1.87131 -1.39825 -3.9266 -3.13548 -2.56571 0.0582785 2.86602 1.8769 3.74711 2.38356 3.49495 4.6759 3.63138 2.29126 0.983745 0.830901 -0.409977 -0.01 0.803561 -0.931629 0.226469 2.20238 2.65204 5.88033 5.67646 3.54427 2.7541 1.47674 0.505803 -2.73028 -4.21361 -3.4675 -2.7844 0.82903 1.98067 4.80765 3.14839 1.33921 3.53198 1.83104 1.31 1.08789 -0.32746 0.746262 -0.48 -0.1 0.422964 -1.2957 -1.98386 -1.12361 1.54187 5.00693 4.32276 2.99742 2.04008 0.323168 -3.07208 -3.96633 -3.62832 -4.2432 -4.1728 -3.17015 -1.17539 3.30459 2.18627 0.69501 -0.0261535 -1.60933 0.118148 -1.33439 -0.157855 0.386521 0.14 -0.76 -0.178917 0.835774 0.199368 2.57645 3.49654 3.10701 3.90604 5.43341 3.00245 -1.43622 -1.99174 -2.24861 -2.25546 -2.03164 -0.678552 -4.74791 -4.4816 -0.188868 1.44206 2.01945 0.0549053 -1.25069 -2.91116 -3.76054 -0.360327 0.216087 0.75 -0.86 0.574681 0.0201194 0.215601 2.22946 6.08761 3.66531 5.26089 5.26457 1.77469 -0.128907 3.42324 4.92543 4.09013 4.0805 1.28494 -5.84259 -5.89727 -2.42602 -0.233603 0.317863 -2.89407 -4.40904 -5.52823 -3.84299 -0.777889 -0.721489 -0.2716 -0.48 -0.285395 1.37897 0.507916 3.02916 5.48953 4.92463 5.69106 3.50514 2.42551 2.51881 2.77137 3.96934 5.14699 2.99959 -3.21624 -5.5351 -6.10993 -5.2622 -1.36668 -0.66994 -0.64956 -2.02748 -6.70537 -5.87755 -2.15156 -0.565193 0.269717 -0.15 -0.555327 0.397642 1.85026 2.4197 5.87189 2.95727 3.38147 0.772668 -0.981392 -1.66674 0.472522 3.50001 5.00269 -1.30725 -1.20367 -3.39619 -6.91236 -4.92695 -2.99898 0.717388 0.798622 -4.34112 -7.19373 -8.27812 -7.19979 -0.544114 -0.07 0.21 -0.0929822 -1.13956 2.15155 3.9305 3.80046 1.62636 0.27459 -0.679561 1.52005 0.591779 0.708565 0.890554 1.77616 -0.215977 0.60341 -1.98065 -3.63455 -2.71486 -2.02182 -1.37791 -3.25446 -6.70916 -11.3817 -13.2398 -9.07965 -0.98154 -0.62 0.98 -0.110426 -0.964148 2.02541 6.98124 4.67236 1.41457 -2.51261 -2.262 -1.74716 0.453578 -1.21924 -1.02261 -0.526132 0.827938 2.38039 0.813602 0.244848 -2.02326 -3.51811 -5.90677 -9.1969 -11.3292 -12.1467 -11.5055 -9.02831 -1.45058 0.91 -0.95 -0.205423 -1.14641 3.07129 8.07205 6.74796 3.86194 -1.01802 -5.11441 -2.31983 1.45246 -0.619765 2.14207 4.03572 5.62227 6.31787 5.08186 2.49193 -2.10858 -5.89693 -9.12814 -12.4425 -9.09417 -11.8709 -12.5094 -5.57061 0.659625 0.81 0.22 0.406189 0.372217 4.74213 7.67986 9.24455 5.66307 1.0651 -1.74495 0.210116 4.61537 4.38185 6.19366 8.44368 9.58139 9.63009 9.175 3.21588 -1.39798 -6.74083 -8.69802 -7.45126 -5.65633 -9.03769 -10.5155 -5.02629 -0.470541 0.37 -0.400481 0.582749 3.57949 3.58848 6.37805 5.3088 4.82765 0.760588 -1.82876 0.33765 5.38536 5.21391 5.79406 8.43752 9.72527 10.555 6.95939 -0.613274 -5.91779 -6.57243 -7.49613 -4.9734 -3.66391 -5.16038 -5.69028 -2.29206 0.175768 0.82 0.0882302 0.649774 1.9174 1.08948 4.0212 5.02059 5.601 4.85945 1.89244 3.78237 8.45871 5.81491 5.98266 8.7425 7.91282 6.25927 3.77498 -3.89982 -5.10858 -4.20511 -5.06123 -3.86907 -1.64167 -1.76573 -0.894944 -0.843553 -0.39069 -0.500003 0.809289 0.7936 0.116644 1.59028 2.73456 3.85172 6.66345 8.99627 5.85907 4.87054 5.99978 7.08847 9.31035 9.50589 5.33438 1.05626 -1.31357 -4.16886 -4.39395 -2.0851 -3.33912 -0.610289 1.22884 2.78233 -2.26273 -0.643439 -0.464861 0.529986 0.179898 0.546076 -1.14296 1.13762 4.63469 4.43839 6.44294 7.19315 0.984619 0.0789469 1.01658 2.38859 2.89651 5.69261 0.0317271 -3.49955 -3.7241 -2.22247 -0.784996 0.424872 1.33491 1.03746 0.931512 2.01131 -2.47782 1.41408 0.743626 -0.02 0.22 -0.529866 -0.848505 2.4373 4.76495 4.99127 4.08199 3.42037 1.11451 -0.728034 0.243381 1.07221 0.0106497 -1.92787 -5.56608 -3.05111 -1.8583 -0.419401 1.80561 3.27801 2.19981 1.65705 -0.488663 -3.65223 -3.74267 -0.583997 -1.00431 -0.23 0.51 0.440223 -0.498943 1.8162 7.496 6.46138 5.80099 2.61757 0.403613 -0.0171134 -2.51127 -1.3538 -2.99117 -3.46761 -2.91683 -1.74663 -3.67056 -3.6485 -1.99091 -0.791072 -0.465456 -0.895059 -1.81347 0.604572 -1.41517 -0.973079 -0.553294 -0.86 0.52 0.689257 0.707859 1.25999 6.83738 7.13131 4.64978 2.28117 -0.72395 -1.044 -3.87304 -3.77632 -3.50361 -0.555692 -1.2431 -3.51869 -5.35624 -4.19224 -1.98268 -2.14929 -1.10071 -1.97884 -0.267564 0.700583 1.89923 -0.405165 -1.0437 -0.7 0.49 -0.376173 0.797104 -0.615744 3.74997 7.66344 5.32348 3.84019 1.15248 -0.434508 -0.94051 -2.53655 -2.47389 -3.49174 -2.9165 -4.29083 -6.05527 -3.3869 -0.141876 1.43214 1.98002 0.104017 0.646518 3.48322 2.94469 1.28059 -0.874369 0.91 0.940081 -0.198891 -0.205713 0.719049 2.68909 3.02694 2.35263 1.09155 0.521832 0.497986 -0.677236 -4.90557 -7.0535 -7.5767 -5.92828 -6.35675 -3.11083 0.839125 3.21046 7.08588 5.39962 2.81832 2.24393 4.29709 2.52318 0.512858 -0.279066 0.15 0.560144 0.30537 -1.22034 -0.0256209 0.283073 -1.1787 -0.406268 -2.00613 -3.16117 -5.42956 -6.58005 -7.83951 -9.42554 -9.20431 -8.24623 -5.93633 -2.45148 1.91937 4.64591 5.16793 4.61612 2.16133 1.27928 3.48326 2.44967 -0.563062 -0.697283 -0.72 -0.909916 0.442011 -0.886482 -0.643839 -1.46692 -2.22918 0.0759782 -1.08312 -3.79728 -4.18989 -4.40744 -6.73287 -5.91965 -6.55855 -6.31717 -3.64964 -1.81036 -0.285611 3.11118 1.71036 0.850444 0.13889 0.375466 1.86746 0.428694 -0.0121885 -0.335646 -0.82 -0.959999 -0.987987 0.670298 0.337048 -0.59282 -0.545763 -0.787984 0.249574 0.282215 0.151104 0.28986 -0.952255 0.113681 -1.27935 0.240552 0.278382 0.72271 0.576302 1.0079 -0.0777969 0.975303 -0.193609 0.516869 1.05918 -0.681652 0.294914 -0.520003 -0.53 0.32 0.09 0.56 -0.869837 0.875146 0.144011 0.640019 0.120019 -0.709997 0.939996 0.279999 0.4 0.469835 0.54797 -0.54203 -0.88203 -0.440494 0.07 0.09 0.08 0.73 -0.325777 -0.21 0.17 -0.28 -0.52 -0.14 -0.45 
-2.71291 -0.78 0.61 0.91 0.438657 -0.239074 -0.911654 -0.418776 -0.0576311 -0.130806 -0.941343 0.654802 -0.281054 -0.0300497 0.670513 -0.988071 0.695884 -0.369186 -0.629984 -0.362535 0.369887 -0.530075 0.59 -0.15 -0.8 -0.1 0.12 -0.43 -0.15 -0.79 0.979968 0.892591 -0.58003 0.0212715 0.519926 -0.184005 0.730554 -0.125639 -0.117853 -0.400809 -0.969244 0.015627 -0.207197 0.959462 0.129532 0.666249 0.00268331 1.41011 -0.0842854 -1.2071 -1.04829 -0.793621 0.713621 -0.594864 -0.960243 -0.3923 0.21 0.95 -0.803702 0.876647 -0.425661 -1.81177 0.255632 -2.20567 -2.18866 -2.30054 -3.24125 -2.70975 -0.394892 1.65798 1.34799 2.32167 2.12957 2.77065 4.58165 1.41454 -0.448853 -3.70424 -6.51387 -5.06735 -4.00266 -2.1176 -0.650687 0.816304 0.57 0.02 -0.918865 -1.5042 -3.93387 -4.49573 -4.49554 -3.31818 -4.11923 -3.97605 -5.11196 -2.86632 0.811145 5.91791 6.98933 6.56221 6.96859 6.30377 5.14401 3.27428 -0.45939 -3.70581 -4.41812 -6.07293 -6.81304 -3.19498 -1.56076 -0.263405 0.08 0.89 -0.119944 -0.903622 -4.60246 -6.92946 -6.1085 -7.86746 -6.37619 -4.66883 -2.6317 -0.151351 4.3993 9.1273 9.57873 5.96119 4.89667 5.53974 2.02382 -0.909594 -3.50603 -3.29165 -3.33046 -4.89547 -6.65304 -4.80577 -2.36857 0.460674 -0.96 -0.34 -0.988486 -2.2499 -5.36175 -8.38304 -8.22406 -8.12095 -8.73785 -5.82218 -2.24266 0.783398 4.14075 6.40275 4.97207 3.75086 5.83647 5.38996 2.53271 0.873042 -1.05364 -4.50565 -5.99117 -5.10038 -3.63876 -4.78538 -1.64907 -0.888389 -0.82 -0.49 0.0895402 -2.3024 -4.59867 -6.40588 -6.11191 -5.83285 -4.26633 -2.21592 -3.64598 -0.300072 2.54341 3.45026 4.58778 2.53305 2.0271 0.417632 0.183113 0.144634 0.311146 -0.400079 -4.15359 -3.71404 -3.56971 -4.06323 -0.585881 0.0803763 0.54 0.51 0.943455 -1.87971 -5.72595 -2.48914 -2.9044 -1.62966 -1.92025 0.119102 -0.410035 -0.372887 1.44274 2.74051 3.56873 2.54891 -1.44147 -2.23406 -3.90907 -3.5064 -2.97362 1.57231 1.11508 -1.73528 -4.1354 -6.94805 -1.04854 -0.609509 -0.39 -0.31 0.0141174 -2.32819 -2.79731 0.251306 0.483916 1.14366 0.573127 2.41435 2.53909 1.55513 3.20206 6.45761 3.2977 2.56716 -0.24011 -1.74511 -7.56318 -7.49462 -4.38205 -1.12881 -0.606757 -4.14388 -5.25525 -6.3899 -2.84636 -0.784301 -0.662807 0.79 0.670252 -0.19479 0.586291 3.54992 3.91651 1.03711 2.22445 5.59167 2.23535 2.09011 8.87458 6.5428 2.10158 -1.56587 -0.827748 -3.28809 -8.53478 -8.80718 -8.11441 -4.12545 -5.23224 -6.76902 -6.372 -5.90822 -0.897326 -0.621764 0.996583 -0.96 -0.987389 1.96293 5.95501 9.07752 8.03352 4.20731 1.36166 3.00216 2.58649 6.00674 9.56484 4.84129 -2.35936 -0.723824 -1.63651 -6.56167 -8.02001 -5.21276 -5.38201 -4.22144 -6.15484 -5.56903 -5.89412 -3.39452 0.466646 -0.745385 -0.21 0.26 0.0851648 4.14397 8.80125 8.80218 5.86448 3.55723 2.45844 4.98271 6.32709 10.0272 9.81206 3.65061 -3.04782 -4.12236 -0.833264 -8.78341 -10.5271 -6.89979 -2.64322 -1.37705 -1.95793 -0.6925 1.81114 1.77742 3.81501 0.736372 0.92 -0.23 0.826828 3.80116 8.04009 7.85636 6.0959 2.69861 2.12486 6.85838 10.0505 11.518 7.51609 2.20219 -1.42685 -2.58274 -2.26689 -6.1266 -10.8716 -5.42795 -2.22977 -0.353572 -0.613194 0.956964 3.1677 5.05155 4.36351 -0.571975 -0.01 -0.33 -0.256271 4.10631 5.46757 7.63859 7.53079 4.0263 5.16868 10.7991 10.6741 6.40491 3.92335 0.141605 -2.3159 -1.00857 -1.40652 -3.88077 -6.14044 -2.28601 0.0887407 1.93673 1.34755 0.674622 4.20827 3.92409 3.00631 0.826936 -0.66 -0.06 0.37584 2.47233 4.23708 5.71552 5.78143 6.7523 9.68644 13.3328 10.2191 3.11598 -1.78229 -1.55134 0.262052 -0.3219 1.83146 0.828889 -0.988584 -1.54303 -1.58015 -1.7117 -1.23392 -0.869561 0.805533 1.02499 -0.324182 -0.910006 -0.21 0.161191 1.25515 3.49088 7.3564 9.00506 10.9509 11.2288 12.1892 14.5703 7.72853 -3.73823 -7.79764 -2.01349 1.58464 4.49551 2.77702 1.80075 -3.0243 -4.35105 -4.76197 -5.55592 -5.28001 -3.21151 -0.334301 -1.73158 -0.440936 0.932319 0.4 0.551142 1.10323 4.78763 8.31551 9.57409 10.056 11.1967 12.1596 10.5446 2.40261 -7.24675 -3.57247 1.95484 2.28634 1.98543 1.7143 -0.637592 -3.95704 -6.10461 -5.99952 -8.72229 -5.88569 -3.60417 -1.52968 -2.67436 -0.931289 -1.17744 -0.51 -0.843543 0.3461 4.02508 4.63411 6.77309 5.99284 9.23678 9.53955 4.77306 -4.7063 -6.66231 -2.16656 0.480201 -0.294285 1.7747 3.45669 0.826607 -2.98279 -5.56761 -1.61843 -3.99389 -4.87167 -3.78576 -4.44933 -3.94126 -1.15614 -0.708195 0.47 0.102304 0.415852 2.04859 4.27148 6.48663 8.64452 9.42422 5.8758 0.780781 -4.11346 -3.91794 0.460087 -0.547915 -3.15102 -1.26121 2.47202 1.74709 -2.43097 -3.93453 -1.4944 -1.85279 -1.94991 -5.01042 -5.71406 -3.27541 0.141836 -0.844383 0.02 -0.48 0.767004 3.73064 6.02961 9.25516 10.3433 7.57729 4.03711 -2.55679 -3.91914 -4.90732 -4.43217 -3.88334 -6.33103 -6.42477 -0.788964 0.148864 -1.71399 -2.54015 -1.6628 -2.45613 -0.641964 -3.15327 -3.47168 -3.25714 -0.182549 -0.694728 0.09 -0.71 0.873664 1.37026 3.62473 5.657 5.96022 2.78259 1.72964 -1.31702 -4.05643 -5.5689 -4.81555 -3.20776 -5.33476 -5.14801 -3.14795 0.437454 0.702769 -0.410373 -1.36543 -3.00113 -1.97883 -1.62448 -0.804065 -0.0425157 0.0361684 0.933419 -0.19 -0.22 0.929572 1.46513 4.75842 4.73297 3.76166 0.145044 -3.42669 -3.22477 -4.83231 -2.6409 -0.636377 0.139898 -1.6469 1.92833 3.90544 3.51345 1.80867 0.25413 -0.614467 0.0156039 -0.635251 -1.87312 -1.72143 0.440209 1.89258 0.0454367 -0.82 -0.29 0.858457 1.90815 0.873888 1.62193 -0.0614932 -1.60893 -4.8062 -2.54379 -5.02878 -2.01272 0.580182 0.811683 -0.468761 1.76503 6.92151 4.9938 3.81858 2.22314 0.433197 3.16913 1.6495 -0.593237 -3.80789 -2.51263 0.419998 -0.881024 -0.88 0.29 -0.899401 -0.384444 -1.24771 -0.379965 -2.45839 -5.27496 -4.39578 -3.58109 -5.24602 -2.70151 -2.35853 -1.05872 -0.419133 -1.44518 3.06528 1.67648 2.64005 3.80767 -0.603261 -0.179993 0.947628 -2.88865 -4.25304 -2.81578 0.950209 -0.896734 0.66 -0.45 -0.641971 -1.25081 -2.32265 -1.53324 -1.9191 -2.09137 -0.185665 0.0704392 -0.38688 -0.0798665 -0.59821 -1.71551 -0.754459 -0.850522 -0.719235 -0.849113 0.537336 0.152878 -1.19001 -1.26633 -0.926222 -3.49689 -4.96808 -3.24437 -0.508675 -0.260099 -0.27 0.57 -0.39467 -1.22451 -0.0162156 -0.804015 -1.99899 -0.305981 0.152615 1.61652 0.410498 0.484112 1.35367 -0.568754 -0.576549 -1.28991 -1.39558 -3.00673 -3.52096 -2.28504 -1.38 0.0384267 0.186142 -1.17823 -0.13448 0.363381 0.948922 -0.136236 0.9 -0.08 0.649514 -0.98882 -0.771308 0.678025 0.73168 -0.159191 -0.472205 -0.0550847 0.256261 -0.817936 -0.70316 0.105914 -0.0462398 -0.650836 -0.247045 -1.26125 -0.939387 -0.481325 0.0533168 -0.165436 -0.904247 -0.488761 0.0615524 -0.768213 -0.213174 0.740631 -0.54 0.94 0.02 0.25 0.0799977 0.759907 -0.249999 0.34 -0.834827 -0.633589 -0.707101 -1.00011 0.81 -0.24 -0.0698871 -0.979305 -0.35 0.81 0.819995 -0.85 0.07 0.38 0.86 -0.24 -0.7 -0.28 0.95 -0.9 -0.27 
-6.54702 -0.78 0 0.57 0.89 0.16562 -0.175858 -0.325374 -0.258372 -0.78358 -0.400639 0.595187 0.2023 -0.450876 -0.370013 -1.03341 0.592184 -0.186353 -0.0827367 -0.850549 -0.602642 -0.942028 0.691938 -0.380005 0.93 -0.09 0.55 0.62 0.21 0.85 0.569964 0.0806397 0.529063 0.0783933 0.0385455 0.247855 -0.274868 -0.683535 -0.281747 1.06689 0.474187 0.22355 -0.4593 -0.0968286 0.07879 -0.0937368 0.23293 -0.246798 0.340953 -1.17371 -1.21802 -0.372717 -0.571491 0.185145 -0.110364 0.129929 0.16 0.69 -0.509022 0.292114 0.373843 0.584257 1.29807 0.868429 2.82623 1.24338 2.19336 2.64494 1.6155 2.3599 2.63285 3.44541 4.11697 4.58844 4.3484 2.66219 -1.10838 -1.03295 -3.05903 -1.11595 -0.222416 -0.536216 0.00328759 -0.634375 0.52 0.45 0.907642 0.713139 1.90058 2.77216 2.04451 2.1059 0.996483 0.44066 -0.749525 0.0831407 1.42742 2.02388 4.2191 6.66171 7.15837 8.20561 6.63937 3.30662 1.33649 -1.60127 -3.22647 -3.44114 -2.23301 -0.833445 -1.20876 -0.604152 0.84 -0.36 0.885779 1.40364 2.11675 2.48438 1.59263 0.54418 0.268534 -0.899256 -1.84332 -1.74315 -0.758051 1.17442 3.39316 7.14981 8.64713 9.78409 5.7476 3.5236 1.03468 -0.944446 -0.267664 -1.41251 -1.32003 -2.07785 -1.27741 0.633135 0.87 0.23 1.00487 0.726908 2.6825 0.989195 -0.455619 0.158523 -0.0181518 -0.891092 -1.00906 -2.17346 -2.52699 -0.195628 2.78378 5.64619 7.63999 9.10986 7.15148 2.21987 1.4543 0.52826 0.635019 -0.119744 -0.929718 -0.614732 -0.154632 -0.299968 0.779851 0.5 0.487557 0.126521 1.08619 1.69969 1.6493 1.29727 1.87952 1.22251 -0.763192 -0.802553 -1.00125 -1.28161 0.597666 1.76064 5.38607 6.90793 8.44202 5.17666 0.128436 -0.768553 1.03487 -0.537524 -1.25493 -0.510136 -1.6665 -0.451441 0.8 -0.52 -1.07644 0.847942 1.21262 1.16593 1.97137 2.43854 2.44189 0.566902 -0.724095 -0.816132 -1.36615 -0.824355 0.37717 0.456475 1.93362 4.98661 6.70175 5.71702 0.757263 1.06706 -0.638368 -2.34272 -2.19657 -2.39114 -2.11132 -0.966718 -0.27 0.6 -0.672633 -0.563756 0.664944 -0.738153 -1.11524 -0.706675 0.209997 0.43765 0.0130674 0.951843 1.41042 -0.462667 -1.67193 -2.82726 -0.494514 2.75072 7.31032 5.72867 2.71677 2.40179 0.156195 -1.46461 -1.91358 0.00912398 -0.745946 0.274861 -0.966943 -0.22 0.626384 0.188828 0.0430559 -0.592111 -0.97871 1.62016 1.17256 0.858865 0.335684 -0.398191 2.1066 -0.433362 0.169474 -0.749305 -1.90217 3.43394 7.27671 8.44464 5.03506 2.94949 0.0481402 -2.20225 -1.6653 -2.08139 -2.62914 -0.682065 -0.757415 -0.49 0.700227 2.05312 1.11619 1.45744 0.860139 1.28065 -1.95417 -1.43778 -1.80855 -2.22263 -1.70174 -0.990336 -0.478339 -0.562388 -2.44713 -0.0729357 5.7238 6.42108 3.27408 1.7985 -0.754601 -1.84348 -2.36319 -1.56367 -1.41525 0.587281 0.14 -0.55 0.766423 0.557213 1.60729 1.58412 1.79885 0.489309 1.2241 1.64298 -2.18025 -2.77995 -2.1717 -0.92435 -1.05355 -1.16664 -3.44212 -2.11842 4.37971 3.63654 1.37763 0.187802 -0.632367 -1.73364 -2.79976 -2.08429 -1.10234 -0.938372 0.78 -0.61 0.344932 0.182627 -2.18217 -2.03883 -1.5941 1.01858 3.0946 2.5803 0.984108 -1.48608 0.564973 1.98394 1.78012 -0.453636 0.521467 -0.290557 0.220882 1.69742 0.979815 -0.610327 -1.99497 -1.3874 -1.96808 -1.68641 -0.921596 0.1833 -0.550181 0.36 -0.240221 0.987942 -1.82983 -1.16684 -0.508498 -2.4272 0.304804 3.13772 5.00083 1.51578 -0.957309 0.2566 2.25037 1.18254 -0.756555 1.04937 3.2194 2.70502 2.31756 -2.05681 -3.00227 -2.02658 -2.1683 2.31289 -1.67792 -0.226914 0.58 0.849886 0.271372 -0.0443877 -0.791884 1.1207 0.505408 -2.45011 2.06228 3.3438 5.28339 3.13741 0.358356 -0.210534 0.545278 0.384393 0.32805 0.409983 1.72988 0.661719 -3.74502 -5.45857 -2.05724 -1.32985 1.40514 3.09232 -0.756058 -1.39135 0.399412 -0.36173 -0.64531 -2.21729 -0.906939 -0.429788 -1.65032 -2.43148 1.32817 4.72085 4.32664 2.04992 1.75101 1.13771 0.847458 -0.340819 0.836288 0.312245 1.4563 -0.915992 -2.92753 -2.71972 0.539779 0.831173 1.36392 1.44408 -1.08853 -0.720073 -0.150109 -0.740765 -1.21505 -1.12946 -2.05554 0.0336338 -1.61388 -1.52794 0.430733 3.74203 5.0629 2.50945 1.5914 1.97864 1.2213 1.753 2.91942 1.37025 1.31977 -1.59089 -1.44489 0.108089 -1.84719 -1.86293 -0.763286 0.0954576 -0.932572 -0.949697 0.590736 -0.0955219 -1.06133 -1.19277 -0.280277 0.354105 -0.594821 -2.68007 0.688436 2.33598 4.26373 1.41512 1.84128 1.83059 -0.14565 3.41885 4.21048 2.96473 -0.0212775 -0.15486 1.42655 -0.430189 0.0359639 -2.77064 -2.62332 -1.28058 -1.19148 0.577048 0.813313 -0.0915436 -0.296723 0.129704 0.608837 2.41113 -0.450122 -0.254678 1.62808 4.43362 4.06214 1.99273 1.83503 1.96247 1.43788 1.86451 1.0863 1.50593 0.380112 -1.33571 0.298815 0.112294 -0.503613 -1.55921 -2.32368 0.278517 -1.97265 -0.091561 0.27 -0.75 -0.367267 -0.0290018 -1.01495 -1.02422 -0.9564 0.127699 1.41705 5.01831 7.41149 5.35559 1.80579 0.042852 0.494702 2.1892 -0.136077 0.178876 -0.401776 -1.50364 0.324117 1.09758 1.65709 -2.3236 -0.835624 -0.598909 -0.205319 0.374244 -0.57 0.95 0.0629901 1.06674 -0.779811 -0.872949 -3.1504 -1.08051 0.510702 3.95796 6.72825 6.57139 2.64333 -1.36899 -1.05648 -0.136158 0.08132 -0.225222 -1.29443 -1.13898 -0.637209 -0.837909 -0.552302 -1.50361 0.0129927 -1.54261 0.0433131 0.452725 -0.04 0.199971 -0.851072 -1.37492 -0.491003 -0.902385 -1.17995 1.13302 2.962 4.72166 7.194 5.87853 3.33765 -0.329767 -1.92253 -1.83681 0.327192 -0.958512 -1.37677 -0.848493 -1.28285 -1.49387 -1.23613 -1.37695 1.42106 -0.96887 0.887782 -1.10337 -0.29 -0.420149 -0.651909 -1.03044 -0.0156953 -0.439491 -0.305614 -0.0209502 1.70011 3.16716 4.81631 3.54981 1.32193 0.544834 -2.26424 -2.79593 -2.62611 -1.2263 -0.802617 -1.89094 -1.67681 -1.7349 0.272909 -1.06393 -0.424702 -2.14724 -0.645615 -1.09783 -0.88 0.74 0.182556 -1.10202 0.932379 0.525365 -2.02202 -1.93661 -0.273222 2.61826 2.43642 3.40664 2.01169 1.34188 0.286288 0.635416 0.936365 -0.546631 -1.58299 -0.918528 -2.91891 -0.580953 -1.71436 -1.50364 -1.29888 -0.839582 0.103721 -0.857481 0.37 0.980001 -0.554593 -0.390194 0.176044 0.291224 -1.02586 -0.801129 0.762031 2.9472 2.39476 3.46189 3.30972 2.39829 2.0636 2.42639 0.996212 -0.251429 -1.32836 -1.9513 -2.37232 -0.641807 -0.473847 -1.45685 0.956843 1.94397 1.02637 0.55233 0.05 -0.24 0.565763 0.471361 -0.0632058 0.135203 0.0371288 -1.24979 -0.484892 -0.512554 -0.263948 0.974143 1.98774 2.25621 1.33006 0.416057 1.88303 1.16759 -1.11808 -0.979926 0.911197 0.558219 0.568954 0.353976 1.80855 0.644105 -0.817409 -0.00802633 -0.72 0.44 0.925577 0.71664 0.653661 -0.0857723 -1.24392 -0.724864 0.222616 0.441479 0.0315701 0.997253 -0.218175 0.768931 -0.924892 -0.115368 -0.799309 0.417151 -0.525541 -0.703343 0.666892 0.0691037 0.30733 -0.154057 0.242926 0.596167 0.608932 -0.39003 0.25 -0.56 -0.14 0.91 0.7 0.1 0.789981 0.07 -0.499985 -0.119999 -0.919988 -0.749998 -0.72 -0.12 0.08 -0.44 0.23 -0.53 0.28 -0.88 -0.25 0.91 0.949603 -0.978826 -0.8 0.06 0.91 -0.22 0.31 
1.14 -0.03 -0.47 0.6 0.4 0.88 0.259999 -0.12005 -0.841541 -0.349999 -0.299898 -0.139807 0.680021 -0.02 1.55115e-07 0.54002 -0.669952 -0.0399531 0.520005 -0.0999927 -0.840001 0.0799996 0.339398 -0.269999 0.47 0.16 0.98 0.81 -0.02 -0.62 0.26 0.0800013 -0.980353 -0.246148 0.369551 0.361819 -0.97028 0.415276 0.312859 0.831209 -0.479427 -0.732766 0.459016 0.386553 -0.256104 -0.899761 0.0322054 0.344503 0.392835 0.677303 -0.449574 -0.442999 0.376208 -0.549658 0.850255 -0.759987 -0.27 0.91 0.730003 0.16935 0.11208 0.856068 -0.272912 -0.681793 -0.0746153 -0.735151 -0.595232 0.142493 0.310882 0.707303 0.556302 0.527692 -0.566483 0.601956 -0.64572 0.734745 0.297892 -0.257411 -0.535314 -0.750146 -0.432603 0.553173 -0.978097 -0.199941 -0.38 0.57 0.590004 -0.506598 0.571589 0.113138 0.126496 0.688792 0.953585 0.938294 -0.762966 0.804527 0.463046 0.935128 -0.27777 0.119382 -0.0699262 0.571482 -0.510382 -0.376973 0.357492 0.86866 -0.318084 -0.122171 0.643335 -0.216529 -0.189554 0.749085 0.610006 -0.42 0.96054 0.568154 0.593952 0.913955 0.410109 -0.547953 -0.266184 0.975865 -0.72973 -0.79526 -0.425914 1.00851 0.787715 -0.224824 0.545498 0.803071 0.915781 1.00566 0.705315 -0.492152 -0.424964 0.232589 0.648389 -0.586341 0.953475 -0.420204 0.210004 0.16 0.54066 0.267946 -0.95704 -0.684092 0.339626 0.0677971 0.822669 0.414327 0.443389 0.05396 -0.382082 1.18304 -0.237244 -0.750933 -0.321775 -0.337872 0.0414721 0.245421 -0.22122 0.486177 -0.160478 0.607925 -0.0390703 0.1044 0.816503 0.680965 0.63 -0.58 0.57001 0.526256 0.299208 0.519053 0.391676 -0.385936 0.867366 -0.79302 0.882222 0.212567 -0.201415 0.240808 1.15585 0.228302 0.0688154 -0.122895 0.399752 0.0328212 -0.642358 0.838729 -0.684578 -0.646846 -0.556119 0.318053 0.50567 0.881092 -0.06 -0.06 0.0700108 -0.599819 0.0351219 -0.953096 0.466957 0.782281 0.999905 -0.297162 0.334257 -0.374847 0.014484 -0.462278 0.70692 0.52462 0.966815 0.256327 1.00217 -0.19574 0.932875 -0.263489 0.607338 0.294796 0.564886 -0.0132846 -0.0785098 -0.929192 -0.27 -0.92 0.570184 0.0319157 0.339177 -0.115848 0.578489 -0.0125369 -0.185209 -0.656627 0.0748224 -0.350212 -0.72195 0.416601 0.566224 0.57075 -0.62298 -0.107849 0.869796 -0.237248 0.769964 0.882157 -0.705011 0.0958396 1.01319 0.456641 0.628515 0.322137 -0.48 -0.44 -0.828901 0.620365 0.806019 0.404341 -0.911933 -0.617198 0.317857 0.74017 0.146157 0.81447 0.832152 1.12235 0.994313 0.101037 -0.138016 1.14957 0.0722691 0.000625191 0.588592 0.267875 1.1184 -0.357621 0.465806 -0.112947 -0.34448 -0.822824 0.05 -0.61 0.692885 0.0402993 -0.308836 -0.535082 -0.0792345 -0.810199 0.25287 0.985341 -0.577815 0.0916561 0.348347 -0.475286 0.844701 0.700482 0.321201 0.344649 1.10601 0.180622 0.604185 0.998911 0.744552 0.177353 0.285456 0.427614 0.0397173 -0.0336158 0.72 0.78 0.689815 0.737897 -0.149814 -0.24349 -0.26547 1.17357 -0.738444 -0.205038 -0.141129 0.649861 0.999785 1.25671 0.42215 1.23665 0.673394 0.512425 -0.0023231 -0.44435 1.23284 0.105314 -0.218767 0.254836 -0.654746 0.874299 -0.410223 -0.534445 -0.68 -0.58 0.808681 0.166723 1.17309 0.737205 -0.298234 0.0815373 1.08599 -0.489341 0.0596708 0.335052 0.146504 -0.111667 -0.182395 0.179047 1.07298 -0.615711 -0.344339 0.338678 -0.0473308 1.20365 0.861866 0.216257 -0.12409 0.729729 1.09155 0.90972 -0.08 0.55 0.55804 0.939305 1.18952 0.411639 -0.016219 0.091114 -0.0738029 -0.0297623 -0.141077 0.413662 0.860872 -0.0719545 -0.276962 0.283732 -0.386809 -0.21617 0.130161 0.239558 0.828819 -0.891923 0.642729 0.612621 -0.154373 -0.285635 1.04294 0.0917885 0.51 0.45 -0.67616 0.768157 -0.158403 -0.1234 -0.261339 0.303239 -0.26034 0.613441 0.232151 0.505194 -0.333998 0.529289 -0.29621 -0.202208 1.38334 -0.0639283 0.435122 -0.441055 0.0128213 0.267722 1.10514 0.545509 0.666004 -0.210497 0.515982 0.75112 0.76 0.28 -0.630092 -0.0211456 0.874618 -0.397748 0.241699 0.904066 0.933708 0.568017 0.277364 0.0521819 0.889346 -0.590759 1.31829 -0.0137997 0.134665 -0.171896 0.599549 1.04726 0.588093 -0.39557 0.581167 0.413418 -0.00871198 0.0203289 0.633608 -0.59744 0.84 0.86 -0.535067 0.522815 -0.0324514 1.39962 0.224858 -0.0950315 -0.510278 0.158161 0.805899 1.02227 -0.635953 0.911789 1.22238 -0.0349735 0.997075 0.262554 -0.595643 0.164112 0.104408 -0.740871 0.402302 0.051932 -0.551891 -0.72855 0.889569 0.194532 -0.16 0.530014 -0.955583 0.0782181 0.0467443 -0.110848 0.103518 -0.197426 0.37835 0.930681 -0.188314 0.856892 0.781479 0.113952 -0.0930578 -0.427729 -0.266248 0.997728 -0.248654 0.853064 0.659426 -0.573135 0.521725 0.702067 -0.0835865 0.753415 -0.595535 0.301778 -0.35 -0.4 0.285134 0.648636 -0.0739814 0.487171 0.39595 0.71186 1.21604 0.911012 1.02704 -0.3479 -0.229088 1.33148 -0.133983 0.660433 0.990529 -0.420367 0.78382 1.02807 0.819141 0.613942 -0.799365 0.571158 -0.418773 0.446791 0.801891 0.280702 0.17 -0.42 0.51052 0.853581 -0.713875 0.615761 0.327423 0.0355692 -0.619308 0.319318 -0.378234 0.181557 1.10554 0.17092 -0.537924 0.761907 -0.813068 0.364435 0.776214 -0.483715 0.274505 0.257641 0.642423 0.657148 0.190856 0.0968372 0.323682 0.430322 0.85 -0.36 -0.107699 -0.65482 0.797734 -0.248103 0.1252 -0.365266 0.893055 -0.213442 0.727958 0.743997 -0.0909655 -0.464819 0.0337682 0.144728 -0.209089 -0.0482098 0.736637 0.339566 0.899304 -0.49425 -0.471741 -0.847608 0.528554 -0.0216613 0.597463 -0.379924 0.09 -0.57 0.912804 0.888145 -0.376998 1.06857 -0.696735 -0.0349814 0.561961 -0.716717 0.153512 -0.0955746 -0.292339 0.886194 -0.498124 -0.633621 0.841649 -0.140325 0.43929 0.420459 1.01042 -0.882533 0.165036 0.585756 -0.980946 -0.214488 0.756378 -0.139964 -0.12 -0.26 0.370784 -0.761424 0.318167 0.0444892 0.239323 -0.0112309 0.65079 -0.167275 0.0530738 0.179969 0.526729 0.683212 1.13905 0.22191 0.432135 -0.495687 0.800094 -0.0920921 -0.626873 0.125395 0.570258 -0.0486144 -0.274713 0.915005 0.0903374 0.62961 -0.72 -0.08 -0.846783 0.69223 -0.702849 0.854729 -0.602939 0.375985 -0.306229 1.01637 -0.253133 -0.371166 1.01639 0.891087 -0.420433 -0.0684564 -0.447131 1.22925 0.102164 1.07184 0.439982 0.149224 -0.120261 0.179002 -0.132214 -0.693305 0.741725 0.688941 0.09 0.12 0.621891 -0.9457 0.0518044 0.227173 0.326611 -0.584098 0.380623 -0.648624 0.997273 0.783492 -0.0780913 1.10423 -0.040994 -0.0921343 -0.747712 -0.326307 -0.586928 1.06047 -0.513124 -0.276025 0.0908833 0.533911 0.0611329 -0.955448 -0.501581 -0.100054 -0.73 -0.17 0.160578 0.250137 -0.820961 -0.674835 -0.207761 -0.671077 -0.450843 -0.5098 0.00915566 -0.0522039 0.261423 0.376261 1.08182 0.451585 -0.231842 -0.286411 -0.512791 -0.572861 1.00282 -0.836224 0.25275 0.868118 -0.220824 -0.149988 -3.54348e-05 0.769996 -0.55 -0.19 -0.319871 -0.829195 -0.938032 0.0363867 -0.415706 -0.525467 -0.435483 0.544453 -0.0367483 0.498656 0.505598 0.175975 0.832174 0.771506 -0.781761 0.111218 -0.875387 0.63671 0.671638 -0.95013 -0.639746 0.104154 -0.930338 0.919976 -0.240001 0.379999 -0.75 0.31 0.01 -0.03 -0.299843 -0.739777 -0.939842 0.230002 -0.139974 0.32 -0.679999 -0.41 0.97 0.14 0.33 0.87 0.9 0.13 0.790047 0.41 0.65 -0.23 -0.0602021 0.16 -0.13 -0.47 -0.68 0.03 -0.67 
-10.7245 0.83 0.74 -0.1 -0.979995 1.02378 -0.7453 -0.889844 -0.372389 0.703185 0.00423948 -0.729526 -0.82 0.969504 -0.0605788 -0.831426 0.0543449 -0.22105 -0.253279 0.255777 0.696276 -0.567866 -0.889832 0.248728 0.29 0.23 0.15 0.68 0.13 -0.04 0.210024 0.347774 0.891223 0.434901 0.239483 0.777013 0.969221 0.699382 -0.247623 -0.203886 0.544575 0.526066 -0.411274 0.329693 -0.211731 0.0764147 -0.271269 0.317904 0.315041 -1.26718 -0.543879 0.296893 0.737298 1.03232 0.889943 0.150827 -0.809995 -0.35 -0.463122 0.335211 0.792255 -0.323772 -0.392603 -0.347129 -0.620902 -0.45679 0.970991 2.16919 2.17329 4.51432 3.81507 4.53504 4.42146 3.09455 2.62702 -1.01816 -1.58108 -2.72869 -0.97056 -1.55643 0.335946 1.00744 1.39479 -0.470321 -0.748923 -0.58 0.347218 0.82564 -0.053718 -0.650869 -1.84196 -1.87881 -1.20142 0.276769 1.11043 2.59384 5.28412 6.32735 6.61243 7.8824 5.08339 5.84766 3.24308 0.159506 -0.213317 -2.9611 -2.7877 -2.96578 -1.59559 1.20914 2.10685 -0.4727 -0.778908 -0.97 -0.995177 -0.240938 1.05677 -2.24711 -4.12265 -2.93622 -2.21022 -0.202889 -0.0241515 2.4608 5.12713 6.31857 5.77713 5.91301 4.63385 2.82826 1.95422 -1.23739 -1.8188 -2.14503 -2.80343 -4.59606 -3.35617 -1.65403 0.35639 -0.526723 -0.899813 -0.6 0.108606 1.06556 0.0677005 -2.55147 -3.57708 -2.87153 -2.50398 -1.74933 -1.2255 1.63602 4.07798 5.74819 5.06207 5.00679 3.10653 1.48062 0.791438 -0.284443 -2.54508 -2.05878 -3.28628 -5.35075 -3.12681 -1.0177 -0.343015 0.573276 0.56 -0.58 0.9098 0.802256 -1.35682 -2.74865 -4.60365 -2.42599 -1.68408 -0.366078 -0.138704 1.42824 4.96289 7.14883 6.57513 7.11695 5.29107 1.75055 2.22575 2.6959 2.8729 2.19075 -3.24764 -5.6533 -3.57116 0.950365 2.02353 -0.534629 0.14 0.81 -0.551328 1.41859 -1.45285 -3.83197 -2.64126 -1.43652 -3.07295 -1.56679 0.710919 1.05928 6.77808 9.03917 6.94083 5.76738 3.97607 0.358621 1.14614 2.14646 3.79876 2.94935 -2.19077 -2.95422 -5.61302 -3.87046 -1.1116 0.215409 0 -0.05 -0.213724 1.69009 0.619216 -2.81495 -0.130607 -2.01357 -3.5579 -1.7956 3.08156 4.71072 8.00504 6.06096 4.11218 3.72409 2.13154 1.08796 2.71524 2.03111 1.2111 0.917748 -1.53928 0.409868 -4.72725 -0.36038 -0.0945432 1.44 -0.599999 -0.26 0.639504 1.41541 1.14794 -3.50469 -2.47645 -3.99413 -4.47739 -0.912825 4.21021 7.58025 6.88863 4.09222 2.62028 3.2175 3.45192 1.24122 2.40897 3.55096 0.872733 -1.19609 -2.31354 -1.78417 -2.5396 -0.301174 -0.394465 -0.319036 -0.98 0.85 0.0294506 0.627252 0.640129 -1.1116 -2.81618 -3.23991 -6.59779 -0.745022 4.96146 5.13238 5.42761 4.53472 2.80742 3.79368 2.55242 -0.060343 3.65489 2.11008 1.87544 -2.19636 -4.34593 -5.86625 -1.84512 1.37858 -0.820105 0.806016 -0.31 -0.26 0.50249 3.08527 0.92399 -1.93662 -3.27803 -4.61706 -6.51988 0.275099 6.33877 6.51751 5.06688 5.13527 2.16132 2.35643 2.20361 4.36022 5.50498 4.77924 4.40757 -1.62609 -5.41618 -4.34845 -2.44063 -0.76421 -1.0021 0.967362 0.42 -0.96 1.31028 1.95857 -1.06102 -3.78967 -2.13434 -5.69323 -3.63984 1.52292 6.28416 6.4724 6.70738 3.68281 4.2101 1.54304 3.23026 4.34582 5.29693 5.91254 4.98655 -0.442146 -4.65181 -2.63024 -2.35583 -2.716 0.291918 0.0170536 -0.79 -0.96 0.00648395 2.73845 -1.75327 -6.17274 -2.69554 -6.3432 -5.16427 0.850332 7.80068 4.95208 4.45791 2.463 3.72373 2.95276 3.30068 4.43998 6.53593 8.88253 8.39662 -1.20945 -3.73841 -1.10034 -4.29551 -3.70524 0.215252 0.964398 0.12 0.81 0.667752 3.43052 -2.05372 -6.76295 -3.59046 -5.76848 -3.92337 0.419672 8.66731 4.6869 1.4429 2.59987 8.31898 6.93829 3.14178 3.70616 5.58185 9.19733 6.71884 -1.69044 -2.57151 -2.3396 -5.18205 -2.29407 -1.55268 1.06639 0.3 -0.32 1.76158 1.32496 -3.64888 -6.73076 -0.962362 -4.05095 -0.813018 2.61654 5.21756 2.54922 0.243672 1.4206 5.01498 6.23825 3.71295 0.147621 4.45392 7.50737 3.41051 -3.81441 -4.97113 -2.84903 -3.46172 -4.03435 -2.27974 -0.476725 0.34 0.83 -0.355632 1.87823 -2.69448 -4.80506 -2.86368 -4.95286 -2.04376 2.2322 4.56864 5.35291 3.88576 1.95716 3.36874 4.20531 2.63192 1.42147 2.38624 4.87004 1.62162 -2.73462 -2.2781 -1.98698 -3.60421 -3.52081 -2.19495 0.970773 -0.0799954 0.270022 -0.204413 2.02019 -3.05522 -4.2833 -2.81353 -3.57566 -0.345853 3.96442 5.63558 4.05445 3.37593 2.97041 0.381148 1.35973 2.62026 2.13842 3.59925 3.95257 1.09087 -0.953197 -2.62623 -1.59232 -1.38835 -1.60272 -1.30908 0.494317 0.17 -0.709999 0.73477 1.56831 -2.5761 -4.44156 -2.90619 -5.36156 -1.71285 3.1508 6.11876 6.24822 4.9808 2.50029 0.625507 -1.17732 0.34399 2.39359 1.81307 0.547572 -1.92586 -1.80132 -5.39205 -5.59532 -0.94051 -2.08021 -1.71603 0.433924 -0.55 -0.01 -0.892284 1.35552 -1.51284 -1.78887 -2.10761 -4.69474 -1.94149 1.74062 4.16082 6.43008 4.35691 0.715533 -0.0754594 0.123907 2.88562 5.33258 5.3511 2.64646 -1.91671 -2.75629 -3.99715 -1.70989 -0.21255 -0.294934 -0.250489 0.258859 0.96 -0.65 0.784967 2.00874 -2.82394 -3.10907 -5.16431 -6.53141 -3.89794 2.11377 6.03769 5.36532 4.06208 2.21579 0.39189 0.282643 1.66546 2.74772 1.82883 -1.27825 -1.52031 -0.935994 -0.921535 -1.69257 -1.48499 -0.962912 0.0815274 0.495159 -0.95 0.41 0.761781 0.343999 -1.87324 -2.72924 -3.43307 -2.36554 0.281752 4.44191 5.50804 8.0403 4.75024 4.50733 2.02022 3.38151 2.29956 2.32674 2.41013 -0.858106 -1.90316 -2.44692 -1.84636 -1.79056 -2.12 -1.56918 -0.275161 -0.924369 -0.12 0.62 0.391963 1.10718 -1.93976 -3.28256 -1.15545 -1.14234 1.22354 3.85616 7.35955 8.24779 6.12192 4.3712 2.54532 4.63681 2.77233 4.14864 3.10174 1.70769 -2.13737 -2.3799 -3.14706 -0.955754 -0.934412 0.832004 1.63096 -0.0311544 -0.54 -0.679349 0.358922 0.641559 -3.43118 -3.9727 -1.65425 -2.11972 -0.341657 4.07734 7.69216 8.0655 5.29176 3.86006 5.20337 6.34408 5.19086 3.6781 3.0004 0.352736 -2.80619 -0.898511 -0.392189 0.0742618 -0.9469 1.37031 0.814239 0.0520479 -0.51 -0.968843 0.282112 0.277821 -2.25459 -3.21771 -5.15264 -2.98744 0.0316615 3.47811 7.62827 6.35425 6.00042 5.56284 6.42461 5.06621 6.82556 5.4899 4.00157 2.17455 2.46626 2.95436 0.120341 -0.423319 0.704014 1.99372 0.841545 -0.679653 0.78 -0.109323 0.584234 -0.895931 -0.166533 -3.88653 -3.30504 -1.86663 0.577273 2.32934 4.55036 3.58374 4.31088 4.12547 3.39012 3.69436 3.39709 4.7167 3.58341 4.04709 3.36386 3.28855 -0.235114 -0.359336 -0.0407692 1.31366 1.24253 0.283515 0.03 0.990005 0.941073 -0.913566 -0.907572 -1.00096 -0.260311 -1.41155 0.478567 1.22637 -0.30462 -0.219236 1.0847 0.831793 -0.550323 0.263854 0.878724 1.24935 0.835523 1.35509 0.580787 0.927456 0.960285 -0.356606 -0.681163 -0.52187 -0.214282 -0.30385 -0.82 -0.79 0.97 0.02 -0.55 -0.78 -0.670004 0.27 -0.930142 0.02 -0.34 0.26 0.49 0.19 -0.26 -0.36 0.92 0.54 -0.78 0.42 0.47 0.06 -0.201635 -0.46998 0.06 0.53 -0.02 -0.18 -0.06 
5.51512 -0.4 0.93 0.88 -0.42 -0.199968 -0.87049 0.324444 -1.01891 -0.745765 -0.320409 0.115686 0.389107 0.419844 0.73 -0.849725 0.0534968 -0.676558 0.828197 0.745438 -0.21 0.19 -0.179772 -0.24 -0.2 0.17 -0.89 0.43 0.55 0.71 -0.410021 -0.830599 0.897075 -0.437723 -0.0275699 -0.725987 0.592092 0.867729 0.252941 -0.135601 -0.80349 -0.548926 -0.813539 -0.156748 0.0448538 -0.308229 0.0665665 0.80111 -0.546762 -0.326143 -0.639363 -0.654716 0.340225 0.383332 -0.531337 -0.784078 0.36 -0.74 -0.280152 0.626168 -1.25304 0.750285 -0.117235 -0.38065 1.86755 1.12601 0.852419 2.74199 1.52858 -0.38429 -1.86233 -1.80142 -3.29138 -2.67837 -0.551006 -0.0861297 1.23815 -0.958964 -1.10255 1.4871 0.870403 -1.13877 0.0269697 0.254124 0.21 0.98 0.621237 -0.135536 -0.633407 -0.376334 -0.800852 -2.97384 -0.326557 3.57339 2.57844 3.45527 2.44769 0.772842 -0.932072 -3.63651 -5.0596 -3.39419 -4.37894 -3.5315 -1.39988 0.0847448 1.64921 -0.490604 -1.68364 -1.8156 -1.06882 -0.183279 -0.05 0.56 0.0348452 -0.749972 -2.41034 -1.94404 -5.10171 -5.38031 -0.442398 1.12541 3.43818 1.73623 0.0393009 -0.267245 1.03802 1.28807 0.615077 -2.59994 -3.73149 -4.00026 -2.91181 -0.612621 -1.10061 -1.40722 0.0549186 -2.35067 -2.42998 -0.135813 -0.09 0.29 0.171221 -0.782289 -1.98724 -3.9945 -5.0593 -4.2453 0.509652 1.27935 -1.32307 0.230821 -1.69482 -0.249909 1.26433 3.09231 1.17569 -0.838697 -3.15144 -2.72565 -3.79327 -4.4078 -2.27693 -0.950052 -0.301629 0.262997 -0.180961 -0.36344 -0.82 -0.12 0.564381 -0.0503416 -1.62216 -3.68841 -5.77937 -3.95448 -1.39791 -1.48271 -2.73 -3.35537 -2.9281 0.693197 2.93636 3.23377 1.41415 -1.94955 -2.96303 -5.39298 -10.0819 -8.04082 -5.39897 -1.51514 1.15731 1.4669 3.03127 0.313888 -0.68 -0.08 -0.7476 0.573126 -2.03049 -2.59428 -5.53685 -4.56701 -2.70137 -1.51882 -3.48684 -3.56527 -1.25276 0.398764 4.8644 5.81641 1.1593 -0.493789 -4.01479 -5.98628 -6.26121 -4.51044 0.898675 4.14298 4.64326 5.18089 4.65658 -0.340207 -0.06 -0.88 -0.425946 0.0178742 -1.83721 -3.93473 -3.67774 -2.10636 -1.2014 -0.463232 -0.289043 -2.94049 -2.70143 -0.896097 2.21569 4.2373 2.52394 -3.75152 -6.5097 -4.95793 -6.19459 -2.37144 5.64719 7.19919 7.38548 5.49312 6.15493 1.41121 -0.169202 0 0.128539 -0.34526 0.24256 -1.30676 -1.97987 -0.30653 2.18456 0.451182 1.7998 -0.318902 1.47514 -0.224188 0.0772996 -0.793864 -3.04608 -6.46252 -9.91924 -9.92506 -4.44826 4.31171 8.44015 10.8397 9.1919 6.49185 3.1308 -0.554985 0.153544 -0.3 0.598213 1.64016 -1.20099 -0.741965 -0.406382 3.31751 2.39862 1.71256 4.14167 3.96423 1.27083 -1.7921 -3.10247 -3.78352 -11.7724 -15.8961 -20.0401 -13.5281 0.375538 8.77199 11.056 8.88257 8.59839 8.61171 5.5787 0.472597 0.74 -0.01 0.223962 0.735132 -1.08278 -1.56344 -2.28057 0.716455 -1.21784 0.404968 4.09167 2.59455 0.375228 -4.10908 -3.87352 -5.41808 -12.3119 -17.183 -17.4055 -9.96797 2.14183 6.62674 7.65807 4.78588 7.71699 8.72182 5.97283 0.226207 0.4 0.68 -0.090452 -0.591516 -4.51682 -6.15257 -3.92267 -2.26295 -1.93874 -3.43419 -2.05128 -2.21965 -0.887668 -3.77827 -4.65153 -6.20402 -7.99453 -12.8218 -12.3256 -3.811 5.69773 9.44765 9.41494 6.48474 7.95015 11.7053 9.82166 0.502554 -0.150615 -0.4 0.145724 -2.064 -4.35231 -2.89598 -2.91998 -0.358682 -1.86523 -3.16334 -2.75719 -3.80485 -0.53223 -2.70807 -3.12561 -4.65694 -4.73533 -6.00596 0.41797 7.20225 14.1104 11.9427 8.93336 8.51097 10.8036 14.1356 10.0954 0.183965 0.84 0.250034 -1.05757 -1.63838 -4.88719 -5.32538 -1.45384 -0.338077 -2.31269 -4.30024 -1.43103 -0.859661 -0.175296 -2.20723 -1.3949 0.802232 3.51868 3.0179 5.32951 10.2428 15.3209 11.7655 7.54244 6.46089 11.0789 11.808 8.41067 0.969288 -0.749827 -0.619802 -0.0239173 -2.6619 -4.7487 -2.54591 -2.285 0.0515976 -1.28267 -2.13474 2.26067 1.89049 0.494872 0.354686 -0.723462 0.502109 1.4986 0.115187 3.206 9.68588 10.4831 5.22644 0.0273491 2.2855 9.39462 11.0926 7.8233 1.00374 0.710032 -0.0599648 0.654812 -2.0694 -4.49808 -4.17846 -3.67303 -0.300829 0.670521 1.13091 6.2955 4.71232 2.6854 -0.202025 -3.25316 -2.96452 -1.36099 0.516132 2.36673 4.86017 5.72566 4.12205 0.793607 2.82129 9.323 8.89411 5.25472 -0.090164 -0.0710871 -0.1 0.566823 -3.49015 -4.95598 -2.01248 -1.88039 -1.51138 1.37223 4.23877 5.64779 5.28399 2.7321 -0.478825 -4.56338 -3.75046 -0.585816 1.05115 2.77704 1.03437 2.50173 5.43164 3.62457 4.51708 6.87173 2.94499 1.8626 -0.959333 0.4 0.840022 0.075878 -2.11179 -1.72574 0.662902 -0.414265 -0.757159 0.416982 3.88384 3.03496 3.62519 3.36196 0.0246487 0.109214 0.120999 2.34388 2.7034 2.96543 4.93216 1.57852 4.42537 5.03899 4.19054 4.67383 0.406904 0.348748 -0.82379 -0.96 0.38 0.635937 -0.172526 -0.147708 2.01394 0.703638 2.04354 2.50502 2.60631 1.33344 1.92439 1.04945 0.0315567 0.753667 0.471258 -1.3873 1.59065 8.72075 10.0674 5.61859 3.62342 4.9745 5.12218 6.10388 2.63936 0.675291 -0.214007 0.47 -0.43 0.783519 0.854496 -0.508997 0.01397 0.58687 5.19486 5.88904 5.10867 2.31016 0.849781 1.51836 1.61221 1.27113 -1.51304 0.152256 3.74346 11.3771 10.3977 5.28022 1.7781 2.4699 2.79861 3.65267 1.85473 0.999872 0.283034 0.17 -0.49 -0.0941325 1.16731 0.571438 -0.0987606 -0.478975 3.96944 5.76163 2.48011 0.904298 2.19655 -0.752255 -0.138774 -0.653855 -2.30573 0.637042 6.05798 11.3127 9.57951 4.77472 2.55068 1.26458 3.2842 1.01433 0.79578 -0.315356 -0.593566 -0.43 -0.66 -1.02459 2.15252 -0.770714 -1.66816 -1.18498 1.75452 2.36878 1.11358 0.315527 -2.90849 -2.31704 -1.78618 0.309184 1.2484 2.87291 7.47861 10.7783 9.14894 4.46194 3.27711 1.50041 3.51912 1.19611 1.12088 1.34908 -0.50958 0.33 0.51 -0.640951 0.181242 -1.40114 -3.90525 -4.93193 -1.5711 2.7826 2.05078 0.259848 -4.03368 -1.87366 -0.678267 -0.811968 0.322311 2.02266 7.92569 9.97972 9.08873 6.14378 4.16197 1.37903 1.52711 -0.189562 0.378616 0.503438 0.736616 -0.43 -0.15 -0.968184 -0.120556 -2.42086 -3.71938 -2.0984 -0.189339 1.82738 1.04277 -0.0114776 -0.963631 -2.44297 -1.79502 -1.56344 -1.9715 -0.226284 6.37592 8.82599 7.75236 5.94385 5.43257 3.13037 0.455328 -0.339713 -1.12026 -0.950135 -0.173158 -0.23 -0.13 -0.415673 0.424759 -1.04743 -1.94464 0.618812 0.4412 0.824945 0.551606 -2.32585 -2.09006 -1.20111 -0.488132 -1.51723 -1.25168 -0.571399 2.70719 0.904372 2.98457 2.63831 3.38802 1.75508 0.154879 -1.17942 -0.109686 0.907352 0.301039 0.44 -0.69 -0.00896708 -0.00158844 0.513937 -0.243467 -0.898672 -0.432411 1.11657 1.04455 -0.436219 0.461701 0.12859 0.138578 0.374316 -1.08272 -0.134267 -0.256066 0.945572 0.198445 0.715847 1.05543 0.520333 0.401363 -1.01321 0.0459227 0.709336 -0.43135 0.82 0.42 -0.39 0.4 -0.835702 0.278579 -0.355613 0.173736 -0.293094 0.919447 -0.285009 0.711165 0.79 0.17 0.64 0.42 -0.17 0.64 -0.309629 -0.6 0.24 0.76 -0.0399242 -0.43 -0.21 -0.91 0.17 -0.62 -0.71 
2.9007 0.1 0.87 -0.34 -0.16 -0.963027 0.609193 0.809809 0.97324 0.812929 -0.0821454 1.06207 -0.684305 -0.88 0.67 -0.0486702 -0.361562 0.0659874 -0.552324 0.848435 -0.202315 -0.555866 -0.520021 -0.86 -0.13 -0.7 -0.23 0.52 -0.08 -0.57 -0.560314 0.063194 0.501098 0.091892 -0.329359 0.0499253 0.395499 0.649131 0.435192 1.01512 0.535692 -0.324858 0.349084 -0.300246 0.757875 -0.875366 0.257007 -0.0579011 -0.555298 -0.785253 -0.785934 0.552018 -0.803616 0.615961 0.230236 -0.730545 0.37 -0.86 -0.295183 -0.88604 -0.827399 0.350285 -0.459921 -0.8271 1.66081 1.06869 1.56104 0.325469 -0.0457918 0.213248 -0.669298 -0.426565 -1.82122 -2.60649 -4.72399 -4.0973 -1.2592 -0.275841 0.601959 0.86367 1.1298 0.407079 -0.264297 -0.91151 -0.02 0.28 -0.898546 0.374996 -1.05226 0.993264 0.521739 1.55245 0.67868 2.79038 0.977217 1.96111 2.11181 0.0761278 -1.71128 -2.85686 -3.1714 -5.40916 -6.22238 -4.73903 -4.71993 -1.48427 0.551382 3.28575 1.89584 0.831435 -0.549433 -0.969817 0.38 -0.31 -0.736751 -0.88503 -0.530452 0.224359 0.955241 0.0751763 1.50782 2.58791 2.42661 0.73561 0.869937 -0.181426 -2.16631 -1.36951 -3.29459 -3.61108 -2.55635 -2.7282 -3.1303 -1.3202 -0.316935 2.2883 0.859925 1.20433 -0.278663 -0.340619 -0.83 0.89 -0.0237535 0.640472 -0.264381 0.519504 0.851677 2.91988 2.87183 2.36382 -0.13556 -2.26762 -0.465545 -1.33066 -0.963652 -0.513537 0.257549 0.0841877 0.445103 -0.174756 -1.80812 -0.727512 0.697227 1.04641 2.46823 3.22636 2.13419 0.295313 0.589997 -0.22 0.169603 1.08098 1.60472 1.30857 2.50935 4.37641 3.60921 2.8222 1.56308 0.541154 0.108638 -1.05594 -0.912855 1.17278 1.44309 0.137736 -0.669842 -1.29739 -1.41764 -3.11031 -2.50597 -0.460875 1.32157 2.93312 1.64678 0.00869429 0.69 -0.01 -0.646429 0.724955 0.913803 1.65419 4.23602 2.23308 1.88131 2.79744 1.25639 0.525261 1.93453 3.06925 3.40843 3.30822 0.366722 2.06734 0.0395027 -2.33354 -2.85713 -1.51655 -0.182619 -0.537841 -0.373118 2.95937 3.55785 1.11687 -0.77 -0.76 -0.632295 0.664842 4.27564 3.33121 4.25416 4.80816 4.3662 4.00335 2.56911 3.31635 3.96646 4.30525 4.30433 3.10025 2.26807 1.30026 -2.1058 -2.10945 -1.8493 0.649671 -0.0848376 0.746296 -2.12993 1.01492 1.95362 1.16151 -0.35 -0.3 0.830395 1.05122 3.25325 3.20358 4.78613 4.06603 6.03402 6.77311 4.37613 5.05589 6.16155 6.20755 5.56334 3.95024 1.80689 1.8677 -1.293 -0.659515 -0.159862 1.33532 1.71428 0.893348 -1.72104 0.644135 0.741625 1.26437 0.21 -0.89 0.526786 -0.370858 2.42136 1.99798 2.46467 2.53893 5.38865 5.54845 5.39248 5.65086 5.902 7.10189 4.54947 3.29449 0.820161 1.81374 1.29983 -0.218167 0.773867 0.20441 -0.297225 -0.682119 -2.05407 0.237362 1.49247 -0.749839 -0.16 0.87 0.875417 -0.546156 -1.11546 -1.93335 -0.762494 1.38369 1.81918 2.21577 4.39794 5.76553 7.26218 5.39247 0.0744326 0.2742 -0.709006 -1.64747 0.566666 -0.202825 -1.68516 -1.07324 -1.54344 -2.8891 -1.55387 0.227268 1.01263 -0.334345 -0.12 0.74 0.363027 0.0138971 -2.08003 -1.48842 -1.8423 1.84819 1.86773 2.28775 4.37247 7.11883 6.68996 5.03273 -0.693812 0.244142 1.76272 3.13858 1.69155 -0.922118 -3.75903 -3.11789 -4.69132 -3.60459 -1.72845 0.495212 2.07481 0.605599 0.00941379 0.07 -0.778703 -1.2611 -2.01077 -2.08108 -2.23301 -1.26892 0.525181 2.79671 6.1236 7.66732 6.60165 4.24929 3.07954 2.75329 3.25982 1.53379 0.660902 -1.36281 -2.26241 -3.49552 -5.55811 -3.97825 -0.85563 2.14245 2.92298 0.245538 0.75 0.29 -0.0567568 -0.274169 -3.71597 -1.48565 -0.834201 -1.03225 0.2634 2.59143 3.8109 6.92578 8.33123 6.22355 4.91477 4.92856 1.84065 1.52203 -0.821365 -1.53058 -2.33516 -2.38276 -3.93935 -2.36804 -0.627872 2.01131 2.68277 -0.340688 -0.33 -0.97 0.848147 -0.86958 -2.30911 -1.44077 -1.12457 0.376355 0.838045 2.27532 2.57749 7.23433 8.34007 4.47684 3.54432 3.14615 2.79164 -1.15939 -1.99801 -3.18491 -1.86784 -1.33928 -1.4865 1.31316 3.56336 3.75329 2.80607 -0.819553 0.19 -0.21 0.0166968 0.604463 -2.96999 -3.41565 -0.925772 1.23001 4.86155 5.11213 7.04682 7.46791 6.05255 4.91103 5.95853 2.98902 -0.0867269 -3.07112 -4.08967 -2.86352 -1.76264 -0.0576294 0.15065 1.03035 0.873739 1.55587 1.06483 -0.428985 0.550007 0.460021 -0.111905 -0.251834 -3.82626 -4.04259 -0.0809803 3.75984 5.03393 5.97539 5.30257 5.98632 5.23829 5.58425 4.85916 3.22408 0.443171 -2.02604 -3.06815 -1.37682 -2.30379 0.587272 1.15311 -0.145539 -0.142236 1.124 -0.323298 -0.00466614 0.450093 0.210021 0.363607 -1.14478 -0.8839 0.141062 1.84324 3.15777 3.61615 3.86051 3.28311 4.02846 4.37547 4.11893 4.59697 4.6982 1.58277 0.232275 -1.30653 -0.829977 -0.729743 0.162723 0.33579 -0.889909 1.7714 -0.994845 -1.51222 -0.958953 -0.98 -0.98 -0.45142 1.39779 2.0557 2.71434 1.83348 3.12329 2.26042 3.45782 2.82007 2.97456 4.85574 3.44233 3.80626 4.26487 3.22964 2.90457 0.332124 -1.74867 0.648444 -0.0956491 -0.791481 0.18741 2.21875 0.0105195 0.211433 -0.219506 -0.54 0.65 -0.311789 3.73546 5.56606 4.29818 2.36049 1.6568 0.164143 0.466569 1.14411 2.93304 1.82029 2.79183 4.34969 4.54066 4.69762 3.86 2.2129 -0.411014 1.33708 0.294629 -2.18715 -0.00803136 1.69509 1.71804 -0.964449 0.211784 0.13 0.129999 -0.747048 3.00194 5.09202 3.08636 2.29193 0.207428 -1.13214 -1.73658 0.0175659 0.665746 1.04681 1.49506 2.70294 4.2521 5.51914 6.32563 5.40542 3.15855 2.26195 1.31485 0.45608 1.40576 2.83721 1.64622 -0.943177 -0.488232 0.51 -0.0800028 0.403296 2.70043 3.66963 1.02727 -0.162236 2.75314 1.88915 1.77122 0.522303 -0.500907 0.0454695 2.06628 1.76381 4.09262 4.50905 6.40634 6.4529 5.66539 3.96191 1.31376 0.666047 2.19016 2.57137 1.98016 0.213482 0.763105 0.94 0.87 -0.401748 0.995773 1.80145 1.13698 0.0318056 1.23092 3.8345 2.78354 2.57312 0.742673 1.96713 1.56894 1.90506 1.781 3.10867 4.3894 8.00699 7.65615 5.5962 2.3712 1.92692 3.4185 2.3117 0.93067 0.918251 -0.370018 -0.37 -0.1 -0.0701203 -0.338976 0.785344 -0.0658426 1.90188 3.01664 1.60774 0.665588 1.7192 1.43968 1.73285 1.80001 0.225221 1.02071 2.05862 3.07216 6.17575 6.22332 4.16476 3.36767 2.27524 1.11408 1.34955 0.876679 0.367426 0.345918 -0.21 0.04 0.567339 -0.119758 1.68804 0.57118 0.799841 2.02153 -0.00413143 0.239988 0.407684 0.24733 -0.929187 0.108358 0.212282 1.16621 0.951903 0.586411 2.61148 2.36261 2.44874 2.09073 1.12566 1.79582 0.601399 0.809223 0.337826 0.124078 -0.67 0.8 0.80797 -0.303146 -0.551083 0.848717 -0.757757 1.08706 -0.356415 -0.782226 -1.03195 -0.060713 0.0519561 -0.55664 -0.0282067 0.862023 -0.977182 0.274678 0.822153 -0.848545 0.357841 -0.259985 0.722023 -0.588395 -0.0363562 -0.152531 -0.876811 0.29 0.89 0.71 -0.47 -0.49 -0.15 -0.83 -0.59 -0.509217 0.918135 -0.731569 0.348051 -0.130027 -0.86 -0.01 0.77 -0.23 -0.72 -0.06 0.929291 0.23 -0.11 0.44 0.289993 0.76 -0.2 0.74 0.31 0.54 -0.03 
11.7771 0.15 -0.89 -0.91 0.0199435 -1.04997 -0.80607 -0.192317 0.0977713 0.473466 -0.423244 0.953047 0.8539 0.988529 -0.400322 0.596226 0.600937 0.120341 -0.452285 0.745401 0.889688 0.138973 -0.135177 -0.512537 0.52008 0.18004 0.45 0.88 0.02 0.43 0.170106 0.0958473 -0.528787 -0.177363 0.450268 0.200065 -0.245332 0.486681 -0.326879 0.028574 -1.54469 -0.784148 0.703352 -0.396514 1.06429 -0.795447 0.712654 -0.969208 0.102635 0.139136 -0.108019 0.359184 1.04101 -0.796107 -0.234649 0.176419 -0.1 0.91 -0.497875 0.422111 -0.441052 -0.561872 0.218106 -0.23186 -0.914468 -1.29466 -0.888264 -1.99793 -1.4563 1.17712 1.66606 2.17241 1.69645 0.0523628 -1.51168 -1.40396 -2.72014 -1.9821 -0.273752 1.85102 -0.887163 -0.369263 -0.861604 -0.914912 -0.940001 -0.87 -0.128869 0.120795 -1.79492 0.173125 0.614781 0.307996 0.3909 -0.730641 -0.335852 0.576438 -0.0943406 0.641856 2.99245 2.10586 1.03907 -1.4941 -1.82004 -0.349464 -0.412005 0.55144 0.08122 -0.227702 -2.28625 -1.1333 -0.697063 -0.585284 0.639948 -0.38 0.337745 -0.498344 -2.78031 -1.15745 -0.848823 0.0469528 -1.23805 -0.690739 0.408621 -1.25412 0.438238 0.690284 1.50349 -0.0626068 -0.334993 0.646641 -1.8859 -0.886202 -1.66591 0.00479075 0.181848 -0.149677 -0.716171 0.354307 -0.981967 0.068961 -0.800032 0.22 -0.977105 -0.206361 -2.01232 -1.04024 -0.0495117 0.0636501 -0.846627 0.115374 1.46261 -1.4808 0.649902 1.29659 0.379485 0.286409 0.329689 -1.43705 -1.60276 0.0194195 -1.12346 -0.568695 0.650527 0.90293 1.13724 0.018897 0.721302 1.00944 0.699997 0.24 -0.601891 -0.372438 -1.46171 -0.610285 -0.0996066 -1.05782 0.611941 -0.160055 -0.681041 -0.508049 -0.771566 1.37675 -0.496504 -1.70105 1.09593 -1.28018 -1.84003 -0.855696 -0.0907573 1.56156 1.42049 1.58863 2.89766 3.3048 0.334289 -0.979239 0.01 -0.38 0.105894 -0.697019 -0.750784 -0.0706976 -0.717648 -0.971686 0.179655 1.02717 0.393268 1.17977 -0.71406 1.05976 0.440603 -0.931266 1.4872 0.709128 -1.73532 -2.67468 1.30643 2.73681 3.03293 2.8309 3.40067 2.98174 -0.355242 0.572346 -0.45 -0.17 0.255422 -0.403425 -0.429772 0.586176 -0.0541698 -0.92525 0.281421 0.185341 0.544881 1.23925 -0.755329 -0.58136 0.74845 2.24495 1.79547 0.361168 2.02302 -0.380438 0.555 3.88789 3.03159 3.74284 2.98368 1.01738 0.748896 -0.921571 0.239987 0.09 -0.971095 -0.552411 -0.124838 -0.432128 -0.0571183 0.438627 0.509205 1.22557 -0.48321 -0.0140135 1.22095 0.335015 2.23074 1.34062 1.45443 1.67248 1.65603 1.67857 0.869108 1.62529 2.81503 2.89743 1.63016 -0.238955 -0.769244 0.924781 0.699998 0.72 -0.167807 1.0745 0.142383 0.0173811 1.03315 0.175418 -0.349477 -0.112101 -1.01304 -0.213879 0.240536 0.225811 0.168078 1.06248 1.27039 0.393446 -0.855511 -1.20419 -2.00977 0.427564 1.98639 0.931342 -0.313767 0.801903 -1.38506 -0.757164 0.26 -0.56 -0.377839 0.0753454 0.714755 0.543177 -0.121602 0.735998 0.723031 -1.2533 -1.35346 -2.24476 1.02107 -0.378051 2.49097 1.3833 0.282722 0.788646 -0.832217 -0.832125 -1.63142 1.94702 0.530092 -0.122301 -0.957254 0.378956 1.62167 -0.483407 -0.69 0.88 -0.776555 -0.543947 -0.818883 -0.602935 -0.12144 -0.322217 0.320046 -2.03981 -0.781835 1.04794 0.480204 -0.291525 2.38951 1.61086 2.10024 -0.595403 0.216356 -1.06182 -0.157445 0.859057 -0.545383 0.275953 0.487408 1.52166 0.242492 0.46888 0.47 0.02 0.618976 0.12049 0.831567 -1.33897 -0.364087 0.999704 0.260254 -0.144578 -0.19905 -0.432626 -0.794925 0.189266 1.4301 -0.909919 -0.517247 -0.420457 0.78775 0.327225 0.0184075 -0.820416 -1.55626 -0.641815 1.05385 1.63108 1.13597 -0.154627 -0.31 0.499999 0.364807 -0.630187 -0.178289 -0.882218 -0.177436 0.51029 0.289706 -0.0782307 0.574498 1.08321 -0.863654 -0.717206 0.51861 0.171698 1.26683 0.667236 -0.167996 1.39943 -0.636135 -0.631173 -1.75311 -0.000602559 0.949991 0.586237 -0.457252 -0.117534 0.0399969 0.129992 0.92346 0.0139714 -0.345048 -0.417421 0.922423 -0.627416 0.566144 -0.176085 -0.506731 0.292443 0.523223 0.836144 -1.61298 -1.6912 1.10646 1.02408 0.918757 0.171707 0.295761 -0.420907 -0.573868 0.831377 2.44457 1.52235 0.986137 -0.377882 -0.560001 0.779985 0.512912 0.537 1.31623 1.38245 -0.0245575 -1.39797 -1.53614 -0.65513 0.917484 1.15429 -0.238754 -0.110822 -3.11132 -2.5939 0.0792577 -0.385028 0.730252 2.32864 1.73088 0.650254 0.0161073 1.39435 1.5648 0.706214 0.240119 -0.853233 0.25 -0.300126 -0.0937236 -0.745293 1.09588 2.59255 0.61778 -0.0226716 0.511476 -0.455611 0.164244 0.386622 -2.15963 -3.00744 -2.65725 -2.10392 0.380182 0.471465 2.24931 2.26051 1.0897 -1.66309 0.0674198 0.317398 -1.1555 0.444038 0.217861 -0.250588 0.95 0.209996 -0.750781 -0.207925 0.220753 0.418931 0.737431 1.66905 0.751172 -0.640125 -1.18039 -1.89745 -2.83003 -2.69263 -1.69928 0.0788428 0.204104 0.678401 1.23526 1.72694 -0.045649 -1.20338 -0.945424 -0.209164 -0.679917 0.736952 -0.545208 -0.558047 -0.51 0.2 -0.485982 1.33151 1.0015 1.03284 0.555535 1.80123 -1.68756 -2.19364 -2.17159 -1.05552 -1.31061 -2.46108 -1.9268 -1.20445 -1.3358 -1.18404 1.79569 2.18134 2.60977 2.11834 0.461632 -0.0805755 -0.322707 0.61242 -0.683282 -0.988794 0.31 0.06 0.889807 1.6283 0.521387 0.922052 2.08387 1.3922 0.5719 0.462811 -1.01331 1.14515 -0.22499 -0.272932 -1.88093 -2.33034 -3.71674 -0.553455 2.20524 2.22712 1.84993 1.27912 0.872465 -0.299986 0.071201 0.247252 -0.110683 -0.562588 -0.38 -0.450001 0.916877 0.163021 2.16075 1.73747 0.577899 0.576735 0.227212 -0.855699 -0.934426 -0.923365 0.65113 -1.29203 -2.0499 -0.645855 -1.26277 -0.895511 1.36104 1.27034 1.49576 1.51011 1.60114 0.590023 0.536204 -0.273476 -0.585863 -0.964201 -0.01 -0.550003 -0.493163 1.23763 1.72598 0.541269 -2.31699 -0.589343 -0.517995 0.311821 -0.122855 1.37799 1.09954 -0.17537 -1.4088 -1.94554 -3.85003 -1.77663 -1.12659 0.74159 1.65478 0.816997 1.3179 1.03388 -0.0188656 -0.738353 0.0518082 -0.0873083 0.05 -0.540001 0.0509729 0.44858 0.458203 -0.679184 -1.29871 1.02174 0.846915 -1.35474 -0.771181 -0.199848 -0.603206 -0.362894 -0.311236 -2.48714 -2.52671 -3.47423 -1.04303 0.720662 -0.14058 0.985059 -1.18925 -0.283741 -0.108015 -0.340651 -0.555942 -0.164826 -0.31 -0.350001 -0.169504 0.263367 -1.37251 -0.29018 -1.25716 0.488943 -0.145246 0.700468 -0.294621 -0.472142 -0.961511 0.846979 -0.349374 -0.757502 -1.73902 -2.08347 -3.03253 -2.8486 -1.97947 -1.45528 -0.988695 -1.22115 -2.7574 -2.42319 -1.91516 -0.441197 0 0.0399994 0.726266 0.443024 -2.12645 0.493805 -0.692177 -0.22664 -0.135988 -0.374503 -0.141871 0.446037 -1.47311 -0.379131 -0.36631 -2.83545 -1.82688 -2.115 -3.23832 -1.54135 -1.7855 -0.247355 -2.15464 -0.3675 -1.85753 -0.750315 -0.733498 -0.330721 -0.28 -0.53 -0.748443 0.463385 -0.838789 -0.253856 0.308089 -0.939493 -0.307367 0.299989 -0.773079 -0.752604 0.0185402 0.636442 0.644111 -0.327867 -0.924253 -0.000553316 0.257257 -0.438493 -0.201683 -0.629782 -0.589629 1.00256 -0.114126 0.173053 -0.773864 -0.541797 -0.64 0.37 0.58 -0.65 0.57 0.0700025 0.690009 -0.00979832 -0.650175 -0.757387 -0.459115 -0.589129 0.43 -0.81 0.836817 0.337005 0.53 0.97 0.13 -0.09 -0.69 -0.42 -0.133522 0.378713 -0.32 0.51 -0.34 0.45 0.78 
-1.83258 0.78 -0.33 -0.24 0.65 0.430047 -0.29973 -0.509979 0.54 0.3 0.26 0.74 -0.66 -0.95 -0.31 -0.450002 -0.0300027 -0.140002 -0.96 -0.62 -0.78 0.79 0.939991 -0.94 0.23 0.5 0.43 0.37 0.41 -0.76 -0.56 0.909516 0.699466 0.585312 -0.635035 -0.969461 0.121539 -0.295454 -0.0815424 -0.214084 -0.531844 0.136024 -0.816722 0.656894 0.804046 0.330303 0.140303 -0.883919 0.558105 0.590501 0.528649 -0.375809 0.200476 0.82207 0.05133 0.52 0.96 -0.11 0.89223 -0.738699 -0.581469 0.128685 -0.0567514 0.304952 0.302315 0.714144 -0.910974 -0.851073 0.55811 0.28704 0.573078 0.405457 -0.102937 -1.10068 0.61531 -0.273271 -1.09125 0.465768 0.587545 0.523768 0.820183 0.391323 0.127926 -0.179279 0.92 -0.22 0.621409 0.0127907 -0.813423 0.391789 -0.0219121 -0.491419 -0.370303 0.210079 0.337322 -0.214359 0.0973558 -1.57945 -0.251252 -0.208529 -0.357553 -0.595592 -1.44865 -1.03343 -1.06666 0.513404 -0.357383 0.715049 -0.562358 0.734076 0.670255 -0.105745 0.07 -0.21 -0.726852 -0.533333 0.767092 0.687619 0.217958 -0.34541 -1.52326 -0.585659 -0.14705 -1.54119 -1.81366 -0.624594 -2.06571 -1.28813 -1.7969 -1.80909 -1.07573 -1.50087 -0.4027 -1.07064 -0.759597 0.181879 0.370704 -0.0902179 1.02541 0.209308 -0.83 -0.34 -0.111157 0.809978 -0.500795 -0.666104 -0.838802 -0.804799 -0.014555 -0.860626 -0.287367 -1.60659 -1.92615 -1.39704 -1.93168 -2.00983 -0.939606 -0.245051 -1.43186 0.160163 -0.500016 -0.602204 -1.10445 -0.838211 0.169764 0.118308 0.145696 -0.608869 -0.86 0.36 0.497789 -0.31226 0.399463 0.852003 -0.523924 -0.390477 0.325878 -1.19308 -1.49763 -0.977397 -1.8375 -0.163813 -1.93893 -0.155955 -0.695173 -1.30074 -1.15728 -0.703263 -0.370699 0.47238 -0.658382 0.619296 -1.10144 0.504596 -0.853095 0.969702 -0.59 0.01 -0.513183 0.890509 0.574555 -0.138214 -0.0263097 -0.603274 -0.361678 -0.21305 -0.496339 -0.0227064 -0.646375 0.0721501 0.125825 -0.583181 -0.125281 -0.0386285 -0.110109 0.458895 0.522723 0.650131 0.708656 -0.392037 -0.43033 0.00681215 0.665397 0.060285 -0.72 0.6 0.634421 -0.39901 -0.449675 0.268439 -0.29176 -1.09621 -0.0641937 -0.844537 -0.430498 -0.373533 -0.244469 -0.679588 0.339618 -0.780815 0.54037 -1.27523 0.327274 -1.1541 -1.52762 -0.666769 -0.964002 0.635009 -0.656581 0.336934 -0.137041 -0.653976 0.419643 -0.11 -0.247423 -0.660837 -0.79628 -0.372098 -0.722629 0.091405 1.11067 0.228164 -0.313296 -0.205592 0.759871 1.03744 -0.790294 -0.126286 0.729336 -1.0734 0.041484 -1.19097 -0.845734 -0.0810017 -0.27805 -0.735729 -0.71408 -1.09437 -0.938747 0.460673 -0.860063 -0.28 -0.640486 -0.868854 -0.465973 -0.309402 -0.987216 0.500388 0.133372 0.999769 0.169395 0.193688 -0.523079 0.442555 -0.173352 0.149111 -0.711604 0.772704 0.593624 -0.0703868 -0.90303 -0.0470243 -0.663633 0.0453883 -0.357063 0.398878 0.419459 -0.430717 -0.81 0.32 -0.209054 0.817566 -0.0990683 -0.583776 1.19801 -0.280289 -0.382163 0.63606 0.365362 0.776542 0.88543 0.589772 0.334058 -0.559129 -0.435624 0.0858432 -0.341707 0.43187 -1.29482 -0.503967 -0.189824 -0.362502 -0.591463 -1.13982 -0.995245 -0.384685 0.6 -0.37 0.600528 -1.00667 -0.268729 0.142906 0.219667 -0.116675 0.24912 -0.858829 -1.13827 0.205657 -0.38164 0.00421497 0.567612 -0.418275 0.197822 0.0979097 -1.68712 -1.64651 -0.816856 -0.661197 0.00449187 -1.01553 0.869951 -0.050838 1.06273 0.639262 -0.95 0.96 -0.939569 -0.981134 0.503774 -0.0703615 -0.461182 0.135729 -0.612464 -0.696 -0.487574 0.935136 0.187223 0.954853 -0.199371 0.0990789 -0.466838 -0.935448 -0.797985 -0.582322 0.184382 -1.02148 -1.00891 -0.102722 -0.291283 -0.751885 -0.55507 -0.235371 0.56 0.52 -0.468393 -1.08958 -0.574779 0.462269 -1.06588 -0.233024 0.836808 -0.3531 0.309916 -0.139854 -0.060368 -0.205156 0.825518 0.561292 -1.32451 -0.497601 -2.16275 -1.69378 -0.806001 -1.20753 -0.654616 -0.797935 -0.41154 -0.312677 -0.29499 -1.0016 0.24 0.769893 0.281888 0.437843 -1.42882 -0.696004 -1.25203 -0.427849 -0.665639 0.632558 -0.409025 -0.329133 -0.428774 -1.01646 -0.248007 -1.09155 -1.38674 -1.60058 -0.412612 0.25767 -0.105074 -0.237354 -0.223706 -0.260283 0.512358 -0.135379 -0.980621 0.758592 0.92 -0.000394344 0.470193 -0.540644 -1.30953 -0.0736588 -1.03782 0.69242 -0.650735 0.00591824 -0.300837 -0.508705 0.713122 -0.818216 -0.299893 0.273642 -0.518007 -0.889085 -0.981502 -1.37097 -1.25035 -0.771211 -0.465984 0.869402 -0.624781 -0.0511797 -0.343411 -0.232619 0.67 0.879842 0.94397 -0.987362 -1.04722 -0.260797 -1.60557 -1.0109 0.684194 1.11225 -0.739181 0.0276214 0.234373 -0.394853 -0.0924367 -0.326125 0.589038 0.383576 -1.00952 -0.258508 0.477996 -1.24514 0.545586 -0.52077 0.446766 -0.0416042 -0.591721 -0.0959494 -0.25 -0.290022 -0.961002 0.473578 -0.197889 0.135243 -0.10578 -0.795967 -0.985023 0.0690121 -0.245767 -0.53806 0.569944 -1.00456 -0.569344 0.0217441 0.668612 -0.538667 -0.677536 -1.38255 0.0655268 -0.809558 0.676228 0.507845 0.949899 -0.779698 0.679678 0.945025 0.72 -0.39 0.38928 0.27401 -1.3341 -0.331957 -0.0633641 -1.11776 -1.47647 -0.461995 0.0463103 0.312507 -0.736407 0.481847 0.229723 0.579531 -1.19491 -1.36813 0.161643 -0.784663 -0.555649 0.659188 -0.622318 -0.768724 0.922876 0.390005 0.0247105 -0.195734 -0.3 0.14 0.909166 -1.06788 -0.788663 -1.01971 0.215225 -1.37074 0.00825019 -1.29876 0.812058 1.11704 -0.736276 -0.889685 0.990221 -0.847599 0.148512 -0.934715 -0.26521 0.732778 -0.670402 0.644058 -0.333332 0.767119 -0.341917 0.0838126 0.687212 0.901993 -0.95 -0.35 -0.378493 -0.912734 -0.324175 -0.751375 -0.517744 0.132841 -0.826874 -0.810029 0.986432 -0.277802 -0.448076 -0.23912 -1.34054 -0.804301 0.54683 0.50551 0.863715 0.340761 0.621106 -0.727983 0.301237 0.254071 0.842189 -0.544998 -0.439735 0.226865 -0.99 -0.19 -0.5027 -0.570812 -1.70634 -1.6725 -0.159542 0.161376 -0.537244 -0.830439 0.437946 -1.12839 -0.547003 0.46432 0.354148 -0.924928 0.00638277 -0.194296 0.564592 0.256057 0.250918 -0.593693 0.136985 -0.0719037 -0.338537 0.614638 0.225563 -0.488696 -0.43 -0.34 0.353512 -0.173435 -1.50813 -0.515433 0.0106261 -1.00352 -0.843193 -0.931146 0.321995 -0.612871 -1.28278 -0.946215 -0.255227 -0.675719 0.788027 0.0884155 -0.435423 0.366609 -0.624694 0.10597 -0.709059 0.0500958 0.581003 0.309909 -0.103527 0.538951 0.28 -0.32 -0.240894 -0.82934 -1.17247 -0.357962 -0.317682 -0.64563 0.12209 0.457008 0.84107 0.312028 -0.268947 -1.00626 -0.439292 -0.28531 -0.0990519 0.244799 0.627416 1.02055 0.637635 -0.0736559 0.428032 -0.57354 -1.0185 0.114438 -0.320382 0.350019 0.69 -0.92 -0.260571 0.804943 0.65525 0.737848 0.990895 0.853063 0.35537 -0.184113 -0.638824 -0.632738 -1.12154 -0.434113 0.366452 0.44533 -0.860454 0.839369 0.198104 -0.49225 0.735075 -0.245634 0.883054 -0.874369 0.0902793 0.575725 0.0326277 -0.140035 0.09 -0.25 -0.850024 0.239332 0.0600241 0.782087 -0.782641 0.709674 -0.762599 -0.346781 -0.315115 -0.0137275 -0.493927 0.619559 0.0702054 0.547656 0.257497 0.650448 -0.338012 -0.467753 0.523987 -0.936042 -0.471605 0.0853546 -0.981188 0.511737 -0.630048 0.84 -0.68 0.33 0.3 0.27 -0.71 -0.05 -0.6 0.54 -1.40566e-07 0.7 0.68 0.23 -0.6 0.28 -0.45 -0.88 -0.93 0.18 -0.36 -0.9 -0.39 -0.43 0.669997 -0.75 0.21 -0.23 -0.87 0.37 -0.9 
