2
0.626535 -0.61 0.45 -0.23 -0.18 0.6 -0.31 -0.590038 -0.450001 0.680001 -0.4 -0.449987 0.500002 -0.04 -0.699999 -0.830015 0.899894 -0.820093 0.450012 -0.539984 0.8 0.44 0.17 -0.13 0.64 0.67 -0.02 -0.66 0.14 -0.9 -1 -0.13 0.800108 -0.0995181 0.0103467 -0.209617 0.370371 -0.840308 0.336002 0.378656 -0.0258582 0.0300253 -0.0917137 0.130198 -0.100146 0.379875 0.679905 0.930418 -0.209136 -0.979849 0.667706 0.164277 -0.719982 -0.0800018 0.419999 -6.48179e-08 0.24 0.05 0.9 -0.879814 -0.677362 -0.326698 -0.287099 -0.899559 0.565107 -0.375455 -0.828501 -0.335333 -0.0790759 0.579236 0.362746 0.223788 -0.0610434 0.984899 0.359403 -0.407183 -0.406251 -0.196551 0.930233 0.47523 -0.143075 0.77459 0.864343 0.0602028 -0.29 -0.49 -0.229491 -0.917692 -0.991947 -0.319882 0.0519244 0.594126 0.320098 0.388932 0.172342 -0.813634 0.46034 -0.812971 -0.803297 0.636936 0.172563 -0.13016 0.358881 0.545826 -0.776271 1.03322 0.209859 -0.0895033 -0.575191 0.63067 -0.606049 0.47364 0.0599996 0.08 -0.548771 0.252002 0.137773 0.315671 -0.154099 -0.589966 0.503295 0.630333 -0.657654 -0.885349 -0.351133 -0.415006 -0.409952 -0.493101 0.351066 0.488874 1.17096 1.29284 0.352882 1.40713 0.957026 -0.0646425 -0.789148 -0.0861086 -0.764848 -0.378348 0.32 0.77 -0.618866 -0.188375 0.432206 1.03889 -0.674821 0.300149 0.959325 1.00901 -0.39485 -0.210494 -0.412355 1.38919 -0.528566 0.149889 0.410401 -0.473038 0.460229 -0.437552 -0.346337 -0.446761 1.13562 0.213573 0.307753 -0.589609 -0.68775 -0.987634 -0.139712 -0.39 -0.400016 0.333687 0.749388 0.72483 -0.394482 -0.150601 -0.0779409 0.205429 -0.29819 0.97682 -0.411301 0.524958 0.0578854 0.71089 0.72721 -0.415688 0.668584 1.0545 1.17184 0.406199 0.979907 -0.411292 0.112566 0.984162 0.603659 -0.99938 -0.12 -0.96 0.139918 -0.00873492 0.998058 0.588679 -0.363248 0.840932 0.725159 0.602562 -0.313078 -0.414344 -0.587952 -0.158305 0.341016 0.272541 1.25242 -0.435671 0.473882 0.137586 0.455779 -0.30143 0.0192823 1.23595 -0.304898 0.952869 -0.856787 -0.539234 0.1 -0.49 0.0913082 -0.234738 0.121704 0.939809 0.181287 -0.0733821 0.971229 0.947787 1.3228 0.428831 1.25193 0.258556 0.380956 -0.705984 -0.820386 -0.338232 1.03004 -0.0148315 -0.557863 0.526537 0.76718 -0.068082 -0.327954 0.815613 -0.419677 0.571704 0.139975 0.41 0.838638 0.670346 0.195204 -0.892786 0.72438 0.843532 -0.346697 -0.309848 0.122402 0.606159 1.0157 -0.164084 0.98318 -0.231985 -0.10785 0.975459 0.235355 0.178033 -0.45603 1.33374 0.108655 -0.22931 1.0587 -0.782779 0.626748 0.527872 0.739996 0.54 0.492182 -0.365385 0.320751 -0.112341 0.50631 -0.135896 0.296149 0.715482 1.02641 0.385226 -0.113287 0.224709 -0.83593 -0.210218 0.0371843 -0.291697 0.636702 0.829295 -0.816381 -0.551803 1.16752 0.16529 -0.396628 0.472759 -0.610828 -0.0622011 -0.02 0.35 -0.225073 0.851856 -0.280209 -0.523256 0.852936 -0.0537962 -0.204947 -0.164161 0.500103 -0.65267 0.754532 -0.803885 -0.754299 0.149956 1.19697 0.0657323 0.523547 0.400709 -0.874887 -0.244124 0.514589 -0.136674 0.277625 1.05065 0.22766 -0.0709225 0.12 -0.99 -0.529276 -0.216891 0.441023 -0.332289 -0.323711 0.971434 1.14649 -0.179577 1.30186 0.424671 -0.204761 -0.645856 -0.0447924 0.104494 0.536525 0.981519 0.151954 1.07833 0.14508 0.139382 -0.468689 1.00195 0.0454542 -0.184252 0.101431 -0.461648 0.96 -0.51 0.900165 0.923785 -0.569361 1.09182 0.505551 0.703918 1.27463 -0.587997 0.818152 0.723395 0.715051 0.723523 -0.0271796 -0.472928 0.501193 0.341675 0.8322 -0.619334 0.475394 -0.384107 0.836405 0.834738 0.292764 -0.544715 0.900032 0.139741 -0.03 0.0299998 0.130111 0.203572 0.138346 1.10075 0.0493807 0.1653 -0.466928 0.35244 1.06419 1.03946 -0.25586 0.197853 -0.114411 -0.374608 0.93958 1.13368 0.871437 0.952632 -0.576647 0.351399 0.636148 1.19318 -0.384684 -0.19825 -0.849278 -0.0684657 0.339999 0.579991 -0.629662 0.0729399 -0.772241 0.78972 1.26872 1.29251 1.18177 0.0518803 0.141774 0.300797 0.590445 0.841226 -0.789926 1.06543 0.402843 -0.24904 -0.0940749 -0.61158 0.989722 1.2152 -0.549982 0.101396 0.161364 -0.112687 -0.220798 0.0157165 -0.0700002 0.519973 -0.00898677 -0.842929 0.510773 0.161152 0.208335 -0.110945 1.35611 -0.0239252 1.18991 0.448343 0.256825 0.161424 0.915709 -0.604304 -0.0777922 -0.234394 0.0220651 0.590194 0.661997 0.830508 0.962672 0.461017 -0.185178 0.533295 -0.225568 -0.0612264 -0.86 0.639988 0.424861 -0.723148 0.573323 0.544726 0.269645 0.512038 -0.19165 -0.0838334 0.579996 -0.326003 0.935362 0.558546 -0.848006 0.102579 1.29468 0.921059 1.3229 0.9021 1.05379 -0.223 0.0295746 -0.14261 -0.345777 0.229297 0.347822 0.479311 -0.02 -0.0599939 0.626217 -0.240344 1.01835 0.887645 -0.237803 1.07754 -0.0300339 0.711268 0.688978 -0.390508 1.00851 0.407395 -0.608502 -0.367254 0.449375 0.693319 -0.55007 1.16853 0.850971 0.279355 1.16637 0.457579 1.09812 -0.587667 -0.510085 -0.190087 -0.44 0.02 0.0692843 0.508962 0.863402 1.0864 -0.630236 0.400912 -0.00729507 0.793683 0.102599 0.179502 1.03053 0.826565 0.601565 0.629034 -0.218719 1.10699 1.31593 -0.397839 0.16611 -0.0124628 0.300518 0.319448 0.525301 -0.172748 -0.808635 0.667214 0.32 -0.34 -0.66739 -0.150261 -0.309436 0.0663766 1.37763 -0.402864 0.470781 0.227055 0.953008 0.174914 0.697606 0.947505 0.567014 1.21005 0.798288 -0.00523758 0.757316 -0.0849261 -0.126013 -0.609865 -0.340024 0.809215 -0.511963 0.733941 -0.464179 -0.939863 0.15 -0.409944 0.161132 0.599657 0.148036 0.76814 1.05632 0.585807 -0.4811 0.178951 -0.20828 0.33592 -0.071982 0.657712 0.651818 -0.504782 0.120516 0.28433 0.725439 -0.307324 1.02705 -0.595005 0.147884 -0.443078 -0.262015 0.527594 -0.0672624 0.751407 -0.31 -0.409712 0.301633 0.00196593 -0.774135 1.13795 -0.419686 -0.334611 0.0139596 0.170211 -0.130019 0.549995 -0.123513 -0.0116477 0.468285 -0.315386 0.552769 1.22353 1.09169 -0.471006 0.750497 -0.38661 1.0026 0.645009 -0.58042 -0.884637 0.300204 0.401834 0.19 0.63 -0.940623 -0.169844 -0.101158 0.636381 1.30116 0.120966 -0.174093 -0.14256 -0.0305154 -0.426901 -0.643729 0.0375558 -0.239713 -0.82108 -0.213663 -0.0352961 -0.419814 0.236467 -0.42924 -0.845829 0.462332 0.715269 0.896176 -0.614649 0.677372 -0.528734 0.15 0.88 -0.47095 0.567144 -0.633762 -0.79943 -0.253145 -0.498194 -0.0682453 0.871491 0.482516 0.491104 0.328344 0.117995 1.01805 -0.886402 1.03257 0.0981575 -0.005963 0.163849 -0.240679 0.169038 -0.87887 0.548984 -0.865928 -0.709805 0.0332829 -0.249457 -0.04 -0.68 0.452164 0.811408 0.550402 -0.0401814 -0.372862 0.524491 0.0441314 -0.574232 0.502546 0.581198 0.227425 -1.00464 0.36113 -0.141867 0.528225 0.450917 -0.938608 -0.750577 0.722134 -0.160129 0.235806 0.707154 0.68707 0.736771 -0.140008 0.26 -0.09 0.01 0.455744 -0.867451 0.764213 -0.870678 0.640065 -0.119879 0.450263 -0.668178 -0.479234 -0.199917 0.780135 -0.428624 -0.750842 0.576804 0.0176965 -0.471749 -0.171462 0.920787 0.350697 0.0403018 0.93014 0.0899967 0.539978 0.0899939 -0.820001 0.24 -0.47 -0.04 -0.87 0.46 0.87 -0.919999 0.7 -0.75 0.0699966 0.750008 0.150034 0.540003 -0.06 -0.98 0.98 0.44 0.58 0.52 -0.22 -0.05 -0.81 0.63 -0.76 -0.59 -0.21 -0.66 0.35 -0.51 -0.37 
-0.854128 -0.73 0.36 0.32 -0.31 0.588446 1.01836 -0.336239 0.0600216 0.510006 -0.890008 -0.430015 0.489995 -0.800003 0.249997 -0.420337 -0.0706921 0.0993079 0.849925 -0.220001 -0.44 0.909994 0.860712 0.07 -0.55 0.39 -0.9 -0.33 0.11 -0.55 -0.52 -0.27 -0.11 -0.680445 -1.07199 0.598276 0.771928 -0.815217 0.297969 -0.690666 -0.349942 -0.709634 0.700792 -0.527883 -0.965066 -0.233445 -0.454293 0.861111 0.211407 -0.791774 0.884465 -0.405832 -0.216697 -0.239882 -0.390001 0.439993 -0.4 0.59 -0.500001 0.309997 0.54 0.408224 -0.746197 0.279771 0.291564 0.534187 0.757224 -0.480409 -0.339985 -0.0755138 0.44549 -0.151302 -0.343534 -0.327959 0.788662 -0.230469 0.0953806 -0.610538 0.376792 0.727093 -0.0761242 -0.0899273 -0.32 0.629992 0.619988 -0.35 -0.400001 -0.0952549 -0.473961 0.292047 0.0154846 0.527096 -0.428778 -1.12748 0.243959 0.731391 -0.516665 0.838929 -0.781227 0.0734546 -0.643136 0.33767 -0.55269 0.710259 0.84165 -0.10707 0.651803 0.218937 -1.03041 0.536198 -0.681764 -0.870012 0.419989 0.32 -0.173788 -0.587608 -0.669299 0.0455064 0.0891561 0.305308 -0.991379 -0.150118 -1.00936 -0.666242 0.214913 0.168708 0.776906 -1.18226 -0.401759 0.256665 -1.10745 -0.254842 -0.922259 -0.543359 -0.538198 0.141127 0.555566 -0.878214 -0.483753 -0.7338 0.769998 -0.07 -0.79505 -0.483932 0.150566 -1.15079 -1.27653 -0.475832 -0.476336 -0.444013 -1.00086 0.339348 0.50602 -0.757343 0.0349385 -1.06776 -0.321378 0.55113 0.305165 -0.961033 0.163027 0.01678 -0.294961 -1.28244 -0.993003 -1.11018 0.718923 -0.224993 -0.0900013 0.83 -0.149777 -0.306806 0.379816 0.0158316 -0.216661 -0.308522 0.491573 -0.368826 -0.31036 0.558485 0.424385 -0.188914 0.190164 -1.09668 0.117831 -1.37059 -1.16785 -0.459033 0.652878 -1.30165 -0.354469 -0.792081 -1.11729 0.165919 0.40075 0.199859 0.07 -0.74 -0.359739 -0.0900156 -0.756351 -0.887741 -0.183118 -0.852488 0.113765 -0.0908371 -0.573448 -0.918785 -0.845069 0.499395 -0.610049 -0.0454406 -0.670954 -0.65454 0.643457 0.310158 0.272229 0.431166 -0.964107 -0.23388 -0.322136 -0.109487 -0.715061 0.505357 0.79 -0.68 0.430233 0.49989 0.669846 -0.289868 -0.591699 0.83323 -0.0825458 -0.426319 -0.534397 0.358413 0.353708 -0.72724 -0.0707839 -0.140888 -0.709787 -0.604069 -0.760819 -0.57605 -0.621413 0.476343 0.371974 0.0752472 -0.563488 0.103504 0.493483 -0.267865 0.849992 -0.44 0.960151 -0.570699 -0.881005 -0.631137 -0.80031 -0.348554 -0.315306 0.212325 0.74677 0.867823 -0.82804 -0.716768 0.357562 -1.23122 -0.12138 -0.609706 0.496095 -0.818851 -0.170603 0.405226 0.24859 -0.35341 0.335994 0.28211 -0.295588 -0.258889 -0.220001 0.77 0.100082 -0.600961 0.0270584 -0.936708 -0.62171 0.326231 0.333778 -0.387891 -0.553332 -1.08938 0.149881 -0.372512 0.470416 -1.26239 -1.11078 -0.816499 -0.886624 -0.700472 -0.914941 0.463963 0.636424 -0.53143 -0.250965 -0.50191 0.778464 -0.427965 0.63 -0.39 0.510179 -0.22209 -0.159616 -0.940438 -0.868765 0.468521 0.626711 -0.0239151 -0.804356 -1.01958 0.0304379 -0.240481 -0.749666 -0.43321 -0.531794 0.159809 0.480326 -0.763558 -0.208373 0.587953 0.199453 -0.875243 0.0960453 -0.569808 0.14079 0.739084 0.39 -0.34 -0.290176 -0.44098 -0.734764 -0.270559 0.208524 -0.338451 0.225944 -0.22192 -1.0748 0.373045 -1.01885 -1.07189 -1.05753 0.69771 0.346063 0.073492 0.805834 -1.02076 -0.75314 -0.513534 -0.134436 -0.957726 0.765623 0.315096 -0.602039 -0.125964 0.56 -0.75 0.589409 -0.898859 0.480991 0.461242 0.00238891 0.209979 0.256718 -0.65401 -0.0468769 -0.242901 -1.3133 -0.613494 -0.0650605 -0.168909 -0.993372 -0.279637 -0.132838 -0.202853 -0.861787 -0.382421 -0.913596 0.692837 -0.793713 -0.153697 -0.898215 -0.148394 0.29 -0.210001 -0.681663 0.102031 -0.452749 -0.552852 -0.942468 -0.106848 -1.40701 0.121441 -0.463689 -1.00524 0.264008 -1.43052 0.123264 -0.559583 0.180509 -0.18128 0.342056 0.0973592 -1.11494 -0.80785 0.548364 -0.00160352 0.149544 0.122157 0.478884 0.135032 -0.630005 0.479991 -0.312308 -0.192449 0.668993 -0.0352441 0.07743 0.0563612 -0.192595 -0.800611 -0.685541 -0.889616 0.171767 -0.558874 -0.811802 -0.51875 -0.304344 0.349691 0.320224 -0.115069 -0.890154 -0.401197 0.47863 -0.896449 0.0918983 0.137122 -0.106349 0.666457 -0.650001 0.88999 -0.370904 -0.780738 -0.401887 -0.228571 -0.323014 -1.28147 -0.406404 -0.380371 0.0836001 -0.326647 -0.78059 0.319698 0.0876995 -0.127066 -0.740645 -1.40562 -0.463143 0.399815 -0.812202 -0.814025 -0.850169 0.276775 -0.83972 -0.701671 -0.704672 0.8378 -0.63 -0.790003 -0.321543 0.286118 -0.0961213 0.543933 0.86797 0.214357 -0.924878 -0.842724 0.308236 -0.171808 -0.523413 -0.571227 0.342753 -0.890928 -0.420681 -0.69188 -1.19545 -0.151596 -1.21768 -0.283583 -0.649617 0.253735 0.0682488 0.553523 0.304863 -0.262354 -0.66 -0.0300005 -0.881016 -0.845327 0.26201 0.500277 -0.540347 -1.00173 -0.366573 -0.719847 -1.30016 0.647265 -0.142235 0.597232 0.245857 0.198015 0.340917 -0.465707 -0.321059 -0.00303891 -0.0171982 -0.293018 -1.12273 -0.524043 -0.094995 -1.12762 -0.817642 -0.335007 -0.22 0.24 -0.765902 -0.56223 -0.184496 -0.0152934 0.651259 0.704162 0.603468 0.426997 -0.596157 0.0274283 -0.677118 -0.927062 -0.27069 -0.075947 -0.257518 0.0238564 -1.00909 0.350838 -0.421459 0.594668 -1.08384 0.355369 -1.09713 -0.230387 0.169914 0.312241 -0.53 -0.07 0.96556 -0.585653 -0.836865 0.969741 0.727295 -0.93634 -0.917334 -1.13059 -0.647416 0.424219 0.63018 -1.12312 0.553247 0.087554 0.741988 0.123384 0.536776 -0.444757 0.325766 0.138223 -0.566696 -0.623495 0.422432 0.52052 0.810834 -0.137515 -0.78 -0.28 0.64001 0.564604 -0.900821 -0.591297 -0.987943 0.292152 -0.839461 -1.25388 -1.07194 -0.782666 -0.664853 -0.275781 0.197885 -0.26154 0.513552 1.00517 1.02978 -0.809282 0.686185 -0.823975 -0.791432 -0.393664 0.26721 -0.653285 -0.719895 -0.0362205 0.22 0.369999 0.335014 0.485975 -0.654446 -0.583774 -0.510114 -0.791767 -0.429358 -0.503262 -0.871375 0.189576 0.260858 0.499882 -0.738376 -0.207991 -0.514981 -0.118812 0.426172 0.695519 -1.00732 0.251482 -0.574532 0.20775 0.895751 -0.761477 0.827088 -0.615029 0.36 -0.370007 -0.401835 -0.469885 -0.445092 -0.941581 -0.0540969 -0.347486 0.435859 -0.588293 -0.471831 0.588452 0.257996 0.523247 0.181449 -0.887742 0.538874 -0.275865 -0.662821 -0.140412 0.396486 0.481649 -0.192408 -0.41916 0.207888 -0.864199 0.636439 -0.382535 -0.52 0.129987 0.749656 -0.753838 0.203941 -0.314995 0.212169 0.428218 -0.277308 0.046205 1.06921 0.983812 0.808788 -0.477183 -0.134412 0.480248 0.158286 0.651243 0.110673 -0.129675 -0.319981 0.112686 0.0294412 -0.13832 -0.48561 0.970336 -0.75434 0.409955 0.63 -0.500007 -0.940321 0.963987 0.661685 0.607407 0.257372 -0.945024 0.997179 -0.751667 0.0745583 -0.624552 -0.59832 -1.12608 0.348512 -0.835295 -0.466604 0.882161 0.250713 -0.577066 -0.277411 0.868459 -0.138966 -0.880032 -0.640459 0.879397 0.879938 0.360002 0.01 0.25 0.620004 0.0574609 0.0566075 0.114553 -0.523871 0.64083 -0.698069 0.178974 -0.983037 -0.993737 -0.450217 -0.661157 -0.527003 -0.856883 0.830711 0.548282 0.23535 0.870041 0.860167 -0.949901 0.811829 -0.789941 0.209976 0.569969 -0.86 -0.37 -0.2 -0.71 0.97 -0.57 -1 -0.4 -0.61 0.64 0.0299989 -0.35 -0.25 0.78 0.93 -0.7 0.5 0.00999997 -0.71 -0.54 0.0799964 0.56 0.2 0.03 -0.399762 -0.49 0.49 -0.86 -0.69 -0.65 -0.64 
6.67089 0.92 -0.17 -0.65 -0.81 -0.265047 0.687429 -0.805444 -0.94443 -0.851231 -0.187805 0.310024 0.0700183 0.169481 -0.430618 -0.931366 -0.309752 0.765033 -0.196731 -0.460491 0.399941 -0.0181183 0.02301 0.331735 0.59 0.14 0.77 0.29 -0.07 -0.13 0.32 -0.595986 -0.846885 0.897462 1.07345 0.407663 0.14933 -0.709602 0.363909 -0.222062 1.14729 -0.423911 -1.03489 0.713291 -1.31123 -0.0894093 1.53838 0.51605 -0.0229129 -0.15956 -0.786771 -0.811132 0.561704 0.684482 0.933224 0.9298 0.709998 0.05 0.652791 -0.142396 -1.21026 -0.227589 0.758506 2.28563 3.13321 3.99505 5.37221 3.3134 1.98833 0.526025 -1.13826 -3.85817 -4.86846 -3.73647 -1.84244 -0.574574 -0.476914 -0.678372 -2.68774 -5.53228 -4.17859 -0.881752 0.638703 0.642017 -0.820325 0.97 -0.270344 -0.0710776 -1.53807 -1.13911 1.57249 4.8054 6.55376 9.98781 8.49708 5.86696 0.0831027 -3.2925 -5.68008 -4.44723 -8.07597 -9.03722 -7.59894 -6.27101 -5.46257 -9.03569 -8.94061 -11.2716 -10.782 -6.22576 0.325662 -0.584075 0.870712 0.31 0.811943 -0.00654507 -0.113558 -0.482629 7.64362 7.48915 8.31723 12.4471 9.14303 4.54858 0.582976 -6.8401 -11.9452 -10.7453 -11.3409 -11.8016 -15.0083 -12.856 -10.4458 -11.8199 -9.88458 -9.30143 -12.5011 -9.25016 -2.74025 -0.494084 0.510594 0.66 0.653496 1.20998 -0.240883 0.608594 5.69682 5.6301 5.10811 10.2324 5.71426 0.522201 0.931491 -4.61507 -11.2306 -12.1803 -12.7574 -16.1578 -21.4526 -19.4196 -12.6158 -13.7512 -12.0566 -9.03977 -11.0206 -9.83381 -4.83649 -0.373478 0.66 -0.88 0.60516 -0.846856 -1.61223 -0.150139 4.12853 -0.138943 -0.859854 5.7407 3.34476 -1.42651 -2.47797 -6.28877 -7.41336 -5.88758 -11.8303 -14.3088 -18.4391 -15.4255 -12.458 -14.6277 -8.02851 -8.995 -12.6531 -13.1476 -4.54261 -0.434772 -0.18 0.66 -0.994234 -1.50892 -0.127878 3.66254 3.56413 -2.72606 1.39826 8.48194 7.89808 2.10894 -2.14844 -5.06163 -2.26752 -2.63119 -7.08263 -11.9308 -19.391 -21.3126 -11.2272 -6.40829 0.875893 -3.4876 -12.5369 -14.8333 -8.03216 -0.945521 -0.29 0.85 0.752282 -2.19384 4.28418 8.52044 6.79408 3.65397 3.98147 6.82966 6.07257 -1.48038 -8.8925 -6.98672 -1.35454 3.57996 -3.07988 -10.9113 -19.0142 -14.8176 -3.69244 -1.19142 2.26545 3.24684 -6.38806 -12.1165 -6.64821 -0.260699 -0.2 -0.45 -1.09496 0.669594 4.99158 5.3942 7.21143 3.63773 2.06952 1.30108 -5.2554 -12.6648 -11.6523 -8.86177 -3.87386 5.67371 2.627 -3.47156 -8.20292 0.454131 -0.984029 -6.59041 -1.31927 8.91178 7.74804 4.04442 -1.33798 -0.538628 -0.63 0.82 0.84477 3.36629 5.49902 3.36098 2.71661 3.54602 3.57903 0.103209 -7.31468 -13.5488 -11.0189 -6.01527 -3.93948 1.76364 1.73467 2.85636 -1.23765 -0.933188 -6.20279 -7.37577 -3.95174 7.33121 12.2162 10.6671 2.66572 -0.177281 -0.41 0.67 -0.658934 1.67435 3.61072 0.310763 -2.1473 4.73981 4.58299 1.7403 1.35571 -2.93399 -3.94658 -2.18551 -2.67688 -1.9539 -1.9519 0.873117 -1.9413 -3.87889 -7.67538 -5.36651 -0.093295 9.94126 15.8297 14.6132 5.25206 -0.44861 -0.6 -0.7 -0.287125 -0.777928 7.64534 9.70388 7.44343 11.7312 10.8816 4.86622 6.71798 4.79372 -4.70644 -8.87815 -9.024 -7.03978 -9.3941 -10.4616 -11.2398 -9.38934 -9.68592 -2.26472 3.86679 12.7686 17.5238 17.9068 9.0856 -0.446135 0.619237 -0.92 0.681327 0.162604 10.2044 16.7689 19.6649 17.1391 14.713 11.665 11.1874 11.0319 0.983139 -4.98308 -8.38296 -12.3797 -13.0719 -7.50279 -10.7713 -14.5184 -12.0797 -8.02217 -1.88584 8.24027 8.82051 15.6937 12.2782 0.936004 0.13 -0.45 -0.730113 -2.05313 7.88143 13.4484 14.2946 12.0523 14.01 20.0993 27.5455 22.8716 8.51799 -0.620178 -3.63561 -5.82235 -5.17712 -7.14339 -6.15255 -2.05835 -2.31412 -3.01554 -4.23574 2.37465 3.49418 7.5759 7.85927 0.642975 0.63 -0.75 -1.46304 -1.04275 4.64773 7.77825 5.06681 13.9354 21.4633 30.9438 40.0748 28.148 8.22432 -3.43648 -5.93109 0.052647 -6.50555 -8.02687 2.26185 4.2338 4.51162 2.75342 -1.73442 -1.56706 0.345572 -0.0268979 2.65697 1.04555 0.78 -0.32 -2.13617 -5.08829 -3.18229 -2.32128 3.50094 12.5333 21.691 26.1135 33.0218 21.7977 2.95528 -8.29722 -4.006 -0.122534 -7.17234 -8.4554 -2.56159 1.74534 1.86643 0.532859 -4.03008 -2.56472 -1.3937 -5.32441 -2.82789 -0.87549 0.85 -0.847567 -0.466425 -8.0961 -10.7851 -6.77017 0.533038 12.7623 18.7295 20.6166 24.3195 6.89525 1.51475 -6.43738 -6.06568 -5.58877 -6.5681 -6.91113 -1.39125 -1.92073 -4.08326 -8.46928 -11.6797 -6.93094 -6.0066 -8.62003 -7.22175 0.138886 0.52 0.0500649 0.467155 -4.96774 -14.312 -11.9358 -4.36993 9.2635 17.8211 17.2102 15.8996 4.48777 -0.635928 -4.87697 -5.69225 -2.31701 -8.42015 -13.1503 -5.27147 -9.67303 -12.1437 -13.1336 -17.854 -13.5351 -8.69101 -8.26741 -5.05796 -1.06907 0.88 -0.1 0.157126 -3.80985 -14.2696 -18.0076 -10.7699 -0.151427 6.86713 5.89092 6.35629 1.9816 -2.91621 -3.33637 0.499289 3.75296 -0.929059 -10.9202 -9.76397 -15.2857 -14.3402 -13.6647 -18.0485 -14.7985 -8.05936 -2.46136 -2.29748 0.730575 0.79 -0.59 0.590244 -3.15788 -16.8742 -26.6608 -17.9977 -11.7922 -0.105418 5.9018 9.15399 10.5419 10.2597 13.6783 18.1532 10.4776 5.97133 -5.84441 -6.61056 -10.7914 -13.5556 -15.1649 -16.5613 -12.2858 -7.02172 -3.80901 -2.46987 -0.42541 -0.31 0.92 -1.0662 -2.28778 -14.1448 -18.2587 -16.8745 -11.2276 -5.94006 3.88012 10.1195 17.7435 21.308 24.2203 23.9785 16.2237 10.5643 3.24741 2.21664 -3.01724 -8.86481 -12.1056 -15.6934 -13.9248 -7.79616 -1.74281 -4.85984 -0.434445 0.73 -0.89 0.344727 -2.43083 -7.73532 -10.5682 -10.9816 -10.6736 -4.57903 2.13081 8.02262 17.3246 24.4741 25.934 25.1632 21.3993 14.4786 8.14637 5.25998 0.488539 -4.32344 -11.4831 -15.5815 -13.5812 -5.8698 -0.989551 -1.54641 0.546146 -0.3 -0.420196 0.433668 1.76212 -2.80084 -4.69352 -2.74848 -3.4176 -2.67157 1.99011 4.63325 12.8506 18.3426 22.5143 22.2243 18.8588 12.205 8.44299 4.92568 2.38499 -0.572412 -5.87485 -8.45013 -8.6595 -2.28036 3.20106 0.431204 0.736974 0.26 -0.800349 0.452041 2.69406 -0.585855 -1.08669 0.983398 -1.53414 -4.88568 -2.03377 -0.483954 4.13292 6.51928 10.9092 7.87442 8.62566 4.56948 3.09478 4.14102 6.2015 4.2339 3.01494 -1.33494 -1.76118 -0.010387 3.02942 0.69135 0.259457 -0.48 -0.110204 0.451017 1.54622 1.78379 3.00795 4.52327 -0.120038 -2.46054 -0.0092624 0.828593 0.357432 2.34121 2.92157 1.20766 2.21153 2.79344 0.014079 2.80893 4.24729 3.37873 2.05178 -0.286885 0.0539613 0.182704 0.436024 0.348691 0.17251 -0.26 -1.60669e-06 -0.300969 0.373694 -0.430809 0.173056 1.74781 1.18771 1.46965 0.707485 0.231351 0.233555 0.652614 0.572292 -0.991335 -0.156771 0.953198 -0.445816 0.711378 -0.229097 -0.829426 0.830957 -0.834439 -0.501549 0.898164 0.720477 0.0910895 0.383507 -0.81 0.06 -0.55 -0.39 0.859279 -0.110419 -0.139996 -0.407727 -0.795312 0.022736 -0.100477 -0.25 0.71 -0.83 0.55 -0.07 0.1 -0.29 0.02 0.86 0.57 0.05 -0.85 -0.38 0.88 0.55 0.48 -1 0.5 
1.74792 0.21 -0.39 -0.42 -0.99 0.260135 0.730796 -0.719078 0.0108244 -0.139561 -0.609814 0.57 -0.33 0.13 -0.259998 -0.42 -0.49 -0.95 0.710244 -0.57987 0.59 0.3 -0.28 -0.84 -0.1 -0.04 -0.27 0.43 0.77 0.11 -0.72 -0.310002 -0.970021 0.100757 -0.856816 0.922019 -0.78907 0.628746 0.20814 0.284646 0.234682 0.996205 -0.692757 -0.220333 -0.570067 0.277743 0.991333 -0.67198 0.844241 -0.102391 0.446793 -0.000850674 -0.670649 -0.501944 0.338075 0.926574 -0.04 -0.17 -0.800003 -0.780089 0.829782 0.307862 0.854076 -0.933977 -0.4047 -0.672428 1.01268 1.01888 0.388752 0.232186 0.0463896 -0.478992 0.0246783 -0.74945 0.338285 0.0338887 -0.57772 -0.156739 0.464683 0.222723 -0.688527 0.760495 -0.175793 0.438738 -0.69 0.16 -0.710013 0.0880441 -0.657178 0.446893 -0.507189 0.0646733 -0.527469 -0.705645 0.550234 0.576414 0.119137 -0.97398 0.198874 0.229793 0.798325 -0.357763 -0.375791 0.43604 1.07461 0.549145 0.00855872 0.710854 0.0590672 0.507679 -0.925864 -0.0647275 0.85 -0.06 0.948226 -0.294271 0.24183 0.201493 -0.589679 0.406952 0.259669 0.670908 0.385943 -0.385963 0.166284 0.290783 0.430172 -0.7333 0.0861693 -0.932463 0.976572 -0.564527 -0.47445 0.410149 0.541581 -1.03163 0.289865 0.304599 -0.258098 -0.711441 0.89 -0.82 -0.252295 -0.405202 0.217608 -0.650823 -0.461807 -0.391702 -0.456871 -0.159637 0.445635 -1.01091 -0.0785713 0.603698 -0.965629 0.364635 -0.274034 0.935797 0.403427 -0.192096 0.273646 0.791693 -0.0449462 0.913091 -0.548009 -0.893533 0.0597111 0.817207 -0.0299999 -0.88 0.560852 -0.0128055 0.749463 -0.279348 0.153538 -0.494071 -0.757811 0.483935 -0.246635 -0.191134 0.560558 0.173407 1.07412 0.0694397 0.898019 0.814208 0.319447 0.0543827 -0.676271 1.34196 0.944928 0.827662 1.19819 1.08748 0.328615 0.855112 0.49 -0.23 -0.209262 -0.232731 -0.635874 -0.583844 0.284907 -0.753086 -0.159987 1.01137 1.1539 1.13356 1.37459 -0.171816 -0.0969047 -0.530218 -0.0920205 0.695478 0.0142709 0.75125 0.314746 -0.214031 0.370661 1.00329 1.80612 0.0697292 0.0672805 0.499562 -0.16 0.75 -0.339281 -0.604097 0.286554 0.506578 -0.47005 -0.215269 0.205554 0.195815 -0.224259 1.30271 0.0337383 1.32296 0.166187 0.10474 0.646265 -0.16303 0.227468 -0.489964 -0.383183 -0.273338 -0.0693708 0.773901 0.919236 2.06186 0.0639963 -0.794162 -0.75 -0.17 0.55414 1.02275 0.942229 -0.619983 -0.250526 0.606323 1.69553 0.877736 0.0464051 -0.0841063 -0.556709 -0.25854 -0.345881 0.968445 -0.854093 -0.286779 -0.830705 0.054874 0.00513251 0.608693 0.501016 0.519784 -0.263626 0.889832 0.769955 -0.976005 -0.32 -0.55 0.753219 -0.333856 0.847199 -0.531818 -0.385419 0.853737 0.174222 0.550873 0.885249 0.533204 -0.012266 1.01987 1.07637 0.328556 -0.954913 -0.0506923 -0.544449 -0.784988 -0.666296 0.597747 -0.584622 -0.0925622 0.0322682 1.23929 -0.0790881 0.82993 -0.19 -0.88 0.5081 0.905082 0.250901 0.262095 0.244933 1.86026 0.41734 0.986999 1.36487 1.01182 -0.134407 0.568227 -0.764864 -0.0834522 1.00332 1.34229 -0.0165175 -0.396902 0.22512 0.862524 0.896457 1.57265 0.527205 1.77376 -0.0559445 -0.195585 0.27 0.37 -0.00453199 0.670233 -0.177081 0.753889 2.1897 1.57359 0.91452 0.123838 -0.226716 -0.488601 0.840898 0.101389 0.771083 -0.584642 0.0764308 1.68485 1.58193 1.16437 -0.128681 0.293887 0.123645 0.929413 1.9177 1.43646 1.2126 -0.170381 0.8 0.04 -0.908894 0.948896 0.477586 -0.148197 1.59059 1.05177 -0.310575 -0.762477 -0.861143 0.710246 0.606821 -0.579095 0.722918 0.311742 0.910788 -0.0702001 1.70048 0.537374 1.4508 -0.415891 -0.196005 -0.253272 -0.0209135 0.0306762 0.384143 0.922659 0.94 -0.88 0.566093 0.213817 1.38705 -0.0991919 1.41248 -0.745807 0.905607 0.269916 0.195005 0.233251 0.767956 0.939671 -0.348579 0.512169 -0.00678727 -0.580099 1.16103 -0.229016 -0.216376 1.10912 -0.558049 0.187741 -0.109048 0.391289 1.05664 0.328957 -0.48 -0.0799999 0.283179 1.46286 1.47807 1.36282 0.43427 -0.308553 1.09687 0.433656 0.115786 -0.353532 0.48533 1.52519 1.25154 -0.369763 1.38657 -0.502017 0.659851 1.68723 -0.140621 0.712391 0.765077 0.496571 -0.142859 0.751789 0.0793435 -0.461232 -0.19 -0.73 0.433036 1.6371 1.21701 0.623471 0.792046 -0.250269 -0.144925 0.400457 1.2737 0.0758258 -0.147386 1.02807 0.707322 1.46121 0.565228 -0.441905 0.999539 0.936813 0.867101 0.280433 0.97638 -0.164335 -0.78622 0.309769 0.241174 0.606999 0.92 -0.0900002 -0.0529814 -0.347418 0.43684 0.555435 0.349303 0.844462 0.0797434 0.520316 0.203221 0.940383 0.288377 0.111058 -0.559048 0.244611 0.90661 0.47894 0.701557 0.726084 -0.0500321 0.198139 0.374663 0.15641 0.217622 -0.884901 -1.05101 0.712966 0.12 0.94 -0.926262 0.612508 1.34693 1.80691 1.16828 1.72637 0.831009 0.414242 -0.314991 0.780573 0.86093 1.02913 -0.228761 -0.518749 -0.442836 0.788966 1.38347 0.380615 0.341119 0.952789 -0.262237 -0.11254 0.289249 -0.0985594 0.0988614 0.261975 -0.64 0.99 0.70598 0.771621 0.0212601 0.854308 0.140375 -0.177323 0.24443 0.344637 -0.204707 -0.521038 -0.331945 0.0600497 0.555642 1.3823 -0.302918 1.39921 1.48717 0.360609 -0.721523 -0.859068 -0.220513 -0.107293 0.11097 1.11997 0.772275 -0.481892 0.23 -0.94 -0.533165 -0.015315 0.738131 0.970514 1.77892 -0.290489 0.207872 -0.492341 0.368646 -0.722992 -0.0166512 0.360384 1.09569 1.02031 0.307997 1.59171 -0.627389 -0.738536 0.614546 -0.585526 0.513476 -0.0960954 1.58264 1.04884 -0.158554 -0.176335 0.13 0.66 0.298083 0.106589 0.0849742 0.217208 0.266403 -0.492175 0.0567062 -0.774937 -0.320915 -1.11871 -0.749504 0.721794 0.657822 0.203943 1.08078 -0.00683551 0.972207 0.943253 0.215532 1.07544 0.872115 0.473266 0.837419 -0.318464 -0.615375 -0.343548 0.98 -0.29 0.890798 1.08971 0.956457 -0.203288 -0.756702 0.698141 0.679206 -0.559264 0.210563 0.840072 -0.557533 -0.36618 -0.973585 0.696285 1.2257 0.899895 0.633305 -0.0920514 1.09993 1.13177 0.00345619 1.20069 0.208911 0.963289 -0.55681 0.431452 0.57 -0.2 -0.256373 -0.130857 -0.49892 0.0819101 0.853975 -0.577757 -0.381922 0.496154 0.466935 0.686128 -0.297371 -0.917414 0.443956 1.15479 -0.253331 -0.676018 -0.086862 -0.490435 0.604048 -0.225522 0.976237 -0.267285 0.829216 -0.792195 0.34608 0.272439 0.16 0.29 0.758902 -0.165574 0.0889635 -0.486262 -0.594915 0.91566 -0.857019 0.473002 -0.23855 -0.482848 -0.0712437 0.0236815 -0.579114 -0.145665 0.509671 0.219936 0.550173 -0.512899 0.568708 0.066021 0.854737 -0.852544 -0.643573 0.494404 -1.06368 0.735861 -0.8 -0.44 -0.498013 0.288496 -0.491036 0.852704 -0.526688 -0.832939 0.534293 -0.630729 -0.131596 -0.517835 0.151521 0.557972 -0.162594 -0.014704 -0.385845 0.927216 0.212536 0.0422377 -0.700533 0.494219 -0.513572 0.277135 -0.260502 -0.570122 0.140445 0.289995 -0.23 -0.93 -0.872972 0.261214 0.40975 -0.388 0.411251 0.0707956 0.336607 0.934324 -0.658468 0.28119 0.819772 0.425727 0.286694 0.117974 0.0345568 0.242751 -0.897054 -0.268763 -0.709186 -0.919828 0.779073 -0.650142 0.229976 -0.279937 -0.729919 -0.720001 0.11 0.28 -0.89 -0.56 0.88 0.88 -0.08 -0.38 0.740065 -0.499989 0.0300023 0.04 0.31 0.39 -0.89 0.12 0.11 -0.23 -0.02 0.74 0.44 0.99 0.23 0.1 -0.61 0.59 0.31 0.58 -0.27 
5.89177 -0.91 -0.27 -0.37 0.71 0.691694 0.181162 -0.492715 0.249911 0.0573855 0.119851 0.497001 -0.586844 -0.494727 -0.459039 -0.418439 0.401929 -0.818206 -0.509945 -0.112295 0.445097 -0.387261 0.215521 0.137516 0.57 0.68 0.01 -0.5 0.11 0.15 0.369776 0.00678511 -0.774592 -0.422533 0.970049 0.43442 -0.506138 -0.00754401 -1.0985 0.929358 0.404251 0.617712 -0.327148 0.721443 0.301287 -0.410489 -1.07713 0.31452 0.286879 0.187351 0.746031 0.861893 0.48929 -0.622474 -0.326611 0.954728 0.56 0.79 -0.243458 -0.837973 0.533438 1.88886 2.74805 3.94697 3.9583 4.08025 1.46026 2.82358 -0.108742 -0.814933 0.226296 -1.1165 -2.06604 -5.86094 -6.30711 -6.81415 -5.69886 -2.71142 -0.425497 2.29392 3.34773 1.51851 0.994994 -0.809873 0.64 0.19 0.233043 1.95589 1.31185 4.31122 7.80152 7.83429 5.01209 4.59468 4.77421 6.21742 5.14181 0.964988 1.07699 0.72005 -1.3817 -5.25714 -7.11308 -7.9634 -9.61034 -5.98843 -1.90209 1.91242 6.44386 9.00168 3.85521 1.13321 0.12 0.51 0.00946322 3.39824 6.02973 9.55026 12.5579 9.19352 2.02795 1.41162 1.16162 2.24904 3.27009 4.42769 2.70848 1.36174 -0.0832206 -0.885825 -3.87303 -6.98391 -7.74127 -7.42229 -5.93908 -3.09223 5.33684 9.94021 5.2333 0.075577 0.49 0.37 -0.674761 3.09114 5.36463 11.6905 10.8066 5.93455 -0.220152 -0.487016 -0.813763 -2.76559 -1.03138 -0.163395 4.00912 5.36736 6.48065 4.15828 1.45532 -2.49821 -5.94064 -7.20896 -7.45139 -4.61579 1.45825 7.68581 4.08553 0.813909 0.620004 -0.52 -0.757746 2.28733 5.46126 7.64058 6.43706 2.06575 -2.06649 -0.976846 -1.66462 -3.09515 -4.8857 -2.8591 2.05674 8.1752 9.23536 8.85578 6.86142 2.85282 -3.30764 -6.79021 -6.66479 -5.25334 -1.79956 4.44917 4.4648 0.243484 0.49 0.87 0.681537 2.77696 7.22891 3.99329 2.1531 -2.42705 -3.65121 -2.75361 -5.49505 -7.23554 -9.514 -4.8638 4.35871 9.34525 11.4553 12.6751 6.97306 3.91862 -5.24836 -6.91784 -10.4416 -6.53095 -3.53548 1.54055 1.58646 0.474504 -0.62 -0.01 0.324515 3.34718 6.11419 2.91804 -0.876691 -2.47951 -3.54514 -6.27131 -9.62593 -12.8258 -10.1173 -4.77501 6.09905 11.6753 9.82545 10.2755 5.28891 -1.25645 -9.14216 -13.7822 -17.0382 -9.38144 -2.54278 2.75586 1.2583 0.237856 0.79 -0.66 -0.651546 3.18386 8.78101 5.28679 1.40866 -3.11311 -7.64933 -11.6619 -12.9392 -11.611 -4.55891 2.21281 7.23757 11.2947 12.2481 12.9834 13.6912 6.1861 -1.19463 -9.50867 -10.7333 -4.45951 0.514146 2.79839 -0.373825 -0.522924 0.29 0.04 -0.459103 2.9045 4.53902 2.6742 -1.95835 0.355244 -6.70894 -9.86495 -9.09841 -5.28446 0.117003 2.97647 5.08004 8.74181 12.8021 14.5145 16.5543 12.7111 2.67295 -10.5645 -8.72603 -2.60958 2.34188 4.33393 2.62617 -0.484827 -0.45 0.26 -0.584322 3.20703 0.367026 -2.53948 -5.9806 -2.76301 -2.23511 -3.74647 -2.91316 2.01244 4.74881 7.25816 10.1803 15.2146 18.2128 18.1828 17.8366 11.8231 -0.0343663 -8.4427 -7.0661 -2.25813 -1.04995 2.53431 2.27299 0.537192 0.2 0.02 -0.645545 3.78212 0.038496 -9.70565 -11.508 -4.74844 1.56143 0.750902 3.85997 5.10095 7.75826 10.76 11.4341 13.6358 15.6292 16.5116 15.2221 10.2568 -2.48971 -5.82557 -6.14857 -4.12639 -2.29872 1.04849 -0.464942 0.626075 0.21 0.81 0.796762 2.26998 -0.27035 -12.926 -15.7866 -9.65037 0.844045 5.61649 6.39427 7.52488 7.85898 9.25595 10.5797 10.1343 10.563 8.93946 9.98054 10.8903 -1.98441 -7.181 -7.41288 -4.64951 -3.2441 -0.727472 0.101531 1.07958 -0.9 -0.38 0.891421 0.305863 -4.99375 -13.1985 -15.4648 -8.62258 -3.06572 0.999671 1.61702 6.21286 4.54557 5.20976 8.4176 5.27829 2.56444 2.732 5.27518 5.71711 -3.15787 -11.2508 -6.38235 -3.25675 -2.1247 -2.07772 0.601027 -0.455342 -0.659999 0.550001 0.270157 -0.664888 -5.5852 -12.3641 -9.86734 -1.13614 -1.63526 -5.25656 -2.59676 9.77687 8.43634 8.02147 6.83958 4.28212 -1.46611 -0.631856 -0.150212 -2.46985 -3.79214 -6.99662 -6.38142 -1.61536 0.234668 -1.48774 -0.503431 0.204298 -0.24 -0.87 1.01814 0.730266 -3.20133 -7.83327 0.74869 3.3008 0.296727 -3.247 2.62528 13.7445 11.8308 7.74742 6.24642 7.38051 1.59987 0.916769 -2.7913 -3.49837 1.54367 -2.1459 -2.06173 -1.88114 -0.139982 -1.01828 -0.25575 0.373843 -0.48 -0.57 -0.565386 0.116531 -2.44249 -5.88491 1.50026 1.73541 -2.76529 -6.39223 -1.14241 5.68 4.01235 3.6271 2.32829 6.7981 -0.83341 -3.23444 -5.35316 -1.89601 2.37982 0.439016 -0.836345 -0.259222 2.33232 -0.632462 -1.18182 0.927141 -0.06 -0.0100001 1.42714 1.95323 0.00749141 -6.28427 -4.53124 -3.42474 -5.50106 -6.10025 2.61694 5.445 3.92018 4.33399 4.48621 3.05183 -3.02303 -4.71273 -4.61835 -3.76593 0.858097 -1.11412 1.14643 3.1764 3.4066 1.17705 -3.15396 0.326347 -0.71 0.71 -0.183509 2.74019 -0.423969 -7.11213 -5.28152 -4.49115 -3.46686 -1.56221 6.67642 11.7308 8.4587 4.87748 0.390796 -1.88693 -6.5461 -5.90228 -6.27042 -6.49852 -3.08735 -2.26874 -1.85888 -0.936416 0.664316 1.46758 -0.424188 0.210511 -0.75 -0.5 0.461822 2.64371 0.170093 -5.35449 -5.90257 -4.55009 -1.54972 -0.934277 8.62646 10.6544 5.18524 -1.10595 -5.06169 -1.57391 -6.92859 -10.598 -11.6362 -10.8613 -6.29374 -6.9119 -7.80346 -7.14302 -0.104406 0.16789 1.62002 0.00440517 0.95 0.580001 1.18682 4.46998 2.00225 -0.0781721 -0.372862 -2.02032 -0.152205 3.095 7.24501 6.66815 5.74722 3.25691 1.11178 -0.369519 -4.7815 -7.22645 -6.01051 -5.00135 -3.18269 -6.41281 -9.09836 -6.9042 -0.710147 1.89726 1.52471 0.250523 0.26 -0.599996 0.587882 4.40602 4.95455 2.28853 1.8791 -2.69441 -3.53468 0.654741 7.66567 11.6984 11.4646 11.3219 6.83103 2.51513 0.645211 2.25427 0.719243 1.41625 0.1768 -3.59995 -8.59825 -5.92798 -1.38338 1.64361 -0.149985 -0.462388 0.58 0.51 0.0720812 3.27104 5.02378 -0.133332 0.327078 -3.6286 -2.67945 0.0300007 9.89189 14.5948 15.7646 13.4794 9.72576 6.38881 6.48325 4.37972 1.75124 -0.518932 -0.93273 -1.34582 -1.87518 -1.34886 -0.273322 0.691526 -0.616526 0.327527 0.3 -0.63 0.156177 1.78702 1.70303 -1.7249 -0.486532 -0.728785 -0.683893 3.50836 10.6923 14.8839 14.6192 12.6621 10.6352 9.24255 8.409 4.89227 1.75734 0.817408 0.106117 -1.92696 -2.02315 1.11299 2.51514 1.38384 0.0623733 -0.582478 0.34 -0.28 0.32152 1.57562 1.77633 0.239556 -0.892042 -1.36674 -0.849831 0.714412 5.61307 6.26824 5.79301 5.05584 5.03994 5.36061 4.93102 1.55639 0.833946 0.396995 0.575823 -0.834084 -1.06615 1.24792 0.907118 1.98377 0.748023 -0.258462 -0.5 0.18 -0.59772 -0.806149 0.374495 0.854215 -0.740093 -0.792675 0.0159067 -1.72752 0.820272 -0.830384 0.173518 0.416707 0.105272 -0.533102 0.789188 0.0180607 0.940858 0.608651 -0.370822 -0.841456 -0.673648 1.13445 0.446807 0.316822 0.27547 -0.632542 0.67 0.26 0.63 -0.66 0.559911 -0.770127 -8.97314e-05 0.419999 0.329998 -0.45 -0.00407566 0.991382 0.29 0.46 0.52 -0.52 0.61 -0.34 0.180007 -0.34 -0.3 -0.39 -0.819998 -0.9 0.96 -0.76 -0.63 0.93 0.93 
19.149 0.97 0.21 0.32 -0.1 -0.714708 0.707108 -0.572982 -0.442901 -0.134659 0.527979 0.444688 0.54 0.62 -0.709637 -0.311162 -0.531137 0.868533 -0.131415 -0.438868 -0.0934597 -0.536596 -0.39178 0.997935 -0.310542 0.689729 -0.85 -0.62 -0.44 0.87 -0.599879 0.125307 -0.526116 -0.316382 1.94365 0.52276 0.53749 0.243052 2.53517 1.02529 1.42531 1.15697 -0.58522 1.01788 0.0399719 0.711023 0.275099 1.68418 1.64296 0.707372 1.66727 1.32294 -1.29895 0.282734 -0.238986 -0.582155 -0.920006 0.04 -0.438983 -0.223378 1.12125 2.40384 5.90308 6.77598 7.0773 8.85275 10.1855 8.77909 7.34861 5.18731 2.75224 3.20149 2.17999 2.55482 3.64464 5.81326 7.68159 8.24987 9.19427 3.50367 2.34872 2.2257 0.558208 0.229901 -0.971183 0.02 0.313617 0.820275 2.89521 5.41034 8.89527 12.4791 16.9426 18.3933 18.3674 14.1617 8.02253 2.57075 0.398787 1.09163 -0.722437 0.139812 -0.810661 2.66041 7.66077 11.2248 9.97671 4.14071 3.09733 4.40044 3.53618 -0.392385 0.698811 0.65 1.01167 -0.641229 2.34873 7.04408 11.5305 15.9981 19.5974 19.6009 17.9801 12.5509 5.72994 -1.46897 -1.40461 0.0138306 -4.27138 -3.97774 -3.16805 -0.390348 4.72361 6.49896 3.70732 2.29597 4.73443 5.78503 4.18879 -0.0092116 -0.450199 0.37 0.82347 -0.0146615 3.97248 8.15924 12.3144 16.9019 18.6021 18.7611 15.6938 10.3739 1.08219 -2.85647 0.817991 -0.711094 -5.56962 -6.37142 -4.86523 -3.87824 -1.02438 0.681769 -1.56629 1.27562 5.22679 6.85964 2.93648 -0.498198 -0.641212 0.86 0.742512 0.949356 3.19061 8.75824 12.3905 16.2643 18.2457 16.3987 14.1826 7.84962 0.376299 -4.85109 -1.48842 -3.07781 -5.68283 -3.28567 -0.785206 -3.80011 -3.79608 -0.640011 -3.13402 -3.14042 1.578 2.2971 0.0694285 -0.720847 0.32 -0.71 0.933465 0.354099 3.67905 5.75558 11.2826 15.7916 16.3969 12.7741 10.8188 3.18657 -2.68466 -6.2372 -5.28032 -6.42801 -3.30743 -0.0190348 1.06903 -4.72984 -8.59299 -3.83872 -4.36241 -2.5388 -2.5636 -2.18553 -1.29971 1.0098 0.16 -0.56 0.555625 0.923427 3.24421 8.21798 11.3635 9.18053 10.8953 5.86356 1.99642 -4.73517 -9.42762 -10.3406 -4.8475 -7.79769 -4.66168 -1.97181 -3.15284 -9.13637 -4.88065 -6.17149 -9.57276 -7.1439 -4.50792 -5.38814 1.9059 -0.09156 0.342337 0.04 0.286038 2.94241 5.99631 6.70295 11.0012 8.23959 9.60073 6.2316 2.40476 -5.47913 -7.53411 -8.24974 -5.9388 -3.75029 -5.97423 -3.39977 0.567179 -3.6523 -0.309546 -5.8155 -11.2903 -7.86263 -4.05105 -4.99922 -3.41208 -1.54035 0.497712 -0.46 0.448835 2.13665 2.18149 4.17855 7.69211 8.14588 8.75746 7.1014 3.64473 -3.003 -6.25468 -3.07235 -0.663606 -0.237145 -0.560397 4.94816 9.97604 7.08745 -0.232027 -8.21269 -17.516 -11.9694 -10.0684 -7.50442 -6.32665 -0.535237 0.55 0.26 -0.0767976 2.37302 0.6992 4.40156 9.93031 5.34642 3.02985 1.1699 2.32531 1.32881 0.290288 3.59215 0.625929 -1.14817 5.42462 12.7831 13.9945 7.97375 -1.46185 -7.55546 -16.2669 -18.8106 -12.5937 -8.55594 -8.18561 -1.0381 -0.92 0.32 0.000251067 1.65459 1.49176 4.83232 9.90015 2.38982 0.48021 -2.79224 3.59359 5.6444 5.2825 1.28885 -1.51828 1.76378 11.2743 19.2124 22.2288 19.7119 8.55799 -1.25008 -12.5773 -22.7241 -12.166 -4.70287 -6.26641 -0.949116 0.59 -0.84 -0.576358 2.62534 4.14644 11.5571 10.8056 6.01602 2.54325 1.97772 3.53239 6.09544 7.07636 7.90327 6.22813 7.08162 16.1745 23.366 27.4153 19.1707 9.25005 0.432787 -11.9079 -26.0192 -16.233 -7.83098 -7.51621 -0.338446 0.4 0.47 0.328254 1.82527 4.73864 10.3543 8.1065 5.67389 1.78088 4.79729 8.97432 11.197 12.1949 15.122 9.50075 7.91326 15.4255 21.7779 25.1095 16.224 8.43346 -3.49402 -8.26727 -21.2584 -17.5871 -14.3605 -10.021 -1.33325 0.31 -0.610873 -0.836207 -2.17287 -0.194452 6.62191 4.82883 -0.354516 -1.27915 4.65074 11.2094 12.7373 14.9591 10.1705 7.56103 8.57576 9.7963 16.4731 16.477 5.48948 -1.29539 -7.54945 -4.42438 -12.7585 -14.334 -13.9704 -10.376 -0.107734 -0.99 -0.703208 -0.417675 -5.01366 -4.74184 3.73973 4.55007 2.35851 5.14213 9.83341 8.3041 9.11831 6.32145 2.31698 6.19465 7.50583 4.91017 4.9291 -1.34409 -6.20273 -11.6001 -7.00701 -5.89822 -12.9982 -15.0967 -12.0838 -7.39888 -0.320624 0.17 -0.641283 -0.223982 -4.41102 -6.08819 2.95621 2.56986 5.39402 8.86409 5.385 1.87948 2.61292 0.920595 -1.24592 1.9125 3.06221 -6.59089 -8.29548 -13.0122 -12.3517 -12.6455 -6.78183 -3.01731 -11.7296 -19.1945 -10.844 -3.02396 -0.353441 -0.7 0.919788 -0.21178 -6.53795 -8.21147 2.00764 3.88951 5.94405 7.50559 -1.46676 -0.0102761 1.29624 -1.72321 -3.81481 -1.44585 -2.68427 -5.94971 -9.63307 -13.203 -13.3516 -12.1223 -2.1645 -2.76189 -10.1456 -17.937 -9.8449 -0.916681 0.817418 -0.13 -0.05 -1.49916 -6.09905 -8.13039 -0.946009 -2.45847 0.316307 4.61581 0.89134 1.86078 -0.667139 -4.99601 -7.9725 -5.17015 -1.71996 1.66167 -3.03077 -8.10741 -12.1046 -6.07969 2.96683 -0.0604942 -6.65834 -11.766 -6.21409 -0.100443 0.776996 -0.21 0.87 0.121042 -2.79747 -6.09114 -3.15206 -8.1588 -1.93343 5.16083 5.31843 3.23188 -1.30389 -6.53933 -5.42989 -6.13828 -6.03459 0.315359 -0.310342 -6.77591 -8.30714 -4.97612 1.96503 0.316653 -1.20772 -4.32938 -1.58863 0.0167997 -1.04367 -0.31 -0.880236 -0.0720375 -2.82871 -1.52445 2.56038 5.03881 5.95409 6.98954 5.64341 3.05909 1.90289 -0.845498 -0.938348 -4.7912 -8.45712 -10.4957 -9.53245 -8.99868 -7.26573 -8.07443 -1.29286 2.00477 0.496016 -0.883209 0.843787 -0.758408 0.242425 -0.73 -0.791212 0.332221 0.732652 4.38526 10.0669 10.8036 6.35964 1.48013 2.16603 1.83458 4.40487 2.84177 1.41332 -2.41412 -10.8526 -17.0703 -14.4897 -13.1001 -10.5413 -5.0888 0.175344 1.41108 0.294432 2.63758 3.57006 1.95248 0.524922 -0.09 -0.430715 -0.37823 5.11086 11.4844 10.1551 5.09903 0.693637 -0.873215 -0.62674 3.32214 6.09922 4.44014 3.64898 -1.31771 -6.34065 -13.126 -12.877 -9.94196 -6.99698 -2.72693 2.75879 2.25421 0.0649688 6.14452 6.07189 1.71303 -0.278695 -0.04 0.188729 -0.0321262 7.09718 12.2559 8.22571 4.45457 3.58369 3.628 5.81291 6.18865 6.76802 6.83856 8.06178 4.66136 -0.151489 -3.9482 -2.38482 -2.23846 1.69719 3.45554 7.08428 5.65539 3.06396 7.29878 6.57207 0.802297 -0.328976 0.43 -0.320744 0.616292 5.05771 8.48438 5.91701 4.05564 4.73945 4.43495 5.01066 4.04663 3.58248 3.49762 4.19081 2.1122 -0.666482 -0.0193834 3.33787 3.01286 3.77759 4.70617 5.27349 1.3813 2.92289 4.90723 3.01501 0.714849 -0.562036 0.47 -0.860006 0.730527 0.0477482 0.981823 0.812384 0.555477 0.742476 0.571168 -0.0912352 1.30763 0.28514 1.67955 -0.22721 0.857762 -0.585236 0.724653 1.05297 1.42474 0.13209 -0.513869 -0.596016 0.207082 -0.636359 -0.420395 -0.427468 0.591438 -0.987253 0.35 -0.52 -0.4 -0.49 -0.00887149 -0.601872 -0.117537 0.600198 0.79 -0.91 -0.11 0.02 -0.37 -0.0999481 0.320646 -0.159354 -0.94936 -0.359844 0.86001 -0.64 0.79 -0.84 0.74 -0.7 0.09 -0.54 -0.51 0.55 -0.99 
0.989045 -0.06 -0.08 -0.95 0.13 0.73 -0.85 -0.67 0.19 0.58 -0.65 -0.84 -0.95 0.07 0.11 0.25 0.41 0.32 -0.55 0.78 0.6 -0.21 0.849998 0.55 -0.03 0.09 -0.72 0.5 -0.28 -0.11 -1 0.4 -0.78 0.69 -0.12 0.700001 -0.51 -0.849999 -0.89 -0.67 0.76 0.22 -0.68 -0.64 0.380001 -0.499999 0.49 0.63 9.63615e-08 0.65 0.559996 0.7 0.04 -0.51 -0.66 -0.15 -0.71 -0.74 0.87 0.41 -0.28 -0.23 0.580293 0.930393 0.360394 0.720395 -0.729802 -0.166463 0.290011 0.180012 0.510104 -0.13 0.59 -0.219999 -0.979999 0.933658 0.793658 0.0100008 -0.910004 -0.73 -0.95 -0.999996 -0.799989 -0.65 -0.88 0.01 -0.16 -0.33941 1.24236 1.31246 -0.532952 0.98849 -0.178281 0.0567274 1.29206 0.674134 0.0517773 0.034417 -0.0185412 1.08294 0.810592 -0.449291 0.250831 0.770799 0.460593 0.870593 0.350587 -0.54058 1.38119 -0.407636 -0.0392669 -0.83 0.16 0.74 -0.169411 0.464717 0.20473 1.17885 1.76238 -0.0108698 0.438129 1.15344 0.615418 1.36591 1.50591 0.00708073 0.701293 0.506491 0.945904 1.3963 1.48697 0.826942 0.186194 1.6959 0.325898 1.47238 0.228848 0.0347304 1.36486 0.370589 0.01 0.74 0.214118 0.462363 1.73296 0.496489 1.76649 0.506489 1.39689 0.786691 0.906496 -0.093504 -0.0334989 1.20945 1.11592 0.746496 0.746496 0.626496 1.46651 0.706515 0.556509 0.166496 0.68649 -0.0735039 0.036496 1.7565 0.778248 -0.855882 0.85 0.79 -0.64 -0.0311772 0.0253086 0.712369 0.8859 0.86649 1.18649 0.246496 1.3965 1.45003 1.26003 1.45003 1.45003 0.220026 1.83003 1.55003 1.61003 1.42003 1.20003 1.20003 0.700024 0.0465095 1.88649 1.0459 1.00887 -0.105868 0.14 -0.7 0.46 -0.300006 0.237641 0.347643 0.289417 1.41178 1.19472 1.16943 0.0759041 0.625904 1.37943 0.258849 0.446496 1.13003 0.150026 0.400026 1.12003 0.460026 0.996496 1.5165 0.841787 1.63242 1.58016 0.433102 -0.19522 -0.539988 -0.43 -0.28 -0.56 0.170108 -0.328911 -0.729467 0.337443 0.578058 -0.55336 -0.251746 -0.309408 -0.41882 0.126476 1.6512 0.146496 1.83003 0.0800255 0.286496 1.4765 0.759438 0.71473 0.436495 0.841388 0.954754 0.135332 -0.578118 0.640362 0.759992 0.93 0.7 0.811079 -0.391641 -0.736595 0.953131 0.0829924 0.172209 -0.626177 0.371262 0.141934 0.811772 0.544132 1.52179 1.4865 0.376517 0.126517 1.52652 1.46125 1.38602 1.00703 -0.33519 -0.376741 0.682962 -0.496969 -0.257104 0.375418 0.590385 0.7 0.4 -0.0582572 -0.218599 -0.304922 -0.304882 -0.784891 0.255026 -0.00685912 0.627581 1.5381 0.158264 0.816495 1.1665 1.53661 1.10357 0.9507 0.266622 -0.635143 -0.815105 0.0936792 -0.205217 0.775512 -0.854167 0.995774 -0.284886 0.391162 0.461722 0.95 -0.49 -0.109929 -0.287607 0.177994 -0.211766 -0.521234 -0.761937 0.794232 1.42372 0.486047 1.34649 0.84652 1.25321 -0.173257 1.12428 -0.465716 0.32297 -0.05674 0.63516 0.485351 0.605575 0.0658238 0.184386 0.571819 -0.4872 0.849224 0.68109 -0.8 0.14 0.680001 -0.0599356 0.660152 0.415631 0.0190949 0.910128 0.812405 0.375908 0.236488 0.0700207 0.950117 1.3942 0.550979 -0.414468 0.345073 0.335902 -0.233888 0.665501 0.770001 0.178025 -0.336235 -0.687681 -0.897253 -0.306987 0.982043 0.900045 -0.48 0.34 0.240003 -0.269812 -0.739023 1.25446 1.54672 0.746619 1.06654 0.876495 0.340022 1.86003 1.66002 0.115414 0.233452 1.06226 0.829941 1.06394 -0.69499 -0.617553 0.846018 0.685631 0.175729 0.371594 0.152566 0.922932 -0.488013 -0.0899522 0.69 -0.79 0.54002 -0.0193627 0.0542289 0.700972 0.486739 1.24012 0.430057 1.24002 1.45 0.0999653 0.389939 1.04643 0.672979 1.53962 1.15608 1.03492 0.194216 1.55696 -0.132897 0.37726 0.377886 1.23731 -0.684568 -0.717549 0.271566 -0.319969 -0.9 -0.53 0.830063 -0.258545 0.0887076 0.0970106 1.43145 0.666489 1.82646 0.526428 0.29993 0.309921 0.219959 1.76001 0.496493 1.43648 0.806471 0.526472 1.41683 1.60743 0.207539 0.107586 -0.0525938 0.987789 -0.256449 0.342479 0.301002 -0.889996 -0.53 -0.13 0.210017 -0.669135 0.625448 -0.371709 0.745987 1.43254 0.072314 0.482301 1.55644 0.320004 0.0800203 1.24002 -0.0299739 1.14004 0.490045 0.330028 -0.0499777 1.82004 0.150043 1.09653 0.0269067 1.15366 0.821125 0.428941 -0.829121 -0.0999983 -0.64 0.68 -0.85 0.490012 0.450085 0.960207 -0.369832 -0.212389 -0.582408 1.0194 0.445899 0.310025 0.700026 1.55003 0.410048 0.310167 0.760203 1.52665 0.306617 0.892415 1.3124 0.996021 1.31768 0.61999 0.945777 0.832066 -0.719287 0.130043 -0.37 0.79 -0.339999 0.380015 0.849989 0.549952 0.729938 -0.710045 0.0652836 1.17177 0.576496 1.82089 -0.0182453 0.538451 1.62842 0.638467 1.80854 1.4702 0.49522 0.99442 -0.0168122 -0.342055 0.773768 -0.914369 0.422493 0.742572 0.612055 0.0701906 0.28 0.65 -0.569988 -0.619915 -0.389897 0.840015 0.219987 0.527642 -0.304699 1.37002 0.416496 1.03089 -0.0517787 0.824868 -0.172073 -0.131962 -0.0589415 0.531527 1.05963 0.48071 0.535733 0.38323 -0.416153 0.503337 -0.455109 0.695299 -0.725532 -0.999678 -0.48 0.26 -0.879992 0.100105 -0.969359 -0.0571878 0.321503 0.963548 -0.00115266 -0.0570333 1.5665 0.326508 0.529462 1.45064 0.216699 0.765059 0.23566 -0.521739 0.801639 0.382809 0.893841 -0.481581 -0.715423 0.0738725 0.454098 0.225271 -0.225548 0.720294 -0.93 -0.73 0.16189 -0.757214 -0.51781 -0.729034 -0.177793 0.438345 1.0365 1.23003 1.42691 0.776937 0.25007 -0.815014 -0.102518 -0.605308 0.658077 -0.876836 -0.723386 0.323516 0.672689 0.793686 -0.0161964 -0.557066 0.682932 -0.247153 0.283769 -0.487975 0.01 0.58 0.573278 0.932583 0.899129 0.932771 1.28676 0.92508 -0.0725041 0.341683 1.23633 1.2626 -0.178121 -0.883365 0.835051 -0.244296 0.0675513 -0.592143 -0.364409 -0.36877 -0.447201 -0.551955 0.665727 0.9051 0.655022 0.946001 -0.798714 0.0533682 -0.39 0.92 -0.429177 -0.325693 -0.673186 0.61127 -0.477931 1.52513 1.69341 1.27156 1.26674 0.806522 -0.702201 0.477331 -0.695213 0.267847 0.985207 -0.328085 0.676116 -0.835049 0.244365 0.832069 -0.757843 1.00262 -0.727268 -0.48737 0.279939 -0.109193 0.51 -0.92 -0.769999 0.410259 -0.196797 0.243695 0.190314 -0.387387 -0.284037 0.86868 -0.0993364 -0.41184 0.220207 0.0749156 -0.712295 -0.276935 -0.868721 0.121253 0.879884 -0.0487228 -0.765471 -0.0494826 -0.369586 0.610556 -0.909345 0.840849 -0.729806 -0.29 0.24 -0.93 -0.52 0.879999 0.53 0.300003 0.940002 -0.119093 -0.553701 -0.949787 -0.641712 -0.116304 0.291387 -0.496829 0.423635 -0.819103 0.970415 -0.659592 0.000405889 0.020014 0.24001 -0.559988 -0.249994 0.390024 -0.239987 0.31001 0.92 0.77 0.91 -0.11 -0.38 -1 -0.83 0.0500004 0.24 -0.59 -9.58172e-08 0.200477 -0.69 0.0199998 -0.0199997 0.290001 -0.189999 -0.439999 -0.409999 0.29 0.23 -0.16 -0.05 0.78 0.149995 0.34 -0.61 -0.37 0.99 -0.79 -0.49 0.76 -0.85 0.07 0.51 -0.48 0.94 0.7 -0.1 0.42 -0.01 -0.84 -0.68 0.44 -0.74 -0.22 0.89 0.3 0.15 -0.23 -0.72 0.65 -0.620001 0.58 -0.38 -0.66 0.64 -0.45 -0.28 
15.8046 0.49 0.06 0.11 0.92 0.599911 0.456228 -0.985476 -0.262793 0.730275 0.106051 0.270761 -0.0104631 0.6 0.77 -0.730053 -0.880566 -0.804948 -0.222981 0.631235 -0.149076 1.01368 -0.758833 -0.238598 0.26 -0.66 0.39 -0.77 -0.08 -0.18 0.43 0.765744 -0.335045 0.902809 0.214456 1.06363 0.722447 0.304137 1.01235 1.10393 -0.108389 0.185344 -0.575809 0.158329 0.354521 -1.25488 0.0805995 -1.34406 1.77314 -0.231087 -0.227271 0.674166 1.46065 0.395952 0.392262 -0.510486 -0.13 -0.93 0.158772 0.550417 2.89643 3.41102 2.77863 4.91201 2.9842 2.61086 -0.632389 -2.6633 -3.09856 -2.54071 -3.30749 -4.03881 -3.13537 -2.58138 -0.802261 -0.428673 -0.18861 2.22672 4.62685 6.06212 6.17696 5.1453 0.609358 0.394183 0.98 -0.58 0.978619 3.08353 7.71282 7.36419 5.64788 7.28323 5.59575 3.76537 -1.60231 -6.83361 -9.98581 -10.0138 -10.3011 -13.456 -13.4518 -10.4589 -4.664 -3.06609 -1.94811 3.53062 9.79324 13.3595 14.4351 12.6232 3.96477 1.21837 -0.19 0.69 -0.793576 4.97471 10.4495 10.0828 9.26807 9.25321 8.05191 3.75807 -1.71447 -8.62195 -14.9115 -16.2097 -14.7417 -15.1688 -14.2009 -8.99938 -0.376974 2.4033 5.04774 3.81963 9.22459 15.2322 18.3647 17.1338 9.80021 0.656907 0.55 0.51 -0.459303 6.39174 9.92383 8.31373 11.8861 8.8791 8.45488 5.73898 1.92863 -10.4612 -14.5428 -13.9157 -16.013 -13.9186 -7.20716 4.33523 10.6256 8.46178 7.54222 3.93912 4.56705 7.7244 16.375 16.5818 6.66203 -0.00949657 -0.4 0.64 0.563601 5.98897 10.3972 7.00683 8.89924 9.12241 4.24115 1.22356 -3.82625 -10.522 -13.0867 -10.0889 -6.21641 -3.45844 4.14888 9.18635 13.3821 9.36085 8.44827 5.2582 7.03607 4.1715 9.32636 12.4952 7.03995 0.209838 -0.65 -0.13 -0.296119 5.09407 7.64594 3.89349 2.14353 3.65329 0.02087 -5.5647 -8.25016 -10.5362 -11.0294 -5.8863 2.39942 5.45182 12.6403 18.5654 14.1724 10.7001 4.44286 4.01983 3.77674 1.89163 6.95378 8.88976 5.43518 -0.962505 -0.99 -0.22 0.50208 4.15726 5.63844 -2.56727 -1.45445 -3.34272 -3.82908 -6.44342 -6.21658 -12.3513 -10.8304 -6.7753 0.605558 11.1642 21.854 27.82 23.2448 14.4614 1.51169 -0.771464 -2.16676 3.36623 8.55853 10.4438 3.24296 -0.590435 -0.92 0.53 0.397407 5.18252 7.56185 -1.24978 -3.00017 -2.15203 -4.59243 -8.25408 -12.2714 -15.4703 -10.4934 -2.80696 9.48309 22.3329 26.4397 26.4782 19.1641 9.59792 3.73361 4.48496 5.34933 1.81817 1.38031 8.54744 1.94773 -0.786553 0.72 0.97 0.700404 0.124623 6.43682 0.305918 1.01489 -1.87812 -7.85883 -11.9405 -12.5273 -19.15 -11.6079 0.789446 16.9365 22.9106 27.8107 24.3035 19.6255 15.9553 11.9211 7.80948 2.89045 -2.56178 -5.84843 3.68919 3.2632 1.34101 -0.24 0.84 -1.24894 -0.622165 -0.799827 -3.94499 0.0594468 -6.8837 -8.72279 -10.9376 -10.8338 -13.3002 -8.95037 5.04751 16.3558 23.0581 31.5795 24.7228 22.8419 27.0063 21.0016 12.4537 1.92865 -1.33192 -6.99787 0.572602 5.33335 -0.00829362 -0.39 -0.24 -1.04762 -0.235432 -3.72414 -10.0938 -6.94504 -12.3981 -14.9239 -15.3182 -12.5617 -8.43109 1.91463 10.8508 11.9674 16.0263 20.0378 22.0163 23.7588 25.7095 24.4375 15.8516 10.6628 0.329661 -11.666 -6.66193 1.9612 0.344534 0.96 -0.21 -0.732978 -1.04636 -5.47425 -10.5896 -8.29475 -12.648 -12.9072 -17.8079 -12.6587 -2.77995 0.258942 1.83436 1.55151 8.32836 11.5424 11.0245 17.1967 15.2652 8.79791 3.93381 1.0647 -7.86897 -14.9411 -12.2895 -2.05389 1.29439 0.19 0.569943 -0.292143 -0.555483 -7.07265 -11.8717 -10.7043 -8.10211 -14.3993 -20.4783 -11.5775 -3.69775 1.10915 4.07506 6.56664 10.2884 5.81616 3.41424 1.01523 -8.249 -9.08623 -5.47171 -3.00196 -2.75569 -11.5844 -9.95412 -0.842966 0.0302333 -0.740291 0.989666 -0.0442702 2.20032 -7.72373 -13.337 -10.5157 -5.84229 -9.96667 -14.0536 -9.10868 -3.13522 0.151859 8.6385 8.06852 2.73213 2.15292 -4.55447 -9.72783 -18.4488 -18.2116 -12.4448 -4.20699 1.26595 -1.75745 -0.58956 2.70723 1.64929 0.329946 0.349941 1.19031 4.27334 -4.81825 -11.0003 -7.04504 -7.34019 -9.30007 -7.13407 -5.81295 0.314421 3.0109 7.85021 6.73897 3.975 -2.47447 -6.43971 -12.87 -13.821 -9.31388 -8.3293 -1.95531 4.59656 -1.4627 0.758765 2.36355 1.46387 0.344466 -0.27 -0.93677 4.12736 0.505084 -11.8413 -11.7505 -7.66848 -7.32993 -2.33034 0.259263 5.7481 9.22858 9.32731 5.71658 3.41686 -4.18576 -4.21107 -4.27213 -5.47908 -5.36509 -0.617513 4.34435 2.90131 -2.18429 -2.45653 -0.452504 -0.970105 0.89 -0.78 -0.390421 0.462346 -2.61449 -9.10482 -10.3256 -7.69559 -4.94856 -1.8114 2.03622 5.91932 3.71467 1.05959 -1.06741 -7.72015 -12.5693 -12.5386 -11.847 -12.0721 -8.63144 -5.20485 4.8451 6.0428 -1.31372 -4.3897 -5.46176 -1.67313 0.53 0.43 -0.362276 -3.42236 -5.79629 -9.11649 -8.93162 -7.38332 -1.1939 3.13897 6.36383 5.42183 3.94488 1.24557 0.0411963 -2.46635 -4.44953 -3.05026 -4.63598 -11.0403 -7.99742 -4.6875 2.83683 8.73937 5.73547 -0.0304512 -0.114302 -0.157941 -0.3 -0.12 -0.635936 -0.708443 -1.2678 -3.56618 -5.36778 -3.18775 2.20159 3.65098 -2.05015 -9.40886 -8.41786 2.77006 5.07633 4.85942 0.640945 -1.26316 -2.14982 -4.54335 -4.79887 0.936186 8.86287 12.2634 13.0569 6.73899 3.95859 0.917576 -0.62 0.63 -0.201989 1.3661 5.18315 2.83533 -3.9331 -2.59012 -0.745918 -4.43731 -10.0611 -15.7774 -10.2213 6.04529 7.41903 6.53618 1.02394 -3.70441 -6.84221 -10.6063 -9.30806 -0.248582 6.55488 8.07733 7.02712 6.01155 2.47196 -0.697159 0.67 0.83 -0.86664 1.06598 6.03507 3.97636 -1.05134 2.4298 -3.65668 -6.54166 -6.35144 -7.80907 -5.42667 -0.993006 3.5865 6.05071 0.346125 -3.86791 -8.35377 -10.9358 -8.66207 -0.933057 1.27415 1.38748 -2.63135 -1.35698 0.207251 -1.20829 0.2 0.92 0.577578 3.45934 7.03193 6.14483 7.82435 6.89788 1.22944 0.357821 3.02473 3.52905 3.55931 2.74996 -0.206023 2.49776 0.710037 -2.50521 -2.21172 0.746773 -0.31067 -0.672578 -2.141 -4.98731 -5.19585 -2.11629 -1.17442 0.149346 0.56 -0.58 -0.657896 3.58957 6.97333 5.97813 5.71088 6.15172 5.90516 7.73734 9.31926 8.4433 9.79531 7.30162 4.98457 5.06431 2.92644 2.72068 3.63905 6.22648 2.60144 -0.676853 0.726666 0.064339 -2.67366 -0.242131 1.24745 -0.900721 -0.34 0.46 -0.464574 1.31573 5.56076 4.4665 2.99344 5.38452 6.41227 6.47036 9.65924 7.88137 5.60501 5.12424 2.08069 4.7097 2.05617 1.98667 4.11765 3.16998 2.51909 1.90055 0.361024 0.488211 -1.05053 -0.645515 1.09531 -0.0872548 -0.78 0.1 -0.138991 0.8052 1.38819 0.880359 -0.217663 0.206543 0.706451 1.10939 0.821929 -0.0299316 0.713385 0.991044 0.366695 0.354477 1.21908 -0.354453 -0.265474 0.927084 0.967357 0.0363575 -0.383124 -0.303255 -1.13572 -0.225969 0.794662 -0.449699 0.39 0.95 0.92 0.04 0.770035 -0.259911 -0.680009 0.3 0.21999 -0.85 0.350749 -0.959825 0.65 -0.33 -0.13 -0.33 0.17 -0.58 -0.759989 0.64 0.89 0.77 0.55 0.12 0.94 -0.29 -0.3 -0.32 -0.95 
-0.818513 0.62 -0.9 -0.47 0.18 -0.36 0.309999 -0.550039 -0.16008 -0.460069 0.439925 -0.430032 -0.68 0.71 -0.780581 -0.040008 0.659997 -0.660278 -0.650845 -0.520835 0.250001 -0.699978 0.850049 0.85 0.26 0.02 0.44 -0.09 -0.7 0.56 -0.27 -0.14 0.300838 -0.0261338 -0.147862 0.781895 0.162254 0.441065 0.25593 -0.399499 -0.0721637 0.0177586 -0.422774 -0.258044 -0.4901 0.872133 0.182207 0.347103 0.950539 0.679031 -0.962638 -0.481796 -0.81077 -0.370108 -0.220001 -0.860001 -0.54 0.03 0.68 0.591878 0.61164 -0.442585 -0.894412 0.262671 0.290377 0.953222 -0.972248 0.855327 0.799754 0.179139 0.598158 -0.408481 0.147775 -0.746454 -0.853751 0.366095 0.570125 0.66709 0.509925 -0.185258 -0.0702706 -0.395468 -0.48312 -0.179974 0.559996 0.31 0.770057 0.0224414 0.190533 0.160451 0.415061 0.532599 0.40119 0.562124 0.873338 0.369012 0.136478 0.551487 0.347089 -0.0841602 -0.533098 0.330259 0.806614 -0.199627 0.45699 0.100494 0.800278 0.435549 0.851522 0.645164 -0.687553 0.380744 -0.089916 0 -0.489952 -0.278454 -0.786403 -0.128635 0.0792757 -1.02143 0.459027 -0.0063323 0.216751 0.286657 -0.940538 -0.203459 0.731006 -0.0488497 -0.0847989 0.609672 -0.951319 -0.15244 0.579467 -0.655377 -0.804202 -1.06394 0.414977 0.523403 0.682335 0.00408954 0.910054 0.37 0.400003 -0.686533 -0.494491 -0.339935 0.284798 -1.02078 0.526595 -0.384903 0.262746 -1.09601 0.322 0.707708 0.078367 -1.08303 -1.05161 -0.929882 -0.82974 0.577017 -0.493379 -0.526262 -0.186414 0.0659837 -0.620779 0.614417 0.55598 0.710984 -0.490005 -0.12 -0.300943 -0.852507 -0.670467 -1.07555 -0.44561 0.796646 0.547371 -0.66354 -0.862665 0.190535 -0.36404 -0.005383 -0.35702 -1.09621 -0.0628311 0.00591655 0.46955 -0.0535473 0.596493 -1.00214 0.440955 -0.292945 -0.733864 0.455749 -0.934759 0.185497 -0.43 -0.96 0.818698 0.185612 0.0980849 -0.0168057 0.615841 -0.650662 0.637311 0.191785 0.100648 0.517223 -0.533909 0.278991 0.293651 0.0292491 -0.576679 -0.638784 0.261271 0.62279 -0.372664 0.459745 -0.498465 -0.971553 -0.351843 0.306324 0.282722 -0.923859 -0.87 -0.95 -0.899642 -0.25033 0.354783 -0.438714 0.0241098 -0.793146 0.789065 0.696688 -0.966522 -0.0668344 0.557388 -0.517328 -1.10112 -0.240887 -0.229243 0.248374 -1.2147 -0.915255 -0.546451 -0.115883 0.615334 -0.524424 -0.0999058 -0.749048 0.674364 0.300329 -0.590968 0.07 -0.300078 -0.960385 0.120725 0.75324 0.179707 -0.0264569 0.584745 -0.458577 0.538947 -0.684532 -1.14271 -0.578352 0.593831 -0.495344 -1.13258 -0.747423 0.0742706 -1.06008 -1.1904 -0.679866 0.522469 0.248453 -0.428421 0.132313 0.145427 0.791732 0.329819 -0.85 -0.700539 -0.963818 0.549617 -0.169003 -0.870925 0.773247 -1.08409 0.370262 -0.880117 -0.419724 0.149747 0.554957 0.266535 -0.641782 0.176566 0.148526 -1.03501 0.413944 0.513328 -0.983019 -0.340648 0.286549 0.708939 0.475237 -1.12417 -0.148234 0.64 0.91 0.410719 -0.737635 -0.642449 -0.145298 0.475333 -0.599405 0.403129 -0.80051 -1.3658 0.55779 0.288174 -0.229889 -0.643288 -0.356481 -0.0898496 -1.24889 -0.22336 0.644531 -0.000764468 -0.154973 -0.534718 -0.942859 -0.672112 -0.94743 0.565389 -0.551436 0.9 0.31 -0.737398 -0.880343 0.375783 -0.828419 0.10921 -0.708129 -0.327567 -0.822603 0.249783 -0.827778 0.237341 -0.517278 -0.757705 0.13877 0.282972 0.650392 -1.10311 -0.523918 -0.981737 -0.988346 -1.05686 0.554512 -0.628564 -1.05544 0.788605 0.338285 0.4 0.44 -0.191999 -0.605005 0.311716 0.287105 -0.754758 -0.267258 -0.15236 -0.976856 0.244761 0.197645 -0.257927 -0.797382 0.394654 -0.801949 0.155821 0.00798602 0.424663 -0.455646 0.272105 0.157384 0.80804 0.0585575 -0.954322 0.644806 -0.614427 0.434847 0.86 -0.38 0.237949 -0.489296 0.139869 0.476703 0.283887 -1.27706 -0.787403 -1.14877 0.274567 0.558245 -0.87545 -0.748703 0.568022 -0.306496 -0.535421 -0.706845 -0.529544 -0.640255 0.244949 -0.784868 -1.04996 0.201743 0.648848 -0.201491 0.610718 -0.69737 -0.180001 -0.370292 -0.971666 -0.0654118 -1.11413 -1.08757 0.532187 -0.449174 -0.18935 0.128513 0.830456 -0.114202 -0.313131 0.459095 0.615559 -1.09538 0.773718 -0.922277 0.17587 -0.541732 -0.592063 -1.00012 0.0973106 0.178155 0.403679 -1.07203 0.203014 -0.765029 -0.98 -0.371069 0.438823 -0.185088 -0.0693902 0.408992 -1.24803 -0.0333309 0.0161272 0.136978 -0.275465 -0.142643 -0.923835 -0.859614 -0.0702158 -0.452407 -0.598419 -0.126237 0.180179 -0.608763 -0.492448 -0.582439 -0.613584 -0.914 -0.986124 0.175711 0.389319 -0.0245335 0.48 0.299778 -0.472755 0.281777 -0.833112 -1.28707 -0.769284 -0.602699 -0.0179696 -0.857784 -0.977817 0.0151253 0.0692126 -0.363884 0.18533 0.330687 -0.612508 -0.649509 0.487231 0.77924 -0.579347 -0.749436 -1.01225 -0.576801 -0.00534088 -0.367561 -0.595962 0.766837 -0.49 0.639946 -0.4746 -0.0914364 0.73799 0.0201293 -0.449771 -0.511125 -0.0828186 -0.0501551 0.234899 -0.0287966 -0.458449 -0.260251 -0.39922 -0.624549 0.672136 0.677491 -0.885591 -0.497635 0.828662 -0.639983 0.279329 -0.0408591 -0.567075 -0.891953 -0.422555 -0.931666 0.87 -0.99 0.764115 0.146897 0.575441 0.144481 -0.096306 0.653739 -0.685806 -0.567986 -0.980031 0.635675 -0.341288 -0.873324 0.27098 0.304949 -0.684326 -0.443566 -0.924141 -0.840447 -0.67151 -0.0978245 0.418921 -0.50503 0.233904 0.679645 0.114536 0.438287 0.45 -0.58 0.522153 -1.04043 0.586648 -0.671351 0.736572 0.424003 0.591866 -0.649069 -0.949586 -0.0703424 -1.02053 -0.892552 -0.881026 -0.748171 0.197206 0.31886 -0.672614 -0.801755 -0.466019 0.53824 0.587963 -0.819283 -0.22055 0.246505 0.150666 0.148848 0.95 -0.340001 0.176017 -0.932798 -0.304635 -0.47082 0.160033 -0.0233202 -0.558449 -0.167931 0.888251 0.0673895 0.0734682 0.548782 -0.646198 0.323114 0.0544296 -1.08297 0.287768 -1.02096 -0.29273 -0.585647 -0.75843 -0.400408 0.864223 -0.346638 0.690934 0.108926 0.91 0.369995 -0.0818146 -0.431797 0.086057 0.218578 0.389257 0.153341 -0.921462 -0.498302 0.0384541 -0.881462 -0.41105 0.69757 -0.490991 -0.173515 -0.54712 0.414193 0.0931958 -0.659245 0.777467 -0.186654 -0.385942 -0.183113 -0.298538 -0.0752873 0.722952 -0.06099 0.03 -0.930002 0.671152 0.0315265 0.40455 -0.406777 0.221071 0.0524781 -0.428109 0.703269 -0.764017 -0.288314 -0.656075 -0.00817223 -0.844359 -0.0553289 -0.547047 -0.274068 0.0365519 0.227233 -0.543934 -0.692899 -0.232301 0.0663603 0.700571 -0.46876 -0.665178 0.35956 -0.09 -0.160004 -0.605307 0.140705 -0.866773 0.0979456 -0.838158 -0.634885 0.0430387 0.632137 -0.872379 -0.819967 -0.922386 -0.210742 0.301006 -0.422029 -0.262198 0.289196 -0.0680026 -0.152631 -0.956546 0.358422 -0.536925 -0.799234 -0.395009 -0.216408 -0.750715 -0.729997 -0.6 0.00999757 -0.454958 -0.147405 -0.0257781 -0.955582 0.18436 -0.787229 -0.47164 -0.276213 0.33685 0.492816 -0.749175 0.176621 -0.40788 -0.374125 -0.175481 0.35327 -0.02355 -0.410085 0.994062 0.280023 -0.129584 -0.838925 -0.253094 -0.221865 0.540014 0.200011 -0.33 0.32 -0.390966 0.867298 -0.272061 0.546292 0.698933 -0.20224 -0.613942 0.364274 0.854613 -0.702538 0.938269 0.0948228 0.129381 -0.310436 -0.370255 0.249667 0.0498564 -0.15452 -0.416144 -0.0468595 -0.949985 0.0899653 0.409907 -0.610119 0.550002 0.990003 0.61 -0.91 -0.65 0.43 0.330019 0.670782 -0.0400017 0.95 0.209721 0.79641 0.98853 -0.750009 -0.07 -0.300003 0.439957 -0.380043 0.769957 0.12999 0.589992 -0.44 -0.43 0.42 -0.649988 0.93 0.57 -0.49 -0.88 -0.19 -0.69 
1.50413 0.02 -0.85 -0.63 -0.28 0.98 -0.829999 0.99 -0.19 0.62 0.91 -0.86 0.62 0.45 0.3 -0.26 -0.55 0.41 -0.04 -0.3 0.69 0.2 0.85 0.6 -0.17 -0.1 0.12 0.14 0.06 0.31 0.52 -0.529998 -0.26 0.129999 -0.057885 0.74478 -0.505072 0.304263 -0.349601 0.640002 -0.639911 -0.00997732 0.100003 0.0600186 0.500018 0.0600175 0.860014 0.510004 -0.7 0.21 -0.0999992 0.64 0.23 -0.96 -0.24 -0.7 -0.68 -0.33 0.61004 -0.399807 0.840007 0.0497938 0.451956 -0.328883 -0.766597 -0.907129 -0.117939 0.788604 -0.262067 -0.0249066 -0.432397 0.442984 0.590134 -0.00979032 0.520068 0.820065 -0.0799583 -0.0199909 -0.399899 0.410578 0.840099 0.21 0.960002 -0.61 0.07 -0.15 -0.789954 -0.816106 0.548572 -0.607234 -0.237394 -0.507989 0.914847 -0.280279 0.583133 0.844162 -0.749187 -0.660801 0.701482 -0.830124 0.0306978 0.730727 -0.249251 0.920674 -0.00934282 0.950646 0.240954 -0.418633 0.41332 -0.191543 -0.346405 -0.73 0.64 0.12 0.426577 0.597874 0.944531 1.03245 1.37732 -0.485187 1.251 -0.261617 -0.361283 1.25754 1.34998 0.304991 0.0297666 0.952583 0.912986 0.712964 -0.386646 0.913539 1.44354 0.753574 1.03334 0.128875 -0.0334436 0.334371 0.536788 0.28654 -0.57 0.6 -0.651308 0.528639 0.652135 -0.186562 0.313191 0.90366 0.343838 0.153678 -0.23632 1.05355 0.143641 -0.0706706 -0.0228987 0.583714 0.263727 -0.10625 -0.374696 0.817283 0.465105 -0.256566 1.38702 0.437341 1.20809 0.860693 0.212129 0.128053 0.4 -0.48 0.900055 0.03901 -0.222114 -0.362039 0.826399 1.41381 0.603762 1.52377 -0.156356 1.23579 -0.284129 1.50582 1.06574 0.975748 0.985914 0.666171 0.988988 -0.157851 1.0126 0.243881 0.0223629 1.3643 -0.389166 0.933584 1.34466 0.907776 0.21 0.81 -0.00983039 -0.549036 -0.297384 -0.400546 0.0984363 -0.38069 -0.0806717 1.1725 0.614129 1.03385 0.436176 -0.426414 1.53406 -0.273848 0.0162377 1.26685 -0.268992 0.354521 -0.0451881 1.33052 0.933003 -0.106274 0.273385 -0.272211 -0.494131 0.200104 0.04 -0.72 0.0695178 0.853061 0.515837 0.0160412 -0.321472 0.432703 -0.6936 0.836149 -0.246888 -0.0100164 -0.857707 0.17824 1.16697 -0.100924 1.08926 0.777726 0.412807 0.973266 -0.40049 -0.0768523 1.37363 -0.278256 -0.398978 0.18619 -0.238557 -0.507731 0.89 0.34 0.768631 -0.585699 0.388616 0.0663643 0.313649 0.346681 0.651772 -0.34936 -0.289421 0.0991834 0.586948 0.0801417 0.365377 0.156045 1.37608 0.415964 1.07619 -0.0296487 0.357748 0.212785 0.833377 0.192669 -0.537465 0.0999861 -0.307513 -0.619823 0.2 0.18 -0.810556 0.793998 -0.969748 0.757102 -0.772633 0.31298 -0.223275 -0.239164 0.31445 0.710592 -0.149874 1.29203 1.41391 -0.386471 0.995801 -0.23243 -0.0747602 -0.546346 -0.616303 -0.221919 -0.40907 0.548231 -0.212098 -0.296093 -0.0896396 0.841574 -0.46 0.1 -0.551209 0.68727 -0.0572749 0.391943 0.722618 0.343933 -0.487919 1.2985 1.0511 -0.451881 0.73033 0.649129 0.959541 -0.545029 0.424746 0.884875 -0.30763 0.827989 -0.585221 0.413523 -0.594732 0.780875 -0.462174 0.333291 0.48217 0.321547 -0.16 0.07 0.368807 -0.399178 -0.0360215 0.727248 -0.677444 0.947404 1.21904 0.607139 1.23351 0.836876 0.920413 0.946248 0.485814 0.75434 0.911377 0.337636 0.526249 1.09697 0.592506 -0.76915 -0.281831 -0.205385 0.476547 -0.376526 0.326805 0.222826 0.02 -0.51 -0.571209 0.29834 0.887022 0.929217 0.231908 0.186449 0.601149 1.47317 1.03652 1.2634 1.19386 0.672797 0.726962 -0.554728 0.726304 0.177104 0.0275606 -0.707793 0.0236514 0.248905 0.178362 0.0785515 -0.0071675 0.154182 0.0121462 0.451531 -0.85 0.11 0.360938 -0.136008 1.09851 0.255761 0.451937 0.195039 -0.280687 0.512273 -0.470428 1.03154 1.47671 0.227724 -0.0827958 0.295867 0.053048 -0.35994 0.873532 0.895599 -0.0300615 0.094801 0.391609 0.0570863 -0.200422 1.11719 -0.223705 -0.152227 -0.82 -0.65 -0.33818 -0.177994 -0.0619836 0.438127 0.158407 1.03819 -0.203212 0.886414 -0.140374 1.05025 0.449672 1.171 0.47413 1.45234 -0.317543 0.292156 0.236514 1.38007 1.52451 0.812306 0.263492 0.32707 0.0381903 -0.151171 0.11664 0.899858 -0.95 0.41 0.209479 1.04406 -0.488551 0.95807 0.332358 1.23052 1.15727 0.0417378 1.23346 0.739636 -0.30537 0.578966 1.46062 -0.0970092 -0.52974 -0.398854 0.948492 0.750707 0.739988 1.03479 0.816084 0.727741 0.635618 0.198899 -0.759309 0.272662 0.36 0.21 0.880734 0.853671 1.05363 -0.066923 -0.582566 0.772698 0.41625 -0.516697 1.12475 0.53538 1.42631 1.20736 0.417874 1.38913 -0.112482 -0.469008 1.54491 0.634248 -0.374197 0.510334 0.827488 0.303917 0.87459 -0.425819 -0.703832 0.0101549 -0.79 0.91 0.437579 0.403028 -0.310588 0.818654 1.0365 0.881015 0.792179 1.23933 1.22613 -0.341595 0.10666 1.41739 0.735608 1.17245 0.355847 0.00639485 0.99664 0.343362 0.409697 0.175738 0.223495 0.422402 -0.0060089 1.13839 -0.793736 0.5693 0.15 -0.69 0.715036 -0.450954 -0.361565 0.256409 0.975396 -0.825755 -0.484869 1.41098 0.391061 0.0238237 -0.378905 0.323972 0.0217403 1.20216 0.237404 0.180759 0.872463 -0.307829 -0.088549 0.441699 0.214808 0.132328 1.13599 0.203825 -0.512449 -0.290767 0.07 0.91 0.595704 1.23479 -0.685421 -0.137091 -0.61768 -0.48976 1.30023 0.285651 -0.333169 0.359201 1.00693 -0.323358 -0.446928 -0.442327 0.937882 -0.555905 -0.140423 0.00319186 -0.413614 -0.578087 0.831623 -0.427855 0.917457 0.972597 0.0112593 -0.980133 0.55 0.25 0.190955 0.181839 -0.33024 0.966287 0.82799 1.54948 0.590785 1.28544 0.37251 0.290885 -0.390265 0.433758 0.626151 0.788901 0.0386847 -0.340058 0.86232 0.613055 0.122918 0.241349 0.985928 -0.524124 1.02438 0.0542663 -0.240593 0.711047 -0.16 -0.36 0.56188 0.561952 -0.217835 -5.8291e-05 1.31053 -0.295904 1.55 1.07657 0.75771 0.344281 0.431793 -0.634313 -0.971956 0.977941 -0.270698 0.709106 0.438679 -0.704227 1.00126 -0.489472 0.693803 -0.589597 0.272098 -0.315726 -0.544864 0.911066 -0.57 0.11 -0.457969 -0.710922 0.687158 -0.323725 0.53364 0.521976 -0.139159 1.27898 0.991072 0.800361 -0.300534 0.493575 1.216 0.956056 0.946201 0.469554 -0.360615 -0.622765 -0.58064 0.562512 0.630274 0.00264615 0.62744 -0.0867439 0.703115 -0.59962 0.03 -0.49 -0.518527 0.312586 1.15106 1.1966 -0.621411 -0.466022 0.80453 -0.765078 0.288895 -0.230298 -0.56171 0.785561 0.517045 1.06538 0.955601 -0.224312 1.21493 0.95985 1.28375 -0.147359 0.726378 0.234993 -0.525846 -0.220113 -0.384253 -0.97 -0.48 0.07 0.460001 -0.747122 0.452919 0.97193 -0.309927 0.461724 -0.948343 0.7975 0.824016 0.510841 -0.541408 -0.460077 0.160244 0.421411 -0.176579 -0.297863 0.293544 -0.792911 -0.586006 -0.459408 -0.167756 -0.461293 1.10862 0.407273 0.3 0.17 0.61 -0.44 0.02 -0.949999 0.300002 -0.329963 -0.43999 0.290003 -0.729997 -0.999992 0.520267 -0.0794672 0.482802 -0.335054 0.634947 0.964942 0.717102 -0.309466 -0.239996 -0.39 0.660004 -0.159996 0.39 -0.460011 0.299929 -0.82 0.99 -0.23 0.74 -0.02 -0.53 -0.41 -0.08 0.6 -0.42 -0.06 0.13 0.59 0.87 -0.25 -0.35 0.01 0.41 -0.36 -0.41 0.96 -0.6 -0.09 -0.56 0.59 -0.56 0.2 0.33 -0.23 -0.72 -0.87 -0.55 
5.51905 0.14 0.98 -0.06 0.57 -0.737338 -0.163067 1.10041 0.119629 0.922909 0.630455 0.533286 0.291064 0.329962 -0.100255 0.249892 0.896244 0.40305 0.852964 0.401962 0.430433 -0.666883 -0.0328569 -0.550001 -0.690001 0.289999 -0.88 -0.31 -0.51 -0.32 0.159954 -0.122249 0.787134 0.499152 -0.345771 -0.56234 0.612481 1.55628 1.50897 0.63951 0.551846 0.0311352 0.997264 -0.338799 0.533166 0.656219 0.423255 0.305665 -0.46829 1.2506 0.990747 -0.766361 0.51589 -0.568544 -0.249682 -0.388345 -0.08 -0.5 -0.564489 0.172327 1.05069 -0.128078 1.59141 2.01903 2.31775 4.149 3.43896 4.63099 3.96777 3.35184 3.08561 5.2946 3.08073 3.74195 3.01703 1.5205 1.90516 1.95721 3.69744 1.89909 -0.0949859 -0.392402 0.870459 0.807626 -0.19 -0.6 -0.956021 0.0529429 1.49894 3.00399 4.11716 5.00651 4.15707 8.15681 8.11458 8.06431 8.52149 4.84099 4.03359 4.78211 4.11964 4.29075 3.63338 -0.382023 1.49933 4.38839 3.5721 1.3141 -0.0680318 -0.494122 0.392035 0.38486 -0.24 0.32 -0.524528 1.39222 0.043469 2.4176 6.76876 6.46877 7.69946 8.71863 11.0889 10.5037 8.43853 5.24325 3.26184 2.00022 3.55096 3.79377 1.51248 -0.204704 0.254331 0.816098 0.319441 -0.482952 -0.166521 0.374542 0.422015 -0.449071 0.73 0.49 0.182363 0.432884 -0.273023 1.33432 5.38594 5.86055 6.541 10.815 12.9282 13.6807 12.0567 5.22098 1.23292 1.62441 1.70348 1.16517 -0.360329 2.47855 -0.476211 -3.96288 -4.2039 -2.76133 -0.820018 0.233266 2.42209 -0.60808 0.287212 0.47 0.565396 0.527688 1.80115 4.72094 5.84429 4.94177 4.63411 11.0761 12.8176 9.73896 9.52079 3.32713 0.0364852 -0.0925204 2.18904 -1.18458 -0.848506 2.74553 1.67215 -3.72856 -2.33739 -1.30141 -0.508651 2.33675 3.74815 -0.27896 -0.68 -0.19 0.00482314 0.109965 0.441749 3.56034 4.38966 3.3676 2.35633 7.38731 7.2853 3.74717 5.89358 2.04357 -2.74627 -2.68308 -5.54127 -7.44315 -5.21915 -1.15383 -2.06861 -2.11633 -0.928616 -0.61411 0.119139 2.03441 3.87416 -0.150419 -0.28 -0.48 0.586689 -0.430802 1.76978 2.10249 3.39766 4.24547 2.15776 5.30913 5.32989 0.991619 -0.601934 -3.02499 -3.65334 -5.62444 -8.31222 -10.5862 -10.5278 -7.98805 -5.24406 -4.61957 -1.79012 -0.0701843 -2.65142 1.44862 4.03638 0.246701 -0.962354 -0.72 -0.309291 0.290937 0.597307 4.20236 6.98246 7.99996 4.9833 4.30327 2.25173 -3.47461 -5.29827 -5.44287 -5.11333 -6.29397 -7.57076 -8.73536 -10.7553 -10.9415 -9.86089 -9.12742 -5.69991 -1.36317 -2.39207 0.265957 2.84803 -0.271576 0.0495833 0.22 -0.449848 -1.47001 0.638123 4.87198 9.91477 7.52379 3.80683 1.14493 -1.13748 -4.3895 -4.13722 -2.90185 -5.79668 -6.33986 -6.51028 -7.08885 -6.71565 -9.36148 -8.54536 -8.17743 -5.10036 -3.20663 -3.61696 -1.24006 0.741873 0.77181 0.13 -0.76 0.0060155 -2.40693 1.40413 2.48278 5.15139 4.38186 0.182189 1.60757 0.464582 1.46653 -0.626786 -0.135766 -4.21601 -3.76236 0.115255 -0.0241618 -1.33736 -2.2413 -5.14236 -2.32613 -0.914187 0.719289 -1.95349 -3.26298 -0.804378 -0.879855 -0.15 0.88 -0.405671 -1.4619 -1.01596 -0.117446 1.87038 -0.432005 1.79299 3.30794 1.60258 3.13388 2.75226 2.72958 2.97197 2.58678 6.83213 5.15042 1.38029 3.16453 -0.00536241 1.14298 4.67893 3.9799 0.862581 -0.998065 -1.60615 0.833039 -0.64 -0.89 -0.0457879 -1.10996 -0.747058 0.204091 -0.0587147 -2.39429 2.77496 3.1361 1.98291 4.69674 8.46272 7.40749 6.89599 6.8323 8.99182 9.93133 7.95506 5.97969 3.24081 5.81344 7.72499 5.5538 4.19616 0.910882 -0.518381 0.550272 -0.86 0.93 0.413398 -0.636183 2.21374 2.32206 2.28834 0.0170346 5.91552 4.32387 6.54911 9.02559 9.96708 6.46518 7.56295 6.78373 11.5807 8.0606 4.92079 3.47869 4.39927 6.70388 8.40079 7.46472 3.99186 1.65422 -0.540416 -0.242136 0.77 -0.450708 0.138327 1.83264 1.46699 1.49713 4.28217 7.27548 7.7499 3.75741 1.44619 4.44332 5.85987 3.55778 6.31016 6.87035 7.04497 3.35127 2.02416 -0.490964 0.891975 2.95774 3.97006 4.12016 2.58049 0.199948 -0.230333 0.471936 0.39 -0.692604 0.971464 1.27102 0.630038 2.39903 3.06071 8.98699 8.51844 2.98408 -2.50491 -1.58847 1.30256 -0.525201 0.510864 3.22457 0.970814 -3.23199 -5.11339 -1.30414 -2.32517 0.100944 -2.77333 -4.25894 -1.62241 -4.49308 -1.41481 -0.324377 -0.2 0.238959 0.42383 -2.5264 -2.18695 -1.98344 -1.1434 1.67831 1.4343 -0.699692 -2.52158 -2.97482 -1.40352 -1.27512 -3.06242 -1.87177 -0.481016 -2.14933 -3.85517 -2.57714 -4.23955 -3.33314 -6.60069 -8.11462 -4.48607 -2.11455 0.814281 -0.258546 -0.12 -0.489954 -0.80251 -1.67313 -4.03804 -4.53184 -4.09321 0.675766 1.99728 0.0375838 1.22823 0.781286 -0.863792 -3.64185 -5.54633 -5.61285 -1.15744 -1.71712 -1.40123 -3.80005 -2.47015 -1.46861 -4.15617 -5.76951 -2.92714 -1.48959 0.746259 0.354597 0.23 -0.63 -0.8925 -1.09983 -1.80412 -2.94768 -1.96931 -1.29536 0.547106 0.881526 3.53745 2.17446 -0.715114 -4.92657 -10.8075 -7.12711 -2.05816 -2.33766 -2.79524 -2.01777 0.146778 1.39347 -4.23479 -4.1466 -2.57166 -1.78774 1.16699 0.534541 0.65 -1 0.823754 0.0900842 -0.103084 -0.945226 -0.664108 0.59943 0.163963 0.410235 1.0109 -1.34527 -4.63313 -8.13805 -6.80377 -3.20403 -0.652425 -1.07781 -1.04137 3.11113 2.46261 0.800301 -0.576723 -1.72767 -0.91446 0.308445 1.70164 -0.201265 0.31 -0.698596 0.249034 -0.883456 -0.587225 1.58015 1.64484 0.569696 1.44128 0.200059 -3.28371 -5.74882 -5.63253 -5.27932 -3.43071 -0.662147 2.88119 4.76984 4.23714 3.98037 1.42017 -3.77109 -1.67166 -0.0338967 1.64793 2.1792 1.65216 0.647591 -0.17 0.997212 -0.660315 0.929792 1.17924 4.25036 2.65888 2.0058 3.38894 0.714616 0.236572 -4.58169 -4.4541 -4.49105 -3.22829 0.446036 3.24355 5.71231 5.39676 4.77447 1.77213 -1.78545 -1.90082 -1.02103 1.53465 2.09126 3.49305 -0.596446 0.08 0.84 -0.22224 -0.405584 1.27998 4.79737 4.14671 3.59505 4.57854 3.59878 2.04555 -3.78918 -2.38983 -2.66117 -1.9344 2.24982 4.19138 7.14274 6.93392 5.63523 5.89738 3.06917 1.51568 1.85731 3.00466 2.83372 3.31564 -0.392106 -0.91 0.37 0.465853 -0.431973 0.471837 2.65822 4.81452 6.03011 3.45114 1.83861 1.71081 0.34631 1.96115 2.71084 2.46558 4.09203 6.30848 5.59202 6.39337 5.975 5.54582 4.62372 1.95898 2.35638 2.92292 2.74392 1.34796 0.554648 -0.88 -0.57 -0.730326 1.50406 1.4119 3.3508 5.17851 3.93837 1.51726 1.36958 0.786312 0.9722 2.56701 3.0066 3.33702 4.68908 3.53265 3.98887 2.71228 3.68483 3.47438 1.35473 0.942876 1.79082 0.85979 1.16138 0.955468 0.364105 0.43 0.31 -0.689665 0.230643 -0.645494 0.114508 -0.0476248 -0.308715 -0.505466 -0.494167 -0.628887 -0.822032 0.271962 1.32801 -0.555626 -0.516108 0.944 0.172006 0.729321 -0.302259 0.0468638 0.906833 -0.691948 0.728644 -0.424564 -0.129678 0.578759 0.699369 -0.94 0.58 0.24 -0.3 -0.138077 0.500406 0.274879 -0.549449 -0.593892 -0.722085 -0.227868 -0.869966 -0.03 0.54 0.24 0.79 0.01 -0.64 0.23 -0.21 0.46 -0.48 -0.55 0.03 -0.69 -0.21 0.96 -0.35 0.93 
6.30289 -0.24 -0.41 0.64 -0.59 -0.919451 0.452978 0.207956 0.506639 -0.157186 0.812116 0.40191 -0.208748 0.0399855 0.478857 -0.558783 0.559905 -0.229121 0.266054 -0.239973 0.840409 0.810118 -0.296487 -0.601075 -0.2 0.08 0.55 -0.81 -0.06 0.06 0.199461 -0.0509501 0.802343 -0.447038 -0.0891344 0.664306 0.808976 1.13465 0.0157426 -0.0272889 0.568108 -0.299649 -0.0385186 -0.111969 0.488547 0.300261 1.16017 -0.854616 0.647432 -0.542231 0.243036 0.0295398 -0.501512 -0.643596 0.857952 -0.256652 0.26 0.88 0.944795 0.574238 -1.27691 -1.38224 -0.434616 -0.398887 0.687756 1.35096 -0.458527 1.25612 1.24747 -0.460494 -0.408179 -1.25176 -0.841468 -0.470955 1.83935 2.15974 2.14769 1.64671 0.882399 0.452039 -1.31952 0.135309 0.546944 0.754997 -0.290015 0.64 0.230059 0.805221 -0.0829872 -1.40171 -0.408824 0.135438 0.992027 0.595943 -1.60453 -0.99454 -2.88117 -3.09113 -4.26262 -4.50248 -4.62854 -1.81761 -1.2237 -0.552949 0.50561 1.09175 1.04915 -0.420177 -1.16399 -1.56497 -0.588756 0.87643 -0.120015 0.65 0.454073 0.00827938 -1.29567 -2.6145 -1.14221 -0.342705 1.32417 0.0156593 -1.8053 -4.85845 -5.49827 -4.5246 -6.27832 -6.33695 -4.54791 -3.74676 -3.27228 -2.10212 -1.56403 -2.13321 -0.575152 0.908951 0.356031 -0.723731 0.0859082 -0.0734084 -0.660003 -0.13 0.543491 -1.26581 -3.96213 -3.42665 -2.71565 -2.86278 -1.96693 -0.85596 0.767404 -1.55486 -3.98861 -2.52916 -4.17023 -3.19671 -4.32365 -3.92057 -2.80488 -1.9044 -1.68043 -0.425043 0.612623 0.421239 1.57935 2.8216 2.73113 0.830016 0.619993 0.02 -0.633199 -1.962 -3.58034 -2.17037 -0.884224 -2.18785 -2.43965 -1.29461 -0.405152 -0.727538 -3.49559 -4.57263 -4.79422 -4.43958 -3.73889 -3.10954 -2.08589 -1.92285 -1.69474 -0.182258 0.805949 -0.29163 1.37382 1.41618 1.21122 0.973374 0.79 -0.85 0.105871 -0.193431 -2.09259 -1.97126 -1.62214 -3.21193 -0.205896 0.340118 -0.539006 -1.91405 -3.78229 -6.58815 -6.69162 -4.61398 -2.63763 -2.90739 -0.825726 -3.04984 -2.73412 -1.84561 0.144987 -0.312975 1.08199 -0.515188 -0.291491 0.708373 0.19 0.79 -0.572131 0.810454 -1.80184 -2.53422 -5.02271 -4.12878 -1.91528 -2.36704 -2.08975 -2.77249 -5.86688 -3.93979 0.136168 0.602193 1.78141 0.16658 1.03972 -1.44152 -1.44638 -0.899021 0.0442449 -0.292095 0.186632 -1.58098 -1.7436 -0.360921 -0.34 0.31 0.298976 1.03754 -0.639041 -2.89091 -3.81234 -4.51458 -2.46248 -0.979011 -3.16194 -3.6387 -1.49733 1.17687 2.54592 5.62086 4.48056 4.05556 4.43548 2.05065 0.0641772 0.967158 1.32786 0.432086 0.448947 -1.65324 -0.591305 -0.450361 -0.05 0.31 0.846856 0.815365 0.535526 0.87388 0.757332 -0.17118 0.495345 -0.225913 0.410835 1.39984 0.209628 2.8059 4.58484 7.31811 7.48176 6.05711 7.44094 4.7517 0.319555 0.632707 3.35431 1.30183 1.65306 0.948544 -0.522136 -0.499965 -0.29 -0.13 0.176739 3.01903 3.88755 3.10563 2.90069 5.68892 3.60532 1.39087 3.56079 4.19 3.05977 3.71235 2.4173 4.74915 4.88501 5.56586 7.54246 4.57428 1.3134 0.675549 3.77991 2.0518 1.81551 2.87137 1.2786 0.282269 -0.81 -0.73 -0.631608 2.76498 4.97589 3.20459 4.37766 6.6107 6.32487 4.24274 4.69486 4.06082 3.9877 2.29586 3.47034 3.8713 4.04059 6.60074 7.36189 3.44378 0.28885 1.33291 0.13857 3.64778 3.43268 4.95422 1.26328 -0.722925 -0.17 -0.64 -0.167064 2.35767 3.0655 3.49085 2.57759 4.45307 6.48295 5.41553 4.94857 4.73543 2.90286 2.76443 3.09494 3.38612 5.10493 4.71846 6.19492 3.27616 -0.280921 1.1385 2.39814 3.32608 4.62982 4.80281 2.97818 -0.509748 -0.18 0.24 1.0563 1.38447 3.01171 2.51422 0.388924 2.46587 2.89459 2.50659 2.72084 0.649532 0.126487 2.67486 3.58513 4.54559 3.47121 4.92377 5.06269 3.26944 1.26956 0.26609 1.61847 2.28308 3.72163 4.80357 1.49101 -0.872762 0.0799999 0.61 0.696501 1.04186 0.259369 0.0710583 -0.837361 2.09039 1.94526 0.391523 -0.117458 -0.659468 -0.998354 0.512981 1.51958 2.37309 3.14505 1.48579 1.60205 1.4237 0.562237 0.730765 -0.0038107 1.00706 2.85062 4.22303 2.9858 0.284191 0.26 -0.13 -0.368562 -0.216973 -0.871329 -0.684259 -1.5011 1.79268 1.15523 -1.01682 -1.36238 -0.232824 1.06057 0.290336 1.79332 2.20915 2.48801 1.68227 0.036404 -1.48448 -2.53088 0.626323 0.545054 1.73866 1.43923 1.38213 0.83564 -0.671872 0.299999 -0.5 0.0791272 0.774569 -1.2795 -1.77283 -1.49439 1.54984 -0.679141 -2.4173 -0.923601 -3.04515 -1.47454 0.553192 1.95276 4.01976 3.07086 -2.11068 -4.18472 -4.47196 -4.09029 -1.46593 -0.589585 0.246043 0.407598 1.05187 0.832384 0.175907 -0.05 0.26 0.403174 -2.31994 -2.10654 -1.51483 -1.1657 0.321614 -1.49173 -2.24119 -0.660759 -1.99657 0.171776 1.62928 2.69127 3.50654 1.46757 -1.01109 -4.44805 -3.35935 -4.6887 -3.72758 -1.89514 0.0309392 -0.575517 1.41906 2.21244 -0.512038 0.63 0.13 -1.31589 -2.86904 -3.54949 -2.66021 -1.5162 0.153431 -1.63536 0.663473 -0.699098 -1.43223 1.83535 4.26918 4.67805 5.80562 4.00411 1.62798 -3.40165 -3.34385 -3.5506 -3.12836 -1.64783 -1.22469 -2.35114 -1.4662 -0.200456 0.740942 -0.56 -0.1 -0.382505 -2.20299 -3.1284 -1.47802 -0.218944 1.03276 -1.0289 0.0195879 0.531393 -1.32865 1.19895 5.2736 4.74616 4.92638 5.8161 3.97598 1.2547 -0.889657 -1.02866 -1.15469 -0.299217 -1.41447 -3.85402 -2.56592 -1.70565 -0.864937 0.93 -0.400001 -0.347575 -0.342905 -2.24139 -2.83963 -1.301 0.310866 -0.834242 -0.312436 -1.00797 -1.14973 1.41003 3.58968 4.39096 5.71004 5.2544 4.93468 5.43322 2.99511 3.296 2.52979 -0.140027 -2.33806 -5.2078 -4.58228 -2.67246 0.372723 0.99 -0.120007 -0.305857 -0.438973 -0.57065 -0.0290635 -0.353342 0.676605 -0.644557 -0.374891 1.00586 1.32142 0.814185 2.59532 1.30266 4.34514 6.19752 7.06018 4.97174 3.63962 3.25558 0.654485 0.28927 -2.16321 -5.38171 -4.789 -3.31587 0.254762 0.97 0.769991 -0.439997 0.606004 1.55428 0.475967 1.41503 0.0910061 -0.831824 -1.35443 0.593829 -1.0658 -0.909018 -0.312851 -0.0820188 2.70045 4.81208 6.7322 3.82674 2.08863 1.20495 1.03402 0.699395 0.579798 -3.50712 -4.48908 -2.1094 0.707117 0.17 -0.290016 -0.0981118 0.860242 0.0488645 -0.396935 0.188404 0.939697 2.9786 1.88468 0.115495 -0.721816 1.60713 0.452709 2.16196 3.49014 4.40949 4.35505 4.4723 3.83685 1.34926 1.98559 1.90446 -0.445216 -2.81481 -2.87037 -0.782859 -0.460424 -0.59 -0.520009 0.506316 0.990297 0.0959643 0.0601943 2.02962 2.31637 1.72233 1.39298 0.559471 1.08978 2.39344 0.955906 0.628461 2.68776 1.29501 3.29496 4.106 2.61548 0.415107 0.289384 0.124081 -0.235737 -0.0906574 -1.20523 -0.0510825 -0.332491 -0.78 -0.17 0.919263 -0.363641 -0.681642 0.154786 0.243583 0.441308 0.305528 -0.739947 0.294299 0.967084 1.13459 0.367312 1.40873 0.418489 0.855642 0.0438773 1.76062 0.823841 1.11822 -0.718287 0.656985 0.637041 -0.98479 0.09944 0.410999 -0.68507 0.84 -0.45 0.38 -0.99 -0.808168 0.418448 -1.24243 -0.0711143 -0.152651 0.50987 -0.129986 0.340003 -0.66 -0.177305 -0.573882 0.104184 -0.806759 0.458086 0.750026 -0.66 0.36 -0.49 -0.79 -0.08 0.86 -0.57 0.67 0.63 0.2 
20.6832 0.24 -0.39 0.23 0.38 -0.0284756 0.0363948 0.177148 -0.697728 0.396176 -0.829962 -0.58834 0.479194 -0.199469 0.900538 -0.420624 0.571402 -0.0977036 -0.884034 0.377869 -0.750409 -0.835331 0.607775 -0.33 -0.16 0.64 0.23 0.18 0.05 0.28 -0.409725 -0.952672 0.215091 0.971748 -0.323689 1.6708 1.45085 0.714257 -0.426855 0.722824 -0.865163 0.0725346 0.83378 0.427833 1.80393 0.688094 1.0392 1.35206 1.39174 1.07528 0.954799 0.830367 -0.721526 0.96374 0.851127 -0.0804531 -0.85 0.26 0.487799 -0.0956386 1.53038 2.78016 2.98228 5.96816 1.46854 1.76496 2.84247 4.68174 3.85044 2.45491 1.57719 1.38734 3.1757 3.26695 2.51426 2.20626 3.45258 4.17402 6.17554 6.28874 4.17388 -0.019213 0.462277 -0.64462 -0.44 -0.47 0.983012 0.231604 4.59788 4.52002 3.65212 5.07495 2.14257 4.23205 6.99916 4.56712 3.43701 0.803918 -1.79834 -1.91115 -0.382759 -1.27862 1.95878 0.557983 1.25746 2.60184 10.8197 10.783 7.01743 -0.218627 -0.645177 0.0509428 -0.29 0.21 0.835798 3.9063 6.76213 5.30482 0.290915 -0.917217 -0.264953 1.21702 7.32757 4.5098 0.195286 -4.18522 -7.50091 -10.101 -7.76564 -5.89241 1.85546 3.37856 7.0333 10.4156 17.026 13.8195 4.97538 1.59278 -1.75022 0.136174 -0.45 -0.01 -0.15165 6.30649 11.1437 7.4996 -1.14579 -5.82677 -5.68784 -3.86128 -4.85713 -6.06781 -6.09452 -12.3378 -11.7928 -8.59664 -6.07051 -4.04022 0.997202 4.47993 12.0413 12.0324 11.8058 8.91217 5.79401 8.88327 3.71414 -0.599723 -0.44193 0.91 -0.0940816 7.35216 13.8143 6.24646 -2.95373 -8.44024 -11.6233 -9.00783 -6.85799 -10.0282 -12.1103 -17.4668 -18.9056 -15.4746 -10.781 -2.58071 6.24499 11.0121 9.4557 3.21137 3.87579 4.32007 5.1536 5.63767 5.9708 0.632134 0.14 0.41 -0.36006 7.49484 12.9855 2.91704 -3.76444 -9.99738 -12.2078 -13.3231 -14.5765 -16.2208 -17.6056 -20.3586 -18.6552 -15.897 -12.5243 -5.5445 7.5682 8.27556 -1.35946 -2.82152 3.65763 10.7997 9.35246 9.85167 5.85244 0.258132 -0.38 -0.16 0.669034 7.91511 12.456 2.41417 -2.2114 -7.38429 -9.10444 -7.17619 -8.7387 -12.9796 -18.6699 -19.5774 -19.1824 -14.9268 -11.4801 -0.986703 8.98307 6.66805 2.13693 0.0750544 4.81706 10.894 11.2268 12.7604 4.68754 0.556069 0.480083 0.34 -0.717935 5.06851 5.4331 -0.313206 -3.63446 -3.85272 -2.23566 -6.11045 -7.08877 -11.8558 -16.3935 -17.5266 -16.816 -10.0864 2.09947 16.069 20.4246 17.4132 8.97267 3.47815 3.33802 8.30679 14.445 13.1151 6.10863 -0.324754 -0.369622 0.77 0.955964 3.63176 2.60826 -4.55663 -3.05329 -1.57609 -1.18915 -5.92384 -9.94443 -13.5109 -13.943 -11.4176 -1.7863 9.22395 19.5343 29.4956 22.432 14.5307 11.1829 8.54094 7.31381 8.36522 13.0096 7.00164 3.19006 0.427084 0.12 0.82 -0.619915 0.682668 4.40276 -0.80893 -0.591792 -1.65214 1.45683 -1.84273 -6.29163 -14.9536 -15.4093 -6.21904 3.26454 13.195 23.3923 27.146 15.2629 7.84224 5.28863 2.41284 1.62031 5.927 8.84634 8.05654 1.96487 0.303573 0.7 0.14 0.403197 -1.66415 -0.206447 -1.42663 -1.39805 0.126578 -1.63206 -10.558 -14.9416 -17.473 -17.387 -10.3826 0.427062 10.9191 19.1986 16.7008 8.43563 4.19603 1.57786 -1.56007 -2.36892 2.76597 11.8959 8.33706 4.93673 1.83626 -0.77 0.37 -0.16873 -3.86677 -2.35999 0.674013 0.336391 1.01041 -5.35411 -13.1633 -13.7538 -17.4657 -11.1763 -1.98886 2.4409 10.3872 21.1806 20.8963 11.2984 1.21035 -6.84775 -11.6423 -8.84584 -1.16448 7.97872 10.0118 7.76143 0.252489 0.44 -0.71 -0.187464 0.386459 2.07318 -0.00721409 0.197315 2.16442 -5.0325 -12.9072 -15.7177 -14.1728 -2.32291 9.08699 10.7545 13.2006 17.0307 24.1831 18.5953 10.0804 -2.10504 -11.2176 -11.1463 -0.196701 4.52375 5.41446 4.90054 1.37976 0.34 -0.67 1.45691 6.08648 8.59471 -1.24936 -3.57121 -3.57141 -9.20424 -17.491 -14.5244 -10.0084 0.512198 6.36074 12.8645 15.448 17.2996 23.0561 16.6774 9.49447 -0.731699 -8.1093 -6.1429 0.113527 3.72341 6.9728 2.49707 -0.232556 0.4 -0.04 0.450596 7.51956 9.04222 -4.03423 -8.34953 -8.21398 -9.70485 -10.4649 -8.40749 -7.79169 -1.59916 2.86946 9.87816 11.77 12.5784 20.0848 14.8291 8.58764 1.27662 -4.79983 -3.59374 -4.01818 0.465064 5.13406 1.67223 0.523641 0.14993 0.83993 1.62559 3.82424 2.89301 -5.02631 -6.13579 -3.08281 -4.58044 -1.75529 -3.55895 -6.144 -7.71705 -11.307 -11.9001 2.89878 16.9317 22.498 20.5752 16.077 4.91997 -2.49507 -3.70586 -6.51584 -4.40807 1.9293 -0.0277803 -1.11542 -0.240316 0.721737 -0.175903 1.62923 1.73387 -3.70526 -4.27553 -7.58061 -5.7373 -2.90926 -4.27426 -8.68822 -19.8352 -26.0531 -20.4164 1.59483 16.6968 22.7163 19.6184 17.8722 9.10561 1.84897 2.68252 2.15707 -1.80559 -0.0265368 1.20932 -0.0941475 0.48 0.46 1.01622 1.7327 2.97982 -3.41128 -6.52545 -10.3144 -7.78483 -5.81697 -9.18542 -13.5829 -22.4613 -26.7611 -15.8289 1.90372 10.5581 14.9999 14.2481 14.295 8.10676 1.50495 6.12812 1.13003 -4.28873 -4.62782 -4.15706 -0.349296 -0.29 -0.34 0.044092 2.89445 3.65844 -6.35818 -16.2371 -16.1108 -18.0535 -16.876 -13.425 -20.2892 -19.6682 -17.083 -11.0396 2.98195 12.8802 15.4843 12.8037 11.4948 6.36676 3.50794 2.73749 -1.18734 -2.63705 -2.88821 -4.23559 -1.04466 0.5 0.853253 -0.371579 1.93177 -0.574612 -8.10069 -15.8605 -15.2375 -15.9216 -15.0656 -9.13744 -10.9482 -13.2915 -9.52269 -4.26372 8.28913 9.96465 9.72631 10.8772 11.1075 7.45583 1.94051 -0.840278 -5.49196 -2.15539 1.45938 1.16925 0.507783 -0.14 0.31807 -0.281096 1.93818 2.84269 -0.0524797 -3.23307 -9.03208 -9.25782 -12.1678 -7.70488 -5.72158 -6.63892 -6.34771 2.44046 10.3692 13.0857 8.45367 8.51279 8.38512 6.78918 0.233015 -1.65107 -4.14402 -1.96924 -0.105476 -0.546747 -0.554897 0.04 0.75 1.30284 3.57947 4.54065 6.14094 5.66151 -4.96602 -4.12468 -4.64052 -6.80559 -6.68951 -4.08495 -3.57158 5.23289 13.1211 13.4859 11.2935 6.18654 5.11707 5.25258 0.479289 -1.63271 -3.78326 -3.66116 -3.63104 -1.47946 0.163364 -0.48 -0.52 -0.938623 -1.99867 1.32512 4.6166 7.15746 -1.26719 -4.85028 -2.5964 -3.27379 -2.19443 -2.91036 -0.516894 5.45554 9.01687 7.83024 5.71796 2.9823 5.35381 4.65368 2.21679 0.49481 -1.21097 -2.53855 -4.59496 -1.88813 -0.892216 -0.22 0.24 -0.298943 -2.72859 -1.86426 1.56432 4.67548 3.49028 0.315798 1.4451 0.287665 1.13645 -1.0757 0.100693 2.01772 4.36612 3.43369 2.89427 2.50727 3.342 3.37201 2.54479 0.206619 -0.544183 -1.85018 -3.17771 -0.15979 0.0428355 0.01 -0.85 -0.349462 0.959927 -0.163242 0.183551 0.315339 0.105884 0.563109 -0.334059 0.849756 0.472967 0.0233608 0.380261 1.56955 -0.252474 -0.773086 0.778192 0.962772 -0.0974311 0.833927 0.770236 1.05921 -0.711139 -0.308659 0.399427 1.07708 0.11 -0.68 -0.45 0.6 0.85 0.2 -0.7 0.930024 -0.45 0.740025 0.792265 -0.815315 -0.59966 -0.91 0.540001 -0.379988 -0.519988 -0.679988 -0.449997 -0.74 0.97 0.71 -0.71 0.532592 0.04 0.73 -0.22 -0.6 0.71 0.24 
-4.99733 0.64 -0.36 -0.11 0.51 -0.230004 0.0399685 0.609821 0.169672 -0.92027 -0.390041 0.82 -0.68 0.37 0.31 -1.00007 -0.790279 0.279748 0.800045 -0.88 0.9 -0.75 0.35 -0.64 -0.8 -0.27 0.12 0.46 -0.4 0.3 -0.75 -0.0700018 -0.961317 -0.507936 -0.5488 0.145351 -0.0681412 0.30956 -0.578444 -0.389182 -0.309158 1.25477 0.266419 -0.330836 0.978972 -0.574796 -0.767845 -0.356988 0.679525 0.722058 0.252412 0.478112 1.03887 -0.787991 -0.445793 -0.460591 -0.55 0.6 -0.269079 0.523088 0.133566 1.71108 -0.1021 0.122081 -0.281255 1.04708 1.42412 0.718192 0.414322 0.844678 1.37745 0.6987 1.74464 -0.458012 -0.53833 -0.00353069 -0.871555 2.73388 3.84276 3.04321 0.806294 -0.218026 -0.338589 0.115936 -0.02 -0.09 0.300121 0.0890659 1.00111 1.76667 2.11423 -0.585622 -1.88396 1.34524 0.896284 2.31048 2.65145 3.41349 3.65973 4.22647 3.37027 2.66347 1.98313 2.59093 4.86204 3.77797 3.23775 3.79898 0.428531 0.408319 0.900592 -0.472502 -0.4 -0.77 0.164054 -0.625712 -0.702533 0.135554 0.58553 -3.51397 -4.39728 -1.26344 -1.01123 -1.2994 1.75304 3.03801 4.33945 6.49135 5.27862 3.97866 4.7371 4.48442 5.47245 3.66034 2.69245 3.89728 1.33583 0.409691 -0.0818334 0.216419 -0.19 0.28 0.424495 0.0961557 -1.88536 -0.250654 1.25798 -2.21546 -4.71606 -2.18575 -2.63111 -1.08482 0.722469 3.35135 5.70291 7.14551 8.6251 8.40902 6.10993 5.15439 5.88934 2.77461 1.59689 2.59693 2.03546 0.493321 -1.02372 0.284175 -0.67 0.08 -0.55383 -1.05577 -2.0304 1.11379 1.55392 -2.56354 -3.1983 -1.13287 -1.46397 -0.745057 1.85636 4.55712 4.61978 5.82069 6.33095 6.38899 4.89313 1.85532 3.63868 4.00485 3.90358 3.28864 -2.0658 -4.29428 -1.75132 0.521294 0.52 -0.06 -0.661 -1.75231 -0.842999 0.464295 2.5537 0.274614 -1.29636 0.939847 1.39699 0.854382 2.56914 3.45409 5.7803 4.5572 5.28934 4.62325 4.42173 4.28892 2.90249 3.48218 0.950641 1.51666 -0.022451 -1.64372 0.0803749 -0.324188 0.15 -0.51 -0.952009 -1.10414 -1.71557 0.094312 1.65347 1.53109 1.22514 0.863135 -0.0859754 2.05129 4.0669 5.09067 5.99122 4.92088 5.4749 5.56083 4.98743 5.84907 1.29507 -0.483325 1.4246 2.60781 -0.752167 -2.46932 -0.852247 0.937786 0.88 0.01 0.688862 -2.50285 -1.12613 0.446367 0.630999 -0.323133 1.01017 1.1495 1.97121 3.97882 6.78545 7.29004 5.84182 6.17505 5.49223 4.31201 4.18002 4.04974 2.72644 -0.65838 -1.93621 0.0367024 -1.90679 -4.17534 -1.70186 0.126515 0.46 -0.02 -0.357182 -0.897936 -0.0720765 0.404911 -0.27235 -0.699478 0.613581 3.07162 3.57185 4.203 5.25159 7.40562 6.4956 4.31711 5.26257 3.94769 1.32434 0.84551 0.555476 -1.52815 -1.79604 -0.837476 0.569954 -3.91489 -1.97847 -0.920486 -0.2 -0.88 -0.182232 -0.629147 0.787789 0.0948425 -0.735448 -0.110486 2.24523 4.84752 3.41716 5.44546 6.57913 6.80273 7.18961 5.31306 3.33699 -0.839756 -1.99176 -0.473088 0.92248 2.1145 -1.55536 -0.480514 1.65555 -3.68339 -3.84965 -1.00256 0.65 0.14 0.653201 -0.862779 1.10668 1.33699 -2.47851 -0.0597021 2.80797 4.92052 6.2217 6.59518 7.44217 7.28223 7.29026 4.68038 0.757272 -0.57085 1.78983 -0.197884 0.469857 0.807205 -1.31642 -1.16167 -0.0765652 -2.77149 -3.52004 -0.619548 0.71 -0.25 -0.722389 -0.785466 3.09724 2.99272 0.699301 3.42065 5.56796 6.93518 5.62468 6.19757 8.4318 8.61938 7.55385 2.61063 -3.7353 -4.03038 0.910129 1.20007 3.59445 3.00426 1.21417 0.0889812 0.364493 -2.35694 -4.82592 0.438473 0.8 0.24 0.77504 2.51697 5.27543 5.10442 4.31304 4.44312 5.85107 5.05643 4.54904 7.23725 7.50692 9.32974 10.9514 6.49074 0.704704 -1.65473 0.594937 4.86048 7.32093 7.05316 6.40986 0.445746 0.622794 -1.21495 -2.51822 -0.865792 0.11 0.18 -0.141538 2.97315 4.96236 3.8098 3.84073 3.11309 3.906 3.98513 4.27354 4.97565 5.40697 7.21379 6.62363 2.3818 0.367839 -0.970085 -0.100488 3.84173 6.59193 7.39309 5.89111 -0.808973 -0.252232 -1.33258 -2.29424 -0.485701 -0.03 -0.99 0.674882 -0.565683 -0.824044 -0.553615 -0.0461552 0.755682 2.29583 1.65832 3.43243 4.16402 3.81473 3.80116 0.700676 -4.95373 -4.28116 -2.64006 -0.608069 3.34231 8.22475 9.47202 6.97059 1.61555 -0.693762 -2.03164 -0.30115 0.868743 0.72 -0.64 0.166885 -4.98088 -8.23154 -5.08039 -1.561 0.0372561 2.25817 1.9095 2.61538 4.32727 4.83353 2.67147 -2.05321 -7.38827 -6.29547 -6.34203 -3.01342 3.23365 5.59378 6.63598 4.29995 3.13307 3.17273 2.08558 0.541828 -0.281367 0.74 0.76 -0.191345 -5.41816 -8.59229 -4.5909 -0.206662 3.2074 4.88107 5.41971 3.93752 6.76377 6.97129 4.95473 -0.457312 -6.42318 -8.80525 -5.26049 -2.28666 2.84825 3.91705 2.27317 2.138 2.66175 4.37586 1.38783 0.645147 0.810377 -0.35 0 0.558124 -4.57947 -7.65291 -3.58402 0.489974 3.97509 6.67674 6.6769 7.80946 11.2862 9.68389 5.66309 0.711629 -3.61269 -3.52741 -2.36829 0.789997 2.25783 1.3655 2.65456 2.37152 4.54188 3.34096 2.95033 1.67402 -0.167878 0.59 -0.92 -0.178983 -2.59251 -5.84186 -3.28343 -1.22427 0.138073 3.88419 6.66576 7.30949 9.929 10.5615 8.26544 4.64191 -0.505237 -0.437042 0.935813 1.69807 0.9765 0.650169 3.55907 5.66197 7.34276 4.09554 4.3 0.677707 1.02492 0.22 0.07 0.262083 -3.05175 -5.57593 -3.6882 -3.76011 -2.75645 1.22398 4.31631 6.12895 8.23175 9.99631 8.04306 3.80189 1.81698 0.193598 0.976475 0.820288 1.56546 0.110918 2.05077 3.72266 5.36785 3.25453 1.41666 0.318004 -0.0163227 -0.75 -0.13 0.980281 -2.75661 -4.2986 -3.69236 -3.84634 -1.91188 3.6103 6.32783 7.47217 9.32287 9.24614 7.41647 2.84701 0.787946 1.01364 0.0289913 1.02573 -0.461754 0.252895 1.62658 3.53753 3.76654 1.86518 2.81628 0.156105 0.92511 -0.28 -0.41 -0.716199 -2.48395 -2.98897 -1.42451 -1.90844 -0.79145 2.35572 5.55382 7.0456 7.99568 6.82938 3.28698 -0.178702 -1.92761 -1.40068 -0.579903 0.141908 0.216781 1.26074 1.86341 1.98613 3.77619 3.70229 1.43475 1.74687 0.0606798 0.89 0.67 -0.418684 0.0329853 0.801714 2.1537 0.0195883 -0.065424 1.68496 2.57383 4.73898 4.06045 3.50011 1.58715 -0.84929 0.0799356 -1.01296 -2.31327 -0.587451 0.684313 0.950941 1.74821 2.38809 3.12708 3.23244 1.42952 0.893496 0.201284 0.99 -0.07 0.563928 2.35384 3.02757 3.45708 0.323424 -0.457382 -1.16613 0.152811 0.916243 -0.308469 0.422074 -0.0155408 -0.243789 -0.484953 1.16094 -1.62251 0.302446 0.408214 0.0721855 -0.477709 0.494319 0.916818 0.166131 0.44432 0.190741 0.291719 0.39 -0.09 0.989972 0.589327 0.908555 -0.35854 -0.071479 0.44379 0.291957 -0.422606 0.21228 -0.284023 -0.379638 0.519816 0.509909 -0.260931 0.250785 -0.340768 0.0909098 0.076354 -0.388184 0.86593 1.06956 -0.592792 0.417804 0.31357 0.483784 0.56 0.85 -0.53 0.99 0.5 -0.1 0.19 0.969988 -0.37 0.99 -0.54 -0.42 0.95 -0.85 0.01 -0.14 -0.34 -0.09 0.81 0.53 0.01 0.21 0.47 0.171013 0.880133 0.03 0.78 0.94 -0.91 -0.99 
