2
2.57894 0.38 -0.13 0.63 -0.680003 -0.600261 0.569376 -0.0976747 -0.308992 -0.851701 -0.771405 -0.27384 -0.449842 0.84 -0.229988 -0.0500492 0.469895 -0.913266 0.478919 -0.230028 0.308732 -0.582744 -0.868902 0.57 0.34 -0.19 -0.2 -0.84 0.23 -0.29 -0.519812 -0.350482 -0.639167 -0.56767 -0.94552 -0.566464 -0.412378 0.752109 0.469491 -0.355262 0.296892 0.908965 0.39621 -0.206325 -0.78772 0.634723 0.665413 -0.81129 -0.232458 0.373395 -0.0782807 0.705254 -0.892467 -0.885443 -0.605863 -0.117632 0.06 -0.88 0.51576 -0.769338 0.0727909 0.865611 -0.09679 0.293821 0.229332 -0.25601 -0.207299 0.104745 0.649491 -0.27853 -0.393811 1.10093 0.281471 0.454424 0.470295 0.218502 -0.186422 0.621489 0.189657 1.0416 1.18471 0.154521 -0.627788 0.0127872 0.95 -0.22 -0.000335749 -0.0973159 -0.210276 1.06793 0.534435 0.112394 0.119393 -0.496488 0.018374 -0.294796 0.183489 1.18901 1.24897 0.588274 0.395777 1.66583 -0.0492712 -0.659704 0.756697 -0.797802 0.153296 -0.464989 0.308075 -0.357829 -0.25587 0.840285 0.950027 -0.03 -0.48395 -0.464338 -0.632552 -0.377895 -0.571744 1.07688 -0.767407 0.514479 -0.697911 0.416973 0.982209 -0.0153809 -0.213684 0.0153054 -0.0465349 -0.210569 -0.402321 0.271155 0.339675 -0.416301 -0.137071 0.175185 -0.201195 1.11198 0.541662 -0.277662 0.850017 -0.23 -0.389247 0.129276 0.503968 0.463655 0.226412 0.333505 0.349231 0.140509 -0.254009 -0.673247 1.11048 -0.241547 -0.735251 0.351972 0.974618 0.554525 -0.489447 0.0958225 -1.24401 -0.753622 -0.171662 0.0122104 -0.656881 -0.331381 -0.24267 -0.972694 -0.46 0.08 0.779058 -0.539931 0.430928 0.444195 -0.373418 0.0963854 -0.555691 0.746462 -0.107174 1.17416 1.52623 0.458666 0.970121 -0.453931 0.393195 0.11199 -0.0578376 -0.541628 -1.1057 -0.38899 0.408621 -1.52563 -0.00650303 0.0379902 0.0448759 -0.886867 -0.45 -0.91 -0.649764 0.328066 0.244713 -0.669616 0.316778 -0.26761 -0.126561 -0.727585 -0.834219 -0.578965 1.3908 1.00938 0.172997 -0.219859 0.179089 -0.92975 -0.0541686 -0.15433 0.0229937 0.271455 0.0813388 0.0195435 0.264229 0.0389888 0.375717 0.581371 -0.83 -0.78 0.213736 0.0229085 0.0902864 0.348591 0.213268 -0.324674 0.487792 -0.404848 0.691379 0.920414 0.955402 -0.617303 -0.126128 0.0225562 0.504613 -0.148674 -0.014696 -0.620101 -0.277398 0.0628193 -0.142138 -1.13316 -0.849053 0.258459 0.680319 0.197072 -0.319855 -0.76 0.0465911 -0.688211 0.000821647 -0.0929391 -0.0952914 0.418798 -1.05248 0.679201 -0.252243 0.448634 0.60532 1.60205 0.342145 1.40511 -0.0562571 -1.41154 -0.619426 -0.351019 -0.338733 0.0694826 -0.153463 -0.0895087 -0.236378 -0.117793 -0.223602 -0.763251 0.580812 -0.47 -0.0155285 1.14453 -0.592277 -0.504784 0.67856 -0.130972 -0.535406 -0.299176 -1.27394 -0.911536 0.991347 0.287079 1.71346 0.921744 0.535744 -0.381687 -0.713403 -0.875857 -0.279884 -1.08324 -0.00913628 -0.473328 0.561213 0.0140093 -0.384124 -0.177366 -0.38 -0.54 0.515416 -0.605382 -0.504346 0.348192 0.929273 0.229499 -0.0172375 0.672107 -0.832031 -1.95063 0.538255 1.26903 1.76128 1.49154 0.34902 -0.616232 0.236286 -1.64009 -0.150319 0.0805736 -0.635253 -0.875504 -0.433589 -0.0448614 -0.253084 -0.135025 -0.9 -0.66 -0.751281 0.236295 -0.372915 -0.117747 -0.2994 0.0262008 0.981532 -0.0344112 -1.04655 0.53875 0.454493 0.230366 1.4473 1.23408 0.14919 -0.216605 -0.739845 -0.572655 0.394293 -0.890536 -0.580135 0.60776 -0.585865 -0.959775 0.154185 -0.466674 -0.48 -0.4 -0.806162 -0.126885 -0.933877 0.274151 1.0302 -0.0179191 0.37095 -0.881829 -1.61469 -0.846809 1.47371 0.193819 0.4538 -0.597362 1.57936 2.07823 0.0979256 0.440345 -0.116746 0.233011 -0.252367 -0.835603 -0.215109 -0.973644 0.0531782 -0.406203 0.71 -0.46 0.659244 0.396403 0.798435 0.723567 -0.568946 0.165564 0.0795528 0.115481 -1.42925 0.460566 1.6142 0.657062 0.0794009 0.415288 1.83958 1.73878 -0.0247115 -0.508937 -0.0684715 -0.508118 -0.889241 -0.00771641 0.473239 0.0766247 -0.422796 0.342832 -0.76 0.67999 -0.567148 -0.00228833 0.861428 -0.73134 -0.217327 -0.0967744 0.129766 -0.943341 -0.284688 -0.483692 0.557192 0.354931 0.0308327 -0.362822 0.489649 1.8516 -0.426267 -0.540019 0.0440916 0.286097 -0.586872 -0.123927 0.0236756 -0.0234022 -0.831186 0.947203 0.46 -0.110038 0.529729 0.101018 -0.4841 -0.828459 -0.32711 0.675576 -0.23484 -0.450928 -1.02306 0.151417 0.475167 0.383668 -0.107336 1.1784 2.86235 1.76576 -1.35236 -1.25976 -0.407704 0.235201 0.686461 -0.421509 0.806762 -0.111069 -1.12316 -0.540254 0.708592 0.56864 -0.409877 -0.72646 0.502007 1.0479 -0.228145 0.682464 -1.1433 -0.33319 -0.0852514 -0.248631 0.338108 0.500318 -0.916693 1.49931 2.31305 1.81365 -1.75282 -1.08709 -0.224233 -0.0493343 -0.139617 0.127882 -0.243325 0.231832 0.17865 0.0908773 0.223663 0.658591 0.564701 0.328213 -0.273103 0.100522 -0.433876 0.841265 -1.09315 0.229543 -1.09792 0.702858 -0.0820411 -0.484757 0.727272 1.83611 2.54237 0.760535 -0.930171 0.413722 0.500999 0.0288557 1.17313 -0.831331 -0.42504 0.339273 -0.0112913 -0.827213 -0.53 -0.26 0.960266 -0.917133 0.576866 0.000294416 0.636308 -0.685092 -0.788761 1.03031 -0.542542 -0.472133 -0.474758 -0.28717 1.10777 2.3223 2.61921 1.1658 -1.96587 -1.03165 0.00755062 -0.000295857 -1.40606 0.0275671 0.408869 -0.219104 -0.00460887 0.290954 0.26 0.78 0.875816 -1.11472 -0.35196 -0.318232 -0.0592926 -0.68174 -0.251269 -0.106441 -0.188278 -0.341298 -1.27664 -0.203616 1.91373 3.25845 2.30087 -0.598193 -1.43694 0.636348 -0.611121 0.637844 -0.348985 0.184905 0.19181 -0.84131 0.78681 -0.0722839 -0.68 -0.19 0.194309 0.30688 0.381799 -0.717612 -0.633509 0.465519 0.297242 0.810268 0.0514752 0.649869 -1.18339 1.30408 2.1937 2.23587 1.59428 0.206586 0.0308255 0.228836 0.267422 0.0771432 -0.430606 0.00173202 -0.150129 -0.377842 -0.510882 -0.209821 0.25 0.32 0.823959 0.829907 0.880355 -0.131562 -0.063506 0.29658 -0.532139 -0.254195 0.0485412 1.00792 -0.696495 0.924363 1.7517 1.25747 1.43518 -0.185969 -0.091966 -0.303498 -0.398384 -1.086 -0.0192494 -0.256677 0.190362 0.996929 -0.0927582 0.683945 0.32 -0.99 0.130899 -0.189092 0.617327 2.07186 2.21993 1.81284 1.72406 1.34595 0.922437 0.237861 0.586822 -0.396334 1.47816 0.632353 1.22149 0.101537 0.787175 -0.975139 0.116301 -1.16198 0.293335 -0.832555 0.519585 -0.537916 -0.344708 -0.671245 0 0.59 0.430992 0.0934264 1.30373 2.36506 1.30111 1.41183 1.80167 1.94369 1.4694 0.844478 0.0468588 0.224943 0.732123 0.793915 0.968493 -0.244233 -0.154769 -0.17317 0.144139 -1.24255 -0.49834 -0.518849 -1.11859 0.658191 0.446283 0.796103 0.59 0.57 -0.0163183 -0.24522 -0.405525 1.58959 0.437547 2.54873 2.17193 2.46282 1.80617 -0.227822 -0.929896 0.720787 -0.769976 0.122965 -0.205262 -0.582836 -1.22396 -1.14905 -1.27907 -1.12232 -0.724176 -1.71333 -0.696202 -0.0643037 -0.838034 -0.040146 -0.77 -0.15 0.422264 0.178348 -0.950956 -0.645237 -0.54007 0.993025 0.974149 0.0311405 -0.359295 -0.82215 0.412194 0.686558 -0.274029 0.90991 0.945527 -0.485586 0.776826 0.623277 -0.0818452 -0.856708 0.379285 -0.937238 -0.375309 0.039376 -0.350398 -0.600365 -0.43 0.95 0.87 -0.35 -0.789962 0.750773 -0.939267 -0.239024 0.255645 -0.599238 0.21475 0.0711083 -0.12 -0.0299983 -0.319979 0.820021 -0.349979 0.360005 -0.800353 -0.61 -0.14 0.13 -0.112897 0.829669 0.69 0.45 0.14 -0.12 0.57 
-3.35222 -0.56 0.06 -0.62 0.8 -0.0456876 -0.485012 0.833389 0.275847 0.0294726 0.322112 0.862596 -0.428222 0.470245 0.869973 0.590685 0.0991122 0.767782 0.0107139 -0.758665 -0.0699998 0.17 -0.6 0.54 -0.0899998 -0.13 0.22 -0.85 0.66 0.26 -0.049939 0.834542 0.402958 -0.84289 0.478689 -0.337502 -0.955872 -0.424906 -0.0651079 -0.722662 -0.530781 -0.197836 0.420429 -0.295684 0.524188 -1.05086 -0.386601 0.196016 -0.121058 -0.845715 -0.335475 -0.394008 -0.00435025 0.531096 0.221261 0.981811 0.570024 0.3 -0.351554 -0.75834 1.15239 -0.703401 0.335504 0.026769 0.79585 1.07319 -0.965493 0.519289 -1.00921 -1.05216 -0.364891 -0.328952 -1.45642 -0.950352 -0.281675 -1.13808 -0.865309 -0.0298616 -0.318104 -0.906532 0.35902 -0.724758 -1.04979 0.234169 0.284832 -0.28 0.932483 0.787481 0.747575 -0.478235 0.36799 0.62719 -0.63211 -0.762758 0.0557497 0.163966 -1.03669 -0.252022 -1.1143 -0.384791 -1.6488 0.351211 -0.991784 -0.51365 -0.575958 -0.50627 -0.064154 -0.234795 -0.0502959 -0.0273404 -0.527164 -0.268938 0.644856 -0.58 0.0818256 -0.771357 -0.738915 0.27478 0.484149 0.448313 0.98268 -0.299185 -0.241195 -0.221265 0.05748 -0.00824206 -0.411214 -0.584826 -0.980238 0.292942 0.379016 -0.570904 0.258896 -0.346452 -0.121382 0.112267 0.141066 -0.49518 0.0351974 0.193263 0.710813 -0.52 -0.788542 0.796787 0.924547 0.14953 0.456901 0.283401 -0.74845 -0.410295 0.436668 0.44506 -0.531563 -0.309474 -0.119912 -0.142341 -0.0514144 0.275152 -1.28517 -0.40473 -0.508889 -1.02846 0.186212 1.11549 0.250233 -0.16695 -1.4888 -0.55622 -0.240556 -0.23 -0.886574 1.31107 0.157446 0.606403 0.00717357 0.110591 0.32418 -0.17871 0.0435611 -0.0985752 0.990732 0.753766 -0.703084 0.136057 0.0516442 -0.253411 0.201706 -0.30584 0.514821 -0.406524 -0.338131 -0.153517 0.328459 -0.258186 0.370657 -0.223766 0.41 -0.27 0.488424 1.55746 0.646757 -0.885795 0.434185 0.412807 -0.441079 0.0969233 -0.0330517 0.755416 0.38801 -0.544894 -0.59793 -1.07234 0.53744 0.122656 -0.790679 0.67984 -0.668103 -0.0451191 -0.216153 -0.197041 0.473894 -0.944235 -0.714002 -0.153757 -0.19 -0.94 0.523096 0.761064 1.6391 0.803165 -0.576378 1.01314 1.03746 -0.620345 -0.115236 0.0209338 0.289273 0.324241 0.0798955 0.540686 -0.137059 0.570196 -0.496459 0.46038 0.553485 -0.0962035 0.0770994 0.663456 -0.796655 0.00536584 -0.187789 0.164939 -0.265774 -0.99 0.735853 0.109085 1.76726 -0.85414 -0.683608 -0.0158922 -0.185421 0.63816 1.21902 0.307965 0.52111 0.584587 -0.691708 0.31794 0.809097 -0.20246 0.576952 -0.934727 -0.115871 -0.0298738 0.218706 0.454807 -0.312472 -0.442283 -0.858286 0.120715 0.069529 -0.76 0.853837 0.711061 1.99449 -0.018644 0.284664 -0.495531 0.498781 0.179887 0.60048 -0.0249883 -0.209014 0.556369 0.441037 0.68209 1.22869 0.284991 0.253675 -0.595106 0.110679 -1.43415 -0.295428 -0.353374 0.142858 -0.364259 -1.27507 -0.219349 0.86 0.32 1.08675 0.464016 1.31377 1.04065 1.16164 -0.0346623 0.616423 1.41535 0.423113 0.835096 0.446693 0.311638 0.0608965 -0.666494 -0.272737 0.986208 0.383966 -1.27079 -0.194312 -0.109027 -0.460345 0.286477 -0.40817 0.494454 0.0174508 -0.886267 -0.87 -0.63 0.256168 1.16166 -0.540052 0.153646 -0.254946 0.375267 -0.298153 -0.549509 0.767112 0.261937 1.13828 -1.12063 0.519527 -0.774565 -0.470473 -0.642602 -1.03724 -1.21501 0.0328886 -0.304566 -1.24797 -0.6214 0.312736 0.735882 0.0545042 0.359217 0.510844 0.59 0.321104 0.549942 0.474132 0.174039 -0.764505 0.620892 0.200956 -0.552348 0.76176 0.115719 -0.472729 -0.437803 0.0373022 -0.761856 0.235575 -0.911585 -0.341475 0.458706 -0.139954 0.568177 -0.928639 -0.578804 -0.868469 -0.881904 -0.669636 -0.422623 0.62 -0.589999 0.226438 0.909848 1.45963 0.542055 0.410431 -0.138394 0.928908 0.101184 0.778569 0.522692 -0.188642 -1.36306 -0.55937 -1.48263 -1.0177 0.254253 -0.459267 -0.050332 -0.165828 -1.39973 -0.340938 -1.13966 0.500135 -0.575322 0.154322 -0.543101 0.290004 0.501511 1.01557 1.1466 0.0180538 0.546862 1.19071 1.02054 1.22145 -0.202019 -0.164608 -1.53701 -0.51953 -1.72949 -1.45313 -0.0407668 -0.706307 -1.36884 -1.37072 -0.701348 -1.28919 -1.11197 -0.828857 -1.35815 -1.32442 -1.88882 -0.607202 -0.530541 0.270001 0.615542 -0.348661 1.12823 0.210895 1.34497 0.879693 0.39021 -0.185187 0.566709 0.382134 0.304339 -0.195363 -0.702643 -0.790231 -1.69828 -2.07244 -0.685437 -0.118617 -1.16354 0.604133 -0.434676 -0.26155 -1.20689 -1.39702 -1.33071 -0.861437 0.0987704 0.36 -0.527784 0.384996 0.0501882 0.319362 0.696471 0.564774 -0.0717105 -0.12983 0.847489 1.36265 0.314468 -0.391096 0.887246 -0.241258 -1.07347 -1.84611 -1.5653 -0.838387 0.229106 -0.126704 0.699052 -1.2842 -0.00521279 -1.54746 -0.739819 -1.46429 0.467154 -0.590001 -0.540191 -0.0576378 0.0581751 -0.616641 -0.227676 1.29946 -0.476064 0.111505 0.164966 1.0147 0.871388 1.12102 0.605789 0.186809 -0.716596 -0.611349 -1.91662 -2.3581 -0.880168 -0.592448 -0.528685 -0.795738 -0.885609 -0.227458 -2.61099 -0.752724 -0.69237 -0.62 -0.57 -0.0487012 1.25869 0.0847647 -0.826132 0.158436 0.850241 0.144297 0.397052 0.000355789 0.168362 1.29627 1.60413 1.65382 0.794893 -0.141941 -2.09543 -1.56701 -1.91764 -0.932188 -0.62195 -0.783559 -0.105479 -2.34924 -2.75932 -2.4527 0.792232 -0.08 -0.02 -0.31874 -0.672806 0.266967 -0.121944 -0.521466 -0.488345 -0.51405 0.811585 0.324534 1.20684 0.598181 1.38633 1.39608 2.42014 1.43747 0.282179 -0.628408 -0.989855 -1.62378 -1.31166 -1.0212 -1.58222 -1.51652 -1.42861 -1.76325 -0.875236 0.94 0.509892 0.660688 0.140112 -0.698707 -0.545063 0.526678 0.173686 0.285377 0.364659 -0.300987 0.838915 0.936995 0.699208 0.987291 1.88332 1.63362 0.950439 -0.0421771 -0.117366 -0.652805 -1.35891 0.594188 -0.077877 -1.65733 -1.63541 -1.27455 0.391879 -0.72 -0.370556 0.101218 0.365476 -0.0192872 0.0600186 -0.375071 0.126303 0.0897281 0.293455 0.288511 -0.143686 0.42921 0.394049 1.27525 0.560244 1.88496 2.45477 1.55155 0.930594 -0.586071 0.0425391 -1.26184 -1.17744 -1.81835 -0.77693 -1.25037 -0.465648 0.58 -0.257082 0.573154 -1.0732 0.115462 -0.647898 -0.873401 0.716237 -0.648313 0.464054 0.45301 1.51881 -0.162191 0.139585 1.40932 1.44531 1.40571 1.37372 2.12248 1.59454 0.822252 0.0342198 0.384175 -0.530456 -1.68745 -0.701188 -0.553451 0.629019 0.16 -0.184809 0.541464 0.331689 -0.987292 -0.797123 0.299645 0.543832 0.543137 0.977703 1.53386 1.92548 1.00069 1.58365 0.84842 1.2231 0.830458 1.16665 0.992261 1.25824 1.10164 0.990423 0.256892 -0.0543214 0.207842 -0.611101 0.657185 0.0975696 -0.02 0.723038 -0.781582 -0.338438 -0.960213 0.309282 -0.742443 0.992614 0.270449 1.95339 0.112179 0.347958 1.58513 0.775476 0.704308 1.0923 0.474803 1.25118 0.373541 0.695102 1.40106 0.361935 -0.539031 -0.958912 0.0940634 -0.868325 0.887597 0.560555 0.55 0.430024 -0.412845 -0.876692 0.967262 -0.196158 0.873311 -0.580357 -0.112435 0.243679 1.01135 0.728353 -0.316935 0.537015 -0.864153 0.553107 0.781041 -0.254152 0.467271 -0.585321 0.854644 -0.323751 0.181494 0.545843 0.405154 -0.709144 0.512338 -0.361564 -0.53 -0.31 -0.47 0.3 -0.280113 -0.703983 0.776146 -0.0500139 -0.841682 -0.112891 0.820741 -0.330205 0.96 0.27 0.838351 -0.490964 -0.26 -0.71 -0.12 0.02 0.71 0.06 -0.187358 0.986412 -0.51 -0.04 0.12 -0.73 -0.88 
-4.96556 0.56 0.9 0.82 0.900043 0.544432 1.01872 0.105379 -0.165872 -0.54421 0.409631 0.420138 0.351249 -0.849941 0.800054 0.709979 -0.972896 -0.0348845 0.760046 -0.939128 -0.619346 -0.285498 -0.625409 0.509997 -0.520002 0.479999 -0.68 0.56 0.4 0.42 0.950037 -0.868272 0.577289 -0.309325 -0.154939 -0.40642 -0.285968 -0.100985 -0.347961 -0.0274548 0.848547 -0.399909 -0.794488 0.658146 -0.782145 0.136736 0.613285 0.927312 0.566967 0.906986 -0.881175 0.275268 0.17333 0.162435 0.896111 0.699321 0.86 -0.85 0.352776 -0.404338 -0.518024 -0.907872 -0.401237 -0.199664 -0.734887 -0.346853 -0.457841 -0.434636 -0.810454 0.336019 0.442222 -1.155 -0.951059 -0.0674429 -0.30836 -1.22323 0.618174 0.535788 -0.0268659 0.339529 0.136987 0.217414 0.503204 0.497989 0.159924 0 0.508216 -0.518315 -0.542604 -0.055374 0.880128 -0.0940014 0.41087 0.728571 -0.790851 0.78589 -0.88163 -0.561859 -0.717547 -0.528017 -0.497001 -1.66011 -1.79508 -0.553033 -1.18426 -1.33986 0.118551 0.446344 0.3945 -0.493131 -0.616806 0.869912 -0.0101072 0.16 -0.0635813 0.332608 0.700051 1.34887 -0.255904 -0.29815 -0.340664 -0.123409 -1.18861 -0.0992876 -1.00638 -0.653541 -0.952676 -1.0594 -0.014329 -2.06751 -1.73761 -0.293588 -0.247743 0.593019 0.359054 0.0934949 0.484822 0.81104 -0.334443 0.605446 0.859968 0.86 0.277591 -0.738456 -0.111985 -0.0080144 -0.0102705 0.664159 -0.945377 -0.401009 0.210116 -0.554015 -0.351874 -1.0685 -0.0870754 -1.88624 -2.21028 -1.30777 -0.91792 -0.761199 -0.959484 -0.611347 0.60326 0.337314 0.450921 0.802284 0.140961 0.918657 0.645919 -0.47 0.640906 1.25447 1.67877 0.679924 0.462544 0.324641 0.332402 0.114964 -0.510623 -0.789288 -0.12266 -1.11488 -0.374434 -1.62623 -0.896087 -1.17512 -0.365136 -0.016479 -0.614842 0.29825 0.629326 -0.835875 0.0498348 0.0906067 -0.0902825 -0.221562 0.32 0.07 -0.237816 -0.562573 1.19065 1.27714 0.843812 -0.412544 0.457046 -0.0283542 -0.399684 -0.273781 -0.901892 -0.865381 -1.74992 -0.767317 -0.143636 0.441197 0.84712 0.454832 1.24262 0.236727 -0.825748 1.37303 0.334165 1.24744 0.47957 -0.409427 -0.58 -0.95 -0.0450231 0.189657 1.10848 0.481803 -0.231632 0.685115 0.0933399 1.01863 0.502328 0.0539679 -1.50767 -0.482298 0.0647744 0.694624 0.363993 0.813747 1.12962 1.42492 -0.871565 0.521112 -0.680068 0.993709 0.524307 0.716145 1.30348 -0.306461 0.369249 -0.4 0.768512 1.28367 0.837004 1.1238 0.0693098 -0.309041 -0.321325 0.08691 -0.074147 -0.25993 -1.18779 -0.593042 0.961521 1.04316 0.93005 0.603344 1.68566 0.462364 1.65725 -0.254503 1.28646 0.174625 0.454562 0.962096 1.02865 0.684615 0.557474 0.96 0.641245 -0.543591 -0.171735 -0.507224 0.0546913 0.37062 1.03756 -0.425361 0.211478 -0.22324 -0.895532 -0.860617 1.42033 0.36305 0.296067 -0.15469 -0.116338 0.572612 -0.0798084 0.714081 1.62145 -0.127332 -0.181554 0.360517 0.345038 -0.776811 0.54 0.74 -0.392608 -0.715278 0.468413 0.371785 -0.0957506 -0.684675 0.34185 -0.2634 -0.344946 -0.726564 0.475508 0.667964 0.361261 0.264333 -0.0322367 0.865276 0.359441 1.64451 1.51998 0.0965133 0.413604 0.203767 -0.11818 -1.29369 0.498251 0.0305932 0.25 0.39 0.649239 1.3271 0.883316 0.0979652 0.441837 0.0948365 -0.0697127 -0.522739 0.558358 -0.863186 -0.357396 0.345475 0.255129 0.76223 0.939322 0.920678 0.920249 2.06537 0.271484 0.666981 -0.0650762 -0.494151 0.0700404 -1.03011 0.371811 0.803312 0.920027 0.93 -0.357468 0.780908 0.889116 -0.418378 -0.0105792 -0.645423 0.732962 0.00880802 0.575702 -0.308287 0.0110781 -0.222529 1.85608 -0.0117798 1.28584 1.20153 0.458723 -0.552429 0.187274 -0.873697 -1.6491 -0.644698 -1.68559 -0.836354 -0.19079 0.25297 0.47 0.770028 -0.165655 -0.96991 0.165914 -0.401609 0.157966 -1.50342 0.26038 -0.270968 0.686063 0.42669 0.377357 1.15184 0.775082 0.881562 0.429203 -0.488281 -0.33348 -0.988579 -1.92701 -1.20777 -0.157779 -0.69106 -0.0129121 -0.671752 0.446083 -1.04037 0.980146 -0.879857 0.799073 1.0566 0.711873 0.396937 -0.717468 -0.576672 -1.26039 -1.07918 -1.11996 0.149716 1.31003 -0.0309696 -0.339054 0.405819 -0.645873 0.283033 -0.529411 -2.13464 -0.277893 -0.644162 -0.0762403 0.947568 -0.49898 -0.155759 0.709741 0.280921 -0.579973 -0.96006 0.169321 -0.0169109 -0.41211 -0.905069 -0.798108 -1.36927 -0.313442 0.253534 0.0172774 0.140988 0.76844 -0.666445 0.0165648 -0.413587 -0.610102 0.476365 -1.11322 -0.301129 0.392488 0.466189 -0.503189 0.266966 0.437099 0.185372 -0.104616 -0.0522337 -0.760155 -0.980109 0.0393537 -0.776935 0.512855 0.833956 -0.173841 -0.0187453 -0.737559 -0.488072 0.389659 0.307037 0.186219 0.583098 -0.27191 -0.888968 0.827803 -0.644477 -0.257524 -0.200309 -0.0531862 -0.705154 -0.33544 0.172265 -0.146976 -0.486965 -0.108471 0.718235 -0.3 -0.780236 0.561931 0.0483328 -0.491234 -0.344014 -1.12079 -0.480154 0.0279941 -0.188901 -0.705177 -0.321489 -0.424653 1.07124 -0.802013 -0.428787 0.641579 -0.540815 -0.926556 -0.491011 0.441096 -0.0082005 0.177268 -0.100437 -0.951384 -1.08544 -0.653049 -0.296719 -0.68 -0.43 0.851922 -0.377806 0.22721 -1.29108 -0.0524413 0.395737 -0.338943 0.159822 -0.492957 0.433591 -0.431267 -0.593081 -0.162665 0.126831 0.277801 -0.688192 -0.974131 0.598909 0.540375 0.284467 -0.687687 0.0677185 -0.492985 -1.76302 -1.10663 0.307615 -0.04 -0.17 -0.777575 -0.263439 -0.541149 -0.163677 0.0201547 -0.370501 0.202091 -0.919424 -0.00667751 0.844358 0.285248 0.250557 0.0876468 -0.0797355 0.120045 -0.45628 0.657724 0.546097 0.895525 -0.735149 -0.122693 0.835118 0.0954386 -0.51967 -1.07522 -0.503408 0.23 -0.570795 0.626915 -0.591972 1.35195 0.1062 -1.04087 0.242227 0.624337 1.14477 -0.530314 0.0797054 0.0225765 0.41207 -0.488244 0.408064 -0.332479 0.00994997 0.674409 -0.176583 0.285918 1.04476 0.845997 -0.959853 0.0687565 -1.12042 -0.601157 -0.441866 0.13 0.545919 0.449387 0.0924638 -0.59352 -0.551388 0.663426 -0.263514 -0.487049 -0.171272 0.739753 -0.0706721 -0.493122 -0.0582089 0.557215 -0.0992024 -0.935024 0.0281775 0.825286 0.301017 -0.699839 -0.67106 0.889289 0.501672 -1.33655 -0.703004 -0.374497 0.848355 -0.48 -0.580046 0.797998 -0.172056 -0.437799 0.18293 0.839214 0.0221656 -0.0068335 -0.0540325 -0.468082 0.539254 -0.4881 -0.652416 -0.367272 -0.301132 0.188492 0.323112 0.810655 0.43142 0.584154 -0.13901 0.634512 0.737803 0.518284 0.450801 0.549279 -0.653918 -0.62 -0.0200813 -0.909218 -0.702562 0.247718 -0.553277 1.05941 0.395737 -0.172382 0.0501336 -0.792296 0.312865 -0.667358 -0.580009 -0.346595 -1.72396 -0.884049 0.120503 0.159752 -0.113614 0.131233 1.02927 0.331576 1.36154 -0.310523 0.0814561 -0.0307096 -0.710649 0.88 0.969952 -0.736287 0.656011 0.971549 -0.371891 1.34864 0.419412 0.871471 0.606989 -1.36472 -1.28843 -0.426603 -0.856828 -1.22895 0.123714 0.831003 -0.17264 1.34636 0.229922 -0.558386 0.749712 0.400029 0.840337 0.0261075 -1.2167 -0.626437 -0.709744 0.57 -0.72 0.46447 0.332668 -0.391715 -0.210207 0.4813 0.065431 0.732296 -0.936767 0.125118 -0.205277 -0.29372 0.397907 0.409376 0.126508 0.316779 0.623124 -0.568559 0.614064 -0.755021 -0.793835 0.691912 -0.874961 -0.960527 0.517164 -0.274175 0.610043 -0.96 -0.35 -0.09 0.66 0.928547 -0.862036 -0.331376 0.100009 0.0671713 0.460142 -0.450127 -0.830002 0.65 0.63 -0.61 -0.95 -0.23 -0.66 0.3 -0.74 0.09 0.64 0.0361903 0.459752 0.79 -0.33 0.88 -0.4 0.91 
1.135 -0.49 -1 0.96 -0.74 0.758763 0.0789935 0.218676 0.180849 -0.711445 0.883989 -0.718343 0.740014 -0.429976 0.490045 0.91065 -0.290239 0.730062 0.848892 -0.990583 -0.859932 -0.180342 -0.870173 -0.719998 0.75 0.43 0.3 0.96 0.91 0.4 -0.960005 0.749465 0.469158 -0.544734 -0.0145968 -0.197442 -0.146436 -0.760548 0.644704 0.60838 -0.697543 0.377402 0.671584 -0.521472 0.416073 -0.605668 0.145009 -0.268913 -0.180706 0.771993 0.444305 0.363766 0.522406 -0.232822 -0.137392 -0.810011 -0.349911 0.92 -0.949491 -0.0232649 0.124252 0.0119561 0.607853 -0.052146 0.0984523 -0.283812 0.405331 -0.221482 0.0836901 0.13137 0.53673 0.779311 0.0505993 -0.495768 0.635745 0.737594 1.18575 -0.269274 -0.412694 0.729013 -0.709662 -0.395586 -0.79246 0.408305 -0.0121206 -0.52 -0.128334 0.253448 0.486997 -0.600721 0.253736 -0.710554 -0.338704 -0.44712 -0.138557 -0.115061 0.131567 -0.657806 -0.76866 0.608377 -0.203918 0.204147 0.994363 1.29236 -0.379344 0.485131 -0.445072 0.160091 -0.309322 0.613637 -0.772061 -0.98928 0.128041 0.92 0.276055 0.634521 -0.629292 -0.519253 -0.372852 0.150344 0.0183565 -0.839547 -0.36768 0.696798 -0.272688 1.23474 0.685989 0.169959 1.20076 -0.389235 -0.419823 0.944644 -0.670775 -0.216285 0.0631566 -0.0580664 0.521427 0.46944 0.27319 -0.747696 -0.776945 -0.75 0.364065 -0.0473833 -0.63029 -0.544166 0.626729 -0.181717 0.308858 -0.47991 -0.931663 -0.662027 0.97798 0.254572 0.437113 -0.500225 0.427543 1.19329 -0.0942397 -0.368862 1.03249 0.222038 -0.0427775 0.827384 0.0643624 -0.822139 0.437441 0.491305 0.61022 -0.94 0.508326 0.659786 0.733554 -0.216551 -0.32388 -0.72801 -0.329686 -0.117242 0.482801 0.734128 0.590309 -0.407413 0.707653 0.661655 0.498663 0.72246 0.314203 1.02579 0.2107 0.700267 -0.441717 0.143311 -0.0589183 0.393849 -0.302624 0.205378 0.59 -0.46 -0.890871 -0.18117 0.551174 -0.235377 -0.964259 -0.307154 0.0871657 0.320139 -0.436231 -0.194226 0.353819 -0.00719439 0.583861 -0.543316 0.166282 0.412892 -0.562952 0.235618 0.238339 0.39969 -0.470598 0.210934 -0.0580462 -0.129506 0.71362 0.110281 0.01 -0.98 -0.469794 -0.395141 -0.449496 0.139833 0.25202 -0.878412 0.736328 0.132587 -0.105503 0.718216 0.442771 0.391932 -0.622235 0.677551 0.333009 0.2076 0.848258 -0.725625 0.0298222 0.164709 0.965104 -0.312168 0.463543 -0.406921 0.579948 -0.998191 -0.529367 0.11 -0.983887 -0.680693 -0.370784 -0.744241 0.524823 -0.67157 -0.479005 -0.651101 -0.0375368 0.158686 0.8185 -0.157716 -0.577128 0.923494 0.429553 -0.61039 -0.550751 0.555011 0.755196 1.03155 0.285107 0.342503 0.341283 0.461053 -0.00254636 0.0814705 0.180112 0.53 0.416012 0.322928 -0.971096 0.750228 -0.853196 0.0946758 0.640378 -0.137888 -0.505481 -0.0738244 0.347052 -0.541956 0.331061 1.25563 -0.293401 -0.32586 -0.304216 0.282307 0.78466 -0.0252161 1.188 0.944711 1.22885 0.188018 0.439995 0.784786 -0.51 0.06 -0.536971 0.626662 0.650263 -0.99801 0.470042 0.210931 -0.251146 -0.249634 0.0745566 0.0586177 0.304007 0.57564 -0.579095 -0.0374812 0.792605 0.267098 0.826179 0.000287339 -0.245115 0.970299 0.525974 0.320218 0.611555 0.60741 0.836602 0.385012 -0.67 0.48 0.149779 0.218851 -0.729669 0.683997 -0.487289 -0.446178 0.410736 -1.02438 -0.248002 0.594154 -0.026874 -0.117257 0.620126 -0.0566019 0.24741 0.274177 0.593237 -0.170576 -0.0863257 0.839944 0.550905 0.0515652 -0.783966 0.269268 0.70177 -0.78846 -0.0900102 -0.26 0.11072 -0.0439265 -0.0634254 0.552537 0.342188 0.701345 -0.755969 0.224562 0.496666 -0.519108 0.246679 0.225504 0.109624 -0.786395 0.297184 -0.52157 0.67543 0.943052 0.412749 1.08568 -0.596914 1.07081 -0.440261 0.202041 -0.288268 0.670569 -0.02 -0.0999179 -0.554748 -0.681619 -0.182838 -0.241636 -0.639865 -0.358862 0.710707 0.465542 -0.562803 -0.0415298 0.462631 -0.104675 0.671089 0.0202844 0.330057 -0.263184 0.282097 -0.144976 1.47799 1.31147 0.224349 0.572172 0.782731 -0.148755 -0.731858 -0.104127 -0.189578 -0.119324 -0.122779 0.294074 -0.0922628 -0.0910646 0.391617 0.452327 0.313033 -0.714105 -0.406615 0.63619 -0.657789 0.0268007 0.0248548 0.45541 0.144214 -0.340229 -0.292292 0.0708038 0.587098 0.707397 0.974256 -0.135193 -0.0535875 -0.865798 0.349713 -0.258436 -0.389922 0.150789 -0.010775 -0.43919 0.448481 0.397862 -0.844045 -0.426089 -0.303638 1.06095 0.281383 -0.793012 0.75318 -0.510734 -0.0207806 -0.886245 0.644625 -0.62746 -0.0690094 0.750186 0.669388 1.10032 0.922927 0.578816 -0.199505 0.020691 0.421307 0.236372 0.820158 0.910452 0.558529 -0.329243 -0.462383 0.601793 0.528937 -0.0529112 -0.575884 -0.102056 -0.309087 0.382109 -0.165042 0.698465 0.135122 -0.446553 -0.36614 -0.228105 0.551239 0.177423 0.382197 0.517831 -0.232481 1.20174 1.01292 0.884723 0.0242897 0.6518 0.97 -0.789953 -0.581185 -0.423736 -0.865095 -0.0818173 -0.37197 -0.792172 0.391567 0.534721 0.542708 -0.237922 -0.268382 -0.624024 0.387948 -0.150609 -0.505519 -0.387036 0.949442 0.091646 1.34781 -0.184723 0.454519 -0.292489 -0.169346 0.731063 0.440825 0.486398 -0.48 -0.26 0.41956 0.163693 -0.605441 -0.565923 -0.131437 -0.555357 -0.448391 0.945061 0.791934 1.02862 -0.595074 -0.846034 0.46367 0.45172 0.017638 0.880946 0.724129 0.652382 0.648563 1.18097 1.09339 1.13707 -0.72941 0.303819 -0.395224 -0.902817 -0.12 -0.02 -0.30024 0.226733 -0.381051 0.0892428 -0.890438 0.190323 -0.459105 -0.14649 -0.806484 -0.501435 0.047543 -0.555165 -0.468313 -0.820202 -0.116634 0.734329 0.488963 1.22342 1.09422 0.77691 -0.143458 1.19252 0.104534 -0.485274 -0.540109 0.415746 0.32 0.930043 -0.635803 0.628861 0.171131 -0.401833 -0.355106 0.335663 -0.444053 -1.5175 -1.20229 -1.02909 -0.703912 0.461195 -0.64205 -0.630266 0.00212716 0.734506 1.1006 0.760395 0.772484 -0.0402841 1.03209 -0.299445 0.350785 1.02373 0.674421 0.292394 0.45 -0.59978 0.0103205 -0.759902 0.0161694 0.294584 0.220224 -1.0747 -0.370375 -0.492773 0.346295 -1.23554 -0.227438 0.266287 -0.927762 -0.602751 1.2913 -0.155274 0.706315 0.210569 1.22924 0.619582 0.595471 1.30191 -0.659857 -0.0687259 -0.56454 -0.00697242 0.84 0.460798 -0.631299 0.626329 -0.15931 -0.15621 -0.945777 0.445479 -0.967457 -0.854429 0.0563286 -0.435842 -0.4015 0.415771 -0.0253648 0.295545 0.224182 1.36236 0.162627 -0.186566 0.181881 0.599014 1.18174 1.12375 0.315057 0.106725 -0.405569 0.102359 0.41 0.129207 -0.752694 -0.414225 -0.786972 -0.271824 0.629792 -1.2549 -1.26146 -0.596035 -0.848764 -0.0444532 -0.63087 -1.03495 -0.274403 0.772352 0.942852 0.893349 0.629524 1.00954 1.38665 -0.28831 0.459495 -0.27563 -0.1257 0.303163 0.334006 -0.178714 0.42 -0.308759 -0.930399 0.715521 0.0518225 0.265138 0.133656 -0.0179206 0.551902 -0.416841 -1.09457 0.0466807 0.100926 0.700081 0.940415 -0.647575 -0.160157 -0.633647 0.129732 0.504648 0.940605 -0.639656 -0.171548 0.899893 0.696326 0.485374 0.0609099 0.199853 -0.05 0.690089 0.840487 0.760498 -0.939616 -0.383529 -0.374399 -0.755892 0.592773 0.61217 -0.603944 0.0531321 -0.849575 0.622173 -0.648135 -0.818699 0.0302553 0.820194 0.725806 0.117597 0.848802 0.0257528 -0.777989 0.0232103 -0.121689 0.0483959 0.34822 -0.520128 -0.55 0.51 0.4 -0.96 -0.100074 -0.720195 0.759874 -0.540001 -0.289799 -0.22947 0.479682 -0.390075 0.39 0.89 -0.120001 -0.150001 0.36 0.22 -0.05 -0.1 -0.8 -0.86 -0.150128 0.299992 -0.16 0.33 0.73 0.58 -0.44 
-3.97624 -0.41 0.13 0.83 -0.759999 -0.015133 0.958337 -0.497585 -0.707066 0.266573 0.238274 -0.687041 0.15334 -0.398713 0.390746 0.429678 -0.809507 0.594847 0.355272 -0.322956 0.262586 -0.0139286 -0.19881 -0.340293 0.880034 0.520017 0.94 -0.48 0.69 -0.12 -0.659958 0.300708 0.398215 0.257428 -0.82855 -0.551458 -0.311085 0.790178 -0.624008 0.258414 0.528754 0.0825543 -0.536348 0.660632 -0.398335 0.68855 -0.279563 0.893313 0.786846 -0.409308 -0.84945 0.0178454 0.958498 0.141354 -0.583924 0.121313 0.249999 -0.73 0.101089 0.251358 0.361638 1.0807 0.684362 0.529565 -0.50049 0.411686 -0.207737 -0.855689 -0.528728 0.390849 0.489491 -0.240605 0.928325 0.223342 0.672148 1.77215 0.514533 1.2295 0.805331 0.76718 0.5256 -0.29449 0.890642 -0.80464 -0.690253 0.23 -0.148329 -0.288438 0.883396 0.185653 1.18107 -0.151106 0.388053 -0.0472971 0.281342 0.178461 -0.405304 -0.34035 -0.252652 -0.364912 -0.339949 0.869876 0.971979 -0.295151 0.163547 1.33466 0.115444 0.875105 -0.255106 1.02886 -0.412926 -0.458869 -0.680963 -0.79 0.0560704 0.485382 -0.260642 -0.144261 0.188357 -0.586136 -0.37801 0.346101 0.132922 0.305702 -1.16075 0.294287 0.532972 -0.379847 -1.48046 0.0992088 -1.15697 0.808343 0.308101 1.47058 1.2076 -0.455814 1.06627 0.371832 0.314753 -0.584683 0.899515 -0.61 0.492376 0.748134 -0.19314 0.333676 0.617534 -1.04084 -0.0585925 -0.931807 -0.259672 -0.287675 0.454723 -0.820702 -1.03438 0.0244359 -0.132348 -1.19533 0.114167 -0.0316001 -0.490352 -0.417407 -0.396965 -0.235148 -0.969928 0.441855 0.0791153 0.536528 -0.921782 0.15 0.310616 0.892558 -0.338103 0.244913 -0.880967 0.0222707 -0.474579 -0.786565 0.0562292 0.354865 -0.399518 -0.559607 0.562886 -0.877161 -0.658577 -1.04224 0.69602 -0.00137288 0.441696 0.71143 0.501563 -0.330389 0.180415 0.200874 -0.503356 -0.372028 -0.64 -0.7 -0.77112 -0.234847 0.521694 -0.382278 -1.19808 0.0493165 -0.866222 0.156924 0.0431138 0.630338 -0.932514 -0.20654 -0.497942 -0.112278 0.0276374 -1.52869 -0.970932 0.133707 0.0179864 0.512117 -0.605734 0.662999 0.282625 0.315249 0.927176 -0.05564 -0.06 0.24 -0.161398 -0.182759 -0.297779 -0.346606 0.0874534 -1.18846 -0.862976 0.269765 -0.466408 0.47027 -0.231294 -0.880305 -0.78039 -1.18369 -0.211557 -0.321727 -0.14392 0.533386 -0.188696 0.478296 0.157979 -0.00812955 -0.815605 0.99795 0.325762 0.966242 0.340139 0.04 -0.746199 0.484185 0.663909 -0.599905 0.145311 -0.0725399 -1.0854 -0.384603 -0.233812 -0.29015 -0.150999 0.514579 -0.537036 -0.526928 -0.884976 -1.13504 -1.0782 -0.668432 -0.252475 -0.538405 0.270102 0.722473 -1.08481 -0.181408 0.567241 -0.141404 0.420103 0.96 -0.983436 0.109427 -0.252187 0.459239 -0.162677 -0.79257 0.312891 -0.400667 -1.00296 0.291006 -0.342059 0.674991 -0.451319 -1.01279 -0.208026 -0.307053 0.320394 -0.483374 -0.0817348 0.571343 0.0955224 -0.706349 -0.0972664 0.583654 0.904205 -0.304293 0.11 -0.95 0.991822 0.140555 1.17668 -0.0910781 0.224031 -0.485099 -0.494126 -1.08112 0.288722 0.22262 0.686982 -1.02015 -0.0703955 -0.353313 -1.19785 -0.744582 -0.626278 -0.240355 -0.862365 -0.408026 0.629189 -1.185 0.0637799 -0.629913 0.655459 -0.681795 -0.46 -0.45 0.457465 0.600063 0.161116 0.0455515 0.241469 -0.21632 -0.569938 0.266588 -0.360172 -0.71045 0.700777 0.0537994 -0.773557 -0.717095 -0.700761 -0.388595 -1.2958 -0.645373 -0.463417 -0.216548 0.189613 -0.32678 -0.311465 0.0370339 0.799909 0.290114 -0.100228 0.21 0.142217 0.146002 1.0343 0.110901 -0.0698948 -1.15234 0.229166 -0.941662 0.523762 0.504735 0.145756 0.275609 0.15415 -0.0721124 -0.966764 -0.891826 -1.60422 -2.38257 -1.1864 -1.13294 -1.30757 -0.127393 -1.29244 0.038455 0.865027 0.4417 -0.85 0.920005 -0.107196 1.25036 0.0909535 0.087732 0.375417 -0.317889 -0.0540589 -0.494272 -0.330115 0.263291 -0.243005 -0.530662 0.127443 0.705143 0.307765 0.87302 -0.016862 -1.59844 -1.22673 -2.31074 -1.00668 -0.523747 -1.23262 -0.535151 0.506952 1.0703 -0.709975 -0.560013 0.245533 0.277024 0.00101798 0.795077 -0.6543 0.0537524 -0.619979 -0.246698 -0.868702 0.526109 0.507043 0.785387 1.98909 1.49737 1.56182 2.60271 1.88369 1.5057 0.671391 -0.969971 -0.965885 0.368861 -1.33817 0.375955 0.601821 0.169244 -0.109995 -0.96015 -0.499564 1.58013 0.65338 0.00443798 -0.311554 1.45501 -0.134035 0.112735 -0.341232 -0.539612 1.34671 2.05959 1.40524 1.88382 1.86272 2.12133 3.02483 2.42633 2.57828 -0.0396734 1.71626 0.470594 -0.416482 0.337892 0.591282 -0.00945804 -0.740173 0.318285 0.215529 0.231034 0.438238 0.412289 -0.15755 0.16739 -0.152423 0.121932 -1.40658 -0.778532 0.642486 0.545899 -0.24838 0.124416 1.66331 0.561622 1.52218 0.642028 0.565746 1.34183 -0.0148044 -0.376417 0.588637 1.3689 1.44885 -0.111817 0.360036 0.820159 0.411335 1.4839 -0.372485 -0.831001 0.323479 0.407208 -0.61242 -0.428961 -0.350386 0.400517 -0.579514 -0.233103 0.0898845 1.23993 -0.33367 0.926476 1.36943 0.632259 0.721157 1.07564 1.19372 0.0541147 0.00325309 1.175 1.17633 -0.0602504 0.9 -0.06 0.149399 -0.453797 1.09587 -0.580736 0.198162 0.40056 0.812663 -0.486565 -0.896838 0.256977 -0.0679373 0.736975 0.978889 0.390878 -0.00389384 1.07729 -0.126877 1.11535 1.00589 -0.389708 0.379702 1.13419 0.537387 1.30943 0.907185 0.0597966 -0.01 0.19 0.938915 1.26497 0.246637 -0.204102 -0.925264 -0.388649 0.149673 -0.530555 -1.35359 -0.0161796 -0.181842 -0.460083 0.77537 -0.232739 0.839316 0.759212 0.596247 1.12107 0.851843 -0.19444 1.12705 0.877693 0.490921 0.774759 1.14107 -0.052461 -0.14 0.279653 -0.00631495 0.485208 0.878666 -0.54969 0.566874 0.0522281 0.608075 -0.322096 -0.261935 0.0849063 -1.3287 0.469982 0.829183 0.958471 0.996046 0.843589 0.995627 -0.142177 1.10363 1.39344 0.023959 0.0182302 0.813751 1.8922 0.374433 0.650033 -0.92 -0.271782 0.324339 0.124394 0.635377 0.259151 0.172757 0.932705 -0.196494 0.396307 -0.416252 -0.616229 -0.691179 -0.726538 0.179202 -0.527649 -0.601021 1.61364 0.0194007 1.40996 0.631786 -0.426666 0.500317 0.664796 0.783782 0.866563 -0.0515415 0.734866 0.7 -0.050153 -0.713711 0.820197 -1.17226 0.143523 -0.629651 -0.600741 0.407607 -0.194886 -0.876669 -1.83689 -1.67318 -0.251685 0.683378 1.32941 1.64575 1.05757 0.875939 0.564812 -0.512865 1.24161 0.319795 -0.0735594 0.94038 0.876077 0.087143 0.834516 -0.78 0.00972785 -0.0493016 0.369652 0.707936 -0.0143024 0.159715 -0.241398 -0.692552 1.14065 -0.00765625 -1.83409 -1.79071 -0.553108 0.526318 0.0401454 1.04957 0.555793 -0.0647547 0.441844 -0.768577 0.522378 0.864918 0.482325 0.527677 0.316022 0.768546 0.0417906 -0.6 -0.360159 -0.0891008 0.891545 0.958603 -0.603882 -0.479217 0.304416 0.614767 0.595022 -0.485286 -1.53058 -0.71064 0.348039 0.100628 0.00963058 -0.390412 0.308673 0.363035 0.916332 -0.261856 -0.228429 1.08089 0.159879 -0.364597 0.683149 -0.892257 -0.503412 -0.42 0.579999 -0.790451 0.945081 0.630338 -0.861178 -0.415227 -0.67736 0.879639 -0.705687 -0.67464 0.0494567 -0.178785 0.715719 0.140486 -0.30072 0.276266 -0.132886 0.536295 1.05099 0.836158 -0.341222 -0.688961 -0.585629 -0.42979 0.892711 0.202993 -0.21884 -0.78 0.73 -0.34 -0.63 -0.690001 0.509999 0.17994 -0.860252 0.614813 0.467866 -0.453153 0.210094 0.71 0.34 -0.798012 -0.338129 0.76 0.39 -0.659948 -0.1 -0.77 -0.35 -0.830763 0.43 0.9 -0.88 0.21 0.25 -0.89 
2.85432 -0.81 0.89 0.93 -0.780002 0.694132 -0.754848 0.843868 0.372192 -0.260109 0.483913 0.132207 -0.288698 -0.857305 -0.598146 0.192342 0.0784161 0.849965 -0.990465 -0.290119 -0.129116 0.200608 0.0644105 0.46001 -0.25 0.37 -0.27 0.2 0.52 0.84 -0.869978 -0.548975 0.896207 -0.399523 -0.745411 -0.772539 -0.150861 -0.468992 -0.251995 0.874007 0.249735 -0.353032 -0.461079 -0.950606 -0.615105 -0.491486 -0.918925 0.285677 -0.327657 -0.199297 0.258041 -0.226291 -0.411645 -0.192772 0.389437 0.640965 0.23001 0.76 0.226524 0.300293 0.317454 0.254113 1.22327 -0.625665 -0.537989 -0.163334 0.00591406 -0.472228 0.350608 0.00245723 1.23761 -0.141102 -0.690226 0.374649 0.610744 0.267845 -0.965948 -0.932894 -1.12096 -0.492482 -0.0216904 -0.855152 0.0186133 -0.221221 -0.147911 0.03 -0.490574 -0.64645 -0.78829 -0.0536933 -0.285017 -0.705328 0.269097 -0.726649 0.206704 -0.701136 0.130245 -0.639346 -0.346543 0.788288 0.178943 0.490661 0.97765 0.0187758 -0.295817 0.127197 0.240659 -0.035321 0.674773 -0.479435 -0.786033 -0.32032 0.682099 0.23 -0.28881 -0.778057 0.833908 -0.666731 -0.742924 0.25433 -0.374092 -0.876984 -0.0886542 -0.294752 -0.561837 0.318706 0.488487 -0.0469466 0.642357 1.0791 1.17452 0.624095 -0.297395 0.832119 0.139246 -0.744184 0.353391 0.184237 -0.293835 -0.979188 0.970352 -0.59 0.218677 0.613959 0.0873908 0.0411183 0.447805 -0.427117 0.41147 0.0615969 -0.963211 -0.103254 -0.208292 1.01284 1.49587 0.0294564 0.642629 0.610763 -0.402996 -0.053727 0.707649 0.0128941 -0.918481 0.149103 0.199293 0.598827 -0.192754 -0.573817 0.390006 0.03 0.79496 -0.459217 0.515503 0.0825835 0.287555 -0.28677 0.589354 -0.576044 0.874536 -0.515772 0.236435 0.84863 -0.36297 0.384454 -0.277316 -0.210225 1.20067 0.38254 0.508041 -0.0318116 0.467878 -0.312407 -0.507208 1.1384 -0.906406 -0.309163 -0.71 -0.45 0.733537 -0.449274 0.117578 0.409486 0.321325 -1.1924 -0.377132 0.50279 -0.329825 0.844205 -0.329094 0.364446 0.109007 0.656098 0.192063 0.45815 -0.105372 -0.76569 0.86002 -0.325066 0.394251 0.828025 -0.746386 -0.57509 0.288411 -0.267175 -0.14 -0.63 0.581412 -0.0247546 -0.326795 -0.668783 0.769805 0.0287774 0.393135 0.533774 -0.372052 0.525712 -0.0319713 0.0593597 0.419099 -0.756859 0.355305 -0.199164 0.335518 0.621044 0.881306 0.352077 -0.748565 -0.510041 -0.0539738 -0.00848704 -0.795737 0.00442404 -0.700262 -0.23 -0.127499 0.752451 -0.428811 0.804391 0.494089 -0.205868 -0.155527 -0.624583 1.14515 0.766868 0.171235 0.429994 -0.463923 -0.192519 -0.224797 0.288523 -0.147614 -0.100464 -0.309724 0.407315 -0.512553 0.251212 0.720099 0.597405 -0.679269 -0.171153 0.716521 0.41 -0.775729 -0.768919 0.580177 -0.474047 -0.359792 0.29593 1.11715 -0.672667 0.355868 -0.00464954 -0.14747 0.502266 0.506142 -0.815963 0.718068 -0.334075 0.346538 0.84739 0.183533 -0.174417 -0.365288 0.423889 -1.51035 -0.316927 0.165549 0.525157 0.29 -0.64 0.202504 0.859665 0.245049 -0.196459 0.686383 0.841661 0.751054 0.546728 -0.43727 0.202081 0.273974 -0.199719 -0.0778257 0.984015 1.36785 0.980905 -0.0749033 -0.358047 -0.27868 -0.206095 0.241077 -0.360783 -0.0461453 -0.717149 -0.242754 -0.724394 -0.5 -0.29 -0.248678 0.620195 -0.557614 0.514686 0.321591 -0.0262032 -0.25635 -0.100873 0.890207 0.537399 0.17553 0.635197 0.155673 -0.605058 0.523861 -0.128557 0.699591 -0.105292 -0.131674 0.483399 -0.360544 -0.293283 -0.37087 -0.606527 0.140344 0.625625 -0.769903 0.86 -0.322683 -0.424571 0.940249 -0.337562 0.0972114 -0.168892 0.862994 0.675152 0.386592 1.03139 -0.649816 0.486311 0.295859 -0.204847 -0.179065 0.908668 0.294867 1.13355 -0.583301 0.713072 -0.145855 -0.00284215 0.682438 0.00862907 -1.14408 -0.355142 0.62 0.85 0.18981 -0.571904 0.351247 -0.606809 0.115433 0.403555 -0.0463434 -0.274719 0.409951 0.0325204 0.227406 0.953917 -0.34751 -0.264371 -0.193196 1.57814 0.571569 -0.558912 -0.642991 0.149203 -0.918571 0.370442 -0.543761 -0.367016 0.249717 -0.709464 0.890001 -0.269835 -0.220155 -1.06097 0.623095 -0.170649 -0.0317644 0.150422 -0.943456 0.616439 0.702814 0.9651 -0.432311 0.120491 0.276375 0.897185 2.40304 3.51945 1.29649 -1.25598 -0.804419 0.521473 -0.0253229 -0.71759 -1.40971 -1.40928 -1.12817 -0.381965 -0.56 0.990604 0.675349 -0.580776 -0.682643 0.00564041 -0.323562 0.414426 -0.12605 0.720815 -0.337229 -0.568008 0.639464 0.769469 1.82237 1.17403 1.38189 0.976778 -2.78976 -2.41934 -1.3139 -1.47626 -0.412027 -1.15478 -0.788476 -0.477447 -1.71291 -0.365869 -0.570047 -0.299809 -0.379943 0.381981 0.377066 0.418854 0.0481745 0.258925 0.0734175 -0.00387255 0.0792731 0.0867154 1.04311 1.02509 -0.21008 1.38804 -0.869531 -2.32034 -3.73397 -1.48265 -0.705211 -0.815923 -0.187387 0.146733 0.137589 -0.992428 -1.11109 0.435253 0.959774 0.0199578 0.533452 0.347463 0.723364 0.509973 -0.381284 -0.739486 0.433493 0.0426559 -0.693782 0.393217 -0.318197 -0.421288 -1.10445 -1.44635 -1.19998 -3.45016 -2.99495 -0.322901 0.203967 -0.902092 0.00023991 -0.289213 -0.534956 -0.612601 -1.40792 -0.759734 0.1 0.02 -0.525129 -0.18879 -0.324703 -0.113404 0.275052 0.586991 0.319206 0.142076 0.98925 0.417353 -0.133371 -0.9704 0.269012 -1.03138 -1.50965 -2.76376 -2.00323 0.582738 -0.0402282 0.0957141 -0.635813 0.0675007 0.560211 -0.612229 0.231552 -0.796991 -0.33 0.44 -0.479355 0.90187 0.136081 0.979296 -0.118474 -0.000634629 -0.173049 -0.102848 -0.801552 -0.361253 -1.2844 0.086815 0.14078 0.0779007 -0.709334 -3.55766 -0.510992 0.36961 -0.411685 0.196191 -0.334 -0.00944578 -0.274381 0.0431003 0.486238 0.532583 -0.57 -0.449999 -0.893051 -0.254426 -0.0567521 -0.300424 0.519307 0.39697 0.170851 0.318531 -0.903544 0.698291 -0.485058 0.11963 -0.289835 -0.894169 -2.44904 -2.81683 -1.52079 0.378885 -0.487984 0.0778978 0.588819 0.63927 -0.44656 -0.708924 0.140173 0.360637 -0.78 0.380006 0.322439 -1.19545 0.575559 0.57005 -0.0718241 -0.751042 -0.145165 -0.449922 -0.573237 0.668355 -0.0892524 -0.260413 0.577395 -0.25917 -3.34292 -3.01714 -1.34732 1.50889 -0.735084 -0.273355 0.159157 -0.592781 0.764121 -0.585898 0.155398 -0.145041 -0.02 -0.998738 -0.200139 0.449444 -0.161521 -0.62687 -0.046891 -0.195989 -0.246596 -0.211045 0.416362 0.0411803 0.647543 0.0879377 -0.548421 -1.73898 -3.02854 -2.0422 0.180513 0.496004 0.117782 -0.125698 -0.0107061 -0.232042 1.63566 0.110291 -0.351409 0.359286 0.41 -0.537756 0.180684 0.819681 0.322203 0.849047 -0.565156 -1.46496 -1.15551 0.0594976 0.656623 0.884606 0.238438 -0.729705 -0.930553 -1.55223 -2.83393 -0.972277 -1.07378 -0.130613 -0.760451 0.425728 0.944695 0.500876 0.446025 1.22506 -0.58365 -0.103958 0.31 0.661314 0.208893 -0.227714 -0.890911 -0.445131 0.425843 -0.743701 0.828591 0.112672 1.15277 -0.0459294 -0.0170882 -0.562458 -0.761066 -0.746442 -2.36173 -1.89927 0.291558 0.132224 -0.873873 1.12263 -0.150191 0.239188 0.479667 -0.167523 -0.320593 0.581748 0.91 0.58001 0.265102 -0.375369 -0.957997 0.203031 0.440576 -0.333112 0.115558 -0.348508 0.324131 -0.197207 0.26406 -0.917134 0.514361 -0.269505 -0.00632709 -0.783846 -1.0152 0.706641 -0.423572 -0.116349 -0.690183 0.165668 -0.00888505 0.210523 -0.172911 -0.818746 -0.5 -0.71 -0.85 -0.9 -0.770316 -0.0597754 -0.83992 -0.279674 0.603381 0.862933 -0.934211 -0.710196 0.98 -0.760082 0.44067 0.000570973 0.338991 -0.560245 -0.95 -0.19 0.43 0.54 -0.208537 0.37 0.79 0.37 0.74 0.19 -0.41 
4.86722 0.28 0.99 -0.95 -0.44 0.564913 -0.147935 0.290762 0.189989 -0.889584 -0.283958 1.00639 -0.733495 0.0537182 -0.938292 -0.117659 0.620198 0.681367 0.754956 -0.737421 -0.679991 -0.269767 0.974804 -0.869357 0.72 -0.1 -0.88 -0.2 0.83 0.34 0.600007 -0.698864 0.319205 -0.184857 0.373181 0.0129042 -0.511984 0.769635 0.244141 -0.367826 -0.697535 -0.506964 0.139817 0.000505841 0.286497 0.830353 -0.767956 -0.652402 -0.829148 0.145307 -0.200546 0.625877 -0.166 0.948181 -0.510277 -0.864985 0.13004 0.49 0.181581 -0.47278 -0.352233 -0.38146 -0.909234 0.059892 0.33342 0.626619 -1.10788 0.240546 0.427095 -0.565704 0.0343676 0.747959 0.433377 -0.329436 0.202693 -0.265196 0.597468 -0.623845 -0.715161 -0.554461 -0.32296 -0.398015 0.565254 0.48409 -0.461827 -0.37 -0.328431 0.332524 0.256703 0.696678 0.110093 -0.318419 0.238464 -0.652433 -0.172364 -0.215909 -0.0494718 -1.13629 -0.760718 0.424045 -0.0808612 0.630082 0.25294 -0.618381 -0.7052 -0.598089 0.280087 -0.175211 -1.04852 0.594402 -0.519212 0.496542 -0.401499 0.92 0.536419 -0.654689 -0.533401 0.125668 0.940159 -0.414263 -0.0949706 1.4887 -0.00585155 -0.460413 -0.507431 0.532268 0.0401195 0.479511 0.74304 -0.337888 0.144748 -0.232786 0.346681 0.0524066 -1.61771 -1.30699 -0.837851 0.223923 -0.859811 -0.382052 -0.528445 -0.4 -0.534508 0.27695 0.25133 -0.667614 0.211816 1.32123 0.583521 0.701539 0.0441275 -0.206286 -0.655183 -0.0623739 0.414132 -0.379452 -0.194295 -0.33577 0.131022 1.34043 -0.171812 -0.0883571 -0.414836 0.030271 -0.630839 0.352652 -0.305436 0.185505 -0.199942 0.16 -0.139994 0.593567 0.533917 1.00708 0.0660996 -0.202879 -0.185909 0.228385 0.391433 -0.625301 -1.13115 -0.607283 0.865941 0.267297 0.835088 1.15646 0.579162 0.854355 -0.940447 -0.308175 0.296884 -0.769621 -0.58586 0.859207 0.9248 0.600555 0.61 0.36 -0.106054 0.55943 -0.438047 0.267216 0.563748 0.852535 -0.0369819 0.140297 0.0938234 0.020433 -0.0564456 -0.202304 0.133579 0.813813 0.752345 -0.0722369 0.226522 -0.191917 -0.0609424 0.162194 0.485537 1.16709 1.88529 0.543548 0.763143 -0.975424 0.96 -0.39 -0.806618 -0.158321 -0.335003 0.650435 0.510188 0.288284 0.451928 -0.50711 -0.0484715 0.425154 -1.10068 0.305763 -0.797199 0.509142 0.886824 0.759903 -0.21208 1.67003 1.11307 2.03441 0.827826 0.871388 1.49001 1.05907 -0.115545 0.864996 0.760002 -0.09 -0.735886 -0.177023 -0.842652 0.439636 -0.293983 -0.842591 0.582171 0.759837 -0.963006 -0.287144 -0.242333 -0.130032 -0.393959 1.34711 0.93074 0.634801 0.642734 1.45972 1.3377 1.48358 1.99188 0.975336 1.70536 1.53183 -0.475502 -0.0862152 -0.63 -0.23 -0.384023 -0.231058 -0.169953 0.921838 -0.27567 -0.895179 -0.0743554 -0.254972 0.586006 -1.19517 -0.613635 0.308118 -0.698102 1.1788 0.508974 0.881017 0.645532 0.776404 0.0124243 0.261909 0.712128 -0.0601265 0.992237 0.501611 -0.583116 0.452231 0.87 -0.16 -0.557028 0.775019 -0.271019 -0.673439 0.533527 -0.585074 0.673656 -0.216126 0.415553 -0.419408 -1.1062 -0.0839869 -0.220019 -0.197869 0.469805 -0.327382 -0.222348 -0.333002 -0.535995 0.0194304 0.252795 1.22455 0.906177 0.776759 0.568711 -0.909583 -0.98 0.2 0.141688 0.450074 0.586138 -0.555468 0.438045 -0.165011 0.453284 0.120123 0.258758 -0.371239 -0.616567 0.0553669 0.399855 0.201984 0.30093 -0.182691 -0.145978 -0.831609 -0.224423 -0.455526 0.419611 -0.70718 -0.523621 1.02906 -0.566791 -0.236273 0.210187 -0.45 -0.661484 1.02476 0.468274 0.423883 0.315808 0.598946 -0.628751 0.764067 0.213864 0.423779 -1.19939 -0.20834 -0.17648 0.0581453 0.0182795 -0.372065 -0.838304 -0.390538 0.0620103 -0.16556 -0.264988 0.565761 -0.288664 0.971641 -0.275341 0.304696 -0.18 -0.349994 -0.356874 -0.167407 0.842244 0.457765 0.815052 -0.804169 -0.0902952 -0.54296 0.610759 -0.555066 -0.200453 0.830457 -0.638672 -0.672982 0.0382745 0.00169016 0.773983 -0.130667 -0.438983 0.64197 0.527859 0.634294 -0.390299 0.182627 0.189571 -0.0685632 -0.979971 -0.169966 -0.218981 0.100788 -0.635413 -0.0757143 1.16076 0.253659 -0.618724 0.557949 -1.06617 0.355797 -0.691026 -0.209265 -0.434544 -0.365785 -0.364532 0.213192 -0.387338 -0.474379 0.571183 -0.672838 -0.339408 0.782672 0.332927 -0.528215 0.246006 0.0627005 -0.639995 0.870008 0.385727 0.0193889 -0.16054 0.830532 0.651482 0.477439 -0.138828 0.420224 -0.407957 -0.952282 -0.341893 0.117413 -1.08305 -0.385423 -1.6266 0.14796 -0.0839574 -0.279783 1.00727 0.0739417 1.51551 1.77421 -0.120162 1.01911 0.83082 0.422313 0.290022 -0.729325 -0.145663 1.38088 0.369475 0.290063 -0.0326297 0.963665 -0.0937102 0.845609 0.202601 0.205225 -0.698319 -1.13086 0.277146 -0.321827 -0.227819 -0.703906 0.489373 0.0931538 1.87081 1.7327 1.29167 1.39408 1.19274 -0.494941 0.123943 0.43916 0.64 -0.67998 0.186115 -0.514317 0.83936 0.966668 0.482763 0.994261 -0.445158 0.142024 0.633728 -0.125395 -0.126991 -0.538118 -0.485312 0.710234 0.080039 1.58966 1.11583 0.611186 0.503975 0.409831 0.252146 0.738781 -0.822017 -0.417996 -0.348083 -0.573271 0.01 0.54 -0.77872 0.251822 0.051855 1.27394 1.03431 1.37633 0.612859 0.985693 0.154358 -0.116587 -0.36229 -0.00293277 0.316141 0.849987 0.468077 -0.202722 0.315941 0.877454 -0.185734 1.22299 -0.00852957 -0.110492 -1.28768 -0.590699 -0.173028 0.735647 -0.92 0.64 -0.738939 0.210447 0.145302 0.615999 0.097518 -0.257896 -0.45223 0.798438 -0.950274 0.0453148 0.060516 0.203548 0.120599 0.558866 -0.0902349 0.267302 0.82921 0.935848 0.448909 -0.930487 -0.923572 -0.415235 0.0972449 -0.330588 -0.251767 -0.461114 -0.9 -0.439989 -0.811494 0.831363 0.494055 0.494241 0.697527 -0.236422 0.763174 0.18546 0.294828 -1.17319 0.586004 -0.234952 -0.225154 -0.688296 -0.373379 -0.85795 0.000937826 -0.740106 -0.656442 0.508302 0.469983 -0.464649 0.962195 0.184484 -0.616427 -0.0264008 0.32 -0.749942 -0.136669 -0.100568 0.157945 0.543491 -0.031938 -0.0887541 -0.405869 -0.0273295 -0.740727 -0.643743 -1.01455 -0.932485 -0.551541 -1.10754 -0.599753 -0.214603 -0.0585196 0.20242 -0.4892 -0.233318 -0.0126268 -0.204573 -0.997658 -0.289772 0.0834538 -0.289953 0.97 0.374936 0.220192 0.433246 -0.562972 0.605137 1.47886 0.648656 -0.0995469 -0.479494 0.618098 0.25584 -0.332218 -0.444335 -0.237193 0.603239 0.0133544 -0.582281 -0.765329 0.113922 -0.171417 -0.402452 -0.709612 -1.23918 -0.986504 0.358279 -1.08352 -0.0681211 0.01 -0.16122 -0.333968 -0.307702 -0.862408 -0.141501 0.585528 -0.234586 -0.481913 0.55872 -1.70853 -0.715102 -0.759852 1.18582 -0.695765 0.32521 -0.50043 -0.333319 -0.559287 -0.576185 -1.14417 0.518695 -0.964063 -1.71338 0.291424 -0.779324 -1.25561 -0.521599 -0.74 0.735138 0.670743 -1.03695 -0.188385 -0.320255 0.361189 0.923563 0.128559 0.396766 0.586067 -1.05931 0.400654 -0.0737724 0.148099 -0.232858 0.22955 -0.466553 0.467993 -0.358117 -0.537607 -0.295662 0.157242 -0.351935 0.192917 -0.957912 0.631343 0.877473 0.13 0.94004 0.119217 -0.274601 0.855613 -0.38587 -0.437037 0.796755 0.825601 -0.441489 -0.068221 -0.136744 0.254501 -0.646527 0.740419 -0.889135 -0.296649 -0.406211 -0.16385 -0.194293 0.0490579 0.606883 0.0865247 0.545621 0.516865 0.287657 -0.530633 -0.31048 -0.76 0.01 -1 -0.82 -0.27021 -0.686442 -0.135564 0.459786 -0.379968 -0.258489 0.587968 -0.250584 -0.36 -0.37 0.149065 -0.491469 0.0499982 -0.83 -0.37 -0.61 0.32 -0.9 -0.198906 -0.8 0.67 -0.28 0.22 -0.3 0.21 
-5.51472 -0.05 0.76 0.29 -0.61 0.932786 -0.275661 0.700413 -1.04451 -0.51181 -0.338881 0.461884 0.479896 -0.911063 -0.909708 -0.253971 -0.266917 0.306347 0.245881 -0.70169 0.639773 -0.0814989 -0.498147 0.146434 -0.189959 -0.159979 0.95 0.24 -0.71 0.25 6.90011e-06 -0.901467 -0.02865 0.046168 -0.939513 -0.981142 -0.0592851 0.103292 0.196779 0.847713 0.288313 0.908981 -0.154907 -0.675708 -0.314036 0.201769 -0.160061 -0.422123 -0.751231 0.876296 -0.792417 -0.465373 1.04381 0.605532 -0.956455 -0.698774 0.43 -0.57 0.887866 0.0980403 -0.496144 -0.178911 -0.645369 0.543148 -1.18128 -0.288798 -0.731811 0.214851 -0.663053 -1.42373 -0.26424 -1.42975 -1.41599 0.252908 -0.954807 0.55737 0.350931 0.841686 0.432233 -0.167466 -0.523084 -0.281037 -0.835602 0.983892 -0.500002 -0.59 -0.571983 -0.0395031 -0.692249 -0.0123713 -1.07925 -0.237889 -0.820684 0.666953 0.348795 -0.996199 -0.63266 -1.41823 -2.32492 -1.0133 -1.65861 -0.248718 0.453364 0.599357 0.0324779 0.970716 0.664962 -0.210968 0.632238 -0.378106 -0.421964 -0.958064 0.238171 0.6 0.498795 -0.755999 -0.504959 0.20488 0.711752 0.571556 -0.922152 1.02588 -0.553407 0.191517 -1.42619 -1.39095 -2.3466 -1.82382 -1.16866 -0.161946 0.707683 0.354497 -0.191825 0.636672 0.441116 0.608708 -0.743815 -0.127944 -0.727258 -0.660129 -0.00114208 0.1 -0.24897 -0.292781 0.146454 -0.625647 0.175438 0.465443 0.792594 0.759109 -0.0104239 -0.224406 -0.855562 -0.44013 -1.60559 -0.964666 -0.137219 -0.36287 -0.388019 -0.265688 0.576875 1.29841 0.587857 -0.0816688 -0.142669 0.719041 0.217751 -0.570564 -0.154954 -0.63 0.0671168 -0.052912 -0.581678 -0.515849 0.496915 0.663094 0.319987 -0.389922 -0.0743952 0.357543 0.185286 -0.314229 -2.01485 -1.28668 -1.45575 -0.585002 0.136777 0.976144 0.388467 0.774125 -0.024604 0.663314 -0.707361 -0.0611879 0.101335 0.428849 -0.64 -0.73 0.208675 0.470027 -0.346137 -0.186649 0.884525 0.0121715 -0.346002 0.584536 -0.0986866 0.178454 -0.884708 0.425227 -0.292539 -2.26725 -1.65052 -1.32438 0.0470005 -0.527384 1.43172 1.26011 0.931378 0.454901 0.469637 -0.299719 -0.77437 -0.706209 0.93 -0.77 -0.705232 -0.514015 0.309315 -0.341321 0.264228 0.978704 -0.375807 -0.215261 -1.04319 0.0888415 -0.681213 0.148986 -0.475561 -0.446682 -1.00302 -0.990644 -1.1794 0.0331805 0.616967 1.36544 -0.0264403 -0.677944 0.473244 0.876051 0.459725 0.544153 -0.945226 0.94 -0.593797 -0.402054 0.570602 -0.355124 0.179548 -0.352331 -0.234205 0.530199 0.00774115 -0.606163 0.565105 -0.820753 -0.89388 -1.21824 -0.0777134 -0.874772 -1.1772 -0.834164 0.586227 0.485068 -0.120259 -0.259642 0.153706 -0.226173 0.343732 -1.00073 -0.338004 -0.74 1.01962 0.632688 1.61617 0.000839073 -1.00821 0.505344 -0.52619 -0.295512 0.275145 -0.421827 -0.129066 -0.46451 -0.428148 0.599779 0.676295 -0.546548 -0.630462 -1.29695 0.0698597 0.832892 0.222352 0.014225 0.257581 -0.0213745 -0.0593962 -0.739994 0.39 0.02 -0.614198 -0.361119 0.596296 0.579094 -0.747098 0.323324 0.100754 -0.116637 -1.01175 -0.770829 0.0379977 -0.282374 0.667642 -0.850227 -0.809827 -0.80044 -0.951377 -1.67882 -0.368426 1.6929 -0.783253 -0.137605 -0.294731 1.64078 1.50951 1.13268 -0.51 0.6 -0.838564 0.872946 1.70359 0.568804 0.899879 1.53151 1.09408 0.407443 -1.09073 -0.115496 0.544979 -0.55061 0.332741 -0.772432 0.197895 -0.221093 -1.50061 -2.11746 -0.546325 0.629277 1.01218 0.68778 0.0571476 0.302864 0.433235 0.778894 0.760027 -0.58 0.822472 0.70969 1.03116 0.764781 1.80255 1.58668 -0.3881 1.03007 0.246535 0.672665 0.397582 0.281376 -1.53482 0.523403 0.586133 -0.0410122 -1.23235 -0.629984 0.229215 1.27638 1.04482 0.260029 -0.01033 1.33082 0.753243 -0.407428 0.7 -0.792735 -0.220143 0.0755727 0.675431 0.428152 1.64247 2.45262 1.29343 0.164681 1.00023 1.48436 1.85459 1.11338 -0.0614549 -0.574399 -0.325178 -0.131177 -1.34397 -1.5679 1.13273 1.54608 0.0137762 -0.445372 -0.463839 0.888706 0.181433 0.795053 -0.574065 -0.519757 0.1101 0.543975 1.11802 1.04219 1.28591 1.23715 0.631484 1.38211 0.142228 0.0655095 0.168422 0.157889 0.381725 0.199503 0.430723 -0.710068 -0.541642 -1.45285 -0.730526 1.46164 0.574097 -0.448782 0.582199 0.57158 0.208575 -0.351142 -0.642605 -0.262896 0.23267 1.18592 -0.01535 1.27443 -0.484325 0.219427 0.795138 0.809776 1.17751 1.70988 0.451816 0.456329 -0.825192 0.750597 -0.729894 -0.243879 -0.869617 -1.72746 0.238103 0.55965 1.06792 -0.00797308 0.201671 0.152536 0.135104 -0.378385 -0.600048 0.895707 0.856059 -0.199035 -0.780747 0.611389 0.207714 0.595432 0.592922 -0.0455711 0.68381 0.299893 1.08287 0.840689 -0.765098 0.164945 1.00824 -0.445223 -0.874226 -0.857489 0.866767 0.912198 0.547928 0.189382 -0.0662114 0.433669 -0.101521 -0.280009 -0.17 -0.623046 0.0966856 -0.675534 -0.7202 0.799746 -0.13228 0.00425531 0.90929 1.0156 0.437081 1.31543 0.187115 0.253729 0.317614 0.193655 -0.658054 -1.77745 -2.23675 0.109964 -0.543528 1.74827 0.956583 -0.853665 0.268617 -0.0649739 1.03011 -0.165268 -0.79 -0.65 -0.912091 0.122412 0.121709 0.296055 0.389058 -0.03679 0.671134 0.295468 -0.155584 1.14614 0.461593 0.883476 0.828542 -0.654173 -0.192809 -1.2896 -0.319253 -0.235949 0.363207 0.572537 0.631858 0.374992 -0.910988 -0.188805 0.263675 -0.209903 -0.56 0.27 0.411063 0.332192 -0.301659 -0.561637 0.0917628 0.956509 -0.261745 -0.329112 0.20704 1.52072 2.1387 1.56987 0.0385445 -1.00942 -0.820448 -1.6633 -1.30895 -0.19444 0.22073 1.03701 -0.0922684 -0.560905 0.587576 0.971486 -0.0137573 -0.183299 0.28 -0.490964 0.725158 -0.718524 0.26561 -0.448155 0.294316 1.13893 -0.265978 0.0920464 -0.218698 2.22835 1.03448 0.999606 -1.30057 -0.826171 -0.689207 -1.7731 -0.715391 -1.18792 0.86236 1.48706 0.408565 0.769767 -0.0657093 0.108184 -0.0628489 -0.354425 0.35 0.855046 0.557173 -0.564688 0.30846 -0.289578 0.0504215 0.653712 -0.550213 1.07274 0.73412 1.397 1.57365 0.921949 -1.55667 -0.931858 -0.696905 -1.56653 -0.785498 -1.02492 0.590382 1.07511 1.04333 0.353167 0.671745 0.85302 0.153376 0.0380274 0.62 -0.150001 0.587454 -0.527686 0.443321 0.61606 -0.519249 0.869506 0.936363 -0.378807 0.0488507 2.45454 1.39131 0.542413 -0.566176 -1.31252 -0.88132 0.0690044 -1.192 -0.0324222 0.694564 2.11387 0.512108 0.916387 1.13208 0.490603 0.67695 -0.723343 0.18 0.419997 -0.0321874 0.478427 0.479364 -0.551474 -0.563528 0.370622 -0.195491 0.797499 0.559596 1.80047 0.0726519 0.169979 -0.657568 -0.210125 -0.807851 -2.1286 -1.45574 -1.02198 1.18602 0.631094 0.739832 1.41339 0.526886 0.989786 0.242053 0.361993 0.18 -0.110002 0.624767 0.739614 -0.822452 0.777009 0.455537 -0.453361 1.0078 -0.406671 -0.411244 0.0735083 0.792083 1.02338 0.722396 -0.824005 -0.363567 -0.433914 -0.614131 0.619751 0.389453 -0.468317 -0.783806 -0.0489574 -0.609567 -0.842321 1.0408 0.844695 -0.51 0.06 0.691882 -0.200004 -0.809735 0.233475 0.807846 -0.526743 -0.559107 0.712584 0.893916 -0.509821 0.456888 0.790542 0.538794 -0.805746 0.555403 0.408161 -0.340632 0.0533699 0.416979 0.620106 0.573829 0.619877 0.933895 0.0283411 0.821882 -0.0789951 0.74 0.73 -0.61 0.96 -0.689939 0.976627 0.957232 -0.650018 -0.485005 -0.0151968 -0.2791 0.23 -0.5 -0.17 -0.1 0.47 0.9 0.26 0.88 0.28 -0.77 0.92 -0.350238 -0.389997 -0.65 -0.01 -0.62 0.44 0.46 
0.864032 -0.3 -0.63 -0.36 0.95 0.385413 -0.613643 0.484407 0.563004 0.116391 -0.10723 -0.0299386 0.750128 -0.16 -0.439971 0.840002 -0.279997 0.760632 -0.503778 -0.864151 0.710099 -0.639991 -0.0699716 0.83 0.28 0.14 -0.34 -0.4 0.84 -0.2 -0.0299971 0.990027 0.909982 -0.529672 -0.891351 0.795608 -0.394239 -0.673528 -0.383107 -0.454385 0.221843 0.454404 -0.114457 0.423998 0.653618 -0.66673 0.0124274 -0.676797 0.0510612 -0.869999 -0.850565 -0.39792 0.589474 0.310212 -0.317958 -0.19014 -0.0300016 -0.42 0.360434 0.043661 0.591636 -0.408254 0.0623252 -0.341133 0.853549 0.937823 -0.858942 0.0843289 0.567801 0.440236 -0.687747 -0.400826 0.382324 0.353617 -0.855503 -0.163094 0.89797 -0.263113 0.553931 -0.376977 0.317689 0.899343 -0.961419 0.615628 0.0196722 0.36 0.271855 -0.637856 0.791055 0.461121 0.116546 0.56528 -0.836964 0.462989 -0.70818 0.0546491 -0.232026 -0.442867 0.612689 -0.320442 0.875003 -0.616922 0.731824 0.877556 -0.565224 -0.70448 0.474997 0.0733077 1.00152 -0.820521 -0.240119 0.395143 0.739798 0.84 0.402418 0.038171 0.897267 -0.789964 0.375208 -0.7741 0.813234 -0.444818 0.217877 -0.26108 0.842835 -0.772225 0.978755 -0.308181 -0.678384 0.895428 -0.310927 0.753994 1.20275 -0.47356 0.336015 0.447276 0.54762 0.606515 0.711165 -0.908626 0.0500246 0.36 -0.037578 -0.954169 0.711363 1.00446 1.13829 -0.705918 -0.730125 0.600779 0.923964 0.445696 -0.643098 0.883802 0.90776 -0.840217 -0.30009 -0.103063 -0.424657 -0.493123 -0.6793 -0.439986 0.661617 0.214213 -0.311082 0.822685 -0.197485 0.89097 -0.349999 -0.21 0.53328 -0.162855 -0.335833 0.573646 0.273168 0.82106 -0.669123 1.03856 -0.279487 -0.639486 -0.729286 -0.537781 0.117192 -0.789416 1.14841 -0.109961 -0.289245 -0.74826 -0.365591 -0.162729 -0.590649 0.760516 -0.829267 0.0263061 -0.519904 0.34807 -0.48 0.08 -0.256679 -0.355131 0.494567 0.942256 -0.274279 0.364092 -0.23008 0.119805 0.0554112 -0.569142 0.944461 -0.374461 -0.205673 0.823584 -0.664261 0.332887 0.00899872 0.496242 0.776787 0.4313 0.665109 -0.083992 -0.235755 -0.0649698 -0.519615 -0.0408718 0.3 -0.18 0.53323 0.261067 -0.482228 0.591548 -0.586161 0.742711 -0.916633 0.0930598 1.07591 0.379561 -0.0603527 0.565701 -0.21308 0.6964 0.196375 -0.62152 -0.329386 -0.156207 -0.587547 -0.404357 -0.819898 -0.777053 0.558696 0.598865 -0.624942 0.550981 -0.170001 -0.55 -0.193131 -0.368275 0.703836 -0.514963 0.91583 0.803514 0.850354 -0.140365 0.0757266 0.733553 -0.211943 0.24303 0.165375 -0.451225 0.129179 0.841915 1.2445 0.184581 0.616399 0.425935 0.290634 -0.306057 0.818497 -0.703566 -0.15849 0.188191 0.99 -0.64 -0.248479 1.00386 -0.857192 -0.53462 0.9901 -0.775174 0.750289 0.883227 1.1427 -0.207437 -0.19997 0.799043 1.01189 -0.430458 0.984001 0.323349 0.0943875 -0.632511 -0.11023 0.935566 0.701846 0.481282 0.341538 -0.353224 0.919207 0.606376 0.41 0.75 -0.678547 -0.630502 -0.102736 0.0952984 -0.635306 -0.0844064 -0.158066 1.07503 0.642212 0.683592 -0.459102 1.01585 0.638375 0.049653 0.442304 1.08207 -0.13398 0.985526 1.13618 -0.559084 0.712526 0.936886 -0.327573 1.15745 0.744903 -0.693978 0.53 -0.01 0.532703 -0.766466 -0.383251 0.810074 -0.586351 -0.742856 -0.659859 0.205126 0.21113 0.0352276 -0.166266 1.00376 0.91378 0.380228 -0.697341 1.26953 -0.370912 -0.318857 -0.278198 -0.164921 -0.731473 0.523614 1.21878 1.0825 -0.801402 -0.623889 0.08 -0.98 -0.0541453 0.545579 -0.0357225 -0.767355 1.06291 -0.475268 0.38113 0.569199 0.206317 0.521493 0.908499 0.766855 -0.597085 -0.209896 0.897698 0.444416 0.778534 -0.370467 0.36361 0.584499 0.191818 0.00516164 -0.246686 0.290149 0.916328 -0.492106 -0.8 -0.43 0.884629 -0.741385 0.718541 -0.81164 -0.377898 0.631445 -0.876335 -0.231677 -0.0910928 -0.396702 -0.178564 -0.383874 1.26981 0.978937 1.12414 -0.273327 -0.35433 1.02587 -0.661463 -0.236597 0.817825 -0.187042 -0.735019 -0.353742 -0.324125 0.107368 0.19 -0.45 0.202213 0.341289 -0.246956 0.976665 -0.748302 -0.761752 -0.129793 0.608395 0.61582 0.845693 0.881636 0.177725 0.542537 0.706207 -0.191882 -0.130007 -0.461839 1.07733 0.467873 0.456123 0.33369 0.377806 -0.583731 0.553455 -0.657947 0.625838 -0.0499999 -0.530001 0.587307 0.939585 -0.58666 -0.209766 -0.307747 0.855524 0.198523 -0.330764 -0.186466 -0.70692 0.61362 0.337547 0.461911 -0.68274 0.274962 -0.209195 0.45039 -0.0802254 0.781959 0.641956 0.879842 0.607388 -0.442943 1.13738 -0.904261 0.366285 0.38 0.290299 -0.970478 0.0391961 -0.0417142 0.289883 0.186484 0.281393 -0.109427 0.632599 0.0241687 -0.38512 0.657062 0.58278 0.26807 0.841869 -0.12117 -0.637451 -0.0222085 -0.701514 0.582925 0.329126 -0.767953 0.52796 0.613337 -0.2931 0.632449 0.823005 -0.49 0.380008 0.54307 -0.874644 -0.258326 0.0492755 -0.185154 0.738842 0.336241 0.449622 -0.314918 0.516982 0.3999 0.111224 0.854972 0.240402 0.658821 -0.202524 1.00702 1.11625 -0.30596 -0.140358 1.00186 -0.234264 0.847225 0.595833 -0.648021 -0.756852 0.74 0.43 0.637096 -0.840892 -0.279664 -0.791364 -0.31098 0.407962 -0.419625 -0.0977975 0.0177266 -0.5799 -0.494457 -0.73051 0.605054 -0.679724 0.926655 -0.57711 0.414986 0.283484 1.01779 -0.0688542 -0.158264 1.18347 -0.440191 -0.76988 -0.0966808 -0.607593 0.15 -0.79 -1.01678 -0.658169 0.227398 -0.39245 0.183147 -0.636908 -0.336553 -0.446515 -0.548607 0.412059 0.202445 -0.0840452 0.464781 -0.583673 -0.557714 0.978167 1.04046 -0.762763 -0.354049 0.861927 0.637396 -0.115926 0.114397 -0.408795 0.392484 -0.232213 -0.1 0.5 -0.320918 -0.454146 -0.817616 -0.298666 0.0589305 -0.917446 -0.305077 0.363431 -0.500658 0.484416 0.192692 0.298451 1.07902 -0.538447 0.552834 0.948065 0.994986 1.0959 -0.618476 0.701163 0.128736 0.93436 0.588336 -0.0679477 0.314963 0.560955 0.42 -0.229999 0.115611 -0.316962 -0.55394 1.00021 -0.411891 0.411808 -0.445474 0.386547 -0.235858 0.837193 0.328389 0.290719 -0.0717336 -0.447074 0.533497 -0.554461 0.50327 -0.0450145 0.143508 -0.175517 1.04782 0.212072 0.759113 0.306441 0.249254 0.341702 0.46 -0.670198 0.431823 -0.543841 -0.472192 -0.0739324 -0.848415 0.560325 -0.903447 0.301545 -0.562863 -0.333555 -0.467608 -0.532806 0.288926 0.359482 0.435582 1.15875 -0.216301 0.590017 -0.392033 -0.484227 -0.0441822 0.398293 -0.807457 0.481448 0.426422 -0.407108 0.81 0.559648 -0.952761 -0.329508 0.0888521 0.629765 -0.710046 0.994421 -0.898345 -0.586621 0.924845 -0.568641 -0.808627 -0.320186 0.360978 0.698549 -0.23022 -0.183807 0.0200324 1.08671 -0.323052 0.479133 -0.480945 -0.650341 0.5974 0.109477 0.509649 -0.739249 -0.17 0.979794 -0.416794 0.889465 -0.838858 -0.511918 0.410679 0.604369 0.955016 -0.26691 1.00683 -0.329079 1.05367 -0.67764 -0.813145 0.553741 0.900972 -0.296509 0.0727994 0.373841 -0.839086 0.480347 -0.694441 -0.228444 0.759197 -0.583331 0.349478 -0.929244 0.04 0.0699984 0.258944 -0.687848 0.276403 -0.286582 0.791906 0.195311 0.0599206 -0.15525 0.444265 0.789574 0.721428 0.501704 -0.736655 0.972443 -0.806726 -0.624751 -0.492612 -0.0214554 0.579606 -0.522722 -0.723718 0.357081 -0.888428 0.631425 -0.609938 0.0799977 -0.94 -0.46 -0.15 0 0.58 0.750002 -0.129999 0.71 -0.849784 0.0201805 0.170075 0.540001 0.96 0.59 -0.269986 -0.849986 -0.269998 0.65 -0.61 -0.04 0.83 0.94 -0.959989 -0.24 -0.73 -0.7 -0.99 -0.26 -0.58 
-2.71748 0.26 -0.56 -0.84 -0.75 -0.57929 0.149182 -0.623029 -0.991876 0.892401 -0.559284 0.294218 -0.941345 0.740013 -0.0317419 0.010201 0.930271 -0.80568 -0.846573 -0.404201 0.884365 0.716055 -1.02167 -0.400632 0.679953 0.419977 -0.09 -0.02 0.49 -0.78 0.140024 0.0908806 -0.0762502 -0.624601 0.788963 -0.604068 -0.988658 0.878519 0.424888 0.798673 0.532734 -0.758581 0.961256 -0.279175 0.00332382 -0.0246902 -0.390277 -0.120819 -0.776203 0.776807 1.02731 0.214662 -0.0257467 -0.00348896 0.959657 -0.61168 -0.91 -0.37 -0.858049 -0.361333 0.851323 0.632851 0.540925 0.203041 -0.0117179 1.09966 0.935513 -0.293884 0.739537 0.191999 0.221885 0.593876 -1.16752 0.336112 0.143341 0.44502 0.479084 1.38706 1.43841 0.402048 0.0768267 -0.592639 -0.961603 -1.02936 -0.79 -0.15 -0.465923 0.0423784 0.522849 -0.358204 1.15624 0.212454 0.858636 1.20903 1.17372 -0.40568 0.182669 -0.169692 -0.663028 -0.17842 0.193323 -0.855423 0.930982 0.141254 -0.623739 -0.415598 0.214775 -0.578107 -1.19907 -1.56993 -0.405306 0.056187 0.800005 -0.14 -0.768724 0.670694 0.423691 0.202909 -0.529667 0.465189 -0.0514732 -0.158954 -1.18295 0.185908 -0.0012356 -1.13133 0.697376 0.106015 -0.494458 1.01061 0.447801 -0.876862 -0.414483 -1.11208 0.353107 -0.0444534 0.384721 -0.240526 0.774997 -0.625592 0.600003 0.33 -0.489162 -0.149853 0.954783 0.6472 0.43382 -0.445524 -0.123188 -0.547913 -0.388452 -1.33662 -0.161434 -0.319068 1.06795 0.614787 -0.23633 -0.0823016 -0.737733 0.142643 -0.93774 0.457778 0.91179 0.257516 1.56446 0.133198 0.528677 0.86219 0.909564 -0.3 0.811558 0.0173564 0.564621 -0.555732 -1.13965 -0.0856449 0.459336 0.153676 0.0792596 -1.11103 0.0728861 1.18948 0.220259 -0.505026 0.563114 -0.902619 -1.07546 -0.180383 0.2261 0.360743 -0.648162 0.425852 -0.698188 -0.0751384 -0.0176692 -0.556041 -0.81 -0.34 0.696157 0.695829 -0.457903 -0.084996 -0.944165 -0.431281 0.262695 -0.746862 -0.205399 -0.685649 -0.81238 0.105301 0.0109305 0.317306 -0.0853927 0.039872 0.568875 -1.11928 -0.231333 0.0597789 0.0572942 -0.487709 -0.272254 0.533863 -0.136432 1.02131 0.54 0.89 -0.573775 -1.16303 0.550488 -0.65264 -1.18484 -1.23482 -0.901274 0.36758 -1.01361 -1.72869 -0.295882 0.508176 -0.631285 0.396753 -0.418153 0.251802 1.11632 0.650069 -0.0283885 0.597284 1.00616 0.199732 0.0835361 -0.869225 0.638716 -0.903618 -0.161002 -0.63 -0.134088 0.0798071 -1.01559 -0.526864 0.143591 -0.239126 -0.273504 0.219256 -1.45862 -0.95376 -0.495164 -0.441219 0.871079 0.407006 0.195767 0.311214 -0.226211 -0.374034 -0.132175 0.688136 0.433524 -0.949632 0.530813 -0.214848 0.0843729 0.621546 -0.650258 -0.89 0.327352 0.389376 0.608935 -0.953549 -0.404823 0.200795 -0.684928 -0.570159 -0.6923 -0.995194 -1.14823 -0.248476 0.995539 0.0914935 -0.10668 0.0684376 0.202797 0.849184 0.105007 0.371154 1.11671 0.689687 -0.526895 0.694416 0.621956 0.9759 0.96 0.7 0.732008 -0.332537 -0.576162 -1.09298 -0.383073 0.0147067 -0.210015 -1.03592 -0.763859 -1.35749 0.586485 0.312272 -0.0858417 -0.0767801 1.58669 0.755814 0.841495 0.491137 0.119851 0.254569 0.821929 0.586811 -0.972228 0.663768 0.0629978 0.167763 0.98 -0.47 -0.594015 -0.110189 0.177191 -0.209793 -1.20644 -0.865892 0.333777 -0.388401 -0.481027 -1.12832 0.144221 0.0831075 0.129919 -0.533253 1.5518 -0.0703643 0.927419 -0.32393 0.601932 0.216946 0.16724 -0.562633 -0.130009 0.37013 1.40039 0.134908 0.600038 -0.8 0.870625 0.854033 -1.13614 -0.24817 -0.41957 -0.0130049 -0.0594955 -1.25262 0.144214 -0.494155 -0.98033 -0.450531 0.637216 0.722144 0.938497 -0.0766016 0.776601 0.288051 1.04874 -0.00757982 0.502606 -0.931123 0.760613 -0.421113 1.71618 -0.475542 -0.84 0.389997 0.92695 0.106717 -0.494589 -1.90944 -0.701563 0.479138 -0.203375 0.0560686 -0.969843 -0.644378 -0.0599265 -0.0655602 0.976451 0.268649 0.0293954 0.830428 0.866554 -0.0739534 0.633871 -0.161602 -0.159148 0.379683 -0.0266558 0.53266 0.980125 -0.77247 -0.170013 0.45969 -0.811186 0.0633794 0.0259093 -0.718639 -1.04355 0.543831 -0.546336 0.0984741 -1.39413 -0.911074 -0.0323276 0.627702 1.18994 0.82142 -0.335686 1.17981 0.425349 -0.727044 -0.799096 -0.0980081 -0.00120601 0.895359 0.332117 -0.0647353 -0.242687 0.432554 -0.410002 0.198914 -0.986216 0.202236 -0.524559 -0.816103 -1.22726 0.168495 -0.538192 -0.854127 -1.09349 1.10233 0.244704 0.436196 0.0637653 -0.0961759 -0.495971 -0.121198 -0.039691 -0.152469 0.928853 0.0802775 0.754118 0.909545 0.479503 0.144933 0.505771 -0.932865 -0.839999 -0.97042 -0.0228645 0.0221473 -1.33408 -0.704788 -1.15237 -0.187449 -0.620514 -1.15601 -1.38133 -0.798984 -0.994716 0.27249 -0.153411 -0.198701 -0.4838 0.139171 0.415039 0.119589 -0.351329 -0.0164169 -0.785381 -0.683522 0.355792 0.29616 1.25697 -0.119654 0.400003 -0.800076 0.480931 -0.356709 -0.990754 -0.495143 0.352612 -1.12372 -0.758437 -0.894552 -0.978834 -1.15062 -1.38459 0.000110941 -0.683266 0.622798 0.948919 0.475087 0.512293 0.0309002 0.68751 0.5735 1.2587 -0.018265 0.395042 -0.342687 0.372352 -0.196586 0.25 -0.11 0.0278109 0.105882 -1.24352 0.124015 -0.0976309 -0.41725 -1.25657 -1.53496 -2.53065 -0.630551 -0.107259 1.30248 1.50036 0.0446054 1.03081 -0.22238 0.0961941 0.449906 1.41818 -0.637161 -0.54056 -0.387903 -0.0209289 0.98045 0.481126 0.575872 0.52 -0.92 0.361604 -0.444914 -1.53012 -1.42766 -0.353924 -1.18524 -2.44428 -2.2346 -2.04459 -0.353007 0.755127 -0.342744 0.94065 1.30282 0.0457401 -0.0107417 -0.448499 -0.167232 0.00389231 0.234777 1.18325 -0.00414858 0.203722 0.819154 -0.431937 -0.347004 -0.56 0.789915 -0.58869 -0.0431998 -1.65835 0.012448 -0.896823 -2.22777 -1.01198 -0.903627 0.761385 0.235907 1.30782 -0.0892006 0.451251 0.276923 0.865145 0.470722 -0.0807124 0.466355 0.876391 -0.430979 1.02368 -0.175321 -0.799869 0.139631 -0.0867089 -0.850488 0.03 -0.260436 0.766648 -0.438167 0.986252 -0.069097 -0.766123 -0.906838 -0.23133 -0.740436 1.10435 0.67498 1.27455 -0.113123 1.25181 0.160831 0.183558 0.0589295 -0.43376 -0.730207 0.115516 0.820698 -0.639596 -0.643848 0.285143 -0.808577 0.109555 -0.0883879 -0.06 -1.44669e-07 0.0108601 -0.725089 -0.489102 -0.79413 0.333592 -1.16011 0.372499 -0.890201 -0.61222 -0.396125 -0.376829 0.817524 -0.132418 0.713953 0.687103 -0.0730439 -0.267885 -0.616227 -0.530788 -0.386586 -0.9561 -0.358947 -0.756656 0.338507 -0.667145 0.656772 -0.28 0.0499997 -0.841775 -0.483366 -0.7258 -0.455366 -1.50046 -0.71502 -0.491046 -0.615755 0.404836 0.319985 1.49497 0.560801 1.093 -0.0913194 0.848551 0.745575 -0.889671 0.579565 -0.404962 0.414118 0.259151 -0.33964 -1.2388 -0.0168025 -0.0666449 0.770295 -0.48 -0.56 -0.510704 1.01157 -0.779701 0.61904 -0.691972 0.884537 -0.265842 -0.398613 0.600439 -0.130091 0.857738 -0.07857 -0.137945 0.737218 -0.612947 -0.273083 0.985517 -0.381436 0.166031 -0.978537 -0.223846 -0.542435 -0.813792 -1.23105 0.901801 -0.127406 -0.64 0.84 0.578833 -0.516907 -0.465069 0.354407 0.186166 0.270328 -0.468509 -0.0827459 -0.433332 -0.069886 -0.349683 -0.782401 -0.0496672 0.623439 -0.0140461 1.03896 0.246166 0.824019 0.496024 0.267657 0.759576 0.268009 0.944329 0.0177071 0.123849 -0.368766 0.52 0.51 0.3 -0.6 0.370336 0.0802515 0.130009 0.170024 0.280154 0.192454 0.39395 -0.449812 0.7 0.48115 -0.467036 -0.496964 -0.695813 0.733451 -0.660077 0.9 -0.66 0.71 -0.740456 0.29 -0.62 -0.03 0.44 0.94 0.33 
-3.55842 -0.3 -0.37 -0.84 -0.129755 0.298909 0.371349 -0.15736 -0.0754681 0.950537 0.505761 0.0598112 0.648831 0.610277 -0.259695 0.00399693 -0.350641 -0.218766 0.577759 -0.51029 -0.250004 0.350096 0.869239 -0.59 0.83 0.15 -0.03 0.72 -0.34 0.04 0.6 0.729948 0.601075 0.648921 0.339179 -1.22121 -0.0330823 -0.121196 -0.447832 0.0593042 0.697032 -0.248517 0.789513 0.221714 0.598823 0.147863 -0.0372237 0.912214 -0.515241 0.626231 -0.727362 -0.573699 -0.859076 0.300265 -0.294455 -0.298164 -0.649808 0.36 0.930125 0.965757 0.987795 -0.41144 0.825189 -0.315764 -0.283488 0.115555 0.65272 0.905968 -0.322332 -0.820282 -0.647259 0.0818603 -0.553158 0.776563 0.293903 1.37216 1.5878 1.03974 -0.236901 -0.284447 -0.10691 0.671269 0.612096 -0.0315558 0.0487881 0.22 0.252733 0.565782 -0.29961 -0.136702 1.33511 -0.0337208 1.22648 -0.158264 -0.311695 -0.255419 0.948976 0.8466 0.160543 0.767029 -0.341003 0.355231 1.32964 1.34933 1.06053 1.12077 0.808506 1.08431 -0.438821 -0.117303 -0.394255 -0.389379 -0.929597 -0.82 0.175778 -0.323616 -0.133423 0.595979 1.17293 -0.154997 0.179177 0.703817 0.561674 0.490902 -0.0565109 -0.287277 0.666381 0.286866 1.05974 0.464355 1.01456 0.802332 0.490938 0.780885 -0.256461 0.385577 0.686662 -1.05831 0.795935 0.254562 0.697418 0.54 -0.0460691 -0.187238 0.6917 0.813421 1.32792 0.952862 0.603979 1.6947 -0.173072 -0.337868 0.0420513 1.15748 -0.642041 1.10871 0.784627 0.981789 1.26637 -0.267429 0.837183 0.0742763 -0.0578417 -0.899737 0.0366927 -0.187544 0.212444 0.896157 -0.500028 -0.39 0.497833 1.01313 -0.0865331 1.51454 1.62805 1.78412 0.164885 1.37929 1.53433 -0.358751 0.564463 1.08059 -0.423459 0.105173 0.642223 0.0518101 -0.716412 0.519669 0.116257 0.35755 -0.393346 -0.649608 -0.2315 0.127072 -0.827027 0.82474 -0.12 0.63 0.615186 0.270391 1.26082 0.992648 1.11775 0.100479 0.857634 1.93179 0.620252 1.36352 0.920268 -0.142961 1.60756 0.182461 0.585067 0.562153 0.167918 -0.0392405 -0.513649 0.951746 -0.191749 -0.332942 0.366156 -0.776821 0.414388 0.495883 0.21 -0.28 -0.265435 -0.214343 0.946138 1.53735 1.51086 1.23561 1.67436 0.395265 0.674815 2.11917 1.76971 1.82551 1.59558 0.879544 0.118011 -0.598636 -0.737013 0.193093 0.678134 0.345024 0.343957 -0.265329 0.253892 0.677696 0.229915 -0.650695 -0.0174706 -0.24 -0.325796 -0.0850587 0.304372 0.125052 -0.400167 1.49034 0.448168 1.51453 2.05342 0.596319 2.01776 2.28604 0.803516 1.15408 0.102837 1.00858 0.540841 -0.311768 -0.469061 0.179595 0.192453 0.18252 -0.22186 -0.299452 1.75506 0.370652 -0.13587 -0.25 -0.198493 0.202426 1.27483 -0.284532 -0.877894 0.271407 0.429055 0.301482 0.82265 0.0157031 0.144914 -0.517209 -0.720164 0.183397 -0.153492 -0.0673444 -0.581169 -0.03491 -0.476763 -0.48586 0.162921 -1.07508 1.02481 0.19078 0.716423 0.421662 0.69 -0.26 0.681274 0.630902 -0.56294 -0.182489 0.80401 -0.526668 -0.359113 0.0649051 0.389179 -0.343518 -0.161424 -0.0946884 -0.287419 -0.574972 0.55949 0.654167 0.941848 -0.373717 0.404546 0.0580349 -0.406992 0.505667 -0.339859 -0.337884 1.24182 0.462278 -0.43 -0.85 0.543904 -0.158119 0.374318 -0.467549 -0.592245 -0.0206186 0.0321229 0.458293 -0.398553 1.15557 0.712371 -0.673658 0.428268 0.064925 -0.588163 -0.11253 -0.397795 -0.348396 -1.09833 0.270888 0.360167 -0.979904 0.2299 0.225673 1.64488 0.608183 -0.64 0.85 -0.728251 0.501463 0.545074 0.436448 -0.819868 0.275863 -0.165446 -0.0846868 0.535253 -0.397937 0.218067 0.0973903 -0.442226 0.39497 0.581409 0.312397 -0.368576 0.0791833 0.501997 -0.181188 -0.56378 0.422738 -0.950205 -0.229705 1.18095 0.515453 -0.07 0.930781 -0.252968 1.47655 -0.226652 -0.0453897 -0.0622788 -0.106695 -0.442264 -0.276885 0.0972373 0.00655234 -0.143758 -0.856783 0.443736 -0.169875 0.0718477 0.190569 -0.0649829 0.230854 0.627571 -0.654027 0.150946 -0.710647 -0.609745 0.26629 0.313429 -0.680234 0.224019 -0.658694 1.33839 0.490656 0.740765 0.0959999 0.498431 -0.838309 -0.167627 -1.38484 0.631576 0.0431793 0.440502 -0.15589 -0.532866 -0.297816 0.240723 0.240735 0.141346 0.345852 0.231516 0.742481 0.439596 0.35968 -0.204222 -0.145038 0.506443 -0.917417 0.0707442 -0.0845791 -0.438679 0.71754 0.749376 0.383812 0.292908 -0.21569 0.239864 -0.865529 -0.284657 -0.613558 0.148753 0.227018 0.375979 -0.361626 -0.745091 0.0711964 0.0589793 0.846526 0.495593 0.11298 0.181348 0.315502 -0.510421 0.195453 1.30247 -0.45799 0.539926 0.77314 -0.213108 1.20338 -0.634827 -0.42833 0.654039 0.249099 0.167198 -0.516662 0.156963 0.0663133 0.608751 0.248659 -0.81488 0.456579 -0.0914254 1.00882 1.39806 1.38397 -0.0526833 -0.931693 0.28181 0.384902 0.985609 0.0370997 0.685661 0.893463 0.559836 -0.158324 0.313438 0.965357 0.660731 0.640706 -0.178355 -0.387411 0.332493 -0.310942 -0.0208704 0.24352 0.262784 1.08934 0.61597 0.0182389 2.08225 0.816261 1.72821 0.86977 0.774319 0.0253043 -0.552988 0.679342 0.71487 -0.291464 -0.238429 0.15928 0.18 0.16 -0.327877 0.944861 -0.25302 -0.380409 0.68458 0.451667 -0.221856 -0.757282 0.135999 0.494093 -0.944933 0.526584 0.380581 0.648806 0.780817 1.21244 0.72167 -0.017292 0.378024 -0.999992 0.352805 -0.452968 -0.112803 0.226888 0.69967 -0.148128 -0.07 0.04 -0.264754 0.977313 1.39886 0.255363 0.1641 -0.292988 -0.271662 -0.433905 1.05701 -0.720024 -0.295912 0.88635 1.16629 1.61929 1.10289 1.39364 1.29801 0.837211 -0.342746 -0.357229 0.233692 -0.315906 -0.536173 -0.240609 0.820605 0.699151 0.96 0.0499946 -0.660957 0.257045 0.115023 1.55758 -0.410701 0.467094 -0.141169 0.171331 -0.0814296 -0.207086 0.872525 0.600742 0.909142 0.615193 0.0212884 -0.0959365 0.120273 -0.69942 -0.528001 -0.49372 0.79372 0.451777 -0.576426 -0.422237 0.370985 -0.653364 -0.97 -0.170028 0.430202 1.17623 -0.219232 0.573018 0.0283654 -0.934997 0.310804 -0.281595 0.122495 -0.021768 1.30554 0.512504 1.31098 0.333934 -0.199935 0.0436009 0.440527 0.633553 -0.701197 -1.27558 -0.637008 0.493844 0.79799 -0.822276 0.794363 -0.203229 0.9 -0.136574 -0.457343 1.24324 0.215589 -0.429744 0.937563 -0.301026 0.326731 0.323331 0.979348 0.923436 1.27661 -0.00875276 -0.545775 0.701211 0.44711 0.85416 -0.384075 0.807922 -0.197494 0.247066 -0.183071 0.0980691 0.650324 -0.68658 0.384894 -0.339541 -0.7 0.561668 -0.399501 0.977963 0.064566 0.0211926 0.335152 0.578736 1.60918 0.294328 0.810593 0.570506 0.0961994 0.463044 -0.631654 -0.525581 0.340254 -0.503992 0.149622 0.595889 -0.158035 0.695816 0.803141 1.11965 -0.651491 -0.782983 0.186701 0.576476 -0.22 -0.195613 0.215196 -0.497391 1.11429 0.141763 0.162054 1.55102 1.31768 1.19088 0.0351591 0.238307 -0.44812 0.894601 -0.613502 0.628506 -0.678236 -0.460667 0.459515 0.602033 0.114996 0.179686 -0.0285659 0.340456 0.313056 -0.096834 -0.95234 -0.112979 0.57 -0.819808 -0.0493289 -0.388185 -0.863529 0.12954 -0.160882 -0.380591 0.559419 -0.43756 0.658366 -0.434573 -0.904854 0.443458 -0.372521 1.06472 -0.15811 -0.595252 0.155913 -0.419136 -0.569696 0.663338 -0.0203437 -0.421143 0.629345 0.413712 0.211611 -0.889604 -0.2 -0.91 -0.7 0.84 0.990393 -0.599439 0.0703933 0.689601 0.240825 0.180011 -0.379994 0.0500008 0.2 0.19 -0.81 -0.64 0.73 0.82 -0.05 0.25 0.46 0.64 0.909748 0.44 -0.54 -0.53 0.56 0.74 0.67 
0.699804 0.13 0.6 -0.39 0.85 -0.460039 -1.00024 0.875255 -0.431178 0.12046 0.800536 -0.0593482 -0.289992 0.979999 -0.120002 -0.719758 0.790029 0.87001 0.0599463 -0.751209 -0.761986 -0.631186 0.307419 -0.53999 0.6 0.52 0.12 -0.02 -0.04 0.46 0.300001 0.230023 -0.390021 0.0496466 -0.21159 -0.202528 0.755224 -0.917802 0.423529 0.956997 0.673851 0.954136 -0.724662 -0.0840591 0.705178 0.545458 -0.798664 0.0624747 -0.982366 -0.976263 0.508187 -0.756288 0.522921 0.220925 0.071633 -0.650225 -0.420002 0.97 -0.290012 -0.797202 -0.34708 0.690473 0.233207 0.494224 0.906143 0.802461 0.846465 -0.798122 1.01191 0.0637774 -0.124252 0.675371 0.156902 0.558734 0.691571 0.292479 0.0452048 -0.93495 -0.73885 0.246784 0.38036 -0.504809 -0.0593614 0.391581 -0.900426 -0.75 0.421236 0.433854 -0.0756787 0.296943 -0.927308 0.447942 0.293911 8.36997e-05 -0.133925 0.646493 0.988878 -0.0884029 -0.0245724 -0.531724 -0.741833 -0.736523 -0.614355 -0.0754616 0.775521 0.326095 0.300327 0.930173 -0.46172 0.485937 0.501091 0.0748308 0.289556 -0.24 -0.788537 -0.0102243 -0.498682 0.365074 -0.333098 0.868315 0.686553 -0.331835 -0.373628 -0.634534 0.106867 0.210109 0.722193 0.838846 0.756139 -0.648392 -0.355355 -0.237 0.364792 -0.868227 -0.384047 0.826184 0.37885 0.463797 0.191392 -0.193389 0.309918 -0.65 -0.0679307 -0.649231 -0.585303 0.524811 0.716574 0.575789 0.104583 -0.0895657 -0.39398 -0.428876 0.041588 1.11189 -0.501844 0.814697 -0.400204 0.499473 0.764784 -0.673556 0.814298 -0.250663 -0.675456 -0.0220561 0.268291 -0.179178 -0.104816 -0.736982 -0.229219 0.93 -0.948385 0.549238 0.370442 0.30165 0.271741 0.483684 -0.199956 -0.639758 1.15297 1.01355 0.931766 0.452824 -0.348238 -0.478345 0.0147098 -0.275889 0.537237 1.04232 -0.302546 0.119745 -0.53773 -0.414523 -0.410145 0.0236794 -0.850188 -0.871148 0.47 -0.96 0.91613 -0.603239 -0.698941 0.326277 -0.292973 0.158006 -0.3791 -0.467297 0.399875 0.227853 -0.727278 -0.433877 0.174358 0.15466 -0.550078 0.662491 -0.393754 0.559421 0.232502 -0.190864 -0.264752 0.759043 0.900594 -0.452204 1.00831 -0.832953 -0.28 -0.83 -0.753898 0.0998431 0.0153871 0.0712317 0.242424 0.0820844 0.0577097 -0.628271 -0.312049 0.281803 1.11594 0.761807 0.907279 0.172867 0.0474688 0.485221 0.794679 0.0220614 0.651765 -0.823494 0.998112 1.02751 0.838307 -0.757081 0.915905 -0.0739885 0.27056 0.7 0.185089 -0.765106 0.912023 0.128341 -0.776421 0.046747 0.594624 -0.06257 0.0404581 0.628398 -0.502066 0.0848765 0.915339 0.535158 -0.206278 0.394915 -0.361194 0.929138 0.960858 -0.688043 -0.395605 -0.166419 0.699594 0.802912 0.156012 0.194675 -0.509916 -0.68 0.0360432 -0.391941 -1.07724 -0.309609 -0.0487142 0.745978 0.91988 -0.552009 0.373803 -0.269495 -0.471736 -0.340794 0.458904 -0.426051 0.94365 0.741801 0.182982 -0.283351 0.602952 0.0336942 0.650669 0.276943 1.16618 0.474087 0.0382034 0.36781 0.68 -0.87 -0.0654729 -1.14344 -0.571592 0.226512 0.506242 -0.0547232 0.920532 0.736778 -0.954504 0.499546 -0.311871 0.606158 0.0573219 -0.0988614 0.793887 -0.119323 -0.250666 0.0976169 0.142313 0.321404 0.138791 1.22432 -0.444467 0.0154919 0.230213 -0.435873 -0.87 -0.48 -0.619169 0.062057 -0.701727 -0.191863 0.46266 -0.531948 -0.136784 0.73495 0.0528318 -0.969582 -0.0157595 -0.449945 -0.574125 -0.65733 1.20492 0.196051 -0.653639 -0.572128 -0.490113 -0.294762 0.818698 -0.692149 -0.746782 0.942913 0.591248 -0.858001 0.529907 -0.88 -0.199478 -1.22632 -0.316642 0.445914 0.726422 -0.110289 1.02392 0.772557 -0.373802 -0.88841 0.699249 -0.0940067 0.786928 0.84187 0.0524679 -0.493354 1.25944 -0.54394 0.462023 0.805331 0.0135861 -0.805087 0.459444 -0.860184 0.372317 -0.913035 0.23 -0.919989 0.256617 -0.0960488 0.0906939 0.913839 0.704395 0.569714 0.389065 -0.958828 0.932614 0.704115 -0.211793 0.25121 0.890376 -0.503495 0.621102 0.14895 1.07318 0.514197 -0.246261 0.729596 0.387704 -0.223034 0.905217 -0.572969 0.509387 0.596564 -0.319944 0.450233 -0.923684 0.139634 -0.449541 -0.661017 0.407832 1.19513 -0.0548212 -0.401812 0.106668 -0.678996 -0.588482 0.48527 0.112081 0.542129 0.729719 0.188883 -0.728427 0.348984 0.721312 0.476046 0.554633 -0.708417 0.706121 -0.757011 0.471191 -0.690331 0.0200103 -0.569366 -0.530459 -0.747997 0.24844 1.01154 -0.103364 -0.106032 0.540339 -0.893855 -0.828634 0.841726 0.565482 1.10867 -0.108547 0.44557 0.405204 -0.003087 0.456521 0.149175 0.169948 0.12705 1.07048 0.633791 0.106453 0.911597 0.0874064 0.591281 -0.28 0.64021 0.677858 0.0696611 0.892357 0.238702 -0.0769355 0.547783 1.16864 0.604921 -0.935437 0.115802 -0.0979322 -0.0606645 -0.044287 -0.494052 -0.471686 0.71834 -0.120915 -0.585111 -0.245839 -1.03789e-05 -0.183644 0.508011 -0.469503 0.678604 0.341797 0.725904 -0.66 -0.38968 -0.00860401 0.873134 -0.623631 -0.181002 0.70349 0.181098 1.02302 0.804919 -0.223609 0.629874 0.571266 1.226 -0.499817 -0.460542 0.307474 -0.978152 0.368077 0.53854 -0.885266 -0.0375689 -0.591933 -0.527886 0.689785 -0.567388 -0.209993 0.552888 -0.46 -0.13 -0.615416 -0.792352 -0.442238 -0.492812 -0.530651 0.408422 -0.425124 0.511512 0.513369 -0.909004 0.226411 0.895777 -0.493554 0.113459 -0.00322489 -0.802238 -0.314219 0.360303 0.92821 0.75157 -0.1808 0.165376 0.843459 0.965197 -0.714075 -0.537052 0.11 0.26 -0.0133662 0.573462 0.18209 0.936699 -0.463797 0.815463 -0.257224 0.768573 0.47481 0.619219 -0.315234 -0.0803751 -0.122626 0.555605 0.37848 -0.737302 0.696456 -0.788165 0.522405 -0.226631 -0.214082 -0.0724706 -0.973888 0.360205 -0.299426 0.125532 -0.35 0.322099 -0.75913 0.47961 0.831752 -0.124872 -0.548342 -0.257321 -0.421435 0.757041 0.145452 -0.798896 -0.0562075 0.817259 -0.830709 0.0768569 0.367549 0.336616 0.151003 0.76925 0.0964277 -0.449928 0.324972 0.81549 0.773515 0.664498 -0.517374 0.117152 -0.41 0.230781 -0.639604 -0.297539 -0.106938 0.268968 -0.655356 -0.351502 0.77557 0.116677 0.867905 0.0475826 0.94654 0.597231 0.743864 -0.495045 -0.0899684 0.660917 0.37385 0.540155 0.968145 -0.409962 0.360382 0.813848 0.729166 -0.207047 0.87623 -0.376399 -0.93 -0.850257 -0.193023 -0.398211 -0.454497 0.0133397 0.169032 0.0678742 0.64795 0.695851 -0.0132179 0.560808 0.914674 0.643579 0.642005 -0.326073 0.921707 0.795693 -0.480874 -0.706109 0.312616 1.04096 -0.655263 -0.708438 -0.276133 -0.713271 1.00726 0.39043 0.75 0.539543 -0.00303296 0.397968 -0.179605 0.32396 0.214458 0.941844 -0.520891 0.218029 -0.687662 0.620619 -0.958255 -0.255582 0.744431 0.831801 -0.473557 -0.0980693 0.337149 0.103494 -0.408836 0.0906335 0.76215 -0.125493 0.16363 -0.340521 -0.945767 0.250349 0.64 -0.870268 -0.669815 0.0402893 -0.776936 0.142718 0.309351 -0.106204 -0.540615 0.775066 0.234501 -0.704599 -0.574977 0.140131 0.38933 0.25754 -0.471281 0.0136063 0.597855 -0.557298 0.669955 0.367067 -0.702561 -0.246425 -0.00880939 1.01759 0.651635 0.669884 -0.23 -0.720002 -0.31021 -0.829266 -0.548383 0.770707 -0.0162571 -0.562498 -0.746508 -0.537951 -0.819111 0.496385 0.324454 0.116701 -0.00578612 -0.876934 0.623327 -0.0484533 -0.283599 -0.457615 -0.783406 -0.697841 0.691725 0.110155 0.172716 -0.725597 -0.807582 -0.380002 -0.76 0.08 0.96 0.84 -0.6 -0.109998 -0.999997 -0.72 0.857007 -0.320019 0.840346 0.080081 -0.26 -0.97 0.739999 -0.650001 -0.260001 -0.52 0.689999 0.99 -0.36 -0.04 -0.0482665 -0.42 -0.41 -0.14 0.47 -0.18 0.65 
3.24922 -0.23 0.39 -0.36 0.389909 -0.660079 -0.439795 0.752517 -0.967408 -0.862515 0.850508 -0.711441 0.367607 0.798712 0.56938 -0.0455141 0.276368 0.388434 -1.00302 0.238636 0.761166 -0.43792 -0.843595 0.577442 -0.100024 -0.540012 -0.12 0.35 -0.17 0 0.380026 -0.789557 0.327862 -0.426264 -0.548697 -0.299094 -0.390245 -0.685928 0.613945 -0.685798 0.933363 -0.278138 -0.303607 -0.291045 -0.346444 0.248295 0.353802 -0.192012 -0.398023 0.718457 -0.31133 0.601565 -0.665628 0.727528 0.173168 0.718328 -0.49 -0.22 -0.678774 -0.573911 -0.455303 0.0674532 -1.00487 0.505027 -0.176206 0.0197658 -0.507319 0.961754 1.32513 -0.328127 0.499231 0.182366 -1.03112 -0.495609 0.626789 0.872964 0.0973248 1.00618 1.29693 1.35643 0.881463 0.0501817 0.668659 0.0837334 0.449958 0.43 0.135179 -0.635658 -1.01421 0.442964 -0.110789 -0.00901257 -0.992777 0.761415 0.335448 0.200219 0.673042 -0.215183 -1.23015 -0.722653 0.446484 0.614965 -0.869424 0.219797 0.86861 0.282951 0.161499 -0.172802 1.34366 0.0135966 -0.452013 -0.416269 -0.440972 0.34 -0.966703 0.476597 -0.615042 0.180838 -1.22378 -0.867635 -0.153266 0.386915 -0.922326 0.898852 -0.330108 0.625221 -0.964756 -0.0698421 0.721917 -0.387044 0.491368 -0.947227 0.450276 0.214218 0.585804 0.339081 1.007 0.172911 1.01075 -0.926073 -0.460588 0.97 0.386455 0.1666 -0.568969 -0.870724 0.347269 -1.35225 -0.475796 -1.7306 -0.588259 0.75225 1.08546 0.396616 0.0611064 0.649032 -0.394672 -0.825721 -0.338724 -0.239475 0.918266 -0.129014 0.907512 0.362433 0.582659 0.69678 -0.456822 -0.789029 -0.990023 -0.73 0.905147 -0.334677 -0.297042 -1.17526 0.158441 -0.279494 -0.461087 -0.466918 0.249546 -0.318995 0.901718 -0.0194506 0.546369 0.318011 -0.146255 -0.100041 0.598183 -0.150765 0.0767556 1.82965 1.13982 1.12269 1.78319 0.776181 0.595945 -0.810169 0.3 -0.09 0.908716 -1.07235 -0.259586 0.36736 -1.46337 -0.283517 -0.971496 -0.41298 0.6261 1.12819 0.338766 0.114183 0.507788 -0.899154 -0.7184 -0.545556 0.476887 0.545888 -0.139354 1.31704 0.624055 0.832517 0.227871 0.151937 -0.834274 -0.923165 0.77 -0.74 0.0382263 -1.1599 -0.269152 -0.228131 -0.258209 -0.15334 -2.1679 -0.472676 0.209742 0.213685 0.427871 -0.0268532 -0.129548 -0.707044 -0.965823 -0.0506736 -0.388698 0.598135 -0.393159 0.707256 1.01933 1.33852 1.0801 0.389108 -0.704173 0.260546 -0.397621 0.97 -0.0469003 -1.11061 -1.17518 -1.11328 -1.38957 -0.542404 -0.557235 -1.1756 1.27136 0.88237 0.116908 -0.63815 -0.0745758 -0.559637 0.278413 -1.19356 -0.681336 -0.265324 -1.07778 1.24481 1.86312 1.11896 2.19046 0.409767 -0.71471 -1.06833 -0.313185 -0.16 -0.643078 -0.381694 -1.69321 -0.991332 0.528283 -0.838345 -0.476919 -0.911164 -0.615937 -0.19391 0.485889 0.474944 -1.17604 -0.0937487 -0.78546 1.01664 -1.25647 -1.05934 -0.0502617 1.11529 1.61165 1.21636 1.35113 0.0384147 0.0138682 -0.212553 0.1 -0.3 0.127505 -0.993223 -0.0653282 -1.22013 -0.803447 -0.100646 -0.213048 0.200706 0.474414 -0.211222 0.319069 0.25641 -0.287485 0.0388164 0.533122 -0.656921 -0.0568441 0.194721 -0.446276 0.0120711 -0.029377 1.47599 1.00114 0.76139 -0.342588 0.70667 -0.89 -0.22 0.841718 -0.37399 -0.661326 -0.945448 0.259456 -0.551616 -0.699971 0.267851 0.311136 0.568916 -0.469853 -0.329778 0.720244 0.320894 0.302727 -0.30328 -0.0739273 -0.677833 1.45619 -0.0407543 -0.0940157 1.74016 1.10988 0.723408 -0.815554 -0.601283 -0.309798 0.83 -0.276803 -1.251 -1.32652 -0.523178 -0.0211898 -0.775358 -1.11578 -0.210104 -1.40543 -0.294774 0.777711 0.593067 -0.0804469 0.409878 -0.088806 -0.987376 0.00216619 0.462588 -0.0651914 0.710294 0.269601 0.113866 1.05679 0.299297 -0.239223 -0.52455 -0.92 0.388613 -0.399958 -1.7152 -0.379994 0.976915 -0.956183 0.146166 -0.547391 -0.235981 0.186576 1.22325 0.0756076 0.158312 0.164169 0.764026 -0.768321 -0.300777 -0.390085 0.0832118 0.759165 -0.634008 0.680979 -0.0182381 1.17511 0.658631 0.222761 -0.273005 0.612865 0.876676 -0.748544 -1.29644 -1.20088 -0.664218 -0.825765 -0.332239 -0.605953 -0.657932 0.138305 -0.180532 0.553571 -0.274652 0.302375 -0.332157 -0.10649 0.54697 1.34091 0.581821 0.835236 0.311773 0.735993 -0.0403909 0.709513 0.11115 -0.692421 0.180751 0.228679 -0.450323 -0.00484402 -0.69518 -0.406127 -0.250005 -1.62479 -0.172309 -1.01018 -0.582999 0.469169 -0.578698 0.448143 -0.423215 -0.34766 -0.967012 -0.425553 0.038181 0.548851 0.911273 0.517621 1.03387 -0.516185 0.953412 0.367676 -0.0550243 0.622236 -0.649135 -0.870162 0.310207 -0.768493 -1.45816 0.0522564 -0.289709 0.103717 -0.199607 -0.195674 -0.169967 -0.581777 -0.472437 0.207635 -0.578414 -0.206729 1.03078 1.37676 1.08123 1.22483 0.359923 -0.202484 0.230797 0.256353 0.948311 0.662668 -0.261221 0.0774951 0.455494 0.369701 0.208291 -0.703389 -1.04305 -0.824115 -1.28741 -0.823654 -0.914546 -0.839392 -0.0348865 -0.798558 -0.924363 -1.50683 -0.397357 -0.259824 -0.716492 0.884824 0.709929 0.701401 1.88994 -0.435164 -0.203334 -0.688361 0.0872953 0.105258 -0.29558 0.355946 0.723851 -0.64 -0.37 -0.875981 -1.32171 -0.441926 -0.404015 0.15292 -0.0397464 -0.167298 -0.013223 -0.967897 -0.706673 -0.823174 -0.0675002 -0.401964 0.731319 0.384851 -0.0581898 -0.0164344 0.382425 0.258264 0.802657 0.909591 0.950997 1.00401 0.154918 0.237074 0.635021 -0.44 -0.98 -0.255918 -1.69506 -0.430786 -1.20987 -0.910146 -1.26158 -0.462179 -0.327322 -0.302662 0.167046 -1.58216 0.429993 -0.0959489 -0.451391 -0.191452 0.106328 -0.528553 0.364033 -0.590548 -0.127745 0.308122 0.0844697 0.342594 0.136292 -1.30362 -0.534858 0.14 0.0399955 0.553908 -0.960774 -0.42237 -0.44474 -1.12622 0.204051 0.44981 -1.03858 0.222221 -0.922023 -0.0135733 -0.1456 0.139468 0.137522 -0.316761 0.148633 0.531984 -0.0377836 0.522226 -0.555062 0.546544 0.948763 -0.737694 -0.401553 0.177487 0.867393 0.05 0.629977 -1.00353 0.0639736 -0.593593 0.436999 -1.32565 -0.596689 -0.61844 -0.791797 -1.09032 -0.90085 -0.455233 0.777761 -0.925029 0.477457 0.276761 0.290806 -0.874361 -0.0582231 -0.999338 -0.0209115 -0.3467 -0.30049 -0.570565 -1.47107 0.24839 0.899953 -0.54 -0.890026 -0.699184 -0.00562379 -0.614167 -0.660081 -1.3636 -0.500157 -0.0751672 0.403553 -0.727623 -0.128759 -1.20373 0.220933 -1.19915 -0.00433696 -0.610784 0.461974 -0.80658 -0.0115624 0.01149 -0.238223 0.440236 -1.35464 -0.186276 -0.282339 -0.743148 -0.0184549 0.65 -0.130046 -0.969791 -0.24895 0.229745 0.350527 0.378191 0.928168 -0.400052 -0.14678 -1.17481 0.584689 0.633792 0.943347 -0.789875 0.116307 0.0323833 0.734991 0.377075 0.000583772 -0.199062 -0.911698 -0.278473 0.104052 -1.77596 0.152696 -0.105369 -0.826467 -0.13 -0.490027 -0.601585 -0.128397 -0.949743 0.416883 -0.839028 -0.279979 0.652027 1.12413 0.87628 -0.276897 -0.211854 0.237859 0.260052 0.782239 -0.41935 -0.505477 0.949562 0.0760097 -0.995284 -1.02901 -0.351074 -0.0419658 -0.0108897 -0.148667 0.396198 0.525344 0.1 -0.25 0.163837 0.840626 -0.94347 -0.48033 -0.847492 -0.315646 0.411429 0.0786445 -0.543373 -0.19834 0.705058 -0.0923704 -0.858169 0.742139 -0.830888 -0.702485 0.0411489 0.0447917 -1.03005 0.231381 0.0630908 0.131187 0.783898 0.13242 0.331914 0.488727 0.45 -0.19 0.17 0.97 -0.177519 -0.0992895 0.848106 0.82007 -0.0921406 0.881996 0.693918 0.0605946 0.83 0.0300374 0.27046 0.0804602 0.0104615 0.860112 -0.590022 -0.03 0.98 -0.73 -0.744936 -0.0106472 0.36 -0.17 -0.61 0.35 -0.8 
-1.39314 0.01 -0.28 0 -0.32 -0.0497782 -0.165794 1.01333 0.349385 -0.710606 0.969689 0.0894311 -0.670773 -0.680265 0.372492 0.041219 -0.478959 -0.306212 0.388988 0.733904 0.381039 -0.299567 -0.117487 -0.229982 -0.209968 -0.579984 -0.85 0.85 -0.61 -0.56 -0.0699727 0.862402 0.693309 0.0450452 0.45891 0.619398 -0.199057 0.842256 -0.326995 -0.353129 0.885421 -0.8597 -0.607442 -0.78326 -0.598353 0.11559 0.702737 0.0636453 0.104928 0.569044 0.151077 -0.363759 -0.791252 0.929644 -0.841317 0.970206 -0.379988 0.56 -0.137919 0.448107 -0.799414 -0.672295 0.0529154 0.624415 0.258696 1.60101 0.427028 0.906294 1.81405 1.34346 0.376145 -0.316432 0.575721 0.946208 -0.272192 0.628274 0.856773 1.69138 0.19663 -0.237016 -0.373105 0.0117069 -0.225165 -0.655083 0.552346 -0.33 -0.434719 -0.717162 -0.271343 0.239245 -0.473445 0.441068 -0.524299 0.692025 1.19853 0.911386 2.29266 2.01485 1.19828 0.00965092 -0.236679 -0.645315 0.492951 -0.142855 0.461934 -0.280063 -0.4495 -0.734223 -1.43659 -0.676999 -1.43681 0.0706467 -0.640498 0.52 -0.766781 -0.337087 -0.42793 0.794352 -0.807574 -1.40732 0.00865448 -0.246519 -0.856103 0.715769 0.894466 0.328883 0.313351 0.233265 0.459609 0.0127776 -1.60099 -0.88234 -0.737052 -0.0593262 -1.19185 -0.334788 -0.976921 -0.347473 -1.1792 0.105187 -0.58139 -0.89 0.404558 1.07924 0.341975 -0.163609 -0.415511 -1.03817 -1.15289 -0.63357 0.304632 0.491436 -0.307963 0.772669 1.19192 0.154887 0.483444 -0.464006 -1.55367 -2.30258 -0.290822 -1.01192 0.231307 -1.52926 -0.460234 0.134399 0.0120683 -0.691908 -0.700021 0.51 -0.561132 1.01825 -0.073375 0.558673 -0.612262 -0.37959 -0.10745 -0.926034 -0.166531 -0.248696 -0.281287 1.52176 0.00267047 -0.330082 0.447378 -0.7984 -0.934011 -0.874745 -1.35143 0.226435 0.134257 -1.4865 0.455905 1.15917 -0.36205 0.451797 -0.71 -0.56 0.366414 -0.611941 0.178097 -0.123711 -0.126543 0.616931 0.256196 -0.571937 0.0751148 -0.00198546 -0.469815 0.267853 0.704345 0.35481 -0.341379 -0.954554 0.0939484 -1.03695 0.101628 -0.37586 -1.43848 0.0658668 0.392483 1.07312 0.536201 -0.200351 0.62 0.3 0.429292 -0.228835 -0.00509388 0.144619 0.0797694 -0.481536 0.203946 0.521389 -0.158622 0.423654 0.479136 0.446737 -0.969072 -0.260453 0.247704 -0.999793 0.39578 -0.53251 -0.701832 -0.789238 -0.399147 0.736483 0.771922 -0.0809563 1.24629 -0.552909 -0.679936 -0.7 -0.147476 0.30429 -1.04218 0.556494 0.310338 -0.0938056 -1.0878 0.519811 0.693743 -1.0049 0.0455888 0.551016 -0.945169 0.26901 -0.164595 -0.814343 -0.595594 0.5764 -1.50186 0.237945 -0.737162 0.493064 0.784816 1.40904 -0.36742 -0.658136 -0.299879 0.68 0.859028 -0.81513 0.625535 0.685236 0.501299 -0.173369 -0.182995 -0.412273 0.461717 -0.74814 0.360576 -0.558892 -0.934787 -0.0221385 0.636248 -1.17239 -0.198589 -2.30766 -1.53246 -1.17661 0.495665 1.14447 0.595427 1.72064 0.878376 0.266667 0.92 -0.05 0.506101 0.698214 -0.457051 1.16474 -0.347908 -0.346404 -0.199038 0.0922138 -0.211662 1.11187 -0.126101 -0.0898456 -0.969357 -1.12965 -0.123302 -0.439671 -1.29652 -0.912153 -1.03602 -0.206453 0.931532 1.42843 1.46811 2.50888 0.59877 0.634594 -0.32 -0.71 -0.496554 -0.416201 -0.699545 0.165494 -0.627065 0.541657 -0.297782 0.120752 -1.12323 0.22901 0.892735 -0.734428 0.860092 -0.721152 -1.5755 0.0847049 -0.983946 -0.403074 0.303656 -0.312115 2.36396 2.05864 2.46591 2.13573 1.0394 -0.686856 0.77 -0.05 -0.648826 0.373059 0.753122 1.01006 0.469306 0.564023 -1.31577 -0.0787724 -0.516736 0.892984 -0.414871 0.0197385 -0.726639 -0.355361 -0.739613 -0.131482 -0.225545 0.0781707 -0.0096299 1.79289 1.96574 1.42388 0.893366 1.22375 0.103688 1.03422 -0.67 0.169833 -0.106292 -0.732244 -0.438864 0.565532 0.268178 -0.384079 -0.687771 -0.71414 -1.14043 -0.55387 0.203167 0.483315 -0.0984851 0.107963 1.60442 1.09949 0.0714254 0.0767575 0.851849 1.4096 0.0172961 -0.706706 -1.14398 0.111846 0.241398 0.92767 -0.200859 -0.460986 0.375864 0.0229766 0.817038 -1.20311 0.172732 -0.229006 1.04388 0.065679 0.659814 -0.237335 0.72477 -0.344851 0.0241314 1.02887 0.20688 0.863815 -0.110665 -0.953976 -0.447172 0.414696 0.262506 0.647173 0.647821 1.19132 -0.292601 0.665474 0.249841 0.499824 -0.632796 -0.110366 0.0441592 0.104861 0.587051 -0.755615 -0.300422 -0.838315 -0.671772 -0.796992 -0.119451 0.928871 1.35266 0.276345 0.253409 0.195944 -0.431883 -0.530518 0.731057 1.76333 0.602397 -0.353591 0.813101 0.64001 -0.922746 -0.217133 0.179938 -0.226694 0.118999 0.0684245 0.634306 -0.212317 0.200222 -0.139617 -0.197747 -0.193952 0.514972 0.143774 -0.155673 0.282836 -0.564168 0.767133 -0.00922829 -0.433948 -0.908359 -0.931393 1.32458 1.89347 0.896994 0.174702 -0.191042 1.28261 -0.534172 0.206386 0.32 0.239859 -0.484389 -0.333791 0.413591 0.328443 0.223285 -0.170038 -0.685166 0.651661 0.687123 0.656361 0.330741 -0.460278 0.673228 -0.230537 -0.803226 -0.722093 0.113425 -0.890351 0.384895 0.0454725 0.0882514 -0.214882 -0.282886 0.632068 0.581494 0.318656 0.87 -0.93 -1.10015 0.461081 0.461163 0.743927 0.600606 -0.593723 -0.289118 0.157734 0.292958 -1.09166 0.431252 0.654412 -0.651951 -0.0259962 -0.885059 -0.209722 0.434917 -0.291229 1.02695 0.591596 1.16014 0.526839 0.684216 0.800859 -0.0232505 -0.80565 -0.72 -0.75 -0.405753 -0.387639 -0.738387 0.259054 0.818482 -0.671383 0.748913 -0.213199 -0.0478782 0.0323309 0.590877 -0.118415 0.799903 -0.186948 -0.256339 -0.0339538 -0.288962 0.0644184 0.892765 0.725089 1.11566 0.571837 -0.179727 0.802771 0.110211 -0.683205 0.3 -0.330004 -0.785416 0.429689 -0.469006 0.430495 0.0748197 0.29808 -0.157785 -0.186419 1.89045 0.527524 -1.00207 0.192913 -1.09351 0.69121 0.695547 0.142295 -0.3029 -0.188429 0.324951 -0.348233 0.170391 -0.311634 0.989557 1.09419 0.95543 -0.313918 0.19 -0.0900209 0.624749 0.44513 -0.716563 0.855853 0.195866 0.329601 0.0810481 0.479089 1.13774 0.558907 0.60734 0.505633 -1.2135 -1.01874 0.107245 0.509483 1.5771 0.62264 1.17836 1.03287 0.804193 -0.159302 -0.0225125 1.29596 -0.346842 -0.751526 -0.44 0.691417 -0.98714 -0.117385 0.547059 0.902585 -1.08494 -0.304751 0.0259355 0.53324 1.69171 1.08118 0.33341 -0.36616 0.809138 0.335375 0.749856 0.661684 0.42199 0.948845 -0.0328936 -1.05842 -0.952854 0.0308681 -0.128289 1.03793 -0.446328 -0.882412 -0.86 0.0825202 0.0383362 0.91929 0.647635 0.855627 0.131749 -0.690251 0.705264 2.00792 1.48724 2.29046 1.2269 1.18102 0.406441 0.39352 1.60008 0.436806 0.686082 0.540002 -0.51685 0.10771 -0.350401 0.228061 -0.856369 -0.707937 0.546984 0.676153 -0.54 -0.818525 0.591201 -0.811429 -0.380599 -0.328663 -0.0146271 -0.358741 -0.496703 1.17419 0.141633 0.0230917 1.14048 0.367706 -0.0788998 0.917963 1.51367 1.26498 0.383414 0.968337 0.644821 -0.789684 0.69028 0.706992 0.333835 0.563008 0.343431 -0.511227 0.05 -0.0499884 0.471304 0.504183 -0.488825 -0.948977 0.306071 0.728988 0.215753 -0.308345 -0.903127 -0.231571 -0.896979 0.362275 -0.342719 0.583029 0.860806 0.949103 -0.334873 -0.289262 0.103486 0.661057 -0.57881 -0.842218 -0.55665 0.625966 0.17111 -0.790537 0.21 0.03 -0.16 0.87 -0.730645 0.139471 -0.675988 0.565864 -0.69376 -0.400653 -0.918652 -0.989906 0.3 -0.649591 0.894994 -0.715003 -0.794956 0.611227 0.490005 0.25 -0.54 -0.79 -0.219134 -0.599996 -0.09 -0.09 0.55 -0.68 -0.94 
