2
62.7821 0.74 0.94 -0.62 0.76 -0.710233 0.878724 -0.508069 0.219027 1.15034 -0.2472 -0.0184434 0.00774571 -0.0962854 -0.973431 0.516047 0.212281 0.897508 -0.00458528 0.48211 0.288504 0.440038 -0.552135 -0.217518 0.34 -0.79 -0.46 -0.2 0.17 0.66 0.651315 -0.689948 0.427739 0.0283046 0.199581 0.00659675 0.20805 2.18109 -0.152918 -0.914619 0.19953 0.770032 -1.50306 -5.40967 -5.31946 -3.07516 -4.43075 -4.77311 -5.86492 -6.21964 -3.31702 0.172091 -0.485323 1.5097 -0.887923 0.615579 0.770016 0.3 -0.761257 1.96913 6.22407 8.49985 19.8452 3.9715 -6.09849 6.89825 8.60949 4.68964 -0.607289 3.4245 -2.64082 -5.68461 -12.3177 -27.9998 -41.3514 -46.1856 -51.9726 -43.3452 -29.9311 -8.70069 -3.20039 -2.00083 -1.21187 -0.858589 0.523325 -0.33 -0.392657 -1.97822 8.32717 13.3126 22.6127 0.793385 -5.83382 4.28293 13.7611 8.45628 10.5792 11.2208 8.65459 7.74242 1.40611 -30.7011 -57.1011 -48.5268 -75.379 -77.3284 -54.6393 -14.5995 -7.55196 -8.97215 -6.80798 -1.95123 -0.266933 0.23 0.466067 4.85236 17.1897 23.1834 29.211 4.32228 -10.3748 -11.128 -0.736688 4.8945 12.6462 20.8234 24.1469 15.4128 7.8423 -12.6558 -43.3466 -54.6929 -53.3924 -55.6082 -52.8999 -26.0538 -15.5455 -17.2737 -7.86477 -0.483549 0.440388 -1 0.839618 9.77813 26.0434 24.4927 29.1165 11.6304 -17.1399 -18.3045 -4.91207 11.5651 14.6275 29.678 42.265 42.0417 43.6101 12.8948 -20.3444 -31.3759 -42.8553 -51.9851 -69.121 -39.0136 5.98404 1.00725 -5.2745 -1.50754 0.13 -0.5 0.94243 8.57312 26.6 21.1257 19.4179 -7.15426 -45.636 -33.9522 -6.98521 -0.169173 4.93861 16.9339 44.0708 70.0266 75.9568 53.2526 39.6963 1.36369 -71.0219 -96.6881 -118.724 -86.6221 -15.8551 -4.29051 7.48078 2.36367 0.65 -0.27 0.184805 11.1681 25.1726 20.0849 0.073759 -18.5636 -50.0927 -24.3847 0.948448 5.97813 14.7536 26.0963 67.4149 87.53 94.5841 75.2412 52.2861 37.9816 -39.9724 -98.2829 -115.722 -90.5434 -34.7342 -16.082 -0.944531 0.309316 0.06 0.66 0.0455796 1.20738 13.9503 6.89632 -9.28957 -28.7906 -50.8149 1.78389 21.962 15.4312 21.6366 30.1593 56.7845 59.8988 56.2803 52.0326 64.8485 83.0084 20.9148 -44.0105 -85.3258 -65.2151 -37.1538 2.11012 -0.363617 -0.861111 -0.356024 -0.78 1.26551 -0.369773 6.59462 3.31822 -10.0059 -19.4094 -12.2086 30.2611 33.0892 1.96742 -2.43067 25.4248 48.3411 49.9873 31.6442 65.4397 101.326 106.296 49.47 -9.45832 -69.9774 -64.4723 -43.3164 -2.74611 7.90596 -0.197577 -0.509973 -0.54 0.315566 6.71594 19.9666 21.1851 24.6622 27.2565 8.91942 8.66016 -14.6477 -42.2077 -20.0689 27.9747 51.7592 69.201 61.3449 69.7494 66.5048 47.0403 2.40572 -27.9183 -54.1245 -41.1481 -31.5674 -21.3063 -7.31464 0.723035 -0.76 -0.3 -0.170449 12.198 27.4242 29.7219 22.659 24.7224 4.71774 0.946496 -8.37026 -8.64641 23.3294 50.805 56.9 71.2499 63.5419 58.78 58.5297 28.7665 17.7927 -4.73023 -22.5718 -41.3286 -66.9801 -53.4947 -18.8609 2.42651 0.99 0.59 1.74264 18.1929 35.8537 33.9392 9.99848 -6.79601 -9.53873 0.339491 -9.02684 0.725409 30.7404 58.3493 87.4739 51.4067 43.9358 32.5868 38.1277 45.5658 62.4615 42.6335 0.786507 -55.0552 -92.8763 -60.3866 -23.2585 -0.420272 -0.44 0.47 1.82591 16.975 15.5457 -6.39908 -5.88463 -20.8848 -19.1536 -7.45338 -0.151007 0.809908 21.997 41.9566 38.8801 0.976855 15.5614 28.4171 34.5286 53.3168 66.6458 40.0197 11.7429 -58.7133 -92.4589 -52.3322 -17.3838 -2.91205 -0.75 0.76 3.614 17.8969 4.3297 -20.3319 -9.42095 -4.78893 -17.7401 15.5211 40.4706 40.8951 33.4119 33.4931 4.14094 -31.9266 -29.1184 -26.9519 21.2882 51.1736 66.1702 33.9133 -6.32088 -43.8393 -75.279 -50.1632 -17.551 -4.80246 -0.1 -0.48 5.51872 10.5476 -16.508 -33.9571 4.60617 -7.9007 -12.5066 35.5878 72.9802 49.4274 29.0203 22.3997 -33.2654 -43.951 -35.0166 -24.3853 22.667 47.2595 61.0462 20.7039 -31.7451 -42.8168 -65.5298 -28.6586 -11.6661 -2.32944 0.13 -0.37 2.13757 13.2931 -15.4507 -27.1328 17.1046 9.71961 3.57876 70.4638 109.551 80.497 44.1666 36.7642 3.00009 -4.08643 -1.87697 -4.21678 23.2754 42.541 49.9963 -9.12369 -36.6654 -23.7334 -27.2399 0.660147 2.34595 1.1264 0.919681 -0.980644 1.98328 -5.30478 -4.79329 -11.2457 33.41 29.8538 7.07698 46.0743 96.4789 97.0708 80.3399 66.598 35.8097 24.5947 6.72378 9.63653 30.8527 59.5592 41.9872 -16.1762 -34.1127 -6.28592 16.8731 26.1596 11.0026 2.21543 -0.6 0.313953 -1.31296 3.39145 -2.65666 -13.3554 39.2649 36.6233 13.9469 34.7875 89.6976 112.813 94.8303 81.9281 34.1818 17.1923 -4.20522 -1.47289 11.5261 36.2694 37.0378 -16.3188 -13.8488 12.0005 37.5177 47.3303 21.8377 1.28442 0.57 -0.25 2.61055 4.2481 -2.7813 -4.16773 30.9054 34.2883 0.715439 10.3574 48.1793 89.0852 82.8516 70.2426 31.8293 -13.6575 -31.455 -10.2243 -9.09076 -3.69916 0.993054 10.7947 20.4629 29.6743 36.2609 37.0365 24.9345 0.537086 -0.47 0.29 -2.0004 -12.6289 -7.93917 -11.0269 8.41219 -1.26038 -18.662 0.574142 52.4205 98.8572 92.6486 80.1078 66.9703 24.1547 -15.1506 -36.099 -39.8124 -41.4783 -40.6768 -12.3817 13.6967 24.254 20.5792 26.8952 23.0629 1.07524 0.09 0.35 -2.0513 -24.5877 -6.01334 -6.45865 -30.5803 -38.5526 -11.3529 7.60407 63.2089 98.7305 102.134 94.2722 74.3858 36.3058 -9.3355 -35.4084 -50.1895 -51.8609 -58.3236 -33.5317 -5.81274 14.8323 23.9701 35.9597 26.7499 0.82638 -0.76 -0.72 -3.51246 -12.9716 5.15246 13.8802 -27.8944 -65.8225 -56.2881 -3.65283 59.9614 89.6154 89.8344 79.3949 56.1447 21.0934 -3.54347 -20.7721 -32.4845 -29.1299 -26.1003 -14.0318 8.87559 33.2403 28.028 29.7925 13.8154 0.626821 -0.03 -0.00799205 -2.28567 -4.0176 0.650209 5.25461 -29.8053 -69.6353 -68.1667 -13.8668 30.5858 62.9593 70.1617 55.1862 30.9757 10.0187 0.455455 0.72969 -3.78325 -5.18143 -7.51397 4.56157 25.0844 33.3891 29.9474 19.9294 6.94391 -0.19526 0.08 0.133572 -1.9036 -8.11255 -3.54289 3.50596 -25.4949 -53.3818 -42.5734 -4.76355 24.753 43.8407 48.2115 33.3672 13.2365 -1.96036 -7.18191 1.10027 2.01941 -5.60209 -6.74673 5.2776 21.8822 24.7514 17.986 7.1516 3.37126 0.994719 0.07 -0.14791 -0.854959 -4.70244 6.2779 6.13866 -14.9397 -33.3926 -37.951 -6.73934 3.96927 10.6357 16.8974 12.5889 7.86057 2.19016 4.58583 6.60431 -0.888099 -1.73049 -1.68461 3.69065 12.883 12.0522 4.69665 0.968928 1.22079 1.03834 -0.5 -0.549984 0.468268 -1.19786 0.0796777 0.563308 -9.20937 -0.570261 -5.91222 -4.82036 -2.03172 2.09856 0.816182 -0.823453 -1.16737 -0.284378 -0.440428 0.700293 0.70056 0.396572 -0.191606 -0.134776 -0.434496 0.967377 -0.0881036 0.158034 -0.701714 -0.939297 -0.65 0.26 0.42 -0.38 -0.0300001 -0.43 -1.04489 0.83 0.00321865 0.95 0.809986 -0.910003 0.2 -0.376205 -0.706522 0.0034777 -0.0965223 -0.658614 -0.32 -0.3 0.06 0.07 -7.55286e-09 -0.91 -0.61 -0.12 0.64 -0.11 -0.08 
38.0205 0.35 -0.76 -0.91 0.29 -0.540498 -2.83082 -2.21399 -2.16524 -1.40471 -1.33305 -0.00554161 0.43 0.87 0.29 -0.150702 0.414815 0.395856 -0.656426 -0.60968 -0.0113374 0.760002 -0.52986 -0.519921 -0.9 -0.2 0.6 -0.55 0.11 -0.66 -0.46 0.822934 -1.22746 -0.755947 -1.16579 -0.971557 1.10882 -0.785388 0.140631 -1.6016 0.378638 -0.774955 0.319789 0.145741 -0.735202 0.1375 -0.256848 -0.371345 0.0967946 1.46472 1.87284 0.774654 0.0429916 0.799631 1.27314 -0.610765 -0.91 -0.66 -0.445095 -2.79207 -10.2752 -5.69002 -1.91858 4.05728 5.7203 8.87906 7.38197 6.27608 5.05484 -4.31994 1.73966 7.63096 21.1606 18.1224 19.5407 17.6566 15.966 12.6148 9.35948 -8.99019 -14.9308 1.92835 3.67288 0.349534 -0.02 -0.74 0.368318 -4.4258 -9.8519 -14.3818 -14.5579 -19.6566 -16.6804 6.34528 11.7659 16.5806 9.94331 8.1528 23.9889 49.1346 70.989 63.8918 50.4296 47.8008 55.6898 58.9515 43.9643 10.2142 -3.04623 -5.77638 8.60318 1.45181 -0.7 0.98 0.358692 -3.02535 -9.24521 -21.4107 -22.3093 -31.6389 -40.6559 -41.1015 -43.8107 -16.1754 -1.65997 14.5913 34.6719 69.0799 85.8038 72.73 59.5319 75.2834 89.8887 91.1154 62.1865 25.1082 -6.73912 -5.66895 3.91964 -0.2307 0.36 0.72 -0.569743 -2.92537 -7.41083 -9.59451 -18.7715 -38.1692 -62.187 -71.0919 -72.0413 -44.4704 -22.2742 6.473 39.3594 77.7421 96.8921 99.6962 74.0766 61.2973 56.7489 65.5921 73.711 65.6628 19.3383 -15.5519 -9.41485 -1.44091 0.1 0.67 -0.0617507 -3.78014 2.1518 5.72292 -7.09204 -31.9555 -71.702 -92.4357 -82.7251 -71.5205 -60.5656 -21.7652 4.01866 47.5759 91.4778 94.5418 81.4273 42.0229 13.1673 45.5403 69.7967 80.6869 29.3182 -2.90842 3.68296 0.159694 0.37 -0.22 -0.823816 -5.42712 -0.299433 14.525 5.48762 -36.1814 -79.5077 -88.9556 -73.7923 -58.0712 -58.1528 -22.4762 13.0652 64.1755 100.546 118.046 96.378 51.2112 25.4099 19.245 58.6506 64.0899 16.7249 2.89344 -5.397 -1.66739 -0.27 0.17 -0.452344 1.84963 7.47919 27.1091 -0.994932 -54.1731 -89.3173 -74.6472 -62.8787 -38.3892 -49.672 -35.538 1.58965 47.9672 87.6877 122.88 115.585 94.993 34.8452 33.1454 77.144 68.8383 22.0679 7.65524 2.2625 -0.530662 0.67 0.08 0.0629426 11.3102 23.7721 38.4593 14.6135 -24.1494 -51.4256 -48.1069 -27.9364 0.314447 -12.5266 -9.05544 -4.69271 16.0628 50.1756 103.028 127.697 115.101 49.0945 23.3914 31.1263 23.5509 6.27416 -9.82427 -0.772778 3.58217 0.36 -0.8 0.420136 6.18232 21.3303 34.155 22.0198 -0.056556 -8.61978 -9.41153 -3.82911 7.12472 -22.0041 -20.9026 -47.5282 -29.9053 2.07644 50.0722 60.8562 77.0723 22.4743 -19.632 -34.224 -16.8756 -20.7428 -35.9551 -7.8095 2.70743 0.39 -0.92 -1.3339 2.70086 4.96387 20.7759 26.9631 3.41994 -23.5072 -31.1874 -19.1691 -8.32933 -27.3266 -34.0491 -72.4907 -50.7662 -17.1271 27.9687 44.9399 57.156 -0.568144 -33.3215 -46.3826 -9.77012 -9.80084 -32.2217 1.88462 2.68497 -0.48 0.44 -2.55164 0.602243 6.51824 -0.388916 -8.94907 -42.5116 -60.1231 -67.0309 -69.4085 -59.3673 -43.8201 -39.744 -62.8129 -52.7596 -32.2624 22.2546 55.0103 59.3784 1.47979 -53.017 -49.3557 -10.819 -17.8176 -33.9708 -7.53111 1.29842 0.08 -0.2 0.189292 -4.49267 -19.7668 -36.0033 -42.5406 -63.3963 -65.3427 -90.2657 -84.1469 -47.6545 -42.7498 -38.5968 -43.6464 -48.7479 -22.8157 28.4409 54.1443 36.9925 -8.33644 -67.7313 -86.6677 -48.5013 -26.4803 -20.5894 -14.5928 -1.02361 0.33 0.71 -0.448335 -12.9724 -34.5247 -53.0266 -51.596 -39.2477 -32.7178 -46.5541 -56.5133 -26.8307 -51.1092 -40.9193 -68.377 -58.4662 10.2633 61.5541 81.0119 34.9627 -29.8786 -67.2155 -83.9388 -56.1409 -24.516 -13.8875 -11.1596 -1.54308 -0.62 -0.32 0.539574 2.09971 -37.0683 -42.1161 -40.4067 -44.9653 -16.5241 -23.088 -41.4953 -22.7577 -63.967 -94.803 -110.806 -71.7358 -1.77986 66.0924 86.9004 16.9334 -35.7585 -37.303 -45.1398 -36.1584 4.46255 17.0917 15.114 1.16696 0.67 0.51 1.85995 6.29063 -15.8742 -44.6576 -52.7949 -46.1446 -20.7251 -6.58507 -27.0104 -47.3308 -93.2204 -133.669 -103.167 -24.8639 42.922 74.5906 89.3107 69.2751 28.3816 -6.4333 -26.2645 -21.542 36.4146 48.5291 35.4763 2.64199 -0.199978 -0.67 0.903026 6.11556 -3.05557 -33.9259 -72.7791 -65.9362 -28.8654 -10.1644 -26.6351 -37.2424 -92.4331 -126.033 -68.3031 -0.0483411 80.0695 134.952 130.046 91.5184 50.9884 19.9179 9.23379 0.122614 64.0126 74.8704 46.2692 1.9472 0.96 -0.85 2.82812 18.4807 10.9333 -14.7274 -41.2662 -56.3998 -28.0356 -18.8721 -16.4489 21.8938 -41.9483 -73.6255 -12.9545 33.5779 98.3177 140.534 138.958 75.9435 16.4421 5.95468 19.2354 21.241 60.8174 66.3472 37.8943 1.17255 -0.81 0.29 4.25275 25.1616 21.7242 -5.80072 -23.5075 -12.9417 -11.1209 10.0393 47.76 25.9301 -33.2977 -24.181 6.2878 39.548 66.5438 64.9055 49.0116 26.5599 -7.08126 1.98425 -7.28264 21.5417 44.1061 22.6471 17.3786 1.23523 0.62 -0.43 1.15124 12.4665 5.64975 -8.51248 4.8311 12.0459 23.9447 30.5156 34.8238 35.6583 22.3909 13.1922 27.0872 41.7977 43.5305 20.8003 -8.0091 -28.549 -19.5724 -11.406 -15.6892 11.5896 25.7366 10.2576 14.3757 2.05981 -0.99 -0.21 -0.63907 -6.19123 -19.4944 -22.4466 8.26646 33.5304 24.2862 5.76277 16.2572 48.2501 49.2041 28.2396 30.6212 34.6905 21.2464 -0.648564 -20.6889 -43.3725 -40.9771 -37.6282 -30.5123 -0.324433 15.6797 8.49641 7.67835 1.50861 -0.08 -0.53 0.0537041 -0.194763 -12.6509 2.7964 30.7847 33.1642 18.4355 -9.82943 -11.2265 20.8486 37.7151 21.0955 32.5719 42.8967 7.54798 -32.8939 -65.759 -75.8231 -65.3549 -44.9728 -36.9519 -3.55286 -5.66062 -13.9178 -4.46523 -0.633805 -0.92 -0.96 -0.0114097 6.65326 -2.1812 18.5549 41.7798 16.9852 -14.8472 -32.6857 -26.1358 7.93447 22.9741 22.9836 37.9158 40.4322 9.47022 -36.3328 -59.951 -64.9241 -35.3331 -10.8254 -11.885 -12.4422 -16.089 -14.5347 -8.53508 -0.123932 -0.1 0.43 -0.132092 2.23449 -5.09153 6.94998 22.4282 -2.59678 -46.9146 -52.3791 -26.373 -8.68271 -6.5788 9.76875 24.9097 22.139 4.06175 -23.6647 -30.0605 -26.5434 -0.214352 9.62975 10.165 -5.93967 -8.88886 -4.74901 -3.2826 -0.977286 0.6 0.88 1.66235 8.2273 4.46057 9.35331 12.1836 -3.971 -20.7703 -23.1171 -15.8382 -9.80966 -7.87155 -1.53408 11.4 6.21466 -2.38861 -5.3888 -11.0511 -2.33736 7.80529 11.1967 12.4189 3.2179 1.10403 2.69455 1.23063 -0.518343 -0.49 -0.99 -0.866977 0.0263275 1.88679 2.09701 1.70249 4.76511 1.64703 -1.54578 -0.70048 0.89574 -1.95839 -1.98045 -1.23374 -0.541897 0.0208655 1.47851 0.43967 1.03515 1.76896 1.56686 0.975135 1.0489 -0.0881182 0.0874604 -0.220469 0.260723 0.76 0.25 0.49 -0.12 0.260518 0.961049 0.390345 -0.04 0.26082 -0.53 -0.4 -0.62 -0.35 0.55 0.47 0.33 0.25 0.79 -0.91 0.29 0.9 0.83 0.0700002 0.31 0.55 -0.68 0.21 0.32 -0.81 
1.4564 -0.25 -0.41 -0.73 -0.85 -0.82 0.320001 -0.719834 0.685165 0.920038 -0.559958 0.200024 -0.15 -0.459838 0.740162 -0.649986 -0.399999 -0.990004 -0.950012 -0.200008 -0.56 0.97 0.0300247 0.17 0.48 0.02 0.04 0.32 0.63 -0.11 0.85 0.79 -0.699397 -0.127216 -0.328296 0.863203 -0.545742 0.271455 -0.180326 0.220143 0.561179 -0.278679 -0.708479 0.691309 0.850135 -0.161117 -0.540438 -0.899945 -0.639603 0.770053 0.119869 0.859648 -0.450129 0.420011 0.47 0.57 -0.15 0.25 0.68 0.97116 -0.303931 -0.404032 0.0964154 -0.0949876 -0.381715 0.911181 0.975653 0.796945 -0.822993 0.0682741 0.652407 -0.655932 0.521852 -0.38514 -0.0788108 -0.811207 -0.603216 1.00191 0.360536 0.327105 -0.653297 -0.079193 0.0303979 0.349997 -0.8 -0.64 -0.779988 -0.427561 -0.43039 0.719024 0.224172 -0.572786 0.377201 -0.735308 0.609044 0.106411 0.188598 -0.80942 1.04459 1.07187 -0.486474 0.819691 -0.130411 0.983686 -0.306569 -0.5462 -0.277089 -0.342585 -0.946186 -0.666975 -0.0346289 0.771419 0.290003 0.89 0.950133 -0.393777 -0.436631 -0.0456816 -0.885802 0.123074 -0.614676 0.0814201 0.481297 -0.138857 -0.429114 0.80236 0.163605 -0.456582 0.088937 -0.548441 0.659377 0.719541 -0.0492088 -0.427496 -0.396743 -0.264924 0.109235 0.617358 0.0951575 0.881591 0.580002 0.73 0.81017 -0.657016 0.748282 -0.895397 0.460303 -0.170113 0.0387251 -0.671805 -0.858151 -0.652946 0.975978 0.9913 0.0108943 -0.458031 0.482939 0.927444 0.751159 0.378196 0.26734 0.66489 -0.761764 -0.310363 0.879235 0.622398 0.562956 0.492069 0.92 -0.39 -0.0500288 -0.533339 0.199747 0.438549 0.0143167 0.727238 -0.369478 0.545481 0.739546 0.747328 0.599119 0.0842831 -0.275471 0.407652 0.64946 0.969446 0.101659 0.0679559 1.14715 0.103147 0.703225 -0.103376 0.407236 0.0980072 -0.370595 0.51244 -0.5 0.39 -0.841479 0.20818 -0.810022 0.135923 -0.698467 0.583666 0.353766 0.500581 1.08195 -0.138449 0.145345 0.557239 1.15269 -0.137376 0.387092 0.622301 1.57181 -0.207289 -0.224538 1.66538 1.23124 0.277261 0.586704 0.821773 0.129996 -0.207392 -0.24 -0.45 0.835101 -0.551093 0.430458 -0.235598 0.639711 -0.0160898 0.0687887 0.76457 -0.259991 -0.0276039 1.03218 -0.458299 1.41553 1.00056 0.605785 0.891124 -0.384311 0.226998 -0.333357 0.617353 1.14245 1.07062 0.883641 0.0305328 0.11937 0.15203 -0.660021 0.06 0.125703 -0.72225 -0.665453 -0.0159905 -0.265202 0.98493 -0.515011 0.00513672 0.560275 0.372851 1.16561 -0.367082 0.650596 0.756103 -0.355375 0.46371 0.9076 -0.105258 -0.00674941 -0.324918 0.885434 -0.0138127 0.300569 0.16257 0.602936 0.075845 -0.910004 -0.86 0.947621 0.626204 -0.0888719 0.728228 0.0388498 1.47692 -0.0692603 -0.377717 -0.416147 -0.441472 0.63848 0.186276 -0.143744 0.255367 -0.0229121 0.836402 0.977468 -0.55798 -0.300104 -0.0425516 -0.335913 -0.452744 -0.545585 0.595463 -0.908133 -0.9608 0.91 -0.69 -0.944646 -0.414162 0.0289914 0.976226 -0.209346 0.618512 0.194944 -0.317541 -0.290507 1.13162 0.431299 0.928212 -0.0716676 0.227784 -0.339019 0.171029 -0.926154 0.162278 0.179907 0.446778 -0.394537 0.189663 1.06194 0.907172 0.275025 -0.578423 0.34 -0.12 -0.367673 -0.668717 -0.785706 0.562104 0.953324 0.767862 0.1571 0.940334 1.16716 1.483 0.20714 0.52695 0.417166 1.0869 0.56568 0.361778 -0.831025 0.990938 0.97328 0.664116 0.798747 1.01899 1.09361 0.27402 -0.025119 1.01848 0.24 -0.96 -0.827798 -0.390201 0.687374 0.25135 0.819595 0.87534 1.04357 0.0109063 1.02995 0.965349 0.212467 0.112258 0.115095 1.35566 0.729418 0.0646625 0.758482 0.822774 0.65531 0.692929 0.661918 0.747455 1.1331 -0.676095 0.337132 0.034432 0.1 0.34 -0.416112 0.0244951 0.0949576 -0.318773 -0.290859 -0.446163 0.482458 0.422128 -0.332141 -0.220123 1.24475 1.01062 1.09802 0.960564 -0.0191679 1.03278 0.990801 0.784878 0.798461 0.49403 0.129061 0.252698 0.189308 0.17676 0.562001 0.147588 -0.770001 -0.0300071 -0.851941 -0.532458 -0.275938 0.280373 -0.240659 -0.0462915 0.613124 0.559794 0.839731 0.684391 0.106886 0.745963 0.847621 0.913155 -0.552249 -0.448643 0.778049 1.16107 -0.113663 -0.479806 0.999504 0.0630213 -0.622511 1.05521 0.752574 -0.400065 0.48 -0.260023 -0.0456109 -0.145429 0.757629 -0.298087 1.10898 -0.317381 -0.542008 0.136615 -0.248869 0.876289 -0.595815 0.636242 0.417355 -0.208847 -0.266529 0.758542 0.651332 0.501318 -0.501693 0.648208 -0.460223 0.296226 0.269238 0.553039 0.101754 0.180075 0.209992 0.26999 0.110168 0.214719 0.70317 -0.143976 -0.0466616 -0.718299 -0.756306 0.208283 1.3834 0.906693 -0.0208366 -0.479393 0.650296 0.634918 -0.512974 0.741993 -0.39635 -0.0516178 -0.42148 1.23535 0.25781 -0.304233 0.219162 -0.446614 0.981006 -0.313471 0.869964 0.419991 0.850116 0.555286 0.976345 -0.00195894 0.51248 -0.574425 -0.631286 0.371779 -0.380953 0.411904 -0.508241 -0.151543 0.204145 0.00834111 0.507525 -0.348635 0.0993122 0.393127 1.11356 0.975879 -0.225996 0.681184 -0.226801 0.0677611 -0.241527 0.579746 0.22 0.63 0.191987 0.093403 -0.428446 0.238347 -0.00227185 0.549549 0.316061 0.890935 0.97879 -0.295088 1.29152 -0.206991 -0.593366 -0.252826 0.356901 0.684029 -0.601985 1.01644 -0.473308 -0.0817002 1.27521 0.142375 0.41314 -0.234958 0.81682 0.978649 0.62 -0.93 0.0614197 0.329632 0.0707649 1.0385 0.587346 -0.123639 0.363112 0.626836 0.553425 -0.608697 0.0151 -0.148212 0.617996 -0.448109 -0.425105 1.0468 -0.409241 0.954131 0.601259 -0.109573 0.0894209 0.929138 -0.777354 0.436618 0.791748 0.310398 0.46 -0.2 -0.53623 0.156859 -0.539416 0.8408 1.26206 1.38183 0.401329 0.439051 0.812045 0.531825 0.93888 0.633291 -0.856487 0.658731 0.599929 1.11515 0.922994 0.662745 -0.451666 0.00696288 -0.578905 0.973298 0.264406 -0.700698 0.183802 -0.0556011 -0.25 0.41 0.826778 0.253878 0.742393 0.186652 -0.325613 1.19095 0.334493 1.0763 -0.00903498 0.291433 0.0297492 0.268742 -0.764333 -0.568896 0.550123 0.998692 -0.198066 0.549842 -0.105328 -0.171199 0.877504 -0.654498 1.12088 -0.394178 0.996516 -0.124129 -1 -0.58 0.22683 -0.141733 0.271286 0.232492 0.689513 -0.137438 -0.623905 0.765924 0.162834 0.286079 0.602357 0.348416 -0.472241 0.693651 1.26902 1.2528 -0.354361 -0.575672 0.784171 0.68824 0.222564 -0.486669 0.147406 0.840987 1.01203 0.615294 -0.75 0.3 0.211027 0.121774 0.869599 -0.171988 -0.384889 0.203861 0.529732 -0.543953 -0.0587234 0.378476 0.104331 -0.560188 -0.438472 0.105998 -0.263367 0.453837 -0.592561 -0.788672 0.0851834 0.537469 0.110677 -0.474897 0.930488 -0.948914 0.610076 -0.21 -0.96 0.56 0.65147 0.820543 0.296513 -0.260431 0.55665 0.135238 0.178361 0.858106 0.550212 -0.828558 0.910578 0.478102 -0.0276822 -0.104912 0.35057 0.739821 0.00891446 0.227031 0.990468 -0.609837 0.346309 -0.726525 0.482014 -0.238388 -0.00977789 -0.22 0.37 0.55 0.500055 0.191398 0.412255 0.526215 -0.955571 0.0515421 -0.277564 -0.366996 0.820883 0.0393759 0.459686 -0.508162 0.541798 0.201492 0.0110503 -0.299809 -0.0508548 -0.501309 0.741738 -0.0794718 -0.509697 -0.509682 0.770747 0.250202 0.110006 -0.52 0.95 0.98 -0.65 -0.56 0.11 -0.34 0.600014 0.13 0.740001 0.759999 0.76999 -0.26 0.83 0.95 -0.54 -0.48 -0.73 0.82 -0.909999 0.42 0.07 0.9 0.340008 2.65835e-13 -0.45 -0.75 0.26 0.03 -0.23 
-1.18718 0.05 -0.07 0.75 -0.7 0.24 -0.66 -0.37 -0.03 0.259994 -0.760011 0.73 -0.68 0.82 0.81 0.0499998 -0.200001 -0.0400011 0.00999987 -0.680377 -0.74 -0.13 0.75 0.95 -0.31 -0.45 -0.03 -0.21 0.31 -0.03 0.57 -0.2 -0.03 -0.316989 0.0896449 0.192905 -0.719073 0.290675 0.614006 -0.192369 0.678831 0.479467 0.388859 -0.108981 -0.0360152 -0.456572 -0.107263 0.964194 -0.308984 0.59138 0.403814 -0.926677 -0.200317 -0.653019 0.407397 0.85 -0.49 0.54 0.139999 -0.150335 0.432831 0.273114 -0.427434 0.414769 -0.449636 -0.476571 -0.648885 -0.428018 0.190569 -0.581625 -0.105366 0.242838 -0.581803 0.441741 0.665671 0.587983 -0.311172 0.0504688 0.341527 0.497181 0.018782 0.789068 0.347037 -0.752423 -0.18 -0.57 -0.680056 0.304467 -0.24658 -0.149872 -0.284215 0.671155 0.500069 0.37738 0.806463 0.325415 -0.647675 -0.931246 -1.27843 -0.408791 -1.01323 0.331403 -1.12946 -0.517164 -0.68776 0.330128 0.265554 0.0289297 -0.198052 0.514043 -0.387927 0.219718 0.109957 0.83 -0.650269 -0.664649 0.267762 0.219203 -0.89532 -0.811573 0.364952 0.175386 -0.319301 0.690693 -0.276921 -0.273325 -0.603757 -1.8295 -1.00595 -0.480949 -1.72264 -1.29008 0.171143 -0.739585 -1.10352 -0.686236 -0.4161 0.338521 0.270555 -0.388518 0.839973 -0.97 -0.211272 -0.945235 -0.324883 -0.837064 -0.33776 -0.180892 -0.884114 0.997552 0.732333 0.291019 -0.271627 -1.6255 -1.65746 -1.25593 -1.56254 -1.50548 -1.40032 -0.121169 -0.257481 -0.565841 -0.962635 -1.34391 0.703219 -1.09996 -0.764532 -0.230107 0.729993 -0.41 -0.0609176 0.727713 0.505049 -0.862635 0.768001 0.275076 0.478601 -0.622259 -0.574031 -0.559587 -0.26888 -1.46405 -0.251237 -1.29446 -1.10204 -0.517268 -0.962869 -0.719913 -1.57474 -1.1761 -1.16782 -1.47151 0.490653 -1.08717 0.489628 0.400664 -0.77 -0.71 -0.280167 -0.555677 -0.419117 0.213374 -0.586262 -0.256571 -1.1162 -0.0496867 -1.26666 -1.86531 -1.26156 -0.906979 0.0808167 0.0848826 -0.79598 -1.23341 0.337561 -1.03758 -0.854178 -0.954956 -1.59072 -0.611859 -0.386095 0.444289 0.0798886 -0.88766 -0.53 0.34 -0.940699 -0.480254 -0.633534 -1.01853 -0.0159968 0.126258 -1.18286 -1.2156 -1.53772 0.189281 -1.48621 -0.0305598 -1.30418 0.579032 -0.823432 0.350556 -0.0684763 -0.219614 -1.48853 -0.582333 -1.45277 0.120685 -0.493244 0.197346 -0.874641 -0.0214853 0.719994 -0.32 0.390517 0.0358901 0.420751 -0.421714 -0.467973 -1.25204 -0.107402 -0.375421 -0.149399 -1.21597 -1.39262 -1.15094 -0.805717 1.1726 0.520719 0.264205 0.905072 -0.793624 -0.364816 -0.830201 -1.71562 -0.81707 -0.333541 0.959222 -0.324289 0.887105 0.169999 0.34 0.562927 -0.14224 0.752963 -0.679356 0.5903 0.783754 -1.37579 -1.03241 -1.0078 0.316066 0.267729 0.908946 -0.0839472 1.49829 -0.510367 0.277629 -0.825213 -0.075516 -0.724132 -2.37281 -0.81008 -0.679247 0.220375 -0.855649 0.211227 -0.825387 -0.13 0.37 0.409676 -0.506531 0.241132 1.23766 0.945274 0.266983 0.00796938 -0.582943 -0.349485 0.0957989 0.132024 -0.0501728 -0.537729 0.223192 0.0861787 -0.428985 0.110487 -1.27059 -1.58878 -1.13894 -2.11468 -0.478662 0.487796 -1.09851 -0.836533 -0.748981 -0.67 0.53 -0.105537 0.272208 -0.613348 1.03065 -0.481228 -0.42729 -0.926006 0.14161 -1.12737 0.250225 -0.868014 0.514489 -0.0757743 0.207181 0.448094 -0.937221 0.671643 -0.487277 -1.85391 -1.46586 -0.494618 -1.81892 0.0392074 -0.755053 0.664643 0.918181 0.360004 -0.94 -0.149865 -1.28102 -1.30144 0.872042 0.21724 0.234251 -1.28103 0.0273106 -0.829509 0.623755 1.04894 0.984682 0.367709 0.49967 0.603077 0.774911 -0.860635 -0.467454 -2.02495 -2.07988 -2.12107 -1.62626 -1.16178 -0.181759 -1.04624 0.82329 0.4 0.3 -0.652812 -0.554923 -0.123446 -0.281815 0.302463 0.311261 0.373215 0.502699 0.455933 -0.11929 0.274128 -0.825291 -0.609652 0.250241 0.454322 -0.577275 0.761785 -1.51338 -1.17373 -1.97844 -1.28687 -0.162342 -1.50569 -0.503665 -0.27265 0.211322 -0.66 0.169998 -0.394068 0.585196 -0.30641 -0.840079 -0.704958 -1.04202 0.565297 -0.156225 -0.171245 -0.19849 -0.0860831 -0.940604 0.126969 0.59668 0.575124 -0.210004 -1.02345 -0.0392123 -0.6402 -0.985805 -2.24728 -0.162719 -1.32729 -1.3332 0.572069 -0.990384 -2.65611e-11 0.809994 -0.124255 -0.801198 0.738254 -0.670826 0.145833 0.50609 -0.357582 -0.841807 0.945672 0.65804 0.393712 -0.339134 0.597407 0.13921 -0.43514 -1.32999 0.6004 -1.26798 -1.27003 -1.16494 -1.45645 -0.472616 -0.361063 -0.926107 -0.275121 0.776185 0.51 0.389897 -0.849006 -0.0146514 -0.410874 -0.385935 -0.316541 -1.35667 0.182315 -0.443495 0.357966 -0.550625 0.418249 -0.058036 -0.285221 -1.34921 0.295837 -0.762209 0.202562 0.409902 -0.105118 -1.60921 -0.630303 -0.004396 -0.768304 -0.834266 0.565528 0.203508 -0.74 -0.430003 -0.665123 -0.288505 0.0843393 -0.371464 -1.94363 -1.71555 -0.26189 0.142599 -0.730201 -0.788284 -1.07907 -1.24524 -0.0631517 0.198388 0.387568 -0.984955 -0.14162 -1.07108 -1.26032 -1.66102 -0.97863 0.444446 -0.397197 -0.331743 -1.0234 0.241193 0.67 -0.07 -0.366945 -0.831173 -0.727144 -1.14305 -0.788411 -1.3736 -0.165415 -1.2135 -0.888482 -0.0291437 -1.46298 -0.640342 -0.544714 0.172909 -1.22285 -0.610391 0.368634 -0.206258 -0.367789 -0.66004 0.0145887 0.726416 0.481254 0.955342 -0.405894 -0.21242 0.2 -0.86 0.381666 -0.711035 -0.229798 -1.05407 -0.951825 -0.997577 -0.403437 0.190812 -0.367469 -1.17995 -0.489954 -0.996445 0.285491 -1.03878 -0.669716 -0.500482 -1.05156 -0.892241 -0.645206 -1.2905 -0.956976 -0.175272 0.820702 0.026762 -0.545241 0.39183 -0.82 0.289999 -0.347207 -0.00386226 -0.0662121 0.242276 -0.911339 0.549567 0.0311671 -0.207576 -0.949316 -1.00924 -1.27343 -0.392333 0.894806 -0.624273 -0.0299265 -0.770477 0.316571 -0.251857 -0.77583 -0.866321 -0.856076 -0.353423 -0.367158 0.476215 0.30384 0.661465 -0.39 -0.810007 0.727449 0.414794 -0.742481 0.290109 -0.540159 0.68075 -0.163152 0.715863 -0.657266 -0.346873 0.540111 0.392202 0.246632 0.0568112 0.542844 -0.243156 -0.590792 -0.38125 0.233545 -0.76942 -0.889173 0.718363 0.913868 0.886968 -0.313798 -0.0410338 0.86 -0.86 -0.939512 0.364608 -1.24817 -0.624801 0.780721 -0.290762 0.0603055 0.243704 0.315031 -0.30635 -0.214564 -0.708715 -0.0490265 0.548374 -0.188578 0.198054 0.920249 0.825659 -0.518654 -0.273984 -0.619744 -0.280899 -0.965876 -0.509015 0.325193 0.659936 -0.83 -0.96 -0.0525812 0.789919 -1.04426 -1.09043 0.270218 -0.413836 -0.141117 -0.746359 0.11021 0.897182 -0.805192 -0.840458 -0.475266 -0.22753 -0.408449 -0.833818 -0.0968433 0.996413 -0.793189 -0.931641 -0.788071 -0.999563 -0.356099 0.299159 -0.396951 -0.619994 -0.71 -0.75 -0.304066 -0.350535 0.979489 -0.680853 -0.0296749 0.600001 -0.367406 -0.289827 0.490348 0.26995 -0.159594 -0.575445 0.24794 -0.971475 -0.802078 -0.353709 -0.844747 0.992437 0.536653 -0.428915 -0.372782 -0.0788808 0.321924 0.139062 1.01334 -0.669994 -0.86 -0.08 0.889919 0.95817 0.651092 0.499548 -0.623039 -0.641149 -0.0727059 -0.257734 0.592487 -0.129173 0.278872 0.141636 0.599696 0.288891 0.509514 -0.772245 -0.618783 0.910279 -0.46899 0.327819 -0.959756 0.951475 0.0854067 0.603707 -0.379081 0.2 0.62 -0.84 -0.51 -0.09 0.47 0.98 -0.01 0.79 0.239599 -0.77 0.66 0.48 0.07 -0.6 -1 0.83 -0.62 0.15 0.46 -0.38 -0.5 0.85 -0.41 0.28 -0.64 -0.99 -0.7 0.07 -0.23 
26.5895 0.14 -0.17 0.76 0.04 0.493276 1.17956 0.354763 0.924412 -0.425566 0.164091 0.643679 -0.969977 0.0954108 -0.0945199 0.781746 -0.984232 -0.69275 1.48193 0.861637 0.463489 -0.86 0.890001 -0.86 -0.23 -0.23 -0.34 0.25 -0.19 0.16 -0.06 -0.447639 0.0610065 -0.465776 0.190973 0.743426 -0.529138 -0.615274 1.3542 3.03464 1.70569 -0.37899 -0.680642 0.151248 -0.0323577 0.704392 -0.831857 0.677163 -1.18825 -0.196162 -1.62252 -0.643899 1.09204 0.0848386 0.0600103 -0.130862 -0.46 0.11 0.143959 0.889264 0.132777 -0.208266 1.89609 1.78785 -2.78155 -5.84641 -9.19975 -5.8163 -2.74171 -2.8272 0.730472 4.65684 4.03043 -3.0068 -6.11927 -0.649443 -5.96938 -5.39061 -3.94815 -0.533203 2.07642 1.16753 -1.05004 0.641865 0.03 0.85 -0.154375 2.55754 4.61593 3.53283 4.54232 4.81317 1.79313 -2.7532 -10.8426 -7.96125 -2.74409 -3.78465 -3.48399 -0.796979 -3.43519 -11.5548 -13.4401 -10.6254 -10.0402 -3.66677 1.64556 4.24651 6.15234 4.19888 -0.651864 -0.386947 0.689583 -0.39 0.960569 1.33252 3.82558 4.45322 5.72315 8.79333 5.48676 3.0294 -2.90484 -6.35486 3.55582 -1.97039 -2.65567 -1.60843 -1.74573 -3.24113 -2.49826 -10.0514 -3.61199 4.63988 8.33509 7.30569 6.56336 2.61802 -1.33961 -1.14186 -0.880261 -0.93 0.0851631 -1.21159 0.29331 1.75218 2.98533 7.93289 10.0119 3.21964 -1.27683 -10.054 -0.606855 0.521508 -4.87826 -2.34762 4.55645 6.48377 0.986731 0.710049 5.45874 8.36131 9.05176 7.62457 5.03627 2.47327 -0.618185 0.41006 0.549475 0.33 0.498124 0.284961 -0.805151 -1.04671 1.12314 5.98799 5.14398 3.80728 -2.39048 -9.06862 -2.76397 -1.90399 -1.21615 0.279292 1.71754 6.3942 7.33703 9.12046 7.39975 7.22001 8.92831 7.21525 4.93952 2.7872 -0.70237 0.704629 0.89 0.42 -0.389683 -0.0662451 -1.00876 0.295515 1.0872 0.110165 1.99429 3.2993 -1.87924 -3.73075 3.84769 6.74444 6.81457 -2.74077 -2.81911 10.713 7.90989 2.81619 1.72258 7.95953 9.73847 7.40296 5.84022 4.95756 0.240091 0.273876 -0.74 -0.36 0.99006 -0.314358 -0.0462212 0.629677 -1.38085 -2.56541 0.155349 1.3771 -0.571415 2.3969 7.05748 8.44586 3.37086 -1.4874 3.38682 6.21917 5.51547 7.46234 4.42449 10.0406 7.75651 7.97345 6.46905 5.14478 -0.748145 -0.0670354 -0.583146 0.59 -0.787628 0.793475 -0.614345 1.67335 0.234379 1.93651 7.0591 5.12934 0.870236 6.81793 4.86531 -0.506165 -6.25288 -2.66554 2.55284 2.64272 11.1031 12.0052 8.22865 10.4224 8.61837 7.54279 5.6303 4.687 0.0543578 0.406819 0.907673 0.63 -0.675563 -0.230126 1.2311 4.41452 4.07808 9.57715 10.4659 9.31684 7.76314 9.70502 5.17542 -4.04277 -8.41895 -8.55084 -2.93116 7.70197 15.1706 18.3649 12.5471 11.0574 9.20669 8.71452 7.00858 4.74108 0.255554 -0.0904557 0.14 -0.48 0.722022 1.23506 4.63142 6.51208 5.8202 10.6715 10.888 8.04604 8.92599 7.60037 6.75537 -2.6247 -8.01958 0.0810562 2.98496 11.599 12.9304 12.8021 11.8207 7.63081 6.88008 7.10169 6.65295 3.27248 0.873399 0.710069 0.13 -0.46 0.734933 0.137704 5.02713 7.52934 6.10206 7.65836 8.41681 6.70573 8.15451 9.91515 12.6627 6.97972 8.2074 7.5729 4.7772 5.43297 5.50225 6.82147 6.54252 4.61189 5.80262 8.50988 5.99788 4.60776 1.65633 0.367161 0.68 -0.62 -0.820133 0.515018 4.84839 6.73328 5.63981 5.89122 7.0513 7.60907 4.31764 2.32166 4.17339 3.6919 5.9787 7.37856 6.62797 4.44538 2.9798 -4.39932 -0.638443 6.56583 10.1551 10.5392 6.52407 5.44304 2.01476 0.214994 -0.17 -0.8 0.482521 2.41288 4.52471 5.98568 5.84765 7.25816 9.41881 6.102 2.54164 -2.75418 -1.99719 -5.32382 -2.63734 0.520775 1.58771 7.53879 8.45014 0.0452286 4.00907 9.05437 11.7927 8.92574 8.08809 6.47144 0.899278 -0.660082 -0.71 0.886044 -0.443108 2.95348 5.51867 7.57195 9.20442 8.13952 10.1369 7.18421 2.46332 -1.66331 -2.88427 -6.11395 -6.72757 -4.16516 -0.310822 0.230039 4.39765 -0.906219 3.28111 5.0764 9.10856 8.89373 8.11215 5.76614 2.56731 -0.803824 -1 -0.984542 -0.00373668 2.22375 7.18512 6.60893 8.11406 10.2858 11.8889 8.0715 3.90901 -3.08958 -3.33523 -9.44114 -11.4128 -6.21539 -9.36761 -3.51115 4.56081 4.51695 6.97577 7.40445 9.15232 7.79969 7.08965 6.57704 2.07161 -0.100035 -0.27 0.853205 -0.698569 1.66103 7.73339 8.80288 9.1403 9.0684 8.263 0.856652 -2.0033 -2.15288 1.52332 -0.861906 -7.07928 -8.62972 -13.0666 -1.76101 12.5791 15.7532 10.4428 8.18237 5.54411 8.81893 9.44292 9.20245 2.71322 0.713738 0.04 0.639146 0.596059 3.25203 6.79055 8.97772 5.67538 3.16989 1.9969 -1.37291 1.9901 2.9457 9.3609 4.07067 -4.99794 -8.61272 -10.369 1.95181 18.5817 20.4121 13.4785 6.44324 5.24484 7.11489 8.9392 10.4247 3.55967 -0.850016 0.08 0.14 -0.577657 1.20214 6.384 7.02718 6.2541 1.10509 -2.46041 -3.15317 2.33389 3.75671 6.23883 2.81082 -2.52644 -0.77246 -2.72016 3.9985 21.1528 20.1364 15.2196 7.24116 5.3723 7.30223 9.31304 9.42041 3.21007 -0.46295 -0.89 0.37 -0.613198 1.88392 4.60763 5.49944 9.43797 5.33006 1.14069 -2.33518 -1.37161 6.37667 1.53732 3.147 1.82353 4.61877 3.87101 7.95756 16.4385 13.5311 14.0674 6.9139 9.43156 10.9595 10.8484 7.39874 0.204015 0.282531 -0.48 0.189898 -0.680328 1.35637 3.84443 3.6494 8.52256 6.66503 1.83112 -0.175293 -1.54398 2.6662 4.15415 0.887968 7.32919 3.68661 0.345881 4.56736 5.24895 3.42388 6.44557 5.57146 14.0171 12.8191 9.92334 5.3423 1.71304 0.752299 0 -0.0705254 -0.781032 1.05496 0.934802 2.31807 2.62072 4.58531 6.04597 1.66142 2.25433 6.22084 4.60468 3.36378 5.31145 -1.63328 -7.64742 -7.21863 -12.4734 -13.6328 -4.89774 1.57362 11.0811 8.50397 6.34246 2.79161 -0.0096928 0.144067 0.1 0.67 -0.219793 1.03269 0.70068 1.27852 1.44249 3.4495 7.74327 7.55315 6.35094 3.16316 3.00894 -5.6702 -3.96908 -6.22335 -13.6138 -15.8678 -26.1169 -27.2395 -12.8686 -2.02909 6.87042 6.14637 4.18412 2.69771 -1.91988 -1.14029 -0.13 -0.59 0.929202 1.3492 0.162207 0.632585 1.1708 3.74988 5.90716 6.71575 4.20646 -5.46853 -7.94199 -10.8875 -13.4595 -15.3174 -12.5359 -15.3286 -23.7457 -20.0914 -11.6376 -3.08749 3.12175 4.38863 2.4848 1.5039 0.718448 0.434695 -0.34 -0.27 0.919061 0.72359 0.516582 1.63918 1.99068 0.0533478 0.197348 -0.757948 0.00656528 -1.66498 -2.8714 -5.83733 -6.74935 -10.5377 -10.6086 -9.31215 -13.152 -9.08055 -7.48703 -5.58714 -2.24032 1.40102 2.97802 1.64125 0.227435 -0.338715 -0.67 -0.16 0.072208 1.03183 0.573626 0.968705 0.844429 0.39263 -1.43856 -0.951368 -0.413672 1.30339 0.958437 3.73787 0.455127 0.0973017 -0.933896 -0.960059 -1.55549 -2.02187 -0.314731 -1.6116 0.314759 0.442066 1.30785 -0.544086 -0.477331 0.34 0.08 -0.09 -0.07 0.7 -0.4 0.210001 -1 -0.15 -0.559543 -0.873083 0.576717 -0.932973 0.67 0.22 -0.56619 -0.419943 0.52 0.22 0.840236 -0.99 -0.04 -0.13 -0.79 0.7 0.56 0.35 0.57 0.3 -0.97 
87.5754 0.82 -0.96 0.07 0.35 -1.07497 -1.24043 -0.0953519 0.529771 -0.903438 -1.10558 0.13422 0.0599206 -0.322714 0.509954 -0.362184 1.46584 1.69146 0.880375 0.852046 0.445845 1.13837 -0.861853 0.989924 -0.419998 -0.409999 -0.68 0.69 -0.38 -0.06 0.491811 -0.119619 0.434307 0.852695 -0.734966 -0.597633 -0.978809 -2.31104 -3.74536 -2.76881 -1.61756 -1.53279 0.386604 1.18743 3.49281 2.59534 2.71858 2.49241 0.946256 -5.65972 -4.2823 -1.83595 1.33047 1.77563 0.851603 0.165847 -0.73 0.15 0.0166435 0.491646 -0.269867 4.25698 -3.59739 -8.90011 -5.69478 -14.5632 -16.5092 -4.597 6.52952 12.5 13.5461 18.81 19.7053 7.95672 -3.38957 -7.89317 -20.8222 -25.0988 -18.9757 -8.11656 7.07618 11.8271 3.93942 0.745255 -0.71 0.99 1.00998 1.93414 6.70687 14.7245 2.30255 -7.47837 -9.28966 -7.61071 -10.6496 1.75501 21.5408 38.1645 37.9919 34.0868 28.0988 7.70689 -13.7735 -37.4414 -53.9035 -42.6693 -37.6551 -7.24914 14.2034 21.3221 11.2979 1.24424 -0.48 0.16 0.449475 1.62643 16.2175 28.5129 19.808 5.68023 4.69111 11.1533 -1.68219 7.40577 25.5226 41.9411 46.5791 35.2614 13.8865 -4.64268 -25.3463 -51.5432 -56.7729 -40.41 -29.1848 7.11806 17.726 30.7016 17.1933 1.43751 0.55 -0.55 0.610898 2.24834 14.9972 36.8374 31.297 17.9654 4.64734 9.59983 0.692128 -5.14419 8.04814 34.5098 35.3956 25.4008 8.32191 2.64435 -17.1739 -34.1219 -29.3834 -19.0191 -3.19782 28.9844 29.9874 28.7913 13.018 1.49046 0.69 -0.38 0.486295 8.16904 28.6443 43.2564 39.8792 31.7117 -0.403404 -17.5039 -41.0357 -46.3072 -15.0792 20.5609 26.2281 26.924 15.2899 6.38341 -14.2123 -19.7738 -1.68367 3.92241 9.54321 43.7855 37.0502 26.777 9.90249 0.0473677 -0.71 0.45 0.761616 11.0148 35.0523 50.892 58.814 38.79 -8.74619 -35.4405 -68.7478 -68.6658 -26.5406 28.3467 45.4139 44.1632 37.4572 16.3654 -2.30914 2.93872 14.8311 -3.13691 8.4485 37.1553 36.8806 35.1543 7.41089 0.334303 0.49 0.66 -0.105727 9.5786 30.5779 49.6151 52.4168 26.9611 -6.23095 -27.212 -46.7781 -50.1303 -10.005 20.3243 19.0649 35.3735 39.6999 44.4057 40.8471 19.3055 18.6954 12.9774 27.1035 33.5375 40.8784 46.0142 18.258 1.81194 -0.803498 -0.37 1.98112 15.0128 38.1965 56.0232 67.9985 37.4197 4.44558 -26.0216 -31.7741 -30.8256 1.04379 9.70045 10.8306 19.2377 30.5954 51.2247 28.6043 5.9949 6.32298 9.51694 24.5491 41.7391 55.6792 64.5364 28.0883 1.51194 -0.79 -0.3 2.4615 12.8838 28.5136 43.9896 62.8241 37.3292 -5.5171 -29.4974 -26.052 -24.0237 -16.0312 -2.9777 9.38005 20.1686 34.2812 32.4666 0.200177 -12.3528 -11.2423 -1.93658 21.9651 35.9623 49.9669 58.7043 20.1016 1.32953 -0.37 0.31 0.40218 8.09011 34.2285 54.4368 62.5787 35.7806 -20.9927 -28.4456 -5.73636 -5.40482 0.382278 19.0644 16.3785 14.1509 38.7103 36.4659 11.1383 -7.45849 -10.1188 -3.24237 26.8712 42.2959 45.3198 49.4697 18.6503 0.414133 -0.5 0.58 -0.0755888 5.08657 36.7521 65.5619 65.3858 31.024 -7.76915 -23.6395 -18.5663 -11.3158 2.2245 17.9739 6.42662 -10.5268 25.5268 41.808 29.9482 3.1495 -3.96248 -4.096 27.4616 49.046 45.8489 48.0808 27.907 3.4638 0.139949 0.97 1.54849 10.1012 36.4698 64.6104 83.0918 48.2107 7.91969 -29.25 -31.5099 -29.528 -26.5 -7.07314 -4.0369 7.70173 35.6559 35.0192 28.6238 17.9853 -6.26393 -14.619 12.2741 40.8196 32.3646 40.0468 29.0928 5.00975 0.62 -0.99 0.818361 14.5478 39.5983 55.3216 64.6424 28.3467 -0.523586 -33.8812 -42.238 -34.9151 -20.5072 -18.0857 -18.1147 2.21791 8.97225 2.44276 2.77888 -16.776 -20.0081 -15.4081 8.68096 33.838 26.8021 29.6125 24.7146 3.25023 0.14 0.62 1.25736 16.6367 40.5207 40.0748 33.8733 -6.50619 -29.4898 -52.3454 -34.0802 -5.63245 11.308 -0.299382 -16.8439 -12.8917 -18.2477 -9.18445 -20.7248 -27.5191 -5.52749 10.5103 33.8429 51.0868 43.1175 36.8591 29.7042 2.83126 -0.73 -0.79 0.863415 20.4833 49.6517 36.3014 8.06946 -21.391 -33.4304 -36.3176 -14.1287 4.32657 9.53755 2.75003 -15.8744 -28.0685 -25.4527 -6.61832 -24.4524 -12.1862 11.9545 26.9925 48.2596 53.4925 50.0411 44.6754 27.5388 2.02407 0.699998 0.49 2.18532 16.5055 42.1214 16.7147 -1.22939 -15.3637 -10.3696 -32.5632 -26.8718 4.12973 25.4583 34.0459 6.65944 -8.4332 -8.21545 -7.95902 -16.8048 -16.2266 -8.10833 13.7735 34.2617 49.6926 52.276 48.7118 19.9517 2.70425 0.59 -0.623498 2.15701 18.6643 38.6981 16.3539 24.4402 19.9904 -0.61283 -34.3062 -42.3502 -13.4788 15.7031 38.6105 34.9785 18.0505 0.174794 5.41965 -24.1687 -45.7637 -43.9001 -4.04267 17.11 31.7946 39.9546 34.7836 14.2585 1.77409 0.11 -0.09 1.03507 17.5349 30.1031 10.7515 26.6055 17.5832 -4.62844 -27.8896 -36.3376 -17.332 6.22541 36.7617 35.1113 14.2768 8.56204 -8.52772 -45.3132 -66.6932 -48.7734 -7.0694 4.97685 6.75402 22.2333 26.4347 11.674 0.012252 0.88 -0.02 0.820005 2.09625 5.8708 5.67979 14.3111 -5.89513 -35.8102 -56.4904 -49.9214 -14.3665 24.7936 53.0711 29.7281 17.7803 2.25736 -23.4804 -54.4842 -75.5195 -57.1282 -38.1668 -24.4487 -12.3582 -0.897043 13.4822 3.97724 1.21784 -0.28 0.58 -0.875061 -12.5072 -0.386201 2.23844 10.7332 -13.8678 -45.4676 -55.3466 -34.6397 2.72651 22.7835 25.183 22.4751 12.8667 -0.0629839 -34.0282 -66.5822 -82.3736 -60.6189 -43.3596 -33.2849 -22.5853 -11.9052 8.42291 -2.76727 -0.306498 0.08 -0.76 0.697777 -0.983303 3.61096 6.87469 -10.0344 -28.3858 -46.7363 -29.6816 -0.0996937 22.2971 31.3467 17.1512 9.71241 0.975836 -33.1072 -75.0516 -88.4906 -78.7012 -50.7841 -39.9409 -31.8355 -18.0498 -14.7879 0.9094 -1.77415 0.328319 1 0.18 -0.564193 10.734 19.3658 9.58519 -4.52358 -13.5106 -26.9935 -13.1815 11.7099 40.0417 34.2377 12.7593 -4.23448 -20.6624 -51.8433 -70.1158 -78.5806 -73.592 -55.3063 -41.7093 -32.0245 -15.085 -14.0882 -9.65972 -12.5923 -0.473632 -0.99 0.63 0.522444 7.62727 14.0851 9.22581 -1.03324 -8.76793 -15.8783 -9.01795 9.954 18.1215 8.95518 -4.62031 -21.3532 -37.9829 -47.8912 -54.488 -66.0898 -66.464 -54.1646 -33.4159 -15.2371 -8.5436 -10.2376 -11.1587 -12.1037 -2.43016 0.58 -0.01 -0.229029 3.66649 6.18095 7.85434 9.57254 3.38805 -10.9057 -5.18695 8.8626 3.16959 -2.27241 -6.52362 -10.1831 -18.6162 -16.3254 -22.6738 -33.0198 -47.4819 -32.4682 -18.5455 -6.90906 -1.29514 -6.66795 -6.95822 -6.15826 -0.21492 -0.86 0.33 -0.727007 -0.457778 -1.57582 -0.392052 1.81795 1.08668 -1.60325 0.125125 0.505221 0.0280189 -2.0599 -1.68256 -2.87845 -1.63954 0.659786 -2.38129 -2.81964 -4.67072 -3.61046 -2.00236 -1.25402 0.766181 0.298908 -1.07758 -0.880624 -0.459417 -0.42 0.37 -0.21 0.98 0.109972 0.903676 -0.198582 -0.261221 0.850174 0.335934 -0.491728 0.832354 -0.02 -0.389992 0.175246 -0.110939 0.530098 -0.429976 -0.440017 -0.44 0.59 -0.2 0.451939 -0.987942 -0.8 -0.07 0.65 0.23 0.77 
-1.22599 0.11 0.39 -0.74 0.62 -0.35 0.55 -0.45 0.78 -0.89 0.82 -0.8 0.04 0.23 0.76 -0.371385 0.0371536 -1.00285 0.209692 1 -0.91 1 -0.0499995 0.06 -0.57 -0.23 -0.81 0.22 -0.61 -0.98 -0.48 0.32 0.29 0.15 0.310002 -0.759995 0.822397 -0.889366 0.2 -0.034166 -0.0861395 0.175045 -0.720219 0.0708594 -0.295512 -0.0973411 0.809227 -0.290312 0.76738 0.0203796 0.686765 -0.532773 0.920003 -0.85 -0.980001 0.99 -0.4 -0.65 0.77 -0.6 -0.180402 0.709174 -0.462526 -0.939938 -0.865624 -0.357786 0.60876 0.60349 -0.501678 0.166326 -0.912894 0.315942 -0.954328 -0.927931 0.973644 0.401028 0.478028 -0.429567 0.0607432 0.0371356 -0.799998 0.510025 -0.720022 0.779999 -0.43 0.86 -0.6 -0.838121 -1.13438 -1.16377 0.528006 -0.999837 -0.315704 -1.06781 0.134695 -0.0413987 0.505437 -0.545534 -0.479024 0.348333 -0.135838 -0.563707 -0.0139856 -0.900483 -0.314067 -0.112576 -1.16152 -0.30348 -0.460333 0.348144 0.0743114 -0.54 0.61 1 -0.893208 0.210108 -1.87872 -0.596569 -1.11539 -0.549671 -0.39132 -1.90841 -0.342969 -0.915072 -1.24024 -1.49733 -0.915867 -0.711605 -0.883268 -1.67033 -1.69943 -0.42952 -1.04995 -1.33924 -1.49494 -1.84784 -0.306266 -1.64861 -0.487513 -0.793208 0.41 0.06 -0.467611 -0.661299 -1.48176 -1.41514 -1.06505 -1.56486 -0.259244 -0.474861 -0.268281 -0.498281 -0.328357 -1.81963 -0.165208 -0.478283 -1.47828 -1.20828 -1.00831 -1.28833 -1.72853 -1.71056 -1.28775 -0.209331 -0.522228 -0.498235 -1.15911 -0.307611 -0.85 -0.86 0.320039 0.574332 -1.87899 -0.622546 -0.911911 -1.51474 -1.46813 -1.63375 -0.778281 -0.492683 -1.22273 -1.08282 -1.2528 -0.682686 -1.94268 -1.70268 -1.65268 -1.11268 -1.94268 -0.842685 -0.612641 -1.34146 -1.84882 -0.515421 0.162393 0.282385 0.91 0.14 0.820052 0.422594 0.161136 -0.464162 -0.699536 -0.622949 -0.940512 -0.727952 -1.61538 -1.70538 -0.189784 -0.17627 -1.07828 -1.49268 -1.26268 -1.45268 -1.96268 -0.222683 -0.608283 -1.24828 -1.94709 -1.48084 0.090453 0.262157 -0.312305 0.65997 -0.55 0.51 0.77 -0.0314464 -0.226681 -0.597786 0.747009 0.573679 0.51878 0.65986 -0.632899 -1.02611 -0.820134 -0.719408 -0.978281 -1.41268 -0.732683 -1.03828 -0.958281 -0.749475 -0.608658 -1.14864 -0.515315 0.717092 -0.336338 0.517892 0.556848 0.0299255 -0.72 -0.05 -0.907046 -0.570888 -0.542446 -1.08455 0.179105 0.081769 -0.896004 -0.940653 0.229599 -0.349006 -0.816375 -0.617462 -0.358281 -0.338378 -0.608377 -0.148378 -2.04447 0.182047 -0.983265 -0.242495 -1.09421 0.0999641 0.480166 0.0513713 -0.499712 0.0539326 -0.81 -0.93 -0.937349 0.626817 0.647369 -0.272802 0.347204 0.488125 -0.0966147 -0.737672 -1.0937 -0.323083 -2.01828 -0.378305 -1.52881 -0.316649 -0.386097 -1.09027 -0.404076 -0.180724 0.625364 -0.32248 -0.294703 0.611863 0.479698 0.337584 0.190335 0.362714 0.24 0.45 -0.360928 0.889175 -0.822082 0.0756502 0.732709 -0.703302 -0.902217 -0.113631 -0.386945 -0.608279 -1.7884 -0.234994 -1.59409 -0.455343 0.475855 -0.172379 -0.245251 -1.0507 -0.785041 0.30335 -0.503428 0.528361 -0.118748 -1.14139 -0.814191 0.353446 0.49 -0.9 0.31 -0.810069 -0.72027 0.355021 -0.498516 -1.34836 -1.04589 -1.72507 -1.29828 -0.162682 -1.32312 -1.67513 0.313889 -0.531061 0.500806 -0.331801 0.475617 0.684988 -0.926216 0.0090843 -1.03047 0.308788 0.329135 -0.830456 -0.27362 -0.869453 -0.84 0.96 -0.200001 -0.330027 -1.01812 -0.101625 -0.078703 -1.48832 -0.968287 -1.81828 -0.642683 -1.76268 -0.822688 -1.78216 -1.67817 -0.165625 -0.260059 -1.11195 0.683721 0.515265 -0.358085 -0.375442 0.239272 -0.373465 -0.808239 -0.891628 -0.261797 -0.746654 0.01 0.75 -0.240006 0.919546 -1.271 -1.44806 -1.9183 -0.882696 -1.79269 -0.662683 -1.15268 -2.06269 -0.452713 -0.868406 -1.59466 -0.976546 -0.602438 -0.602408 -0.601254 -0.989163 -0.867604 -0.136891 -0.956782 -1.31088 0.236708 0.225387 0.075604 -0.339308 -0.15 0.36 0.0698118 -0.771973 0.48257 -1.18935 -0.74456 -1.19834 -1.97832 -0.978313 -1.33269 -1.32268 -1.91269 -2.11272 -0.788849 -0.279459 -0.939471 -1.1989 -2.10844 -0.20814 -0.49592 -0.970929 -1.52394 -0.694659 -0.316714 0.0447677 -0.677504 -0.079536 -0.67 -0.37 0.389949 -0.231538 -0.496483 -1.00754 -1.5567 -0.471632 -1.50669 -0.461493 -1.92839 -0.882677 -1.23268 -1.14268 -1.08272 -0.172789 -1.48278 -1.95271 -1.82269 -1.84427 -0.248279 -0.663643 -1.34481 -0.27875 0.486042 0.194937 0.548049 0.460045 0.08 0.86 -0.810012 -0.0402585 0.699494 0.629325 -0.311215 0.676223 0.351432 0.477381 -1.00529 -2.10268 -1.28268 -1.63272 -1.01272 -1.71272 -1.1027 -0.898289 -0.278287 -0.280677 -0.187145 -1.79582 -1.15318 -0.0571292 -1.07078 0.604305 0.0555654 0.519718 0.03 -0.78 0.859987 -0.610184 -0.630445 -0.880965 -0.131754 -0.501769 -0.37567 -0.655102 -1.63844 -2.1263 -0.709978 -1.53744 -0.547224 -0.667135 -0.406881 -0.240555 -1.77958 -0.7167 -0.683499 -0.252404 -0.861029 -0.896302 -0.576396 -0.612535 -0.614516 -0.551186 -0.35 -0.02 0.879995 0.409349 -0.761527 0.97829 -0.561628 -0.158034 -1.02881 -1.62328 -1.26823 -1.67628 -0.675583 -0.492749 -1.97978 -0.296655 -1.299 -0.399556 -0.249671 0.63739 0.667481 -0.0710347 0.85414 0.20622 -0.407398 0.687353 -0.395206 0.506619 0.76 -0.16 0.359975 -0.00134363 -0.574781 -0.468278 0.520988 -0.738242 -0.921438 -1.54388 -1.37823 -0.238275 -2.07952 -1.01122 -0.957904 0.544891 0.429826 1.19097 0.549954 1.57844 1.54311 -0.0433284 0.402147 -0.184036 -0.0311106 -0.784793 0.355224 -0.943402 -0.03 -0.61 0.288542 -0.0707743 0.279618 -0.692433 -0.457937 -0.458967 -1.49833 -0.752752 -1.2394 -0.447638 0.299182 -0.253184 0.0683456 0.150242 1.16311 1.38919 0.11476 -0.112663 -0.483487 -0.5472 0.261675 0.23096 0.270893 0.197802 -0.107447 -0.853163 -0.89 -0.21 -0.801532 0.243702 -1.0642 -0.329995 -0.134523 -2.01857 -1.08902 -1.12748 -1.66796 -0.588519 0.0643096 0.152694 0.994837 0.69137 0.553978 -0.206818 0.673887 -0.104548 -0.153289 0.117538 -0.985818 0.336292 -0.613445 0.154498 -0.219595 -0.800447 0.92 -0.03 0.812627 0.505481 0.46167 -1.15475 0.204379 -1.98904 -0.947308 -0.220198 -0.857102 0.600315 1.17047 -0.0910983 -0.271919 -0.538176 -0.190098 -0.32016 -0.439374 0.0146763 -0.861316 -0.872191 0.00753456 0.426349 0.416053 -0.302495 -0.229187 -0.304657 -0.18 -0.2 0.649382 0.837792 0.635308 0.432843 0.293533 -0.00756506 -0.395314 -0.209916 0.044557 1.12217 0.157164 0.235507 -0.0311854 0.809169 0.539584 0.469966 0.138639 -0.376849 0.925914 -0.99872 -0.378056 -0.138485 -0.878747 0.871886 0.779405 0.42 -0.64 0.56 -0.469607 -0.49521 0.0139873 -0.0403164 0.907968 0.44156 0.905754 1.48032 0.185538 0.29414 -0.520726 0.0482737 -0.6647 -0.0284076 -0.896935 0.824441 -0.195281 0.607238 0.417894 -0.362755 0.788571 -0.7328 -0.592779 0.89925 0.24 -0.33 0.95 0.99 -0.52 0.303985 -0.20792 0.618103 0.0440462 0.819656 0.17 -0.810644 0.514659 0.994659 -0.128864 -0.319995 0.080005 0.690005 0.919936 -0.609999 0.53 -0.54 -0.13 -0.58 0.100001 -0.0100007 -0.02 -0.47 -0.15 -0.72 0.46 -0.43 0.66 -0.26 -0.56 0.41 0.06 -0.53 -0.74 0.51 0.36 0.97 0 -0.5 0.28 0.31 0.51 0.39 0.25 -0.15 -0.94 -0.83 0.16 -0.57 -0.65 0.95 -0.04 -0.22 -0.26 
-6.39071 1 -0.83 0.16 0.93 0.706919 1.19739 2.39844 -2.52452 -1.17119 -0.271352 -0.594087 -0.556365 -0.407877 -0.0396168 0.422753 -0.954697 0.0168269 -0.0379763 -0.722048 0.612407 0.96708 0.631791 0.276796 -0.780006 0.669997 -0.7 -0.53 -0.22 0.99 0.548952 0.373428 -0.238407 1.19781 1.3644 -1.38211 0.210981 0.545699 1.32888 4.41661 4.24628 -1.06539 -0.778225 1.00487 -2.65594 -2.41227 -1.8703 -1.17223 0.792291 0.269224 -0.705653 -0.921557 -2.04358 -0.488472 -1.66682 -0.196502 -0.290062 0.87 -0.432154 0.931745 4.66088 7.36919 15.0626 1.23178 2.78157 14.8997 22.5018 26.3773 20.2007 16.9887 14.4805 5.35684 -7.54946 -21.295 -28.2548 -29.504 -15.6171 -7.27416 -0.217974 14.2328 13.9697 8.20174 2.22361 -0.171302 0.627449 0.73 0.794428 2.52366 13.7156 16.7556 21.5678 18.8168 28.7268 42.6015 54.1492 51.5587 40.886 38.491 27.1217 16.2034 2.57353 -28.7748 -40.2414 -55.8157 -55.0904 -30.4403 -1.72427 12.4304 16.1645 23.7615 9.7516 1.20903 0.0926841 0.01 0.106328 4.19997 16.5081 18.8861 25.4934 25.2451 40.719 54.0448 65.2928 55.5747 37.8095 26.5098 24.6423 19.8519 4.76111 -18.4948 -27.5617 -50.4461 -48.3322 -34.0023 -12.956 3.47213 18.863 29.6373 12.2711 0.386548 -0.981302 0.98 2.00267 5.80392 12.4776 13.7117 33.4785 38.9317 50.3167 57.7706 49.1962 33.7286 17.0181 5.90291 -5.21133 -9.53316 -8.0537 -16.0159 -13.6708 -14.7746 -5.94028 -8.02724 -18.8877 -10.1999 23.4502 19.528 4.46924 -0.656533 0.78002 -0.43 4.75712 6.48052 7.92142 6.89332 34.5788 39.3118 43.3523 42.2958 21.8001 7.44359 1.3777 -16.4326 -39.1604 -32.928 -21.1504 -10.4719 -14.7741 -3.66112 1.55691 1.64222 -7.09012 -0.798664 14.9038 -2.74756 -7.46862 -1.50311 -0.13 -0.63 5.1422 9.76826 8.14276 15.6207 43.0499 38.9166 27.9563 18.7196 -10.6078 -20.0849 -15.462 -19.6259 -15.5325 -5.70182 9.93158 6.15847 -20.373 -8.28699 -11.6329 -10.3051 -16.1202 -9.13728 -26.2159 -22.3603 -4.13359 0.340448 -0.71 -0.23 5.55476 12.4589 7.86701 30.0624 53.9861 40.2556 23.7511 8.13668 1.11145 -13.2557 -26.1309 -10.985 7.13522 1.4883 14.9382 -22.138 -45.2858 -20.4791 -6.89431 8.84669 16.8719 22.5178 -6.80857 -19.9975 -6.02724 1.38202 0.179719 -0.11 3.14861 3.04012 8.32633 34.8174 47.8561 35.377 46.5296 41.7069 26.111 -19.7436 -60.3977 -19.7579 0.239644 16.7325 31.187 -10.8346 -5.81168 -7.20442 18.4926 26.8022 39.4875 32.9204 4.35951 -15.0262 -15.54 0.426538 0.583202 0.34 -1.80806 -22.567 3.334 30.2851 37.3584 46.4565 39.6909 26.6516 -19.2016 -43.5629 -40.7656 -8.77023 7.76553 -1.86428 16.0365 25.1485 40.1983 23.7961 -0.0380461 15.9489 22.6147 34.3106 10.2017 -4.05685 -17.7049 -3.81022 -0.26 -0.55 -1.24311 -32.77 -9.75651 17.0363 31.162 43.9548 22.4906 21.623 -19.603 -1.27145 20.3357 12.3978 17.8289 15.8877 -3.05596 21.3069 47.8345 30.9527 16.1919 24.1646 42.1861 69.1135 27.3072 -11.0076 -9.1301 -4.46447 -0.88 -0.58 -1.29335 -42.8912 -32.8953 18.6072 25.4186 26.616 13.1247 32.132 -13.051 -6.99768 25.6376 19.4393 22.3915 19.9375 16.0509 22.9897 51.5976 25.1596 -7.48927 16.9449 38.5435 50.5852 28.8257 -3.90745 -7.31353 -1.61896 0.7 0.93 -6.48175 -86.5215 -91.6478 -26.8631 -20.9145 -10.7367 21.059 49.9842 18.4247 27.5742 37.0785 28.7794 43.4378 66.1632 68.433 38.1581 16.8712 -21.9892 -41.2316 11.8588 52.4729 52.3491 50.1987 12.0001 -14.1986 -1.49522 -0.67 -0.62 -5.30189 -84.5755 -97.7194 -70.2027 -62.5693 -54.4131 -17.0355 55.9172 65.4037 71.4878 63.5215 50.0764 75.3069 92.1936 86.0879 41.1143 6.48363 -61.0612 -57.9544 4.78518 67.4799 80.6491 72.0547 21.5371 -20.5765 -0.99392 -0.05 0.294117 -3.93227 -64.7691 -84.4152 -98.6265 -102.506 -90.2051 -45.3641 58.3881 86.461 75.2083 74.6282 67.3518 57.6856 51.5451 8.86993 -7.9118 -4.87519 -47.8631 -14.1443 42.3623 58.5311 56.4154 61.0561 26.7537 -14.8577 0.656126 -0.94 0.448372 -7.46323 -57.6734 -77.1778 -94.9394 -97.9723 -82.1381 -26.5131 28.761 62.066 54.758 47.8085 48.5313 32.3431 11.1204 -36.5934 -34.8589 -21.0447 -19.7722 31.0191 77.5951 64.8234 40.1572 51.7797 35.2456 1.39164 0.196952 -0.352547 -0.673094 -3.92118 -55.3831 -91.1367 -85.2316 -62.2662 -53.3069 -26.749 -42.5157 -28.1194 -28.7476 -7.18896 -13.9642 -19.471 -13.5695 -26.7034 -10.6268 -21.1997 17.8723 71.3125 93.4359 81.4454 56.3774 56.4671 28.8567 -3.20103 -1.04407 0.830078 -0.632112 -0.166029 -35.9814 -67.4447 -49.4624 -60.3869 -65.8613 -78.4887 -88.5054 -85.087 -72.9002 -54.6457 -50.6027 -47.6986 -21.9068 -24.3625 -10.8586 -12.8815 20.419 58.8089 76.9522 86.8774 86.1916 87.3579 49.3754 26.1189 3.69719 -0.76 -0.95 2.39892 -34.2039 -46.9293 -39.5781 -65.9624 -89.4562 -94.3142 -78.4927 -48.2867 -46.9762 -38.4666 -26.0777 -28.2245 -24.8861 -28.461 -36.7591 -38.2358 -1.12512 53.9251 75.4536 81.7568 86.3311 95.9143 58.5897 33.7568 3.89585 0.83 -0.82 -1.46919 -46.5287 -49.1192 -33.9407 -59.0596 -81.613 -60.244 -23.2298 -5.09728 -0.275336 -8.35074 -20.5867 -8.6731 8.56261 -8.44319 -17.7465 -32.2395 -1.63824 58.3041 77.0997 80.0913 98.3834 102.404 62.5512 30.5609 3.02468 -0.49 -0.249996 0.214204 -29.6967 -44.3081 -46.661 -67.2417 -58.6775 -36.8432 25.7343 44.2313 21.5279 1.50892 16.843 4.71853 12.8793 0.228673 -7.86777 -17.7575 26.6883 72.5842 87.4488 98.9236 105.344 95.0572 64.7322 27.4744 3.09972 0.09 -0.24998 2.63642 3.31792 -28.6777 -60.5417 -73.6312 -66.6666 -34.3991 12.1656 17.3117 -4.97791 1.9745 0.45821 -6.28898 -18.5338 -21.5001 -5.5517 4.06476 36.2313 62.4949 68.0073 83.0046 86.5452 73.9628 49.6102 20.9639 1.06765 0.69 0.75242 1.69701 10.0665 -20.616 -50.5678 -63.221 -52.8448 -22.277 -1.29238 4.10802 -1.07143 -2.62105 -9.62883 -24.4561 -36.1023 -20.6961 7.61733 6.55125 26.1673 40.1016 43.2311 55.7784 62.304 55.5279 41.2193 17.2866 0.263998 -0.34 -0.923483 0.342503 8.36002 5.18191 -12.7554 -31.7791 -50.6601 -32.0775 -4.18964 -13.2829 -22.3596 -22.0506 -15.1141 -21.2007 -19.1338 4.32987 17.1984 18.8253 21.9302 23.6354 26.5841 25.4584 28.1728 35.0213 32.1467 13.4558 1.11203 0 -0.447891 0.810547 4.90274 5.34254 -3.26429 -23.9614 -45.8128 -45.9538 -30.618 -30.151 -16.8572 -13.3718 1.37944 2.16161 1.28083 9.30945 17.314 13.8413 11.5098 9.98928 6.45491 4.62925 2.84898 8.32836 11.6673 4.28216 1.34145 0.52 0.839938 0.575989 0.0306013 2.00191 -0.20747 -2.94455 -2.18513 -4.67217 -5.56145 -1.75837 0.831566 -0.210153 1.24472 2.33112 -0.116443 2.7819 5.18009 3.10109 0.997585 0.499678 0.950659 0.694736 -1.02848 -0.913831 1.20531 0.83173 -0.791006 0.68 0.52 -0.04 0.66 -0.354341 -0.379111 0.315501 0.000852374 -0.0500125 0.310052 -0.779436 -0.629992 -0.65 -0.58 0.620087 0.180082 0.39 0.43 0.0862506 -0.15 0.69 -0.39 -0.769987 -0.06 -0.45 0.75 -0.84 -0.42 -0.35 
-21.5546 -0.4 0.24 0.45 -0.5 0.19998 0.570203 0.958962 0.69202 0.509848 -1.56133 -0.915716 -0.0901224 0.65 -0.45 0.199618 0.320181 -0.499081 -0.720789 -1.06248 -0.689678 0.5416 -0.484903 -0.72 -0.53 -0.88 -0.55 0.76 -0.95 -0.6 -0.879964 -0.367803 -0.829979 -1.01418 -0.927986 1.024 1.28965 -0.412294 -2.90671 -3.75235 0.0263475 -0.14915 0.585881 0.402841 -1.38674 -2.1202 -4.96407 -4.42457 -0.945417 0.35445 0.30005 1.95908 1.89587 1.056 1.21239 0.548179 -0.279998 0.12 -0.878048 0.223643 -0.113526 1.11499 3.22583 6.60869 6.71321 3.62729 -2.26052 2.03583 1.16434 1.55413 -0.647776 1.73634 1.49287 -10.3897 -21.7945 -25.5382 -18.5323 -4.72965 7.7932 10.7342 13.0944 6.3775 6.98255 -0.403428 0.990329 -0.56 0.940179 1.65851 1.85243 6.74776 7.33409 11.552 13.1415 12.7864 6.02792 8.15943 10.1664 10.1175 9.42879 10.5579 10.3474 -12.7154 -28.9214 -28.0214 -17.9057 -8.2626 9.68825 11.2887 13.1146 8.8783 3.9342 -0.600982 0.915611 0.51 1.01109 -2.02332 3.80965 10.2627 10.0318 9.78563 17.432 24.3029 22.4115 17.3611 19.7429 21.2566 18.2022 14.4137 7.92045 -10.539 -19.1732 -24.2401 -17.5455 -10.7279 -3.49629 5.57659 7.871 1.00829 2.37937 5.25897 -0.779145 0.1 -0.239709 -2.79306 0.321602 2.81813 9.81635 10.3272 21.1468 31.6577 30.399 23.1496 28.2921 23.8266 15.7368 14.4279 20.4967 13.5122 -2.21587 -14.0805 -26.219 -22.6177 -19.719 -5.21035 -15.6385 -15.1622 -0.0711698 3.75906 0.369996 -0.64 -0.48146 -10.6236 -10.4871 -7.82921 -2.37717 2.44629 27.9074 39.2354 35.1369 30.4294 26.3504 21.3453 22.0405 35.1393 39.8911 27.066 9.20214 1.1805 -9.23904 -17.5736 -30.7692 -31.4709 -28.9459 -16.7263 -4.87817 -2.76413 0.94 -0.29 -0.442138 -13.1273 -18.6877 -27.1273 -32.6996 -26.1044 10.062 26.899 32.1542 23.3204 26.7529 24.5714 39.5973 52.479 54.5137 45.2655 31.2178 21.1934 -4.27656 -18.8934 -40.8416 -37.4606 -40.6336 -21.2096 -6.50297 -7.34974 0.65 0.41 -1.24782 -8.6719 -18.6031 -42.7704 -51.5289 -49.8524 -16.5772 -6.49494 6.92452 9.28961 35.1636 39.8335 55.7059 59.8113 58.1822 56.5917 35.4747 9.34845 -1.37814 -13.8152 -20.2058 -34.665 -26.4053 -6.47126 0.959598 -2.31631 0.461318 0.89 -1.11902 -9.39016 -22.4028 -38.9843 -41.7517 -39.1839 -27.8578 -22.8995 -13.7069 0.799467 17.8289 36.6624 47.1752 56.5101 48.98 50.2461 34.0885 21.2494 6.20784 -6.57924 -12.0769 1.72919 8.98652 26.4521 16.5448 7.3254 1.69498 -0.14 0.936445 -0.197996 -9.72641 -7.3354 -9.55148 -10.4441 -3.38641 -10.686 -31.821 -2.80205 0.757148 6.78561 7.55366 18.8577 22.4047 37.9515 47.4084 39.9678 21.1248 12.2645 4.54728 32.1697 21.8616 21.9024 19.1251 4.3141 0.58 0.35 2.22918 7.55268 -4.51985 -8.37502 9.15105 14.148 0.390997 -7.78796 -25.2933 11.3392 10.7102 -9.12819 -33.0473 -17.7121 3.9492 42.5722 51.1077 37.1952 17.953 13.1784 19.6527 31.9219 16.8681 18.6186 13.7696 0.490028 0.67 0.36 4.04001 14.0532 12.9785 8.6531 15.9942 14.3861 7.96283 -9.96915 -16.9906 12.187 -0.97015 -36.6019 -43.8897 -44.8531 -11.7677 7.75736 3.60231 8.65722 3.87983 -3.81831 10.1373 38.3547 44.7206 21.0402 7.62304 0.339308 0.922448 0.1 2.8078 24.6874 39.1614 19.4006 9.03413 12.0818 2.9697 -25.4751 -31.7365 -2.35306 -10.4338 -46.4082 -49.1934 -31.0808 -20.0968 -11.7309 4.88662 16.9444 9.00207 -5.2691 17.267 40.6785 44.1115 35.4946 12.7363 -0.350241 -0.67 -0.150037 1.24295 38.6072 51.9144 37.0834 22.0298 15.66 16.6021 -16.3219 -18.7966 27.3656 22.1364 9.35645 -12.7656 -3.48073 -11.7502 1.69308 3.19809 -3.14083 1.95745 -9.26685 5.99244 36.1343 33.966 20.8554 12.8054 1.47433 -0.630191 0.517222 8.25918 36.8548 46.5788 41.4897 37.6692 25.3782 -4.46704 -14.939 -19.1008 16.342 28.8072 30.443 17.8045 16.6591 9.01263 1.7109 8.07122 20.0608 7.30021 -16.9613 -4.78343 19.799 14.0432 3.72101 2.70636 0.0314503 0.119965 0.897611 9.8122 45.3843 45.3519 39.5105 31.8069 17.8176 -18.8247 -12.179 -7.41952 6.57092 1.61337 14.0079 22.9217 18.7858 1.41379 18.1706 19.1604 29.8401 25.1812 6.11285 12.9132 18.2859 15.1343 9.09478 -0.775855 0.854392 0.920009 0.42056 7.02107 21.5908 35.6172 28.5015 13.7997 12.5843 -13.9971 -25.4985 -3.02347 17.6805 10.3273 17.973 27.3733 30.8751 29.4981 35.7146 29.1985 29.3175 36.9239 35.8142 35.8514 34.4576 33.3686 13.9625 3.3669 2.15121 -0.46 -0.823226 5.26336 12.2151 11.4424 11.2371 -0.62101 -29.1977 -22.9048 -11.8846 22.7621 45.068 40.4788 38.5699 33.7416 32.176 28.8164 37.7526 35.3119 31.9467 32.5701 36.4806 33.8895 34.1866 28.8592 13.3341 11.1876 0.985993 0.09 -0.22 1.11132 4.5742 -2.15641 0.905849 -20.1144 -11.1375 12.2972 9.31679 33.4581 52.4359 40.8926 38.1484 32.4066 25.9478 24.2806 27.7264 33.3431 27.7603 24.832 31.3199 30.9474 30.8312 13.6756 3.4026 8.82128 0.878989 0.48 -0.05 -0.777038 -3.36323 8.96928 2.06135 1.66868 12.9128 18.5031 24.786 51.6909 44.5591 39.0224 35.0693 28.6933 28.0992 20.172 18.1604 28.0202 20.64 17.8884 17.1233 13.6553 20.0615 3.59673 -6.09341 3.10505 0.182125 -0.73 0.689999 -0.911714 -0.877551 6.52568 17.9574 0.628798 7.02312 13.2097 34.7775 45.0586 44.5563 38.1686 33.2585 31.3632 25.2508 16.8988 16.5826 24.7685 16.0208 16.0011 10.843 5.10657 11.9286 0.245464 -2.67056 3.53361 0.678393 0.3 0.589996 -2.07388 7.88147 -2.83088 -14.2266 -1.76768 8.04198 12.4076 16.6118 21.9474 35.7664 32.2388 28.806 22.9494 15.7933 13.2281 15.3277 20.2268 16.3315 16.8304 11.8251 6.43037 7.93048 1.09015 -2.25049 2.57826 -0.43245 -0.4 -0.339801 5.90744 14.801 -6.74435 -16.0013 1.04089 16.9957 10.3598 7.05008 13.2385 21.1534 23.4662 20.6719 16.01 12.0534 9.52185 12.8411 12.4168 12.7381 13.7744 9.35884 3.42478 8.87318 7.63893 0.220125 2.2324 1.03661 0.75 0.880354 2.8043 8.56324 -10.1039 -20.7941 -2.57709 24.0653 13.6662 3.70099 1.26816 7.09495 7.53804 6.60235 8.44949 8.35248 6.83926 6.33548 7.94826 13.4012 10.4388 4.3204 2.28804 9.61199 9.75112 5.56716 3.16889 -0.724402 -0.52 0.0302071 0.646129 1.97456 1.02203 -1.3564 3.90058 12.4215 -3.15212 -5.01904 -8.16417 -0.340439 -0.927074 -0.510578 -1.40989 0.650204 -0.448996 0.849873 5.74085 5.04558 1.88974 4.29493 -0.0339464 3.24445 4.63361 3.64453 2.16619 0.632665 0.49 0.300002 0.574812 -0.0768446 -1.64617 -0.464501 -0.610181 -0.711072 -5.22179 -1.91827 -0.154124 -0.284891 0.757021 0.459244 0.451907 -1.00178 -0.621348 0.162715 1.78402 0.925101 -0.616219 -0.162715 0.398055 0.343575 -0.213924 0.316335 -0.256257 0.210497 -0.39 0.89 0.26 -0.13 0.440435 -0.276245 -0.712783 -0.989982 -3.58428 0.451524 -0.75642 0.840835 0.84 -0.37 -0.89 -0.14 0.46 -0.94 -0.08 -0.44 -0.96 0.91 0.615032 -0.1 -0.05 0.64 -0.45 0.71 -0.24 
-16.6954 -0.69 0.53 -0.61 -0.850001 -0.0997797 0.534191 -0.13211 0.227055 0.635105 0.821082 -0.829157 -0.756695 0.170509 0.20028 0.873372 0.0793863 0.416333 0.653663 0.11581 -0.28842 -0.0681065 0.585203 0.288679 -0.89 -0.83 -0.37 -0.98 -0.2 -0.85 0.260016 -0.46391 -0.0917758 1.58971 1.82616 1.04205 0.351661 1.50189 0.113632 0.765468 0.866489 1.11345 0.632694 2.87139 3.75262 4.42163 2.71026 2.14686 0.767356 -0.230947 1.08393 0.373186 0.825335 0.0141403 0.558927 0.709897 -0.42 0.7 -1.15897 -3.13686 1.26126 4.14738 -4.0416 -0.82995 7.11756 3.33839 1.1655 6.10684 10.0297 12.0232 11.8033 10.2884 10.0288 -3.52785 -7.65659 -5.72359 -7.4035 -4.86813 -0.0470617 5.47268 9.32084 6.13104 3.17268 0.634967 -0.8 0.19 0.159291 -1.6002 3.02565 -8.28024 -14.2651 -5.07662 6.38017 7.90866 14.2106 18.0898 22.0349 18.4933 14.0496 7.94073 4.05091 -8.94233 -19.522 -29.4008 -16.5386 -6.59437 -5.8879 3.56085 12.4595 9.19641 5.46646 1.09007 -0.07 -0.55 1.50084 7.09965 -1.75301 -19.1897 -24.1662 -5.16847 6.80996 16.0994 25.733 28.7611 30.8899 25.1407 16.2155 5.92885 5.23169 -1.77652 -24.1173 -30.6043 -6.02519 1.47029 3.64125 0.288874 9.08563 11.1465 7.04555 -0.457387 -1 -0.05 1.24233 5.39639 -9.19876 -22.7856 -25.0084 -4.61321 11.4745 23.0744 26.4501 27.3606 29.4477 27.8048 15.6739 11.5853 5.92587 -1.54252 -19.5337 -24.5193 -5.86136 -1.37294 9.86376 5.03417 13.7894 18.9645 8.2267 -0.200467 -7.13305e-13 0.53 0.70075 -0.0779354 -14.5223 -27.7451 -28.1287 -5.50723 25.7618 40.5427 39.9983 42.6624 38.658 36.3193 27.1421 23.2193 8.58886 -8.63266 -24.8984 -16.2051 -11.0682 -3.24538 10.1916 9.1828 24.9386 30.4574 10.1127 -1.3094 -0.76 0.66 -0.294686 2.03915 -5.65689 -27.4281 -29.8159 0.722021 30.3433 37.5111 49.1734 51.9114 46.3254 49.3591 38.3737 19.5207 10.8431 -9.03678 -30.0348 -18.907 -18.9536 -12.1858 16.233 19.4494 39.6068 39.5104 8.13944 -1.17514 -1 0.94 -0.280148 3.85156 -5.35065 -27.3867 -31.8436 5.52946 34.5255 39.1553 52.9683 55.6721 47.1333 45.7027 37.3599 22.5481 12.4099 0.0559998 -24.7338 -18.7441 -10.8785 -14.218 -3.73369 29.3423 60.0354 56.592 20.449 0.829962 0.9 0.38 2.42379 3.99461 -10.9996 -32.7926 -38.7838 1.31731 38.351 39.6055 48.685 43.6749 40.901 46.7125 38.5735 22.1427 -2.55428 -5.74814 -8.01489 -20.5908 -12.7741 -10.7491 -14.4986 14.6979 47.9575 56.8742 25.2661 3.09802 0.78 -0.29 1.15381 -0.144658 -16.8636 -31.2904 -44.3968 1.61809 34.8978 44.4121 54.3446 56.3367 52.8989 53.8449 39.9873 15.0493 -8.88206 0.249642 12.0884 6.43469 -0.372288 -17.3621 -8.37822 -7.25035 15.1582 44.9798 28.234 0.36015 -0.15 0.08 0.157864 5.46907 -24.7273 -38.3539 -35.9316 -0.416371 28.9997 45.7414 56.4588 56.8167 56.5767 50.0159 34.1413 19.407 3.50908 30.1058 44.422 29.4429 17.5406 10.6231 6.73433 -4.38003 -6.53993 17.7806 33.9918 3.57325 0.36 -0.34 2.12514 6.80178 -22.7793 -36.6163 -28.3539 1.06526 25.9068 39.8627 49.5863 50.7662 57.1161 53.8679 39.7755 28.4834 28.9968 48.8636 52.4045 38.8949 26.1505 16.148 -5.25015 -20.9713 -8.27662 3.98016 24.3801 1.53658 -0.91 0.5 1.73803 8.12692 -10.6134 -12.9978 -20.1766 6.63601 19.9927 25.4109 30.5956 33.0534 49.572 60.9984 54.7404 46.8037 55.912 57.3662 50.9188 43.4676 36.4332 17.4852 2.26602 -28.3487 -27.1908 -5.36981 1.6091 -1.07705 0.82 0.48 0.138159 -1.82205 -13.8795 -16.2598 -17.2744 35.7949 35.7177 23.695 21.8602 24.4715 35.0569 43.3793 45.2127 52.5224 54.3629 46.6728 29.1926 21.1223 18.0741 5.5317 -1.38868 -38.3392 -36.0451 0.0428737 0.736554 -3.685 -0.0699998 0.59 -2.43232 -8.47283 -18.1363 -21.1999 -0.953296 39.8726 44.5688 32.1727 24.8647 7.57066 10.7265 11.8168 16.2786 39.9019 35.0661 26.3668 7.54402 -4.98895 -0.449225 2.99123 -18.0113 -34.635 -19.8759 12.5433 4.84481 -2.63619 0.71 -0.73 -0.795791 -4.54743 -11.5651 -17.9749 -5.77676 23.8203 17.426 21.7874 20.9668 5.35839 -12.6951 -22.0199 -3.94855 11.2271 -3.35215 -0.73168 5.04725 -2.00515 7.47063 1.35587 -0.778573 -12.3094 -0.520721 12.5575 0.486822 0.714983 -0.184694 0.535306 3.65321 -6.47691 -10.1054 -19.3367 2.89004 32.1702 17.5809 2.69144 8.12695 -10.2604 -21.5089 -14.91 -16.0221 -18.2647 -24.7658 -12.8065 3.81372 1.95617 15.0474 20.2937 9.16994 -12.309 -6.48791 -5.71338 -10.8577 -2.70905 0.868876 0.635306 8.23035 4.76673 -21.2155 -21.8725 14.5441 31.8472 13.5778 16.3088 4.5161 -23.7467 -30.6744 -9.8264 -0.603874 -14.8126 -29.0996 -20.9382 -8.58315 2.55822 11.4473 2.10245 -7.04526 -7.10203 -5.87037 3.72239 -0.585576 -3.90873 0.37 0.22 1.83504 10.855 -24.4249 -32.3089 9.10168 36.5872 27.7544 29.4776 16.0423 -3.21002 -18.8375 -8.50741 2.05975 0.272878 -10.411 -10.1114 -2.04068 9.28379 11.7303 10.4831 14.9063 13.3364 10.9565 21.4004 15.4156 -2.95966 -0.29 -0.86 1.68956 -2.07785 -47.6418 -51.1764 -0.380388 20.9584 41.0097 36.0108 30.6777 15.5208 5.68512 3.37943 1.63341 4.85614 11.6813 -1.52854 -8.81742 0.528897 2.2313 2.37322 9.69288 14.1002 14.707 21.1708 11.1024 0.440839 -0.44 0.02 1.57736 -12.299 -45.9444 -51.3805 -7.37308 24.7962 38.4797 33.3314 22.4708 12.4964 7.57299 10.5646 10.8857 -0.576867 7.05515 7.41924 9.06636 15.3862 12.077 7.22541 6.27563 1.20434 6.5669 13.6737 5.76113 -0.470955 -0.73 -0.91 0.990475 -8.5344 -36.418 -32.3259 0.784736 22.9735 28.1247 28.9223 21.685 11.9459 4.1186 4.0529 5.63474 3.91789 9.07133 17.5571 14.9653 13.7132 8.27621 10.327 13.1373 6.11688 8.06344 14.223 3.24769 0.100361 0.49 0.21 0.971952 -1.18775 -21.6369 -17.9528 17.0815 30.9302 24.9909 20.7691 18.3558 10.2896 4.85851 3.03793 8.66713 15.1914 17.5644 14.1156 11.1525 13.2652 6.12599 10.751 8.82307 4.92768 10.4875 10.2396 1.25658 -0.402986 0.52 0.19 -0.392915 3.31386 -2.78212 -16.4957 6.94727 5.57843 4.14407 4.07123 0.365155 -0.86076 -4.50741 0.644388 6.53026 10.469 14.5649 16.1666 16.0666 15.9845 7.69835 4.10841 -0.116292 4.2555 6.94981 6.33077 2.93182 -0.183426 -0.55 0.14 -0.0890204 4.07196 2.49541 -7.12382 -4.51251 -5.57023 -5.83195 -2.01905 -6.15939 -4.35752 -6.38453 -1.28552 4.1391 4.93114 6.44507 7.27825 7.21441 4.1558 -2.47877 -2.86394 -0.516671 1.70119 4.06802 3.67076 2.08512 0.44601 -1 -0.74 0.373277 -0.551755 0.102459 -0.410523 -1.65516 0.237377 0.328441 1.05945 -0.763701 0.0392323 0.356492 -0.0406082 0.931356 0.969549 0.95127 0.709906 1.03614 -0.216363 0.938123 0.341509 2.451 -0.235112 0.741228 -0.288419 0.741602 0.739928 0.09 -0.58 -0.16 0.04 -0.34 -0.07 -0.66 0.38 0.23 0.6 0.57 0.55 0.33 0.71 0.53 0.89 0.35 -0.7 -0.19 0.31 0.25 -0.11 -0.271592 -0.674473 0.92 0.23 -0.39 -0.64 0.58 
-9.53955 -0.26 -0.89 -0.51 0.51 0.329365 0.167423 -0.0957225 0.632532 -0.344974 -0.19689 -0.237973 -0.167837 0.839997 -0.170003 0.77713 1.09892 0.252324 1.70531 0.808705 -0.43991 -0.0673317 -0.17251 0.975021 -0.65 0.87 0.84 0.39 0.76 -0.25 0.800001 0.289052 -0.292773 -0.103832 -0.379486 3.25228 5.16588 8.60978 2.95592 1.15028 2.24666 0.928979 0.860868 2.37068 1.77532 0.304217 1.83154 0.0360203 -1.34923 -0.368031 0.494013 0.832869 -0.166198 0.337618 -0.344427 -0.324577 0.34 0.6 0.63314 0.288286 6.30579 4.95557 5.08676 17.2728 16.9345 8.43484 5.03548 9.39987 9.14916 9.68236 13.0768 12.7247 11.4186 4.16661 -9.46695 -18.7302 -24.6189 -12.4535 1.32146 9.61811 4.92251 2.78209 -1.24556 0.127918 0.29 -0.93 0.601051 1.92605 2.01232 1.11043 11.3495 25.9865 18.2757 11.9301 19.0409 24.0908 22.3094 15.0005 11.0047 2.22941 -2.60447 -4.52882 -18.917 -8.63082 -15.9452 -8.0272 -0.386408 11.5166 19.8106 13.8535 5.69585 -0.0591622 0.905714 -0.87 0.813914 -2.65186 -6.23541 -11.9487 10.1938 18.9635 17.0046 19.7737 26.671 20.6621 9.16364 2.3437 -0.698095 -15.0446 -25.938 -14.762 -15.559 -6.31784 -9.79002 -2.69817 -7.18976 -0.436541 18.1066 21.7639 12.447 -0.707832 -0.522679 0.27 -0.836352 -5.49557 -13.7756 -10.422 -0.671163 10.6521 15.5214 18.2216 25.4148 15.2765 6.88775 5.49182 4.04086 -5.50468 0.640342 21.4182 22.2429 19.3663 12.25 8.70138 -0.137485 -4.96873 9.41621 20.1288 9.69046 -1.05296 0.57 0.96 -1.70021 -10.1414 -13.1181 -22.9686 -13.1943 -2.9317 3.40468 11.888 18.6995 12.0444 5.53078 8.01251 16.7393 14.7463 36.6822 48.8692 41.3041 31.4405 26.6392 13.473 2.89109 -20.75 -10.9105 10.3896 23.4267 8.26614 -0.66 -0.03 -1.47229 -7.72239 -14.6705 -22.826 -18.4473 -18.1643 -16.3178 0.445178 18.1398 23.762 26.9651 27.4766 34.6275 40.4139 59.0503 57.0563 35.17 28.5958 24.866 18.0525 7.17148 -27.1611 -39.0674 -6.03637 19.8351 2.22895 0.65 0.91 -0.102164 -0.510625 -9.68031 -16.4049 -15.9041 -13.8901 -10.7753 12.1858 26.3959 20.2349 32.5025 37.6578 48.1553 58.185 60.7307 61.6547 42.7635 35.5166 39.2682 33.5185 -10.8467 -24.3096 -33.7019 -10.7102 -4.23258 -0.196515 0.09 0.62 0.685619 5.71402 -3.51959 -3.39805 -11.8318 -0.551963 13.7776 20.7224 18.4231 19.0292 32.3301 31.4843 46.8644 53.9618 63.824 72.2525 62.5538 56.0983 50.0719 24.0786 -7.98289 -26.4365 -30.1894 -28.1495 -24.4976 -0.393139 1 -0.88 0.208346 9.35437 -0.854009 -10.9527 -17.4065 -1.6013 15.544 41.4234 44.17 41.5223 28.6364 30.4229 40.2586 48.7352 65.6166 66.0082 59.9982 61.2904 42.7066 21.0315 -5.13252 -44.2975 -36.5742 -27.0705 -21.7931 -0.173418 0.71 0.58 0.913092 6.53745 -13.6997 -27.2872 -28.7222 -18.778 9.23258 43.0033 75.2823 43.7545 20.2717 12.1052 21.5605 29.7442 45.8243 51.9664 42.9535 43.3231 28.6041 21.1209 -8.80869 -43.9597 -36.9629 -42.8397 -27.5894 -0.241085 -0.3 0.48 0.690855 9.31858 -27.0231 -40.9589 -34.5641 -21.1889 31.0248 72.6525 90.2726 52.2321 22.7562 15.0409 23.1357 26.8882 35.5123 29.8419 7.02138 20.443 19.258 -0.118344 -25.9408 -35.8553 -34.1777 -54.9205 -24.0976 1.58449 -0.4 0.51 7.86351 8.76592 -45.7318 -43.7267 -18.5969 -20.0834 30.455 80.9894 104.285 72.8692 34.125 4.70674 12.4568 10.6845 11.1887 3.37479 4.6757 10.0316 12.1116 -3.9841 -32.569 -46.4845 -23.7266 -25.3231 -7.72149 -1.40887 -0.88 0.55 5.9833 12.2433 -33.4912 -48.093 -33.0119 -28.9105 23.1067 62.1474 101.451 82.5285 36.0928 4.47472 -11.3163 -13.8166 -9.51258 -18.1466 0.165392 18.4732 34.095 5.30459 -16.4068 -23.3939 -13.1922 -17.8634 -13.9085 -2.76943 -0.19 -0.03 3.36415 -4.71802 -43.2791 -64.7675 -61.4013 -52.3891 -12.5651 32.0242 65.1633 56.9532 32.404 17.776 4.64881 -10.9961 -19.565 -17.5327 7.80678 34.4643 27.3119 4.65252 7.14919 2.1002 -13.3468 -21.2156 -3.27276 0.298114 -0.04 0.81 3.08669 -26.6892 -59.3961 -42.7387 -42.1175 -35.8459 -10.9004 17.7971 45.827 45.3889 31.0945 24.3854 13.3016 3.45975 7.8542 13.972 27.799 32.6491 25.4454 27.6913 35.9516 24.1228 -6.83383 -31.8969 -7.22878 0.834975 0.450094 -0.499952 2.92666 -19.8734 -30.0881 -19.3664 -22.6165 -10.4546 15.4002 26.8132 39.2512 25.6936 1.43527 3.13621 16.138 2.01394 9.68195 24.2382 41.4504 49.9258 52.9542 59.1303 51.0165 18.1478 -16.0373 -36.7031 -5.11235 0.270478 0.470422 0.759826 -0.558099 -6.34825 -3.81264 -3.43257 -7.65996 4.34086 41.459 48.9591 46.6072 17.3032 -5.53248 -0.883108 13.1736 4.61311 19.1006 40.225 47.0267 57.8676 67.2406 56.3878 32.7502 4.27087 -20.3286 -23.8958 5.54021 1.11395 0.03 -0.25 -2.11234 -11.7195 -6.02723 -1.24287 9.60575 11.6942 37.258 53.8906 41.6875 28.493 8.60231 -0.75779 6.74616 4.48322 14.665 31.1722 45.7803 43.368 37.2478 37.6613 22.4251 4.0133 -21.4851 -15.7284 4.99355 -0.549758 0.34 0.58 -0.159603 -1.6622 1.93899 14.2253 22.8473 15.5318 26.1795 26.6293 36.507 21.355 7.77954 10.0042 13.76 18.9293 21.4998 30.1066 26.1022 21.5879 20.0678 25.5846 12.669 -5.87662 -30.29 -15.0992 2.15613 -0.495164 0.58 0.62 1.18315 9.17657 9.50454 4.46213 1.90566 -1.62602 3.17804 2.45246 6.95827 2.34445 13.3228 14.2656 18.5748 19.7449 21.8327 26.0931 24.3621 17.2139 14.7216 12.4112 6.59451 -2.30824 -18.4511 -9.66048 3.75521 0.934306 -0.67 -0.41 1.84068 7.6144 -12.1425 -14.8802 -13.1603 -24.1273 -14.2956 -9.01845 2.09973 10.0122 18.0361 29.3652 36.2024 36.4682 32.8561 26.3363 25.0583 22.7238 22.3607 17.2999 11.9423 0.0543 -12.7375 -2.34734 2.97623 -0.933959 0.12 -0.84 1.40441 6.37652 -17.8426 -43.4589 -56.8723 -33.898 -8.24167 3.57517 16.9463 23.6791 25.067 29.764 30.0619 39.9936 43.6132 34.7777 29.2537 23.7847 20.1279 12.9684 1.01316 -16.5845 -6.29517 5.18667 3.18105 -0.608514 0.31 0.81 1.56144 12.2378 -11.7456 -36.1258 -56.5365 -39.6557 -10.796 9.67226 24.8463 26.9913 23.9318 17.2103 23.7497 30.935 38.3951 31.942 27.9825 25.4418 16.8657 11.62 -1.88341 -2.88753 6.74835 8.13675 3.79311 -0.420781 -0.22 -0.84 0.608633 2.38679 -3.14257 -19.3431 -23.7561 -19.7282 -4.24977 2.56745 15.7394 13.3423 11.4708 8.6895 6.47819 15.2733 16.1477 13.6652 12.5096 11.9716 6.54506 -3.03264 -2.085 -5.70156 0.942742 4.21342 -1.52312 0.533211 -0.13 0.23 0.714781 -1.26441 0.158459 -3.2137 -2.7456 -1.64144 -0.852911 -1.13858 1.03759 -0.284457 1.32563 1.21045 2.09799 3.59583 2.512 3.09096 1.66337 0.100334 0.851609 0.323888 0.00718892 -0.889652 0.369579 0.759238 -0.711371 0.709854 -0.22 0.85 -0.88 0.76 0.82 -0.18 -0.140017 -0.97 0.62 -0.98 0.97 -0.61 0.54 -0.19 0.52 -0.37 -0.77 -0.4 -0.5 -0.1 0.78 0.38 0.406378 -0.608836 -0.43 0.45 0.25 -0.71 0.68 
0.383658 -0.1 -0.5 0.12 0.7 0.76 0.37 -0.63 -0.290001 0.840012 0.970029 -0.819987 0.970002 0.78 0.36 0.75 -0.0799996 -0.2 0.57 -0.809999 0.49 -0.66 -0.48998 -0.14 0.71 0.65 -0.59 -0.77 -0.18 -0.56 0.74 0.41 -0.629842 0.250729 0.510538 -0.949278 0.670662 0.99972 0.395369 0.888882 -0.21983 0.317738 0.924148 -0.445686 -0.71183 0.750605 -0.277478 0.700373 -0.900554 0.719178 0.490102 -0.299823 -0.149861 -0.129988 0.710015 0.3 0.08 0.31 0.490001 -0.0696999 0.723959 0.134906 0.00477724 -0.154283 -0.790263 0.718865 -0.930081 0.0386021 -0.396295 0.451001 0.98112 -0.0975508 -0.0769781 -0.545429 0.392134 -0.705071 0.404541 -0.359843 0.943383 0.912512 0.892605 -0.119062 -0.449469 0.760008 0.78 -0.98 0.710002 0.872724 -0.597828 -0.163365 0.698062 0.778403 0.168987 -0.656587 1.00022 1.09412 0.677448 0.954156 -0.266607 -0.533725 -0.676549 -0.929346 -0.246523 -0.415989 0.00689573 0.200812 0.940526 -0.708851 0.033246 -0.439283 -0.848857 -0.259587 0.55 -0.18 -0.126599 0.853506 0.467907 -0.106486 -0.11215 0.108595 1.23825 -0.231625 -0.268775 1.24341 -0.0254342 -0.572077 -0.252165 -0.122814 0.541159 -0.472747 1.15956 -0.423949 -0.652515 0.54407 -0.515035 0.716152 -0.335861 -0.110706 0.398807 0.434352 -0.11 -0.75 0.994548 -0.0405229 0.657428 -0.321199 0.455058 -0.623141 0.96821 1.0367 1.07883 -0.100691 -0.61493 0.873698 1.06112 -0.0826911 1.51305 0.907319 0.0898445 0.0957518 0.165696 0.551672 1.27158 -0.4196 0.775346 0.343536 -0.41187 -0.358524 0.46 -0.42 0.150038 0.38169 1.08335 0.544511 -0.0602176 -0.599572 -0.36848 -0.0608589 1.18577 -0.221427 0.837664 0.892135 1.21 0.854144 0.51617 0.26845 0.255791 1.3871 1.25974 1.27496 0.849508 -0.521468 -0.0983956 0.147614 -0.114818 0.173133 -0.63 0.11 0.960051 0.411022 0.966022 0.15281 1.02462 -0.331986 0.743217 0.588943 -0.50115 0.0781965 0.127657 -0.46516 0.599906 -0.297689 0.599556 0.740796 0.615871 1.07172 -0.133601 -0.498817 0.808686 0.116936 1.15006 0.0610019 -0.518315 0.269218 -0.29 0.78 0.990979 0.757539 0.535451 0.642829 -0.24031 0.883592 0.294225 0.67028 -0.462538 0.60757 0.049234 0.705704 -0.199897 0.516337 1.05253 0.278562 -0.351712 -0.26014 -0.173676 1.54527 1.04447 0.282561 -0.537787 -0.659388 -0.747347 0.528262 -0.379946 0.19 -0.614269 -0.955347 0.174271 0.325966 1.02151 0.15262 0.786013 0.103967 -0.52184 0.242609 -0.427056 0.204744 -0.490967 0.535282 0.364405 -0.493118 1.00615 1.12979 -0.00125834 0.346543 0.944184 -0.646793 -0.307427 1.07721 0.663318 -0.622116 0.25001 -0.79 -0.709794 0.852489 -0.617525 0.0412324 -0.0998607 -0.627562 0.656631 0.527755 -0.474366 0.414123 0.365862 -0.244841 0.324758 -0.606363 0.567177 -0.756287 0.350453 0.993821 0.722222 1.22875 0.807679 -0.395731 -0.193643 -0.175453 -0.185804 0.85496 -0.22 -0.05 -0.147743 -0.779714 -0.448183 0.470025 1.20689 -0.512579 -0.0896925 0.259713 0.630718 0.41713 -0.336668 0.986044 1.1418 0.0442051 0.363134 -0.693344 0.701394 -0.175495 1.3964 0.163135 1.24617 -0.303119 -0.267051 0.292958 -0.280567 -0.542325 0.98 0.88 0.894933 -0.0796453 0.678509 -0.0316826 -0.269128 -0.182923 0.0491339 0.871833 0.625131 -0.111775 0.606442 -0.236571 -0.438356 0.537418 0.601395 0.530926 1.17596 -0.288621 -0.560352 1.04733 1.15875 0.0317042 -0.216358 0.641235 0.179705 -0.0271639 0.16 -0.14 -0.141902 -0.155114 0.0197039 0.998503 0.0573648 0.943292 0.107302 0.894483 0.403557 0.408188 1.01046 0.974541 -0.689378 1.14365 0.0479028 -0.0710742 0.936077 -0.174699 0.803511 0.903288 -0.100543 0.398933 -0.0809671 -0.136034 -0.0775227 0.640934 0.97 0.150984 -0.725431 0.839567 1.06667 -0.202493 -0.432468 1.31073 -0.454152 -0.42117 -0.144697 -0.0978356 1.24939 -0.580301 1.24476 -0.0101196 0.881773 0.056816 1.30626 0.139708 -0.247679 0.269923 0.569882 -0.288235 -0.527751 0.97916 -0.0114533 -0.000175798 0.805061 -0.604173 -0.723875 0.641081 -0.474635 0.117359 0.680358 0.680219 -0.107098 0.591065 -0.0606621 -0.0781965 0.747191 1.07083 -0.108941 1.37191 -0.426572 0.00852889 0.860693 0.224495 1.12891 0.776183 0.899382 0.653762 0.902417 -0.183211 0.151835 -0.465088 -0.179063 -0.108909 -0.0664229 1.01302 0.462023 1.10041 0.9678 -0.0570134 0.542428 0.336318 0.191885 -0.590541 -0.481009 1.44208 1.33726 -0.475266 0.233391 0.919652 0.121658 0.292567 -0.137683 0.70003 0.90744 -0.339828 -0.301755 -0.178101 -0.615827 -0.249004 -0.28 0.860024 0.378499 0.189262 1.03751 -0.569063 -0.922177 0.487083 -0.0282064 0.350861 1.43096 -0.0513789 -0.240558 1.24753 0.399482 0.690492 1.06963 0.229095 0.941267 0.185391 1.3883 0.133884 -0.2335 0.950193 0.252474 -0.525306 0.358094 -0.957417 -0.28 0.710003 0.541776 -0.0482627 -0.695571 0.72677 -0.0336754 0.11725 -0.000645751 0.112436 1.16802 1.10774 0.428732 -0.56271 -0.537552 0.00654627 -0.405206 -0.571815 1.01539 0.827059 0.185868 -0.267905 -0.294629 -0.0987071 1.03359 0.859672 0.27975 -0.0564196 0.67 -0.86 -0.98733 0.548939 1.19903 0.825514 0.646032 -0.0584595 0.00564791 1.2404 0.325351 0.753522 1.10336 1.15643 -0.483059 -0.278085 0.501164 0.846846 0.330457 0.762677 -0.206206 0.376572 1.07438 0.628611 -0.538145 -0.121427 1.03564 -0.447689 0.29 -0.3 -0.569036 0.507534 0.654487 -0.694915 -0.083314 -0.449778 -0.518999 0.47908 0.0974677 0.973958 0.992555 0.337855 0.698115 -0.25249 0.895084 0.636231 -0.868345 -0.493518 -0.898701 0.410538 0.721095 -0.556253 -0.325828 0.923952 -0.361264 0.661675 -0.33 -0.67 0.770844 0.448529 0.113324 0.993327 -0.174465 -0.360449 0.545664 -0.426142 0.38655 -0.264886 0.980354 0.381495 0.647449 0.0365452 0.867361 0.710462 -0.716658 0.707688 0.108431 0.821869 -0.515346 -0.629756 -0.126571 -0.697072 -0.458628 0.97186 0.57 0.0199998 0.871231 -0.435418 0.421189 -0.802318 0.4862 0.586107 0.872891 0.683064 0.888928 0.531906 0.573284 0.419876 0.324831 0.161191 0.40961 0.242278 0.642153 0.466884 1.14722 0.629849 -0.582545 0.861415 0.000848837 -0.0462732 -0.808861 -0.663712 -0.96 -0.53 1.00023 0.660232 0.0497876 -0.693366 -0.481903 0.523032 1.00286 -0.271674 0.812628 -0.60931 1.02821 -0.525106 0.777023 -0.334181 0.0250815 1.09525 -0.502443 0.447309 -0.510782 -0.0436546 0.808941 -0.450039 0.856071 -0.426692 0.430629 0.400962 -0.59 -0.87 0.420429 0.00495027 0.497994 0.760152 0.537057 1.37448 0.058325 -0.25157 0.0191825 0.118971 -0.294816 1.00519 1.21585 0.150885 -0.484646 0.327508 0.775824 -0.161755 0.557695 0.998345 -0.457738 0.0709749 0.842293 0.352956 -0.868914 0.0800015 0.05 0.63 0.0600438 0.530368 -0.573486 0.719535 -0.15911 -0.624521 0.0193728 0.0974247 1.17795 0.886655 0.629917 -0.521557 0.550003 0.472017 0.342464 0.880353 0.363898 -0.783142 -0.175213 0.77121 0.620061 -0.329677 -0.638724 -0.179711 -0.23998 -0.95 -0.13 0.55 -0.309999 0.900009 0.212682 0.853277 -0.508067 -0.70453 -0.624382 -0.536777 0.332634 -0.929832 -0.569471 -0.445763 -0.469611 -0.0591731 0.760676 0.000220743 0.521169 -0.600208 0.715567 -0.815912 0.847573 0.909961 0.690188 0.470076 0.35 -0.49 -0.88 -0.04 -0.05 -0.97 0.84 -0.06 0.51 -0.74 -0.859999 -0.86 -0.24 -0.7 0.56 0.63 0.54 0.06 -0.95 0.81 -0.179997 -0.41 -0.4 -0.69 -0.229994 0.07 0.73 0.6 0.05 -0.26 -0.35 
51.6324 -0.81 -0.46 -0.37 0.62 0.603161 0.418478 0.12291 -0.0571439 -0.839031 -0.165865 0.428049 0.64 -0.09 0.902793 0.49991 -0.450184 1.45665 1.75492 0.114574 0.547114 0.31067 0.389631 -0.234327 0.311346 -0.504327 0.85 -0.81 -0.2 -0.3 0.250148 0.209462 -1.17949 -0.125344 1.082 2.10765 3.79498 1.69223 -1.67352 1.01187 2.24412 1.26342 3.08494 1.12211 0.725823 4.36581 4.53043 4.55033 4.55056 6.18818 3.44569 -0.602587 -2.60889 -1.40422 0.821348 -0.317747 -0.32 0.28 -0.308006 0.475878 -3.24963 -0.739149 12.1274 13.1967 22.9866 10.7343 14.8601 22.2311 24.8742 28.5234 25.7959 17.7116 19.2561 27.6377 23.7387 27.2759 24.6509 17.1327 0.683631 -9.07125 -7.14604 -1.09464 5.28783 1.05646 -0.77 -0.87 -0.652635 2.52152 -2.67149 -3.40896 6.02478 9.93717 30.9268 35.8307 40.3708 38.6389 41.9951 38.4846 28.112 27.9248 21.4961 24.2002 18.7563 7.83567 -19.3854 -46.7301 -56.4973 -72.5766 -40.5886 -4.28013 12.3434 0.0717416 -0.94 1 1.85923 3.92406 -0.0877352 -9.89135 -19.0018 -23.0886 -6.93145 -12.3619 -6.31263 -7.8323 2.23177 11.8347 3.10083 -2.46584 -3.10745 6.44646 -9.70261 -37.42 -69.1882 -78.0895 -76.1611 -88.8043 -44.2981 -6.53894 8.55443 -0.0918154 0.68 0.21 0.185183 1.88796 -1.75531 -17.838 -24.7473 -11.2364 4.67142 -10.3737 -16.4184 -21.9741 -5.64321 25.4266 17.2832 -1.04743 2.93703 -19.8172 -44.6467 -59.7756 -70.8714 -45.8621 -51.647 -66.3713 -27.1031 17.1991 28.6565 4.19599 0.716483 -0.87 -0.0269328 4.68643 1.53981 -9.14241 0.615048 17.8524 22.2909 1.58212 -2.2968 -4.63333 10.2447 38.6887 16.5543 -13.9038 -42.7871 -84.7232 -94.8927 -85.8673 -87.0422 -35.9956 -31.242 -41.1631 5.34421 42.616 34.0331 3.8813 0.05 -0.29 0.0152209 9.33258 20.0535 17.7161 13.0861 17.9689 13.1031 -3.27204 12.6154 35.018 28.9077 9.45517 -13.8638 -43.9591 -59.9386 -78.1461 -94.6216 -101.877 -83.496 -35.978 -17.1484 5.87568 31.8525 51.2217 35.5895 2.55735 -0.31 0.74 -0.704009 8.68095 8.44793 2.7429 -6.66206 7.54924 13.1524 -16.888 -5.05912 23.7184 2.30341 2.96979 -13.0204 -42.9868 -74.7308 -93.5592 -92.3823 -93.6329 -40.3581 12.8998 9.23062 13.6952 17.7884 24.6017 34.92 4.67122 0.515124 -0.55 -0.0443083 1.36033 -5.00442 -18.9277 -35.6764 -21.1987 -13.7605 -27.5088 -28.7512 -13.773 4.15453 17.8207 -29.6777 -75.4415 -89.0792 -103.711 -103.436 -86.9968 -0.0181038 53.1416 60.6405 48.1876 26.7886 35.1711 48.9303 4.3222 -0.925552 -0.46 1.46042 4.51156 -18.2196 -49.3578 -57.8237 -23.2723 -12.8912 -10.174 -18.0938 2.5368 12.0701 0.627238 -61.6478 -81.2205 -80.044 -73.3056 -57.782 -37.0483 23.9449 69.6469 78.4834 61.0139 71.0033 68.7481 45.084 3.43278 -0.61 -0.23 0.958602 18.6641 -0.814584 -37.0854 -47.5712 -18.2689 -11.3078 -5.83453 -11.5522 -0.0115086 -16.1644 -27.4619 -71.8853 -74.4609 -29.2093 -15.5517 -5.07026 -1.69122 47.2056 63.6894 83.3878 89.0029 100.194 81.854 34.5939 0.425226 0.88 -0.97 2.15322 35.4181 25.367 -5.03973 -2.1575 25.406 28.3166 -4.32968 -10.0808 -0.931281 -10.8228 -37.3115 -55.0445 -16.3867 36.0769 64.1845 69.7263 34.4419 48.8813 51.8664 73.0887 95.3501 98.7015 72.9865 35.542 -0.571429 -0.75 -1 1.83225 37.3806 35.0252 15.1136 24.5268 33.8807 16.7886 -36.3211 -35.2457 -14.5553 11.1293 -0.745256 -2.51962 63.1188 121.163 120.52 86.8872 24.7984 27.5299 20.6178 35.8291 70.7112 77.4912 71.8347 30.4401 -0.681328 -0.56 0.43 1.33171 29.3635 28.4997 16.0179 10.7399 12.6336 5.25411 -37.6982 -55.9843 -29.3635 9.3965 33.8533 50.1941 128.676 147.555 121.66 88.399 28.8297 4.6492 -22.1418 -8.75297 24.702 50.4583 66.918 25.0769 1.11397 0.78 -0.382441 2.32922 19.7611 -2.51177 -25.5965 -11.2222 8.99839 3.30677 -50.6579 -55.5525 -21.751 33.6293 59.3924 85.5034 135.336 145.957 118.449 67.7834 43.0956 6.58473 -19.7953 -17.5851 18.7482 24.1641 52.0496 27.1459 2.34019 -0.94 -0.832209 2.13991 18.8517 -6.26817 -46.1625 -11.1928 21.5216 6.38365 -40.3401 -49.4659 -8.68253 36.3974 66.3296 91.49 144.558 140.6 105.592 81.0614 40.223 11.9143 -18.8412 -16.1694 -12.8946 -15.0358 6.81689 11.8522 1.16938 -0.837912 0.151405 2.14862 28.8914 20.4159 -20.6813 1.51913 12.2999 -2.04095 -38.8831 -33.5506 -14.889 32.871 39.1584 85.7652 136.078 122.831 80.891 67.3953 36.0416 -6.32441 -11.1008 -9.79833 -16.9675 -7.72378 -9.49754 5.32125 1.40514 -0.438702 0.211751 0.234686 24.5946 36.9695 13.0635 2.56834 -0.397884 -6.76272 -10.6093 -25.3796 -39.6111 5.81202 35.8039 67.7567 106.754 105.429 76.7947 37.1658 0.287472 -31.9191 -21.3973 -20.6944 -10.8834 -2.04803 1.19877 14.2035 1.78114 -0.84 0.98 -0.508927 3.94366 27.33 13.3375 -8.63423 -1.01707 6.98642 9.42341 -3.00759 -6.13195 4.44853 15.6052 28.7375 60.6798 78.7714 68.6461 29.0561 -23.5401 -54.3444 -17.6055 -20.8902 2.96531 10.9483 11.2014 14.516 0.454701 0.35 -0.61 -2.99876 12.0092 13.4175 5.21879 -5.51167 -6.00708 -6.39881 11.9961 27.2953 24.0637 2.89712 -3.22241 39.9974 90.3423 85.9346 67.801 32.3873 -9.93737 -23.3185 -1.17197 -4.69231 1.80479 13.4706 28.3534 24.1577 3.1441 -0.77 -0.560685 4.28778 32.6044 36.5106 33.3897 23.8261 -6.75682 -35.0144 -14.6494 15.6789 6.79605 25.1152 62.9722 95.4314 111.09 99.6518 71.5487 18.8785 -7.72223 -1.24462 15.2017 12.8865 -3.76348 -4.50482 21.7883 21.7876 2.538 -0.72 0.906483 2.69597 40.2501 51.4479 42.9109 23.1455 -9.36936 -28.4413 -0.819803 23.9177 15.7194 50.3409 89.2665 106.674 91.6362 69.67 46.176 0.527562 -29.3702 -22.9542 -2.94209 2.48528 -15.4692 -17.2869 10.7206 12.8867 1.58041 -0.35 -0.52 3.87393 20.3239 29.3721 29.518 5.80517 -16.3541 -21.3936 4.40457 20.6787 35.8028 60.9551 66.9205 73.4719 58.3917 39.1034 17.3903 -14.2255 -29.5787 -11.0486 -0.149167 -8.69564 -22.6399 -20.1852 1.08212 6.12958 0.928018 -0.85 -0.03 1.54327 10.5992 6.19591 3.64418 5.88727 2.82871 11.9496 24.3173 27.3131 36.985 50.9997 56.6185 53.2693 43.174 41.6325 27.3912 4.03263 12.3616 32.0375 15.1786 4.75861 8.13774 -5.63089 -0.154365 3.0236 1.36417 0.82 0.47 -0.121135 2.93433 -5.18889 -6.68916 7.68947 18.0804 25.6421 31.7206 17.5542 23.3266 34.7863 37.4516 26.3898 17.0445 19.5793 15.6795 11.3943 12.9086 18.7256 4.05408 2.42262 6.45395 -1.40236 3.01973 2.89941 -0.302936 0.87 0.01 -0.320601 0.702835 -0.625569 -1.13165 1.73761 1.09475 2.76478 1.89177 0.85375 2.18702 2.31894 4.91464 2.79365 0.180184 -0.103807 1.71656 -0.985533 0.691453 0.751694 0.0812927 -0.391641 0.845105 -0.210006 -0.397353 0.321055 0.179986 -0.31 0.31 0.93 0.02 0.0899949 0.969998 0.609999 -0.79 0.43989 0.9777 0.303756 -0.16 -0.63 -0.18 0.429998 0.479998 0.189998 0.0799996 0.857012 0.96 0.91 -0.7 -0.810123 -0.49 0.89 0.49 0.04 -0.69 0.43 
21.4834 -0.18 -0.38 -0.2 0.14 -0.227119 0.49201 0.0724844 0.859129 -0.903803 -0.338663 0.480577 0.62027 -0.968697 0.8755 -0.178782 -0.616815 0.277236 -0.803152 0.343337 -0.551131 0.0786304 1.07328 0.910615 0.400027 -0.119987 0.41 -0.7 -0.34 0.53 -0.403909 -0.453191 0.53841 0.392709 1.11038 2.92448 2.0065 0.125402 1.90358 1.15331 0.517322 0.931852 1.19257 -0.522141 -1.64222 -1.01438 -0.538905 0.762493 0.459893 -0.683962 0.741607 0.995555 -0.24601 -0.600351 0.155248 -0.918249 -0.84 -0.07 1.11883 1.71689 4.75417 1.00313 4.0241 10.8513 9.62285 10.3744 14.4465 13.6457 12.7893 10.7339 10.34 11.0607 8.36161 7.85223 5.50931 13.5404 11.9211 3.50345 2.28461 8.49533 6.97865 -3.68998 -3.97129 0.823254 -0.18 -0.88 0.630754 3.51894 6.21971 5.70639 7.6989 9.92749 12.504 20.3176 27.1689 30.5147 27.3627 21.0572 13.6111 12.078 13.2975 19.4142 21.9659 22.5164 19.361 7.76722 3.78582 4.82046 -2.11654 -7.76273 -0.974474 0.328804 0.43 -0.39 0.406725 5.96205 7.14541 0.918176 5.38161 11.619 17.5623 20.7841 26.3736 33.9763 31.1758 20.5259 15.5395 15.0459 17.6914 31.1635 34.5578 18.1447 5.61446 4.15598 6.83198 -8.63398 -18.1573 -13.1118 -0.433557 0.151209 -0.19 -0.01 -0.70123 6.09436 -3.88473 -7.86599 5.80328 7.84237 13.4579 21.0938 25.2306 22.0189 19.556 13.6217 6.1801 4.92689 12.9019 25.524 17.2146 -0.151029 -2.60911 -3.74168 -18.3401 -11.356 -4.67316 -5.10005 -3.36962 0.855154 0.03 -0.29 1.17931 6.65203 1.78634 3.46436 8.17525 10.977 14.6975 21.0171 22.7969 20.1839 13.8068 6.88095 -0.229266 3.73352 6.89422 1.93815 5.50768 9.43013 8.75217 -2.64253 -13.5402 -2.72799 9.00125 -3.69247 -16.6112 -2.63856 0.41 0.36 1.09213 5.97446 5.19988 -1.06076 5.18045 6.73522 17.5641 25.6034 31.447 37.2777 32.8964 23.8439 19.9094 7.11936 -15.0688 -28.5645 -17.1477 -3.631 -5.5756 -9.50754 -26.1146 -13.6485 -1.13903 11.9458 -5.12869 0.324644 -0.87 -0.5 0.445545 1.67799 7.42969 6.75758 16.9011 7.59357 19.5846 23.0677 32.1628 35.3883 36.479 30.5871 28.0041 3.34027 -23.5289 -30.4903 -37.5542 -33.2526 -29.5433 -30.3125 -38.3112 -24.762 2.76264 17.4859 19.2918 2.80394 0.69 -0.84 0.941296 7.47845 10.8862 11.9455 19.1461 11.5259 11.7715 0.403334 6.99624 10.0413 19.3586 21.1266 19.2664 5.82469 -11.2661 -28.8535 -35.1392 -45.8584 -46.5515 -30.1611 -32.6888 -18.3962 6.96394 15.3178 14.418 2.78963 -0.45 0.28 2.26432 7.80593 13.5621 15.722 26.0434 16.0299 16.3667 10.1266 14.2858 8.36105 5.58964 4.98933 12.3377 9.40792 -14.0116 -37.5887 -26.0028 -36.6576 -31.3037 -13.2069 -15.9714 -0.670257 18.8631 13.5949 11.6072 1.08095 0.28 -0.6 -0.00497763 5.06686 1.45044 4.39078 21.2051 10.4496 5.56017 3.69526 12.2759 5.01342 5.9217 7.8811 13.5761 29.5843 -0.873968 -24.7377 -19.0457 -16.8048 -12.0879 3.10999 10.8772 36.2195 44.7377 22.7144 14.718 -0.527327 -0.93 0.89 1.57452 8.76139 -6.512 -4.23647 9.68939 7.81108 19.8581 9.49169 12.3111 18.4154 10.9694 6.12348 28.6518 36.5465 5.57653 -17.0974 -1.25388 7.84289 5.74756 35.3959 54.7355 62.8523 57.5891 36.3103 10.4522 0.338432 -0.78 0.47 2.33533 15.3093 6.69675 13.2358 22.6014 34.4179 42.3101 26.5076 20.3456 26.0888 19.4406 16.5224 33.7339 54.1753 24.2411 -2.82774 15.2112 34.4434 36.6258 53.9241 60.8361 70.1751 54.1607 41.7082 9.70408 1.75551 0.77 -0.21 2.04488 6.19618 -0.439297 7.16418 21.2111 27.7829 48.4867 39.8925 30.0265 26.7429 12.6028 5.02439 44.4754 67.9233 46.0191 28.1487 29.286 49.2878 52.0068 43.7606 43.446 53.6604 36.7894 26.1818 2.62229 -0.463022 -0.16 -0.47 -0.0954899 0.248241 1.14807 6.21326 16.9855 23.6517 23.5308 13.4371 11.7557 0.1901 -5.60499 12.6976 43.5707 58.0043 56.0455 52.0978 63.1251 78.4358 78.8816 43.3891 21.5992 10.0562 5.03082 -9.37213 -8.22637 0.507527 0.03 -0.36 1.00986 2.91795 4.04289 16.1852 25.4433 26.7209 16.6314 -0.40415 -1.99212 -13.2029 1.32274 35.943 50.859 51.0634 45.6547 34.3426 55.9258 69.6263 56.755 38.2109 2.67598 -30.699 -48.6831 -45.7361 -8.66745 -0.482442 0.2 0.95 -0.718364 9.53054 15.7653 26.9892 30.0024 22.56 27.4628 9.53281 4.21186 -2.07697 6.58961 33.2501 42.0551 41.7821 19.339 14.3991 10.951 3.14522 -21.3324 -43.2643 -54.7433 -83.4831 -80.8325 -42.2441 -0.443891 -0.756593 0.38 -0.64 1.40783 19.339 30.5625 30.3803 33.3807 43.367 45.6058 36.5466 19.4299 16.5737 8.43312 6.7372 16.1257 4.76051 -12.3436 -11.793 -24.9977 -53.8384 -79.4802 -89.3858 -76.9438 -91.1978 -78.9418 -38.8163 -2.32803 -1.01729 -0.51 0.27 1.64978 17.0429 22.8023 15.539 28.7112 56.1673 63.2522 53.5934 37.4323 26.6588 12.8871 0.234441 0.879201 -21.2553 -38.7925 -50.6029 -51.996 -57.6428 -58.0739 -57.9337 -41.8193 -37.2571 -29.2635 -19.4794 -4.82496 -0.0975931 -0.89 0.31 2.23588 6.77628 1.97517 6.01507 16.4197 27.0667 31.5142 30.7748 25.1975 11.2563 8.91994 4.75679 -10.2003 -16.7349 -13.5144 -27.4798 -37.5685 -33.6923 -32.2448 -18.0096 -22.4795 -10.7333 -0.494592 -4.24304 4.24058 0.344227 -0.66 -0.25 -0.716266 -6.02932 -7.21083 3.05521 16.0443 17.4154 15.7467 23.3731 28.6583 18.1503 14.7324 -0.870172 -21.0825 -19.2272 -13.8705 -17.0414 -7.37798 10.3026 17.9571 14.9498 -7.66665 -7.33887 7.55702 10.2034 11.9695 0.415373 0.86 -0.52 -1.2653 -3.76791 3.43314 12.1012 22.5199 20.6787 18.5361 23.4629 23.124 16.6482 13.4476 4.30097 -14.8748 -14.4347 -18.1949 -14.5301 -2.90565 7.66831 8.88412 4.95623 -2.77498 3.63534 7.16514 10.3207 3.69532 0.297165 0.12 -0.64 -1.1285 -3.0962 0.594745 8.01968 26.6122 23.9161 25.026 32.3329 29.9277 26.0437 17.4712 5.93593 -1.22442 2.94695 5.20429 10.3719 8.48702 7.96347 6.32906 3.18088 4.60248 10.236 9.39594 3.90141 0.837482 -0.539384 0.95 -0.51 -0.878067 -6.14467 -8.35684 -0.36878 23.2672 21.886 23.5256 32.2338 30.4254 22.0717 13.8205 6.8878 2.76954 11.4823 22.3031 15.0657 9.87285 10.3391 7.6578 5.10082 3.28386 10.0174 10.6246 6.85484 0.722549 -0.478195 -0.35 -0.99 -0.10664 -6.15501 -12.4643 -2.7508 7.2121 3.11977 7.57668 8.57799 6.15713 4.73111 9.15435 6.7012 5.4349 6.60834 10.6154 7.75591 8.00545 4.01379 1.71788 1.31042 3.45609 5.68652 7.61434 3.0126 -0.39934 -0.252759 -0.15 -0.81 -0.692649 -0.975248 -0.197705 -0.587667 1.35529 -0.081618 0.920004 0.248861 0.942677 0.349355 1.18039 0.346642 -0.0257664 0.0663465 0.700782 1.48914 0.506583 0.00220725 -0.0671188 -0.553564 -0.524806 1.40451 0.594567 1.18823 -0.165571 0.340059 -0.13 -0.68 -0.6 -0.69 -0.133943 -0.632128 0.916057 0.730994 -0.589992 0.360597 0.245495 0.0115894 -0.36 0.48 0.68 -0.67 -0.51 0.38 0.65 -0.09 -0.88 0.91 -0.0644657 0.79 0.42 -0.37 -0.77 -0.81 -0.03 
116.936 -0.67 0.76 0.85 0.39 -0.32 -0.844944 -1.59523 -1.013 -0.901521 0.604895 -0.418513 -0.349605 0.657103 0.5 -0.51317 -0.652224 -1.07792 -0.964998 0.544741 -0.94 0.01 0.37 -0.02 0.63 0.68 -0.02 0 -0.95 -0.57 0.139909 0.631258 0.941151 0.585443 0.0965928 -0.583377 -0.118368 0.0996928 -0.444603 0.149244 0.321836 -0.392283 1.56619 0.836752 0.569866 1.1714 1.62166 1.1966 2.39212 2.60898 1.46985 0.830038 1.76189 0.145098 0.501907 -0.771444 0.86 -0.98 -0.845943 -1.57957 0.384739 0.797458 -4.62833 -1.633 4.65386 -3.57056 -14.6181 -3.83708 4.04585 13.7038 15.9008 17.5135 17.2036 16.6441 21.4189 33.8094 37.9999 30.4186 17.8444 8.13473 17.1979 11.4552 4.64696 -0.104176 0.07 -0.24 0.0496435 -0.308901 0.765446 0.475468 -6.57292 4.09239 -3.24921 -23.856 -27.6071 -15.1706 4.9189 24.3092 21.999 21.5345 22.8624 30.254 41.7573 46.4095 38.1989 33.0563 16.7682 -6.41111 14.1691 26.0783 7.36651 0.236195 -0.21 -0.23 -0.131906 0.842041 1.42623 2.16394 1.30334 -4.58978 -29.0806 -38.8691 -27.6365 -15.5354 0.625619 0.954464 -1.64666 -3.45367 16.7486 36.0227 42.7064 28.6919 23.6464 15.182 -6.2222 -25.8007 4.279 33.0467 17.7187 1.8596 -0.29 0.46 0.59233 -1.12005 6.15854 1.64508 -15.4802 -21.2296 -39.9864 -32.7156 -7.84544 -7.54505 -1.17845 -12.2087 -8.08586 -0.248609 14.6421 18.7176 23.6094 16.7723 2.48448 -5.76033 -0.248698 -6.31033 13.7951 37.7399 22.3308 1.70552 -0.609925 0.98 1.36699 2.87413 12.0704 -5.24034 -27.0452 -33.9408 -48.8566 -30.1403 -2.76543 -2.60542 1.15695 -12.6444 -12.0573 -8.05238 -9.49377 -12.5317 9.87862 3.45277 4.14725 9.68458 13.2886 -0.288039 7.27729 36.2349 16.2331 1.32437 0.23 0.62 -0.383123 10.0629 29.1384 12.5814 -12.5029 -29.385 -38.1704 -16.0075 -1.83981 -9.54481 -4.36168 -18.7236 -32.4845 -38.6698 -50.2643 -29.4177 -23.6881 -17.1206 4.0885 13.5778 17.9267 14.025 6.72958 28.4427 16.9009 0.289665 -0.63 0.97 -0.16068 11.5032 32.4948 25.2645 0.226828 -12.8685 -3.7253 7.71885 8.61137 -5.96112 -17.6345 -36.2911 -57.5785 -47.8235 -41.7116 -37.2854 -36.9863 -33.717 -14.4973 8.83321 22.1117 4.76685 0.424958 23.3509 13.4439 0.521996 0.88 0.59 -0.23696 5.5281 21.2102 20.4132 3.84572 -3.10005 5.4795 0.933557 6.5779 -8.89911 -25.2635 -41.1436 -42.2263 -27.3413 -17.8491 -37.3322 -56.1954 -50.6824 -14.5022 11.0638 14.0266 -0.998241 7.21933 23.8921 17.6136 2.22452 -0.37 0.05 -0.655828 -9.24502 10.5371 24.9473 13.1 7.97963 6.86387 7.00237 13.3365 -7.90226 -33.7842 -18.6622 -0.837507 2.65738 6.11869 -25.8739 -51.0123 -34.6305 -18.0952 7.34859 14.6626 -10.4545 -2.61008 28.048 22.7622 1.41804 -0.59 0.71 0.369035 -6.70262 12.5968 33.1027 15.342 11.854 8.8274 11.0519 2.7501 -16.7681 -7.9894 10.9468 22.6124 21.0055 9.72237 -14.0443 -22.9998 -15.4695 5.68982 24.7663 19.3538 -8.54723 -16.8556 12.2064 15.7807 1.59083 0.02 0.13 -0.0718124 7.84733 33.485 34.2836 21.4518 23.1863 23.6023 20.7417 -0.273137 -7.9155 14.568 22.4003 60.0873 70.9608 52.9171 24.2328 12.6191 11.7038 30.1462 41.1092 32.9491 0.379303 -0.400051 10.215 9.67018 0.114328 -0.370001 -0.77 -0.230525 14.4965 30.18 27.3927 18.0472 8.97874 27.2144 15.5663 3.63978 17.2481 36.3611 51.0602 76.1775 91.0004 79.597 54.2296 58.6142 58.1657 62.6913 53.6861 43.4734 12.4423 19.2857 18.3099 14.4745 2.4778 -0.61 -0.14 -0.427214 11.1584 13.5748 -0.494784 -18.8475 -20.321 -15.1262 -10.5909 5.02608 32.668 55.5901 59.2307 81.9668 92.6251 93.3321 65.0195 74.7234 83.1426 91.3994 77.2093 61.43 38.5377 40.4856 34.4225 24.9677 1.86765 -0.36 -0.6 -0.388777 2.74278 -16.9507 -31.1484 -37.2674 -22.1419 -35.3939 -32.1853 -15.79 29.9961 60.7258 52.7457 70.5607 69.942 65.3511 55.3903 67.9554 84.0945 87.2039 76.9638 62.6264 59.2165 62.8789 49.1964 28.3408 1.99312 -0.87 -0.48 0.978777 7.63353 -8.20082 -26.7361 -22.7203 -16.9751 -38.2694 -26.4026 -15.6611 31.2653 67.5382 61.2494 61.7497 38.5796 41.2992 35.6245 55.9943 71.5121 72.7726 75.5109 60.1105 61.1314 62.0289 50.5038 32.503 1.60925 0.169999 -0.18 1.57069 10.018 13.3638 4.69748 2.11451 -15.4092 -22.8995 -13.2672 -6.21016 23.0786 55.5795 49.5574 29.8393 14.7365 12.3139 20.7507 59.8105 71.0028 59.1395 65.1175 54.9383 56.6123 61.7004 56.2419 28.889 2.8814 0.38 -0.389998 1.99408 18.7972 40.7359 12.7202 -8.9386 -30.8468 -36.0027 -27.8106 -5.2347 8.2765 44.0099 27.4997 -4.04292 -9.89997 -5.27228 19.7203 60.9411 64.6134 61.7653 58.6994 60.6235 59.9556 72.6884 70.9374 29.1584 1.45162 0.08 -0.7 2.92882 27.3644 49.7835 18.5996 -20.9206 -42.8405 -35.9204 -31.4506 -17.558 -5.51406 7.06711 -10.5422 -27.6934 -14.1026 11.6654 29.0394 55.9837 64.3976 58.2871 42.2157 50.7842 66.8838 89.629 77.0214 32.9019 1.85619 -0.38 0.19 3.8588 33.2388 62.4387 42.7229 -30.0733 -35.7971 -21.1623 -32.6439 -26.9854 -26.7431 -23.6212 -44.5035 -35.65 -4.26648 15.7778 46.3715 41.7525 42.8471 47.342 46.2005 57.3585 75.3539 88.5123 66.2616 29.5818 1.21898 0.42 -0.949985 2.69869 28.5347 58.6156 46.4647 -29.0952 -33.3965 -29.389 -33.7418 -30.7982 -37.8157 -54.2619 -44.515 -21.1724 -10.5581 -9.00921 19.6132 26.5457 35.4075 44.3963 56.3043 68.7653 65.5232 60.6536 50.5003 23.2347 0.81431 -1 -0.629925 1.07086 17.1545 49.8145 41.1815 -4.90955 -15.3281 -19.5766 -25.6599 -31.8304 -45.864 -65.808 -73.9946 -64.5103 -64.687 -62.7784 -19.7876 -9.61538 9.99094 27.2507 47.9004 49.7093 44.2957 38.5457 28.526 16.1108 1.21258 -0.2 -0.82 -0.278111 16.0013 40.9396 30.7508 14.8868 15.2159 1.84971 -10.3416 -40.207 -67.3004 -66.9555 -66.9934 -74.1542 -82.6728 -63.5068 -24.5735 -16.505 -2.58476 21.2149 34.6647 18.2853 15.7655 17.4311 6.51987 -0.437299 0.978582 -0.3 0.96 0.0421918 13.0656 20.9786 27.4524 20.8292 22.5841 9.96264 -14.4284 -38.4556 -43.6892 -31.7186 -32.3105 -34.5734 -33.9642 -20.8125 -19.5902 -20.2081 -18.3768 -2.9587 11.7236 -6.11197 -5.94296 -2.75921 3.65718 -0.297622 0.913289 0.02 -0.22 1.01244 7.22366 4.75769 20.809 26.5192 23.0274 14.2785 -6.92929 -13.4865 -7.34757 -1.46663 -2.71403 -1.09588 -1.75812 -3.07965 -5.80166 -11.1212 -13.5413 -7.49393 -0.688269 -4.93371 -1.89756 0.809693 4.35294 0.177828 0.556591 -0.46 -0.94 0.279817 -0.363999 -0.395312 0.815767 0.120655 1.78928 2.74526 0.794598 -0.25557 -1.4306 -0.200895 0.269951 -0.31031 -0.481988 -0.518978 -2.62453 -0.421475 -1.06661 0.165153 -0.692644 -0.562075 0.906491 -0.389798 0.989625 1.10034 -0.882439 -0.15 0.61 0.63 0.8 0.525393 -0.943461 -0.96223 0.0978483 -0.485029 0.557803 -0.498705 -0.399065 -0.84 0.47 0.03 -0.4 -0.86 0.88 -0.79 -0.26 0.76 0.37 -0.959932 0.990009 -0.3 0.29 0.96 -0.8 -0.84 
